{
    "38": {
        "hyperparams": {
            "stocks": [
                "AAPL",
                "GS",
                "MRK"
            ],
            "start": "2015-01-01",
            "end": "2025-01-01",
            "risk_aversion": 0.1,
            "n_qubits": 9,
            "budget": 1415,
            "log_encoding": true,
            "layers": 9,
            "prices_now": {
                "AAPL": 250.1449737548828,
                "GS": 569.7945556640625,
                "MRK": 98.6279525756836
            },
            "assets_to_qubits": {
                "AAPL": [
                    0,
                    1,
                    2
                ],
                "GS": [
                    3,
                    4
                ],
                "MRK": [
                    5,
                    6,
                    7,
                    8
                ]
            },
            "optimizer": "CMAES",
            "lambda_budget": 100
        },
        "continuous_variables_solution": {
            "weights": {
                "AAPL": 1.0,
                "GS": 1.8041124150158794e-16,
                "MRK": 0.0
            },
            "allocation": {
                "AAPL": 5,
                "MRK": 1,
                "GS": 0
            },
            "value": -14.234577138874291,
            "left_overs": 65.64717824519607
        },
        "continuous_variables_solution_unconstrained": {
            "weights": {
                "AAPL": 1.0,
                "GS": 0.04088130714170755,
                "MRK": 0.0
            },
            "allocation": {
                "AAPL": 5,
                "GS": 0,
                "MRK": 0
            },
            "value": -12.603871626365788,
            "left_overs": 164.27513063401716
        },
        "exact_solution": {
            "smallest_eigenvalues": [
                -0.1921120301202313
            ],
            "smallest_bitstrings": [
                "100100110"
            ],
            "first_excited_energy": -0.19211164647742984,
            "optimized_portfolio": [
                {
                    "AAPL": 1,
                    "GS": 1,
                    "MRK": 6
                }
            ],
            "second_optimized_portfolio": [
                {
                    "AAPL": 3,
                    "GS": 1,
                    "MRK": 1
                }
            ],
            "spectrum": [
                -2.6704870432241474e-17,
                -0.1545154783922244,
                -0.09219132903894434,
                -0.18697241998266426,
                -0.04982906095598163,
                -0.17447735264324776,
                -0.12708680249274104,
                -0.19200067397832674,
                -0.02584787952302298,
                -0.1654297660253418,
                -0.11057241524991163,
                -0.19041989909613785,
                -0.07194354418895105,
                -0.1816582375515177,
                -0.1417344903652576,
                -0.19171474364255586,
                -0.18483517118268258,
                -0.16680169377033513,
                -0.19075202249937082,
                -0.11298415683147219,
                -0.19152699331711073,
                -0.14362632881801357,
                -0.1825102569624499,
                -0.07487517136769842,
                -0.18911443130414343,
                -0.1561473618164275,
                -0.18756448922691063,
                -0.09486301623259183,
                -0.19207285711030167,
                -0.1292385940793102,
                -0.17558932530245672,
                -0.05302062124875954,
                -0.12356920526386099,
                -0.1918102060285147,
                -0.17262329555030484,
                -0.18112990857785113,
                -0.15182964685619718,
                -0.19020346078245673,
                -0.18595014958460412,
                -0.1645895429771169,
                -0.13863277510787272,
                -0.19194018391861967,
                -0.1802200720556932,
                -0.1737930779000128,
                -0.1631598203982297,
                -0.1866000359249227,
                -0.18981352773418333,
                -0.1535193028218095,
                -0.18379789763253498,
                -0.0794899413487218,
                -0.14657750968969552,
                0.017464835597952637,
                -0.16892110017853407,
                -0.03474595644469501,
                -0.11676712439357331,
                0.0771424412276672,
                -0.1772928479697753,
                -0.058051299431672254,
                -0.13260566654898684,
                0.04637028626573458,
                -0.15868265414684893,
                -0.009573911691328226,
                -0.09906188281924319,
                0.10978130147246216,
                -0.17563427077144123,
                -0.17864863847378412,
                -0.19207504446002924,
                -0.1353550248649782,
                -0.18758805405898138,
                -0.16073523509955936,
                -0.18909524023461907,
                -0.10250800135407535,
                -0.18254451146293932,
                -0.1706252872888828,
                -0.19151849183004346,
                -0.1198648652157291,
                -0.19076489845166605,
                -0.148978481213413,
                -0.18480528927360415,
                -0.08328443229536536,
                -0.14165594706261883,
                0.02787864238472047,
                -0.07182224226279642,
                0.15744673491458713,
                -0.1104724911221285,
                0.08892928518156915,
                -0.02570519873379067,
                0.23343099801060538,
                -0.12699756814346605,
                0.05747061327213666,
                -0.049697069987093875,
                0.1945055143448801,
                -0.09208071588934624,
                0.12225465880677834,
                0.0001533718986232066,
                0.2742231868977736,
                -0.18979672881251575,
                -0.10653661832914058,
                -0.16310026342273007,
                -0.02010576554055599,
                -0.18018189256177386,
                -0.06705459537679699,
                -0.13855183964998513,
                0.03430987760098146,
                -0.1859226597347593,
                -0.0877289573577827,
                -0.15175940102032187,
                0.0061687039200492245,
                -0.17257442718497848,
                -0.04451353169310269,
                -0.1234775789108894,
                0.06431775648757197,
                -0.031211925234755567,
                0.22459714409982742,
                0.08175901937928312,
                0.3973024770049948,
                0.02154015058320811,
                0.3072164070438261,
                0.14944468290973476,
                0.4948553604156,
                -0.005769236383935166,
                0.2649734250510335,
                0.11466850164728119,
                0.44514556658143795,
                0.05071623577661355,
                0.35132609077264604,
                0.18608756356883274,
                0.5464318594941721,
                -0.11183241230192383,
                -0.1905973358864592,
                -0.16614846387795804,
                -0.18517900031497525,
                -0.1427238345157292,
                -0.19162157152961826,
                -0.18210629864055364,
                -0.1712696158184728,
                -0.1282114724516842,
                -0.19204280420942463,
                -0.1750607307391275,
                -0.17915766017412388,
                -0.15536949838514577,
                -0.18933363715362736,
                -0.18728516718107266,
                -0.1615148662623584,
                -0.1872608363738024,
                -0.0934768036008323,
                -0.15530240990431432,
                -0.0017839893639775713,
                -0.17501501959272112,
                -0.0513637999609126,
                -0.12812300554965833,
                0.055262634624895376,
                -0.18207127703240925,
                -0.07335365229398087,
                -0.14264605721586482,
                0.025805970508619977,
                -0.1660920639444677,
                -0.027507245906856232,
                -0.11173325450317584,
                0.08658600397187008,
                -0.18069824409168783,
                -0.17318868982938923,
                -0.19187705678218994,
                -0.12463311517736951,
                -0.19002104686948224,
                -0.15264430594990092,
                -0.18626627207632243,
                -0.0891551110823042,
                -0.1862929945247916,
                -0.16384984839509686,
                -0.19000501391183508,
                -0.1078274652426606,
                -0.19188240101616644,
                -0.13957206179971046,
                -0.18066083087380855,
                -0.06861605170995758,
                -0.13152018894280618,
                0.04853832314970786,
                -0.056424522966351205,
                0.18336837754821375,
                -0.09770575244372637,
                0.11221994682410237,
                -0.007676498746324835,
                0.26198362176239764,
                -0.11554631975094508,
                0.07944578446254855,
                -0.032983860355105685,
                0.22174264752086043,
                -0.07799848691019956,
                0.14686081092981965,
                0.01949756226319196,
                0.304091301260526,
                -0.19140557418489185,
                -0.11866938452284637,
                -0.16997106935765136,
                -0.03750049179747383,
                -0.18442171826015447,
                -0.08181834161979382,
                -0.14805362574550726,
                0.01428417135198879,
                -0.18884699528216586,
                -0.10117721358140055,
                -0.15994569704419062,
                -0.012541512334791628,
                -0.17812974301196735,
                -0.06059276794663592,
                -0.13429485506246008,
                0.04297656024650805,
                -0.048020501666921435,
                0.197264646176227,
                0.05968848221123955,
                0.3647080181979708,
                0.00210059377880148,
                0.2772529287012591,
                0.12474316537313422,
                0.45962992108510586,
                -0.023893303004142098,
                0.23632543692279026,
                0.0912824742964195,
                0.41123561752089993,
                0.029961188790158227,
                0.3200471222043821,
                0.16007055584188298,
                0.5098909298755859,
                -0.1508646580234108,
                0.008146010282859785,
                -0.08629291386514315,
                0.13245214234706465,
                -0.12231218242821444,
                0.06656567284940776,
                -0.04280685059688781,
                0.20580542518913908,
                -0.13752176928387935,
                0.03642249105491292,
                -0.06548323172340927,
                0.16819543165355413,
                -0.1052358973488465,
                0.09857555635841453,
                -0.018263770085758826,
                0.24528212393813997,
                0.1171268952531026,
                0.44868652367081535,
                0.26797311931254036,
                0.6592671363413244,
                0.1888166107656789,
                0.5502434264855781,
                0.3545964226418617,
                0.7757576596622243,
                0.15203840394370194,
                0.4985316245539213,
                0.3103514214744682,
                0.7165790458714535,
                0.2274615158279613,
                0.6038219301592156,
                0.4007081232158967,
                0.8368029786993106,
                -0.06192002533533902,
                -0.17856022643255118,
                -0.13517371568315517,
                -0.19207952953871357,
                -0.10228026693687367,
                -0.1890532814244623,
                -0.1606003698220814,
                -0.18763896434720276,
                -0.08303349517917047,
                -0.1847401044321216,
                -0.14882039223370783,
                -0.1907925990535985,
                -0.1196603404990287,
                -0.19149975671565322,
                -0.1705136480466061,
                -0.1826186244333563,
                -0.19205182302394744,
                -0.1361430680700262,
                -0.17903103550282665,
                -0.06338789259380449,
                -0.189274825724738,
                -0.10349888382620157,
                -0.16132045059524489,
                -0.015810087933866682,
                -0.1915966734251591,
                -0.12075432646491413,
                -0.17110909254059423,
                -0.04053234239037769,
                -0.18508627981190726,
                -0.08437673945861163,
                -0.14966510926375226,
                0.0107788717632556,
                -0.1581375438852708,
                -0.18850326726023334,
                -0.188253995421547,
                -0.15888533131305224,
                -0.17692916609071513,
                -0.17742770274601846,
                -0.1921120301202313,
                -0.13287614652780008,
                -0.16846670403313757,
                -0.18389883551153796,
                -0.19111636225541748,
                -0.1468140910372218,
                -0.183524929947905,
                -0.16908986826907685,
                -0.19124099861364005,
                -0.11707149679793859,
                -0.1636628625866731,
                -0.02147962855219972,
                -0.10750483568978142,
                0.0944127870012772,
                -0.13931724563798814,
                0.03273317568097659,
                -0.06822563097365206,
                0.16355921185310238,
                -0.15242340317240988,
                0.004693423035608838,
                -0.08879858283389622,
                0.12805264728731008,
                -0.12434438987195164,
                0.0626396300798597,
                -0.04578597970534284,
                0.20093248168686037,
                -0.18952374196845873,
                -0.15466283119936292,
                -0.18702687649042096,
                -0.0924315781799197,
                -0.19200870569198164,
                -0.12728060813102465,
                -0.17457825262785462,
                -0.05011573493412692,
                -0.19169957288302486,
                -0.1419050701704587,
                -0.18173591404592268,
                -0.07220700866526833,
                -0.1904511402879333,
                -0.11078944438916469,
                -0.16555389183657124,
                -0.026157756002349156,
                -0.10084204400602766,
                0.10656782439855539,
                -0.012070699773276938,
                0.2550735565117623,
                -0.060189768362519165,
                0.1770872869817188,
                0.043515163508485825,
                0.34052663941147204,
                -0.08144925523898006,
                0.140894205177537,
                0.014788882376201093,
                0.2968667458433208,
                -0.03706358326789048,
                0.2151470705043547,
                0.0741081440245816,
                0.3860532382017214,
                -0.17633451297619346,
                -0.05519912380707878,
                -0.1307004083009316,
                0.0501693684641938,
                -0.15725085709908443,
                -0.006248281121671755,
                -0.09668316484038084,
                0.11405383136787123,
                -0.16772603408959885,
                -0.03165705297151204,
                -0.11462513605795444,
                0.08117824780455735,
                -0.14490898189657442,
                0.02102719243501754,
                -0.0768744942478849,
                0.1487961201389611,
                0.036953665269799665,
                0.33063801389033404,
                0.16886224949282017,
                0.5222809865080966,
                0.09917456088173332,
                0.4227260966881993,
                0.246016732855281,
                0.6293026897782448,
                0.06713076401472204,
                0.3757487047676122,
                0.20650614167495118,
                0.5748584860144625,
                0.13308505598026754,
                0.4715701903460286,
                0.2873940234354934,
                0.6856135987856304,
                -0.14973716082312882,
                -0.19062680662636203,
                -0.18511557352124766,
                -0.16627083215838218,
                -0.17115976360318308,
                -0.1821822228183894,
                -0.19160458883331125,
                -0.14289262822632925,
                -0.16138181125756795,
                -0.18733786522329318,
                -0.18929343065769402,
                -0.155515082298276,
                -0.17907101775156628,
                -0.17515987871874245,
                -0.19204904764744016,
                -0.12840346895738355,
                -0.1704622111108037,
                -0.03880290019034792,
                -0.11956614555690842,
                0.07182755305589453,
                -0.14874757478687553,
                0.012778922962999638,
                -0.08291792166602484,
                0.13834299651921447,
                -0.16053824199807867,
                -0.01394533912485189,
                -0.102175383099425,
                0.10415192266865758,
                -0.13509020936742822,
                0.041369886767472365,
                -0.06179376085469188,
                0.1744007755940811,
                -0.191251305784077,
                -0.14586647358598653,
                -0.18349247950771888,
                -0.07837325999532584,
                -0.19110528908072277,
                -0.11585327023136932,
                -0.1684128753156219,
                -0.03342643645241222,
                -0.19211164647742984,
                -0.1317932224129302,
                -0.17688602689406127,
                -0.05683320033448213,
                -0.18823223348486878,
                -0.0980466163477175,
                -0.15807302437106316,
                -0.008152967363279506,
                -0.0873698765570807,
                0.13056391395181555,
                0.006663428649929551,
                0.284331607459059,
                -0.044086620439154976,
                0.20371435719223777,
                0.06488027247048334,
                0.37241567118858854,
                -0.06666159755515735,
                0.16620578505033204,
                0.034838501063089305,
                0.32744028719305146,
                -0.01964494509862848,
                0.2430896310724773,
                0.09678874327480627,
                0.41925776043286483,
                -0.18127976714056204,
                -0.07066829811309477,
                -0.1409076227560618,
                0.029438234638979915,
                -0.16482709147058017,
                -0.02434843522198597,
                -0.1095213592691767,
                0.09069171787363303,
                -0.173986778373813,
                -0.048441717184197285,
                -0.1261478405128186,
                0.05913162413869209,
                -0.15380070632447915,
                0.001611548464423919,
                -0.09102817862650134,
                0.1241185168269375,
                0.016808680279696998,
                0.29996910809369365,
                0.14345530404123105,
                0.48635012037465436,
                0.07639859563957097,
                0.3894262107288891,
                0.21797880722337354,
                0.5907408434456857,
                0.045670288892415103,
                0.3437643088902244,
                0.1797837061304093,
                0.5376121297854293,
                0.10899360062890748,
                0.43695481430193023,
                0.2580406077201158,
                0.6457362623399171,
                -0.11338716365157946,
                0.0834987842942243,
                -0.029877779787296322,
                0.2267425564870878,
                -0.07536586823383598,
                0.15138726690273172,
                0.023077103421302755,
                0.30956465945655537,
                -0.0953098650086423,
                0.11650967508141179,
                -0.004333687682247255,
                0.26722025585243997,
                -0.05355517322009621,
                0.18813156044974802,
                0.05235459392266776,
                0.35377576828324936,
                0.20930776506255971,
                0.578742673839641,
                0.37909162921133005,
                0.808260926928524,
                0.2904663005951918,
                0.6897683968470708,
                0.47518375265510304,
                0.9342202705041261,
                0.24895368375678184,
                0.6333221848146965,
                0.42620434142509017,
                0.8703072465826348,
                0.33384561568621324,
                0.7480813106296852,
                0.5260298633020423,
                0.999999999678174
            ],
            "result_with_budget": [
                {
                    "portfolio": {
                        "AAPL": 1,
                        "GS": 1,
                        "MRK": 6
                    },
                    "budget": 1411.7072448730469,
                    "difference": 3.292755126953125,
                    "objective_value": -42.02432401540768
                }
            ],
            "result_with_budget_excited": [
                {
                    "portfolio": {
                        "AAPL": 3,
                        "GS": 1,
                        "MRK": 1
                    },
                    "budget": 1418.8574295043945,
                    "difference": -3.8574295043945312,
                    "objective_value": -3.698969274413629
                }
            ]
        },
        "qaoa_solution": {
            "two_most_probable_states": [
                "000011000",
                "000010000"
            ],
            "final_expectation_value": -0.18125632312659015,
            "params": [
                1.7633879742776677,
                3.4979813770488204,
                5.328652742587627,
                2.9908392274855866,
                -0.19298864026393445,
                3.451240553515578,
                10.056933204409269,
                19.015682356649066,
                3.30204168077208,
                2.4912016488062667,
                -0.40296834401357345,
                2.178595465298075,
                0.0410939450479986,
                0.5723198868841566,
                2.4168736377735676,
                -0.15221539220760058,
                1.4958225159547491,
                1.5703552007647814
            ],
            "total_steps": 800,
            "states_probs": [
                0.012090897081423534,
                0.012454280883289107
            ],
            "optimized_portfolios": [
                {
                    "AAPL": 0,
                    "GS": 2,
                    "MRK": 1
                },
                {
                    "AAPL": 0,
                    "GS": 2,
                    "MRK": 0
                }
            ],
            "training_history": {
                "xbest": [
                    1.7633879742776677,
                    3.4979813770488204,
                    5.328652742587627,
                    2.9908392274855866,
                    -0.19298864026393445,
                    3.451240553515578,
                    10.056933204409269,
                    19.015682356649066,
                    3.30204168077208,
                    2.4912016488062667,
                    -0.40296834401357345,
                    2.178595465298075,
                    0.0410939450479986,
                    0.5723198868841566,
                    2.4168736377735676,
                    -0.15221539220760058,
                    1.4958225159547491,
                    1.5703552007647814
                ],
                "fbest": -0.18125632312659015,
                "evals_best": 9598,
                "evaluations": 9600,
                "iterations": 800,
                "xfavorite": [
                    1.7639845977271449,
                    3.4989766885958735,
                    5.328758851268001,
                    2.990736038161287,
                    -0.19278560323235558,
                    3.4513224029390632,
                    10.05910983549897,
                    19.01926485297377,
                    3.302436232392374,
                    2.491218270384542,
                    -0.4030017988439543,
                    2.178704600993098,
                    0.041263253081635115,
                    0.5721042932802942,
                    2.4169702232962607,
                    -0.15219021769371247,
                    1.4958804979168825,
                    1.5702923165643612
                ],
                "stds": [
                    0.0017350168846241786,
                    0.001963089943801147,
                    0.004818248827299735,
                    0.003601844037814067,
                    0.002971873763092015,
                    0.0012999745813921275,
                    0.0033938833307525502,
                    0.007576943902288934,
                    0.0036245248893316904,
                    0.00034584526954486235,
                    0.00021388428439175408,
                    0.0002157664832641889,
                    0.00034978038810390183,
                    0.00037640697991482986,
                    0.00022296456807778702,
                    6.817143590310274e-05,
                    5.905792650667498e-05,
                    6.931697356178094e-05
                ],
                "stop": {
                    "maxiter": 800
                }
            },
            "objective_values": [
                -0.705862863798745,
                -0.3866290379030878
            ],
            "result_with_budget": [
                {
                    "portfolio": {
                        "AAPL": 0,
                        "GS": 2,
                        "MRK": 1
                    },
                    "budget": 1238.2170639038086,
                    "difference": 176.7829360961914
                },
                {
                    "portfolio": {
                        "AAPL": 0,
                        "GS": 2,
                        "MRK": 0
                    },
                    "budget": 1139.589111328125,
                    "difference": 275.410888671875
                }
            ]
        }
    }
}