{
    "13": {
        "hyperparams": {
            "stocks": [
                "INTC",
                "JNJ",
                "MSFT"
            ],
            "start": "2015-01-01",
            "end": "2025-01-01",
            "risk_aversion": 0.1,
            "n_qubits": 13,
            "budget": 1483,
            "log_encoding": true,
            "layers": 10,
            "prices_now": {
                "INTC": 20.049999237060547,
                "JNJ": 143.4715576171875,
                "MSFT": 420.6565246582031
            },
            "assets_to_qubits": {
                "INTC": [
                    0,
                    1,
                    2,
                    3,
                    4,
                    5,
                    6
                ],
                "JNJ": [
                    7,
                    8,
                    9,
                    10
                ],
                "MSFT": [
                    11,
                    12
                ]
            },
            "optimizer": "CMAES",
            "lambda_budget": 0.9
        },
        "continuous_variables_solution": {
            "weights": {
                "INTC": 1.487416814333745e-17,
                "JNJ": 8.326672684688674e-17,
                "MSFT": 0.9999999999999999
            },
            "allocation": {
                "INTC": 1,
                "JNJ": 1,
                "MSFT": 3
            },
            "value": -7.907374794386466,
            "left_overs": 57.508868990419614
        },
        "continuous_variables_solution_unconstrained": {
            "weights": {
                "INTC": 0.0,
                "JNJ": 0.010500699307454056,
                "MSFT": 1.0
            },
            "allocation": {
                "INTC": 1,
                "JNJ": 1,
                "MSFT": 3
            },
            "value": -7.907374794386466,
            "left_overs": 57.50886654710712
        },
        "exact_solution": {
            "smallest_eigenvalues": [
                -0.1112978661111414
            ],
            "smallest_bitstrings": [
                "0010000100011"
            ],
            "first_excited_energy": -0.11129750862451471,
            "optimized_portfolio": [
                {
                    "INTC": 4,
                    "JNJ": 1,
                    "MSFT": 3
                }
            ],
            "second_optimized_portfolio": [
                {
                    "INTC": 3,
                    "JNJ": 7,
                    "MSFT": 1
                }
            ],
            "spectrum": [
                -3.5540635333354303e-16,
                -0.09046071342778496,
                -0.05418529558256935,
                -0.10882624738302363,
                -0.10561058350538549,
                -0.09833585388304156,
                -0.11092818181256647,
                -0.06783358192915016,
                -0.06947276953022131,
                -0.11106586618913522,
                -0.09922426366865911,
                -0.10499756512150739,
                -0.10841136672101886,
                -0.05226841996136243,
                -0.08929488413798367,
                0.0026680494140234306,
                -0.03890317718243286,
                -0.10493009708085141,
                -0.08087157817433735,
                -0.11107872484059171,
                -0.11117828633164278,
                -0.07946950833162873,
                -0.10427887299307517,
                -0.03675017165088355,
                -0.09170864405853342,
                -0.10886786509984608,
                -0.1092432077467233,
                -0.0905826012390008,
                -0.09730935458007615,
                -0.016732096010846666,
                -0.0659757338198748,
                0.05042158536094617,
                -0.02049328167607125,
                -0.09873710063619281,
                -0.06857013078778472,
                -0.11099418361429245,
                -0.10943623663436058,
                -0.08994449645418082,
                -0.10864533561013359,
                -0.05333369992446223,
                -0.08163243312544012,
                -0.111008599939563,
                -0.10527546569672536,
                -0.09883182242943131,
                -0.1039022798897535,
                -0.035542196523299235,
                -0.07867723754309619,
                0.025502868229195695,
                -0.05522967779696382,
                -0.10903969120614489,
                -0.09108962760335912,
                -0.10907985808955854,
                -0.1108366817365351,
                -0.06691083582119374,
                -0.09782874168394728,
                -0.018082941997475316,
                -0.09970137253809216,
                -0.10464362904508098,
                -0.11112745861049642,
                -0.08024986750856479,
                -0.08863251886200259,
                0.004161956339474599,
                -0.05119029962158768,
                0.0774242769895019,
                -0.10321117596264184,
                -0.08418573326445587,
                -0.102655673639827,
                -0.04780119323726929,
                -0.05966400970678565,
                0.0571243720863938,
                -0.010227318937632438,
                0.14239123659958924,
                -0.09811990015630828,
                -0.030213764028777883,
                -0.0731241864848663,
                0.030611534628735386,
                0.012160387635692564,
                0.17783274867449395,
                0.08603891192347572,
                0.28754207694056166,
                -0.10483592429748259,
                -0.06137031758018359,
                -0.09206040635200027,
                -0.012765493474013378,
                -0.027923170335996075,
                0.11330697304851844,
                0.03373432447286765,
                0.2107949515340119,
                -0.08306274342362428,
                0.009284310173213227,
                -0.04584664258895191,
                0.08233028518840861,
                0.060587361432379735,
                0.250702418856378,
                0.14668715197227017,
                0.3726333440452762,
                -0.10506612747442193,
                -0.07382064702382185,
                -0.09840063914481123,
                -0.03132598805781469,
                -0.04483638956207328,
                0.08417281743565222,
                0.010710675755407848,
                0.1755502101673358,
                -0.09163398916319943,
                -0.011507444225147481,
                -0.06052810654817502,
                0.05542816667704069,
                0.035330900687328866,
                0.21322454866061769,
                0.11532002779614356,
                0.32904464378694476,
                -0.10252052931836997,
                -0.04683470498659244,
                -0.08363493673119324,
                0.007880331877830679,
                -0.00892427277652459,
                0.144526921010517,
                0.05884370788352397,
                0.24812554420188937,
                -0.07240610475484101,
                0.03216156018254083,
                -0.029079735007708093,
                0.11131795259582282,
                0.08792987019216195,
                0.29026646241658705,
                0.18014038618992043,
                0.41830828228711514,
                -0.07507964135778958,
                -0.11087821124810907,
                -0.1019344553423428,
                -0.1019108251991469,
                -0.1061391840463289,
                -0.044194689349632985,
                -0.0841226184127918,
                0.013644698654125929,
                -0.10728069061559489,
                -0.09420816864957969,
                -0.10970002982515545,
                -0.06080501739540743,
                -0.07165213792287062,
                0.03916539172251961,
                -0.02519914670629685,
                0.12144157869207552,
                -0.0953478516553507,
                -0.10671097439281702,
                -0.10998497634393134,
                -0.08552575901730716,
                -0.09306409258503842,
                -0.006683224525226332,
                -0.058829384919465,
                0.06337448701741509,
                -0.11087791168835928,
                -0.0733695248002762,
                -0.1010793579018738,
                -0.027748319781347234,
                -0.04190273640105713,
                0.09335176572033181,
                0.016768691219460265,
                0.18784659133881315,
                -0.08625565580642568,
                -0.10983652539739971,
                -0.1070016364574998,
                -0.09476023729580435,
                -0.10064371302919653,
                -0.026481066262002827,
                -0.072518093361138,
                0.037467465233566984,
                -0.11012127208937339,
                -0.08483084660639503,
                -0.10643167894891306,
                -0.04531868391397989,
                -0.05781965779016886,
                0.0652163178151708,
                -0.005257468186614885,
                0.1536018029980641,
                -0.10235620598677689,
                -0.1015015324830785,
                -0.11088445066710212,
                -0.07420736319562525,
                -0.08340025765749158,
                0.015198903750554523,
                -0.043056426614662135,
                0.09136583331227562,
                -0.10955056542547678,
                -0.059824156410652835,
                -0.0936430212802149,
                -0.00809387676019178,
                -0.02390128762988451,
                0.12357182439714832,
                0.04087941905432689,
                0.22417603409021528,
                -0.07104107485782177,
                0.0031275977071861033,
                -0.04291674740464822,
                0.06709219980025903,
                0.04720288745833437,
                0.21916662659740557,
                0.12422433867164005,
                0.3320300021932451,
                -0.028619659701447846,
                0.09444543435146,
                0.023952678916759843,
                0.18285885174274863,
                0.15643136739393873,
                0.37729615656110455,
                0.25790312330424,
                0.514610723939664,
                -0.05400526140500454,
                0.044611355288149676,
                -0.013657060381082354,
                0.12080022783402802,
                0.09764103310766327,
                0.2940549853090612,
                0.18688748198973998,
                0.41914379693200027,
                0.00511620393367307,
                0.1526303312459002,
                0.0699129555036821,
                0.25326857920918283,
                0.2235747011065907,
                0.4688909738109245,
                0.33727208473854964,
                0.6184316280076064,
                -0.06356686534978004,
                0.022825714042097208,
                -0.02933063340580081,
                0.09290241777087122,
                0.07137798408564368,
                0.25556675318469585,
                0.15451189617177669,
                0.3745428075363931,
                -0.012795543522460711,
                0.12249399625591385,
                0.04588896644358442,
                0.21701979250900277,
                0.18895885535555207,
                0.4220493040531298,
                0.29654338433162997,
                0.5654768727495639,
                -0.0423562117143744,
                0.06848457558795817,
                0.00410402439537471,
                0.15078568554909277,
                0.1259921279720891,
                0.33463141925169404,
                0.22135119098997266,
                0.46583306807800406,
                0.025115655045361375,
                0.18485451453332247,
                0.09602471989220801,
                0.2916052884719401,
                0.26027901916403884,
                0.5178212831849681,
                0.38008934045873205,
                0.6734751084810174,
                -0.04291765759448844,
                -0.10605769862071585,
                -0.08344277458461623,
                -0.11076238468850474,
                -0.11125752802062226,
                -0.07665984684966404,
                -0.10291387237470404,
                -0.03249539479618267,
                -0.09375606699408104,
                -0.10802751951839895,
                -0.10984692877999347,
                -0.08829778837749595,
                -0.09541951120831486,
                -0.011951969805046281,
                -0.06264098523111676,
                0.05664759753673412,
                -0.07250387542252301,
                -0.11120967901298742,
                -0.1008118919220056,
                -0.10369718877242663,
                -0.10750616510915645,
                -0.048473655973151675,
                -0.08694512407701908,
                0.00790829876052456,
                -0.10667404254166349,
                -0.09651100770149348,
                -0.11054768405710244,
                -0.06456395973427682,
                -0.07499703944199386,
                0.03290576119871371,
                -0.030000917626914366,
                0.11372306241048727,
                -0.05875251122217301,
                -0.10967544631756945,
                -0.09316908403647026,
                -0.10827155159680903,
                -0.11042372830088103,
                -0.06360865726842936,
                -0.09597139169833505,
                -0.013335466907465529,
                -0.10125684692341377,
                -0.10331107421952802,
                -0.11123910747707624,
                -0.07747269486458837,
                -0.08625028878017188,
                0.009434852453796811,
                -0.04736297945400941,
                0.08414327086446395,
                -0.08417173437558446,
                -0.11066037805352096,
                -0.1063711810045215,
                -0.09703927614516196,
                -0.1025047804869183,
                -0.03125478217180623,
                -0.07583501013547966,
                0.03123596441655984,
                -0.11000761695958752,
                -0.08762728024155851,
                -0.10777262021408218,
                -0.049571541847077044,
                -0.06165968416596308,
                0.05846083829101707,
                -0.010554719305266422,
                0.14538705545286393,
                -0.09584234456500942,
                -0.04929502335740678,
                -0.08152716041199133,
                0.0008542670596629407,
                -0.014960192355263307,
                0.1293646000654809,
                0.04824338209029669,
                0.22840367366624553,
                -0.07209180146277926,
                0.0233433113927522,
                -0.03333288895827721,
                0.09793700586874636,
                0.07555682926862851,
                0.26877337051553823,
                0.16320608991665486,
                0.39225888897875205,
                -0.08813948728083103,
                -0.017148494904945622,
                -0.06160254998377861,
                0.045222881325345285,
                0.026124817561972866,
                0.19489521440420177,
                0.10155110140910051,
                0.3061573715519919,
                -0.04769887021269348,
                0.07218083510180479,
                0.0032822508966511323,
                0.15899709158996417,
                0.13333659677146872,
                0.3509998450742144,
                0.23320911295370436,
                0.4867090139552313,
                -0.09303399672559573,
                -0.03426489468102459,
                -0.07260796305011358,
                0.021995410296969137,
                0.004538981213023868,
                0.16108650976335837,
                0.07385387764282493,
                0.26623709112495886,
                -0.060938520864951606,
                0.046718827805900726,
                -0.016068533941076362,
                0.12742377210879588,
                0.10340319312802658,
                0.3088430161547124,
                0.1971640459931201,
                0.43844032298065666,
                -0.0811587720194286,
                0.0020542230156121145,
                -0.04851087558495186,
                0.07053672860632074,
                0.04979740304144621,
                0.23079080317136857,
                0.1313351411557333,
                0.3481646055474468,
                -0.0323727842254296,
                0.0997294013945342,
                0.024719532252227314,
                0.1926570338430676,
                0.16535714761810555,
                0.3952439675266891,
                0.27134139963430537,
                0.5370650735718684,
                -0.0956421660853655,
                -0.10405879757701714,
                -0.10880671838700617,
                -0.08139828091779817,
                -0.08940746400442276,
                -7.262527645627582e-05,
                -0.053696498084542285,
                0.07146428879247217,
                -0.1092007040034528,
                -0.06874220866295813,
                -0.09792779614863015,
                -0.021643812991317114,
                -0.03625900809983168,
                0.10195357191459949,
                0.02389070446553557,
                0.19792973443751638,
                -0.10659024508299031,
                -0.09056945389400545,
                -0.10753613637798426,
                -0.055690071984694126,
                -0.0670029055878197,
                0.0467706177120258,
                -0.01907265808473907,
                0.13052705908387136,
                -0.10347323951392351,
                -0.038576735883087826,
                -0.07998138303213619,
                0.020740833397099118,
                0.0028248689009752323,
                0.16547690044065771,
                0.07519424134169461,
                0.2736729892967798,
                -0.1021583924275975,
                -0.09835634634604254,
                -0.10921363078543758,
                -0.06958641491743348,
                -0.07924756544453081,
                0.022306570468284104,
                -0.037426980959562484,
                0.09995322466602548,
                -0.1073792344353148,
                -0.05470177438375114,
                -0.08999687166002732,
                -0.001493812596987974,
                -0.017759610358196426,
                0.13267264465077946,
                0.04849990708483995,
                0.2347587439841584,
                -0.10893769403592277,
                -0.08069808737178953,
                -0.1037742037322785,
                -0.03970921785371678,
                -0.052673412280092716,
                0.07331959144246009,
                0.001366544110871724,
                0.16318586845044783,
                -0.0974826681543694,
                -0.020367039242564625,
                -0.06788127776330026,
                0.04506018032609502,
                0.02549452290116739,
                0.20036643534121185,
                0.10397380187633093,
                0.3146725678491045,
                -0.02576249919639761,
                0.07614666610241413,
                0.01623026729108878,
                0.1539869754218148,
                0.12987439975223328,
                0.3295992902288013,
                0.22077455508882846,
                0.4563488949914287,
                0.03534354395913994,
                0.1861592922072084,
                0.1017893702359036,
                0.2884535938748094,
                0.25783532321662034,
                0.5064720965446018,
                0.37319116755543386,
                0.6576784058209136,
                0.0006126965680656044,
                0.1269748447655796,
                0.05483183995836116,
                0.21704199208271724,
                0.18967572191268756,
                0.4138561999031181,
                0.29280354609060383,
                0.552833976078266,
                0.07843057344031541,
                0.2537005615587492,
                0.15710339992118577,
                0.3682223452635207,
                0.3343540712361305,
                0.6074478703933038,
                0.46193829838939626,
                0.7708830857934029,
                -0.013619327905600482,
                0.10051625311532847,
                0.03448658949370677,
                0.18446994259788035,
                0.1587303268707056,
                0.37068292404299164,
                0.2557442734213877,
                0.5035465700091722,
                0.05584249949242055,
                0.2188852862814484,
                0.12840178549815895,
                0.3272932872984224,
                0.2950497463715967,
                0.555914939885969,
                0.41651973607756826,
                0.7132356548879729,
                0.01693363263155388,
                0.1555225022936168,
                0.07726607850875256,
                0.2517031865335207,
                0.2227106854237095,
                0.4591192211882064,
                0.3319524750587534,
                0.6042112179944811,
                0.10310784527906545,
                0.2906052003488486,
                0.18789429439797178,
                0.41124085149658784,
                0.37574841942503934,
                0.6610710125149123,
                0.5094469775224842,
                0.8306208244022565,
                -0.02277204639656373,
                -0.09957379418233805,
                -0.0701279035930409,
                -0.11110969258100156,
                -0.10974820629626965,
                -0.08881375436373326,
                -0.10823601998970314,
                -0.051481372199870035,
                -0.08292787641369202,
                -0.11086171301674948,
                -0.10584980101233263,
                -0.09796358102597055,
                -0.1032307337091605,
                -0.03342743454448615,
                -0.07728416751818273,
                0.028339508247937295,
                -0.05701680769922013,
                -0.10938463572876658,
                -0.09215571521821099,
                -0.1087035407386745,
                -0.11065689188059138,
                -0.0652880975030333,
                -0.09692755492120951,
                -0.015738479498814222,
                -0.10050509116381376,
                -0.10400484200216335,
                -0.11120998826526193,
                -0.07888961806478714,
                -0.0874692332972062,
                0.006768755664637413,
                -0.049305347961873094,
                0.0807531235270925,
                -0.04093613182748092,
                -0.10552092727717657,
                -0.08218351763219924,
                -0.11094833372458006,
                -0.11124437669467764,
                -0.07809277241564515,
                -0.1036236241756773,
                -0.03465178274171103,
                -0.09275822891238315,
                -0.10847503584211153,
                -0.10957164604290662,
                -0.08946836545464652,
                -0.09639193573062324,
                -0.014371316210368147,
                -0.06433672191493627,
                0.053504325873469,
                -0.07101406174074365,
                -0.11116490443257573,
                -0.1000444826632912,
                -0.1043752971020054,
                -0.10798569744439732,
                -0.0503996723827905,
                -0.08814775639993878,
                0.0052585961886760365,
                -0.1061684298276584,
                -0.09745109532308484,
                -0.11076479292232574,
                -0.06622730126582493,
                -0.07646255093000885,
                0.02999285939292665,
                -0.032189968763344456,
                0.1100859809379513,
                -0.10153700577043204,
                -0.06876182864051072,
                -0.09410723057474679,
                -0.025500618937634747,
                -0.039325430658349356,
                0.0912195687202931,
                0.016988942454102728,
                0.18336664080534748,
                -0.08711741246175757,
                -0.005458184245873107,
                -0.055245763142353646,
                0.06224551107529189,
                0.04184305902022169,
                0.22127573098208453,
                0.12260109626688524,
                0.3378671616484625,
                -0.09849855288987938,
                -0.041281553892596495,
                -0.07884794117401131,
                0.014200792893213543,
                -0.0029135594379555768,
                0.15207502722076027,
                0.06562252253196713,
                0.25644415020230754,
                -0.06739319597924034,
                0.03870869147444457,
                -0.023300296638968133,
                0.11863395811736482,
                0.09494515033161449,
                0.2988224282876567,
                0.18792540060826812,
                0.42763643476118407,
                -0.10106059428400119,
                -0.05606455572255696,
                -0.08752042525527023,
                -0.006692803201392833,
                -0.02216254639398715,
                0.12060418578855482,
                0.04026265105316515,
                0.2188622519316875,
                -0.0782982163010512,
                0.01558228636458617,
                -0.040315969231753485,
                0.08939673878995494,
                0.0673508719262255,
                0.2590057803820516,
                0.15421998276035442,
                0.3817084647283413,
                -0.09385084092569551,
                -0.024412779654764228,
                -0.06808973625185255,
                0.03718021425879693,
                0.018421613010691347,
                0.18563217865134862,
                0.09306864110820201,
                0.29611242266839655,
                -0.05440228976466638,
                0.06392109564885513,
                -0.004198682215591964,
                0.14995723503942132,
                0.1246259981066227,
                0.34072578140262955,
                0.22371745509760863,
                0.47565117986746847,
                -0.08688506762203162,
                -0.10899895600388765,
                -0.10689786024130829,
                -0.09318825160299803,
                -0.09929949645316223,
                -0.023666500337048146,
                -0.07043903160530667,
                0.04101821229342131,
                -0.10976563955889235,
                -0.08300661004918135,
                -0.10534206043877777,
                -0.04275917926581235,
                -0.055483427447058475,
                0.0690247653339617,
                -0.0021854722112779924,
                0.15814740594798762,
                -0.10249354496539378,
                -0.10017109415684164,
                -0.11028821029652949,
                -0.07214209033080046,
                -0.08156045603948782,
                0.01850997331778704,
                -0.04048132724718259,
                0.09541356350598794,
                -0.10870107646103078,
                -0.057505206071452014,
                -0.09205912439257921,
                -0.005039209464600058,
                -0.021067798625772464,
                0.12787851042953594,
                0.044449156886487665,
                0.2292203856714583,
                -0.09573134024567828,
                -0.1056270875544269,
                -0.10963508315789938,
                -0.08370724867410981,
                -0.0914721898076144,
                -0.003620516926995534,
                -0.0565024125915384,
                0.0671736135822015,
                -0.11027546069730113,
                -0.07129804493674244,
                -0.09974271187352782,
                -0.02494134930827502,
                -0.03931797961023002,
                0.09740922578486896,
                0.020089453326291,
                0.19264145997921034,
                -0.10717165531447376,
                -0.09263094651093354,
                -0.10885721377374674,
                -0.058492745856124004,
                -0.06956422654350311,
                0.04272504183607399,
                -0.022375705550212198,
                0.12573813492030184,
                -0.10504243931408894,
                -0.04162804308382348,
                -0.08229124904319252,
                0.016947292051446707,
                -0.0007327948191180776,
                0.16043271177602525,
                0.070893729560627,
                0.26788427694954076,
                -0.05117324944488651,
                0.036849547531947996,
                -0.016122729082838936,
                0.10774383915288144,
                0.08576302147340258,
                0.27159083142080065,
                0.1697156066873971,
                0.3913889660620572,
                0.0005886257687685674,
                0.13751273351150828,
                0.06008958588163525,
                0.232858333229313,
                0.20435496557209132,
                0.43908905050656893,
                0.31276045190935603,
                0.5833410375696918,
                -0.029468615328708665,
                0.08300454943521354,
                0.017806982406949456,
                0.16612434741824977,
                0.1408814330563284,
                0.35116204756548436,
                0.2370603036622013,
                0.4831869380633825,
                0.03899897591970275,
                0.20037462450094823,
                0.110725594747355,
                0.30794633266016647,
                0.2761844582014552,
                0.5353727020927755,
                0.39681690194360664,
                0.6918521377636854,
                -0.04136498017202629,
                0.05888293021613318,
                -0.00020195604024966579,
                0.13588993880490846,
                0.11227788630498237,
                0.31033201671706107,
                0.20234357363085054,
                0.436243487406439,
                0.018749627540967494,
                0.1678994295537516,
                0.0843633792606562,
                0.269358044445559,
                0.23922516113169914,
                0.48618623806141026,
                0.3537440827538466,
                0.6365519047147331,
                -0.015484100056896615,
                0.10921446288072065,
                0.037904142533542226,
                0.19844712410118448,
                0.17157375872405342,
                0.39408102379617793,
                0.27386589519480864,
                0.5322194192797397,
                0.06133674683229891,
                0.23493839711391748,
                0.13917630968580408,
                0.3486232780507031,
                0.3152329748472586,
                0.5866485635000592,
                0.4419790289612822,
                0.7492418590326905,
                -0.06038294831289823,
                -0.10985608289599133,
                -0.09407479399339311,
                -0.10772675057558001,
                -0.11008412560087445,
                -0.061817249697213236,
                -0.09490608660697429,
                -0.010817538791441808,
                -0.10190318709216534,
                -0.10250667294880941,
                -0.11116026350939295,
                -0.07594234514778371,
                -0.08492300724256599,
                0.012215124798924165,
                -0.045309416017844356,
                0.08765069710540727,
                -0.08531036062229198,
                -0.11034874863741373,
                -0.10678485927264655,
                -0.09600196136272217,
                -0.10167154849059545,
                -0.02896916764918967,
                -0.07427579365073614,
                0.03424840850295208,
                -0.11016120956368619,
                -0.08632961500338916,
                -0.1072007772108226,
                -0.047547649769996855,
                -0.059837946589349614,
                0.061736205582522644,
                -0.008006387106883948,
                0.14938991628529646,
                -0.07388846735468443,
                -0.11114424668585779,
                -0.10147164821210897,
                -0.10290619687643951,
                -0.106919801150815,
                -0.046435202144326795,
                -0.08563291859292464,
                0.010673425729507172,
                -0.10707406575472275,
                -0.09546003510195183,
                -0.11022239931239919,
                -0.0627869014063706,
                -0.07342257983789693,
                0.03593352723574944,
                -0.027700021676787357,
                0.11747815025176042,
                -0.09464860874684994,
                -0.10746956654829361,
                -0.1100144063893882,
                -0.08701402041531545,
                -0.09433930611276826,
                -0.009419081870860437,
                -0.0608346488562147,
                0.0599074752865818,
                -0.11116457808089691,
                -0.07511536938146832,
                -0.10209535534975711,
                -0.030224545550261588,
                -0.04416902492018922,
                0.08962324524947286,
                0.013771571685347811,
                0.18338608203299173,
                -0.08579817176048003,
                -0.02545383826319874,
                -0.06458521328264091,
                0.03159617318959468,
                0.013761263585059738,
                0.17189148307059665,
                0.08386678763656243,
                0.2778355814139482,
                -0.0527137776751319,
                0.05652247093739016,
                -0.007055045165370665,
                0.1380189963424176,
                0.11363152566184706,
                0.32065795312184164,
                0.20818494943674437,
                0.45105077406144034,
                -0.07342957243527118,
                0.011360472983887678,
                -0.039993848463209,
                0.08063361470652647,
                0.05952165349554989,
                0.24209968599665613,
                0.14185098321905354,
                0.36026799626390116,
                -0.023650342190569433,
                0.11003262355475943,
                0.03423165323434549,
                0.2037527973886975,
                0.1760916624820495,
                0.4075670895122085,
                0.28286948002171186,
                0.5501847312066018,
                -0.08065724698872476,
                -0.008090117522693103,
                -0.05333293543583509,
                0.055071428096828745,
                0.03559781886613386,
                0.20595187353328748,
                0.11181521041458664,
                0.31800804120340265,
                -0.039225546146072904,
                0.08223399537367443,
                0.012544785315709557,
                0.16984231119146792,
                0.1438177587982527,
                0.3630686090501724,
                0.24448334128298752,
                0.4995738008984905,
                -0.06411510033991527,
                0.032897983850241994,
                -0.02456790318781185,
                0.10828278502913335,
                0.0855328573720876,
                0.2803350131929751,
                0.17397419736549014,
                0.4046155407444659,
                -0.005988096979129663,
                0.13991842714363067,
                0.05800562883677618,
                0.2397505280138388,
                0.21045334768130342,
                0.4541535083095115,
                0.3233434780377319,
                0.6028836802040859,
                -0.10115948381440676,
                -0.0958638244680614,
                -0.10746834756302512,
                -0.06634577236108519,
                -0.07627109597003263,
                0.026781385128272068,
                -0.03370179783739463,
                0.10517860673043412,
                -0.10539416211754438,
                -0.05122078409312707,
                -0.08726428583995435,
                0.002736491108886823,
                -0.013786620252765365,
                0.1381465296589095,
                0.053222872235594076,
                0.2409845116381658,
                -0.10744636462558191,
                -0.07771200765569836,
                -0.10153593792271175,
                -0.03597442874735264,
                -0.04919931605078208,
                0.0782932924027928,
                0.00558997703014284,
                0.16891078677939442,
                -0.09500254456613186,
                -0.016389799388227266,
                -0.06465304825661279,
                0.049787352933732223,
                0.02996766025678402,
                0.20634178839734635,
                0.10919756794570512,
                0.3214004841414511,
                -0.10534529219421193,
                -0.0878303230482247,
                -0.10554452989911639,
                -0.05220252801872721,
                -0.06377778198528129,
                0.0514947124445522,
                -0.01509851122751974,
                0.13600204428878065,
                -0.10124080424709611,
                -0.03484778732505188,
                -0.0770011399690666,
                0.02521940312527636,
                0.007047776818943593,
                0.171201359831966,
                0.08016744922506935,
                0.2801496697149994,
                -0.10746266754397904,
                -0.0655088418924505,
                -0.0954425366525268,
                -0.017661436732181724,
                -0.032535622463421614,
                0.10717720353960201,
                0.028363744055453353,
                0.20390491415562984,
                -0.08667932844082617,
                0.004153237184666771,
                -0.050219954652020296,
                0.07644039941832183,
                0.05497312683315683,
                0.24356791496094496,
                0.14031332658664958,
                0.36473705594016614,
                0.005657764126047975,
                0.12148800022303867,
                0.054610059238563644,
                0.20629188469453963,
                0.18000414832992304,
                0.39366158762255904,
                0.27786953919405616,
                0.5273806028655367,
                0.07611195200641578,
                0.24085442614136218,
                0.14952011839934043,
                0.35011517866506614,
                0.31733983526097154,
                0.5799151481746957,
                0.43966389445894316,
                0.7380939114758475,
                0.0367053969728948,
                0.17699142253287592,
                0.09788546424375474,
                0.2740235723640845,
                0.2444911601610105,
                0.4826071613722853,
                0.35458569904224446,
                0.6285558593099979,
                0.1238779880814342,
                0.31307759257127865,
                0.20951459189412314,
                0.4345672964542451,
                0.39855106959323433,
                0.6855864666611725,
                0.5331050327415613,
                0.8559956893284503,
                0.020136746912487263,
                0.1481947967687237,
                0.0752028879420837,
                0.23911277246185345,
                0.21120249904249566,
                0.43708912698822205,
                0.3151824180860983,
                0.5769229364533527,
                0.0989499966932353,
                0.2759209493663918,
                0.17847233880045577,
                0.3912961332780074,
                0.356900073233274,
                0.6317053302508872,
                0.48533903574384835,
                0.7959992732763926,
                0.05536377626314043,
                0.20787794230486012,
                0.12265785151619378,
                0.31102435060734324,
                0.27987023577991277,
                0.5302157977026883,
                0.3960794875736878,
                0.6822794797801589,
                0.15089600919617072,
                0.35232444161467646,
                0.24264696212224754,
                0.47992875546918035,
                0.4422929495045832,
                0.7415586854027795,
                0.5829620120325633,
                0.9180832890459946,
                -0.01171230320216361,
                -0.095343722788257,
                -0.06248296548902982,
                -0.11029455923180648,
                -0.10800587452590239,
                -0.09390156845411277,
                -0.10990871428672114,
                -0.05998440952500213,
                -0.0765266463077469,
                -0.11129034978121478,
                -0.10286346550521347,
                -0.10180727745019395,
                -0.10614779908682476,
                -0.04317500869347825,
                -0.08361643239191402,
                0.015176505329075487,
                -0.04828627999099054,
                -0.10748386686587114,
                -0.0868400321095734,
                -0.11021776548308562,
                -0.11124418923485005,
                -0.07270571168329892,
                -0.10092995981217875,
                -0.026571414436375316,
                -0.0964332549719343,
                -0.10676300168583171,
                -0.11055310716147271,
                -0.08506291395069554,
                -0.09271621979272239,
                -0.005308952527588863,
                -0.05796763640284294,
                0.06525986806239203,
                -0.03104098699888085,
                -0.10245549514889535,
                -0.07570319633733592,
                -0.1112978661111414,
                -0.110666843011505,
                -0.08434546745334127,
                -0.10646115598329889,
                -0.04431974846417791,
                -0.08752168283726912,
                -0.11006841851746894,
                -0.1077500234999968,
                -0.09447684474974917,
                -0.10047394164317856,
                -0.025283934734434868,
                -0.07183397723699819,
                0.03917622063948442,
                -0.06344817168191301,
                -0.11042882460910958,
                -0.09589346089241549,
                -0.10705424260081767,
                -0.10973786056078239,
                -0.058982245675335,
                -0.09331507172145855,
                -0.006739350556197304,
                -0.10326133114587513,
                -0.10137406488694094,
                -0.11127268350702618,
                -0.07356544923692357,
                -0.08287455983101401,
                0.01675001446499725,
                -0.042017334768258044,
                0.09342752555248429,
                -0.10285743189067684,
                -0.07695976952198809,
                -0.09886610831179535,
                -0.03713824420658071,
                -0.049978798624593465,
                0.07368514868961579,
                0.0028953702726721197,
                0.1623907195759481,
                -0.09310230956342805,
                -0.018322322800253844,
                -0.06466996717995785,
                0.04594080070787722,
                0.026517106740924244,
                0.19906683210638582,
                0.10383400053302619,
                0.3122157902282334,
                -0.10215072161327643,
                -0.05181209023293465,
                -0.08593898392876195,
                0.0002301336976394759,
                -0.015902698281833327,
                0.13220389953649597,
                0.04919271509823078,
                0.23313104089143194,
                -0.0757118214299711,
                0.023509929755172854,
                -0.03505867242024345,
                0.0999941651372302,
                0.0772813278634446,
                0.27427468048701087,
                0.16681994933080374,
                0.3996457130080559,
                -0.1035467693711612,
                -0.06542866937629593,
                -0.0934452618552549,
                -0.01949681916523043,
                -0.03398367036655392,
                0.1019015439860862,
                0.025001091989329607,
                0.19671787002780583,
                -0.08544985169367418,
                0.0015509647338451651,
                -0.05090713194636197,
                0.07192461693351927,
                0.05085611753390262,
                0.2356275926477976,
                0.13428384354735684,
                0.3548875550568337,
                -0.09866924972910987,
                -0.036109990370496774,
                -0.07634723422765682,
                0.022042657520183286,
                0.004264198656056195,
                0.1645922992008278,
                0.07547032204261077,
                0.27163031744355687,
                -0.06388815881511811,
                0.047554635054424116,
                -0.017124527227655256,
                0.13014950952645188,
                0.10579283982532627,
                0.3150082005532957,
                0.20144242139588925,
                0.44649037042791473,
                -0.08135277309079396,
                -0.11031042048922121,
                -0.1047872769315649,
                -0.09792211017240639,
                -0.10309022737016883,
                -0.03430299595243988,
                -0.07765246053149666,
                0.026958271593394905,
                -0.10889376146920876,
                -0.08897945185685335,
                -0.10789236598437205,
                -0.052154919677778494,
                -0.06393907350122134,
                0.0537222258601394,
                -0.014064372608652587,
                0.1394208329490667,
                -0.09929119168212466,
                -0.10381296984050548,
                -0.11050779919663081,
                -0.07920660711363314,
                -0.08768334916093122,
                0.005540761627352056,
                -0.05002719129980822,
                0.07902061775570167,
                -0.11016022170621714,
                -0.06580958312447809,
                -0.09694070521498088,
                -0.016766753117075383,
                -0.031856802536604306,
                0.11024201726831581,
                0.03023660473038396,
                0.20815954902986192,
                -0.09136395048245202,
                -0.10810368916044474,
                -0.10868951878585148,
                -0.08960636656049566,
                -0.09642892887303317,
                -0.015423295003594977,
                -0.06488198481588595,
                0.05194724724461296,
                -0.11056902487016315,
                -0.07843658233969429,
                -0.10345858434138258,
                -0.035502918001844574,
                -0.04894022809000462,
                0.08093978859257843,
                0.007043804863528457,
                0.1727478355954357,
                -0.10513447199756631,
                -0.09743823500366275,
                -0.11024209205490934,
                -0.06672280288933057,
                -0.07685342140304197,
                0.028589243604717613,
                -0.03308801173569394,
                0.1081784542077244,
                -0.10766730621583759,
                -0.05109840561617697,
                -0.08833868142688664,
                0.004053624988305223,
                -0.012688708940911122,
                0.14162900262095654,
                0.05551411630877062,
                0.24565606540269602,
                -0.06177220942500472,
                0.019319648517525913,
                -0.030186715339275652,
                0.08674713118339228,
                0.06581690087598492,
                0.24470870286449245,
                0.1463019414045849,
                0.3610374459287361,
                -0.014681010919418659,
                0.11530966528684598,
                0.041353684692652715,
                0.20718718571867234,
                0.17972644029895196,
                0.40752185693187876,
                0.2846630598061021,
                0.5483030981668293,
                -0.04240219486054947,
                0.06313879510801397,
                0.001407762731567174,
                0.14279115421554256,
                0.11859485731469444,
                0.3219381441836599,
                0.21130552740782688,
                0.4504929712239814,
                0.021391830274878735,
                0.17583276959847183,
                0.08965154975445157,
                0.27993574757120937,
                0.24921247481385353,
                0.5014606887622003,
                0.36637537491848293,
                0.6544686857443142,
                -0.053131071114656855,
                0.04018528498117889,
                -0.015433378881556404,
                0.11372517096592058,
                0.09116172404663868,
                0.2822791892816842,
                0.17775954008469258,
                0.4047209337650211,
                0.0023114187367272434,
                0.14452715297495528,
                0.06445858984323238,
                0.24251736444178698,
                0.21342509626142697,
                0.4534468266913848,
                0.32447481396101086,
                0.6003414023974779,
                -0.029585527579103512,
                0.08818023481510454,
                0.020336764000420938,
                0.1739451382660787,
                0.14811639590230663,
                0.3636856656260673,
                0.24694000001288788,
                0.49835365777801116,
                0.04256029784790179,
                0.20922659214375627,
                0.11693263999592397,
                0.3194424135100487,
                0.28708869224767225,
                0.5515635622692662,
                0.4103648603867088,
                0.7106850687490286,
                -0.05199005427779414,
                -0.10829744570328098,
                -0.0890989288312051,
                -0.10958555016432453,
                -0.11101091220521554,
                -0.06957953301506907,
                -0.09925050596657431,
                -0.021997926985965834,
                -0.09816948892371918,
                -0.10560780959819524,
                -0.1108438751749729,
                -0.08246123164616981,
                -0.09051168109115451,
                -0.0002097915791068828,
                -0.05431608750304677,
                0.07180727886291753,
                -0.07924691050508433,
                -0.11111983386028804,
                -0.1041385732638942,
                -0.10019063465580857,
                -0.10492909631029468,
                -0.03906257460033688,
                -0.08095115142135625,
                0.020736703426257035,
                -0.10875758557053483,
                -0.09176114628588049,
                -0.10921461926729817,
                -0.056397103170306606,
                -0.06775812547602532,
                0.04697937978834886,
                -0.01934476180589684,
                0.13121437439772318,
                -0.06666025766189951,
                -0.11075043046180286,
                -0.09766053369875571,
                -0.10592989176696432,
                -0.10901192364837313,
                -0.05536299994185852,
                -0.09114276113231885,
                -0.001672572257878661,
                -0.10450536350837819,
                -0.09972632527983688,
                -0.11107108369662724,
                -0.0704710262564114,
                -0.08017695794215043,
                0.0223427070355335,
                -0.03787249519426227,
                0.1004687223838692,
                -0.08974999521293563,
                -0.10940563547082834,
                -0.1085330285154606,
                -0.09236775698620261,
                -0.09876237045799184,
                -0.020678194424021315,
                -0.0686756156839515,
                0.04522996404967165,
                -0.11092611644648775,
                -0.08171223111913012,
                -0.10527444180653686,
                -0.04023941947391299,
                -0.05325510289050342,
                0.07370031031510989,
                0.0012671948810732414,
                0.1640443199569973,
                -0.09138585433335815,
                -0.037943289167793964,
                -0.07362340551905461,
                0.01565470489675739,
                -0.0011659324227747095,
                0.15005821561715144,
                0.06548694646146323,
                0.25254809685566054,
                -0.06296876519441082,
                0.039363605489569964,
                -0.02076158911998849,
                0.11740703462811589,
                0.0940271040579714,
                0.2941451826350402,
                0.18512675197355571,
                0.42108262367131394,
                -0.0813503016364135,
                -0.0034630688573532254,
                -0.05136560546877329,
                0.06235752128293906,
                0.042256478925963695,
                0.2179273117528326,
                0.12113260338119404,
                0.33264082876100903,
                -0.03624081391352338,
                0.09053718763475943,
                0.01818908595510492,
                0.18080371002805196,
                0.15414671117568013,
                0.37871261913416465,
                0.25747017177495896,
                0.5178742837909465,
                -0.08741130230173012,
                -0.021746460699098646,
                -0.0635377581715652,
                0.03796280174638289,
                0.01950179124926152,
                0.18294921297899897,
                0.09226625889119908,
                0.29155087677841207,
                -0.05064812164426795,
                0.06390700143519348,
                -0.002329614867044311,
                0.14806194471067746,
                0.12304323356388498,
                0.3353851524610131,
                0.22025475096002553,
                0.46843466715011495,
                -0.07320280635166279,
                0.016906935176682285,
                -0.03710690000818581,
                0.08883891374241365,
                0.06709821873165282,
                0.254992602896467,
                0.15208606947251607,
                0.37581804517801487,
                -0.01974677494714415,
                0.11925423397679548,
                0.040794581818239875,
                0.21563240188551364,
                0.18733764608696513,
                0.4241276946816018,
                0.296773125028713,
                0.5694015870376569,
                -0.09881910678411587,
                -0.10038162576062121,
                -0.10855682266885772,
                -0.07429338360639108,
                -0.08325816479017058,
                0.012933366492776236,
                -0.044119088486691826,
                0.08789934423628591,
                -0.10771595990039673,
                -0.06040210398496139,
                -0.09301559962538702,
                -0.009875334708585792,
                -0.025442169899661606,
                0.11962851857003436,
                0.03813635297283702,
                0.21903447679750054,
                -0.10743669507167838,
                -0.08456117782768077,
                -0.10495544719314465,
                -0.04625375161351143,
                -0.05852021696278181,
                0.06211069635215544,
                -0.0071615143593518225,
                0.1492965621685511,
                -0.09965658374177647,
                -0.027904064036010912,
                -0.07273695110311178,
                0.034842218638818714,
                0.01597663103629056,
                0.18548751045147155,
                0.09177517948095401,
                0.2971137767621726,
                -0.10417017480679777,
                -0.09351371206267087,
                -0.1077984266806783,
                -0.061315897045381165,
                -0.07193166565820003,
                0.03647950891714305,
                -0.026682799742511757,
                0.11755540586319659,
                -0.104728625082111,
                -0.045195479328119695,
                -0.08391864932954515,
                0.011441024647078303,
                -0.005775407872684437,
                0.1515153226791653,
                0.06391310141463546,
                0.2570314072808559,
                -0.10861863578867825,
                -0.07352398843207592,
                -0.10002785099943033,
                -0.029106911270460705,
                -0.04302374477526115,
                0.08982700555996183,
                0.01444484300818978,
                0.18312289133124587,
                -0.09249978302002565,
                -0.008527802415773446,
                -0.0594704506699725,
                0.06032830437624408,
                0.03981404182520608,
                0.22154517971838888,
                0.12172268358648132,
                0.3392816844896375,
                -0.010834061868426175,
                0.09803114735957158,
                0.03463623178893695,
                0.17935097274312967,
                0.15415643894242126,
                0.36084301663078283,
                0.24853692703697836,
                0.491075007258523,
                0.054945539745511265,
                0.21272011160394727,
                0.12487027500613353,
                0.31849534325612217,
                0.2868040043213719,
                0.5424054123828149,
                0.40564164715237405,
                0.6970956053649008,
                0.017877109604893207,
                0.1511966810821534,
                0.075574465827041,
                0.24474404617864112,
                0.2163002501484801,
                0.44744387862150803,
                0.32290913470645655,
                0.5899047843370852,
                0.10037177321258474,
                0.28260200625206783,
                0.18252421531935042,
                0.4006054426366676,
                0.36566858322885804,
                0.6457285223504218,
                0.49673535747647224,
                0.8126483861116723,
                0.002476897283942187,
                0.12356920928682942,
                0.05406068337286023,
                0.21100276437988136,
                0.18418340349300544,
                0.4030984168899794,
                0.28467804530144525,
                0.5394448192476781,
                0.07661389372996778,
                0.246616212162196,
                0.15265244072932915,
                0.35850550320011737,
                0.32519113228072954,
                0.5930217105215222,
                0.4501432934687159,
                0.7538266902457341,
                0.03536663527583845,
                0.18091362576044995,
                0.09917764074963842,
                0.28057488257106233,
                0.25050708122883214,
                0.4938795069788522,
                0.3632302989887473,
                0.6424550090969753,
                0.12621925944406232,
                0.3206775779577586,
                0.21448568144364372,
                0.44479524706671475,
                0.4082364805550336,
                0.7005259740922846,
                0.5454179639816682,
                0.8735608206022302,
                -0.033175718164946806,
                -0.103147108871018,
                -0.07711644481597056,
                -0.11126767503122073,
                -0.11083400017364663,
                -0.083068525648306,
                -0.10590636661829389,
                -0.04232043032977867,
                -0.08867291481750918,
                -0.10977610354443548,
                -0.10817957149909131,
                -0.09346246983715527,
                -0.09965655833289172,
                -0.02302177793849572,
                -0.07029432360127782,
                0.042161131406877425,
                -0.06509123208272144,
                -0.1106285681243814,
                -0.09681494561547153,
                -0.10653206140182354,
                -0.10941279881987942,
                -0.05721276302108903,
                -0.09226790921080145,
                -0.004247310408078301,
                -0.10392059079747851,
                -0.10058951689139087,
                -0.11121013556101958,
                -0.07205869076344734,
                -0.08156476603224687,
                0.019504964947869248,
                -0.039985085775306684,
                0.0969054417974621,
                -0.05017519634054421,
                -0.10792956987895272,
                -0.08800742119066922,
                -0.10994160565214675,
                -0.1111652506379646,
                -0.0711825169744213,
                -0.1001289994809767,
                -0.02432575473001321,
                -0.09733851791716186,
                -0.10622459115911365,
                -0.11073662623145622,
                -0.08380237012936805,
                -0.09165264149388017,
                -0.002800412972135566,
                -0.056181697258325336,
                0.06849126557049164,
                -0.07792381134598239,
                -0.11124408672831324,
                -0.10353900262813397,
                -0.101039023984513,
                -0.10557658853531979,
                -0.04115920477074336,
                -0.08232303820694867,
                0.01791496307033997,
                -0.10841909834367539,
                -0.09287084279298859,
                -0.10960006295624966,
                -0.05823139237436682,
                -0.06939285469463334,
                0.04389443590837297,
                -0.021704410482114744,
                0.1274037415913915,
                -0.09921199427052702,
                -0.05955369996788641,
                -0.08834098343692204,
                -0.012849953117915551,
                -0.02766593525208538,
                0.10976591005515024,
                0.03209152182300545,
                0.20535743182488886,
                -0.08012727190762313,
                0.008416895898795221,
                -0.04481348376800108,
                0.07956406365578833,
                0.05817624864184599,
                0.2444977567906055,
                0.1423783569536911,
                0.3645346563506464,
                -0.09384149798976393,
                -0.029740481100885018,
                -0.07074920428984241,
                0.02918486523137126,
                0.011082233557751545,
                0.17295865078418166,
                0.0830618877965693,
                0.2807727278098877,
                -0.058068913321611584,
                0.05491885640160586,
                -0.01053340783492651,
                0.1382880788597669,
                0.11361684981129624,
                0.3243839905534794,
                0.21004168043944943,
                0.4566439912602058,
                -0.09756969047848796,
                -0.04569008700739367,
                -0.08058806395002402,
                0.007124432549287254,
                -0.009335038685331665,
                0.14031902912285715,
                0.05653348556633353,
                0.24202179581915723,
                -0.07014113763858326,
                0.0306247733345798,
                -0.02871651939722373,
                0.10788293857422944,
                0.08485317643563187,
                0.28339743175546817,
                0.1751666116668476,
                0.4095458463539347,
                -0.08802737436752571,
                -0.011704836978037177,
                -0.05882436060280066,
                0.05333139161540744,
                0.03358596605256859,
                0.20768486244802437,
                0.11167681450586397,
                0.3216103166227284,
                -0.04391053545059194,
                0.08129921143948476,
                0.009735915841754634,
                0.17077955226876007,
                0.14446737441353164,
                0.3674575416628241,
                0.24700367033293766,
                0.5058292009643901,
                -0.09165581757668487,
                -0.10692280309653435,
                -0.10824534423637744,
                -0.08768808113496936,
                -0.09474621669590519,
                -0.012264120583297297,
                -0.062461403374439235,
                0.05584575633474423,
                -0.10987558389753402,
                -0.07626859491869516,
                -0.10202821854088356,
                -0.032596594191263914,
                -0.04626439154868456,
                0.0850941256764404,
                0.010458516357902759,
                0.17764256688166966,
                -0.10493418732419407,
                -0.09576431584010536,
                -0.10930533180228502,
                -0.06431102350671059,
                -0.07467462181515783,
                0.03224550927238579,
                -0.030170847695659423,
                0.11257457665495908,
                -0.10647971815954213,
                -0.04843532852718331,
                -0.08641370398103296,
                0.007455529950470596,
                -0.009514899650717458,
                0.14628237754259282,
                0.059427326365993655,
                0.25105038726258083,
                -0.09933710931821421,
                -0.10238569748069876,
                -0.10981746013537444,
                -0.07704170687762094,
                -0.08575271283046314,
                0.008948358291029393,
                -0.04735844002523924,
                0.08316780822994511,
                -0.10921983018060344,
                -0.06339417768659823,
                -0.09526315849478706,
                -0.013612767461952587,
                -0.028932095736074363,
                0.11464575332757046,
                0.03390044747682169,
                0.2133039537452922,
                -0.1084470233534621,
                -0.08705862710009739,
                -0.10670892957919836,
                -0.049495998530833654,
                -0.061511873270251566,
                0.05762740557400457,
                -0.010898554589214552,
                0.14406613623976694,
                -0.10165519852390006,
                -0.03139199529650534,
                -0.07547980427242347,
                0.030608351606698052,
                0.0119872881564122,
                0.1800040926040291,
                0.08703924589119194,
                0.290881963132803,
                -0.03918909562952268,
                0.05577270135915359,
                -0.0006695356870153116,
                0.13013788397780582,
                0.10709641576311811,
                0.29986848609961814,
                0.19452065469298452,
                0.4231401900868762,
                0.01724438326335203,
                0.16111007924644083,
                0.08021566904432328,
                0.25992788815604523,
                0.23037214333818287,
                0.4720532447307599,
                0.3422506533992106,
                0.6197802032542107,
                -0.015149406715390947,
                0.10426404168459599,
                0.035595868399533964,
                0.19085538451737605,
                0.16455594365124318,
                0.38178218609396913,
                0.26420714773191695,
                0.5172813417500158,
                0.05799279057452976,
                0.2263113529804703,
                0.13319039384915543,
                0.3373559451635745,
                0.304545868200367,
                0.5706825380543771,
                0.42865203640527183,
                0.730637661977822,
                -0.028213484830870415,
                0.07897406475873477,
                0.016418896469515797,
                0.15945228995998734,
                0.1347816457762791,
                0.33978071772718577,
                0.22831932538623015,
                0.46916610435738515,
                0.0365742241935713,
                0.19266627461636948,
                0.105658629659545,
                0.2975974348047659,
                0.26641425849426653,
                0.5203230540118656,
                0.3844065528984176,
                0.6741640492103652,
                3.1953494107454483e-06,
                0.13164269160272712,
                0.05686143815228155,
                0.2243472285327087,
                0.19641940815908,
                0.4258729928045311,
                0.3021842219178628,
                0.5674860052860778,
                0.08150016010801046,
                0.26204539487401945,
                0.16281104073168445,
                0.379203501184495,
                0.3447670922968423,
                0.6231318195321515,
                0.4749872251768759,
                0.7892011656471835,
                -0.06808423030326574,
                -0.11072119348155493,
                -0.09835810701426734,
                -0.10517341554460102,
                -0.10846499158647664,
                -0.05336051295421758,
                -0.08986828401440385,
                0.0010584073896463934,
                -0.10494501849059049,
                -0.09871165924065618,
                -0.1107837971140464,
                -0.06872852489237423,
                -0.07864127942913335,
                0.02533529688321887,
                -0.03560860688171585,
                0.1041905234787529,
                -0.09068209957146528,
                -0.10888398982092662,
                -0.1087384700852026,
                -0.09111858170935082,
                -0.09772132822278987,
                -0.01818093437168474,
                -0.06690670367751153,
                0.048456068399013646,
                -0.1108727547061433,
                -0.08020394671828882,
                -0.10449384441232282,
                -0.038002978737237195,
                -0.05122427574240439,
                0.07718877294155393,
                0.004026587170064784,
                0.1682623760939033,
                -0.08042502250091997,
                -0.11084446986936877,
                -0.1045901561165429,
                -0.09918788814449087,
                -0.10413517578401182,
                -0.03681277153088246,
                -0.07942952539557933,
                0.02371517306002222,
                -0.10895080225054565,
                -0.09049974495321436,
                -0.10868074925211146,
                -0.054407707921429266,
                -0.06597493583092312,
                0.05021983901168993,
                -0.016833186604717408,
                0.1351842340857605,
                -0.0988554403715726,
                -0.10483972935940437,
                -0.11080302636016995,
                -0.08096547084560976,
                -0.089223385620906,
                0.0025350646387751656,
                -0.05229975416154849,
                0.07528116093876734,
                -0.11071083364476661,
                -0.06782421948976791,
                -0.09822303896531562,
                -0.019514290876939153,
                -0.034389214812384855,
                0.10624218585749806,
                0.026970800210570942,
                0.20342503810461726,
                -0.07903279553671264,
                -0.011779862013201992,
                -0.05436592873270932,
                0.04872563422897276,
                0.029867964202489463,
                0.19491127828082294,
                0.10342962781022194,
                0.30431315685649085,
                -0.04128030398298642,
                0.07486674997892576,
                0.007833431487910493,
                0.15981988691474114,
                0.13441669622679886,
                0.3483585914432385,
                0.232427438113142,
                0.4822104032768065,
                -0.06433078156159498,
                0.027368956055343254,
                -0.02744060719089808,
                0.10009814069305119,
                0.07796692661112743,
                0.2674592297968243,
                0.1637529799234539,
                0.38908592038219775,
                -0.009880903315728303,
                0.13071400191066296,
                0.051456658122854215,
                0.22789136638113847,
                0.19921806964326627,
                0.43761018248178873,
                0.30945381030702934,
                0.5836874361360255,
                -0.07272532107384402,
                0.006750951881684528,
                -0.041946831469808515,
                0.07336826004217761,
                0.05287364100096345,
                0.2301413756843034,
                0.13254746281068902,
                0.3456556223183867,
                -0.02662425104533721,
                0.10174666026712886,
                0.02860136359259311,
                0.19281187585733167,
                0.16577337938074632,
                0.3919403037925634,
                0.2698965811720001,
                0.5319047957565325,
                -0.05384912746530364,
                0.050074202875930784,
                -0.010847204944568816,
                0.12891532996649688,
                0.10514791270621938,
                0.3068649351251188,
                0.19704627223850307,
                0.43460414697140437,
                0.008949809809789966,
                0.16176884834697214,
                0.07639938709939063,
                0.26505843334035384,
                0.23475087975688344,
                0.48536834308693716,
                0.3510992396775006,
                0.6375584414080498,
                -0.10263399182313884,
                -0.09047578102548169,
                -0.10551183405603076,
                -0.05752568084764595,
                -0.06841688496632328,
                0.04150111052847359,
                -0.022415099898586355,
                0.12333190983373869,
                -0.10220597168950238,
                -0.04116860270130571,
                -0.08064436216656115,
                0.016221464407627915,
                -0.0012629529691639495,
                0.15753731869196075,
                0.06917982210416435,
                0.26380970613062293,
                -0.10658993158545566,
                -0.06999231389805713,
                -0.09724813274706191,
                -0.024822320245836964,
                -0.03901081346798782,
                0.09534810256852726,
                0.01921135912795557,
                0.1893995832813688,
                -0.0894817662154511,
                -0.0040042788474412136,
                -0.055700165060722145,
                0.06560605303451421,
                0.04482737955858171,
                0.2280694645951638,
                0.12749098339245213,
                0.3465629954118743,
                -0.10565443083366793,
                -0.08127655822577486,
                -0.10242247302420107,
                -0.04221653310016432,
                -0.054756533445015645,
                0.06738186935202628,
                -0.00264458077344924,
                0.1553229819046725,
                -0.09688642456180449,
                -0.023629043685325393,
                -0.06921484254974822,
                0.039871131187206824,
                0.020739358309740358,
                0.19176047802299,
                0.0972925187695714,
                0.30414340686077607,
                -0.10544045873950622,
                -0.05662300986983812,
                -0.08998877646887024,
                -0.005343002695426065,
                -0.0211796475576683,
                0.125399890489043,
                0.043152798699946565,
                0.22556179569164075,
                -0.07999194024215908,
                0.017705751054125078,
                -0.040100271874452545,
                0.09342629060807546,
                0.071001209324219,
                0.26646437978883514,
                0.15977531593641314,
                0.39106857458102356,
                0.02377667605325117,
                0.14658122927979847,
                0.07621560056657357,
                0.23487386952340747,
                0.20748129240555402,
                0.4281190750156996,
                0.30883630971125237,
                0.5653299072844121,
                0.09890651162037299,
                0.2706262740187303,
                0.17580278495442264,
                0.383377291961295,
                0.3495066141385256,
                0.6190654093441016,
                0.4753218612386257,
                0.7807375832379891,
                0.05716127274444327,
                0.20442309051087748,
                0.12182870294125374,
                0.30494474569255525,
                0.2743122332472383,
                0.5194101367731642,
                0.3878971740553038,
                0.6688514432750964,
                0.1490129657315302,
                0.3451913755218039,
                0.23813843099054902,
                0.4701721153820545,
                0.4330653452385086,
                0.7270858255555644,
                0.5711112927542922,
                0.9009892713341233,
                0.039423926649334376,
                0.17445702855106798,
                0.09797706253105559,
                0.26886413349423266,
                0.2398513864130626,
                0.4727191345523619,
                0.34732131832960966,
                0.6160451555012169,
                0.1229145476638163,
                0.30686354449638564,
                0.20592537265351074,
                0.42572937779481956,
                0.3902403757354098,
                0.6720299129010004,
                0.5221709230695225,
                0.8398176714672604,
                0.07698877806890621,
                0.23647948172304992,
                0.14777058694424366,
                0.34311577409894456,
                0.3108639387769828,
                0.5681921903805035,
                0.43056398417398434,
                0.7237488807251978,
                0.17720185062313004,
                0.38560985472809783,
                0.2724420461819014,
                0.5167055937728579,
                0.4779816495860121,
                0.7842332770794823,
                0.6221430986478745,
                0.9642525140270116,
                -0.005937586103043198,
                -0.09298368064726341,
                -0.05841557690832297,
                -0.10964188630953328,
                -0.10688970922136672,
                -0.09620024334316533,
                -0.11049995209172095,
                -0.06399056033033242,
                -0.07308115115315421,
                -0.11125959122241831,
                -0.10112532567456461,
                -0.103483930968866,
                -0.10736112832054118,
                -0.04780332367869737,
                -0.0865372335008186,
                0.00884062960870838,
                -0.04367616392485944,
                -0.10628845133168592,
                -0.08393725534211313,
                -0.11072973797448735,
                -0.11129274706449957,
                -0.0761691772404783,
                -0.10268595251168261,
                -0.03174239569676006,
                -0.09415240770526233,
                -0.10789693756883657,
                -0.10997963648903258,
                -0.08790429120806593,
                -0.0950943757982212,
                -0.011102182798593188,
                -0.06205330653387907,
                0.05775902677928162,
                -0.025848568375051062,
                -0.10067776295884828,
                -0.07221811096642138,
                -0.11122751188762087,
                -0.11013303368394126,
                -0.08722653077508301,
                -0.10763476498980301,
                -0.04890830694003394,
                -0.08465850781097432,
                -0.11062000205265697,
                -0.10659421377716283,
                -0.09673585435522716,
                -0.10226967689820725,
                -0.030494698686713728,
                -0.07533720483676265,
                0.03225787146920517,
                -0.05942036314311788,
                -0.1098157333229316,
                -0.09357299900930074,
                -0.10814855071054055,
                -0.11036879761511548,
                -0.06302812815793052,
                -0.09565346149268616,
                -0.012492770602342695,
                -0.10156282015737966,
                -0.10309036425882442,
                -0.11128156171478754,
                -0.07698920659850166,
                -0.08583515220336986,
                0.010374299636372852,
                -0.046685464358206724,
                0.08534417260639386,
                -0.1031528541891146,
                -0.08069194433447134,
                -0.10087976042958505,
                -0.04258923944680669,
                -0.054940134581079825,
                0.06528536336223627,
                -0.003785035904980986,
                0.1522712413125761,
                -0.09572973107911881,
                -0.02438732427835267,
                -0.06901602822587749,
                0.03815655303794102,
                0.01921988433743482,
                0.18833024896339617,
                0.09481725623737079,
                0.29975904642503365,
                -0.10361190766631442,
                -0.05671043727918408,
                -0.0891186020340827,
                -0.006387244035892396,
                -0.022031727412128586,
                0.12263597059601881,
                0.04134439253377681,
                0.22184318777536183,
                -0.07950595721420002,
                0.01627778454930842,
                -0.040571660457662764,
                0.09104255298995859,
                0.06881540498954287,
                0.26236892545425944,
                0.15663427086171314,
                0.3860195555854622,
                -0.10442501502700713,
                -0.06974387047451665,
                -0.09604183779129116,
                -0.02553094516533656,
                -0.03952879084113617,
                0.09291775023222032,
                0.017736790342711597,
                0.18601426837377366,
                -0.08866057004928388,
                -0.005097547002532391,
                -0.05583659553805416,
                0.06355674928614656,
                0.042974608738473724,
                0.22430648871444775,
                0.12468269666387784,
                0.34184617025408476,
                -0.10071349410635314,
                -0.04159160391429599,
                -0.0801100137405289,
                0.014841906192451166,
                -0.002448864154798446,
                0.15444010742638598,
                0.06703785222422048,
                0.25975808390683974,
                -0.06826583350389621,
                0.03973873228063554,
                -0.023221162497985136,
                0.1206140274695901,
                0.09674237429918864,
                0.3025176632248718,
                0.1906720814561706,
                0.43227930787795255,
                -0.0783076016282183,
                -0.11068604563062925,
                -0.10345242607182073,
                -0.10000837157099485,
                -0.10470621304052351,
                -0.039340709272932955,
                -0.0809792243011515,
                0.020209432412817654,
                -0.1081786627908305,
                -0.09168559432547499,
                -0.10888780616702884,
                -0.05657193271500123,
                -0.06788721186751054,
                0.04635183138045097,
                -0.019723549292567987,
                0.1303390363377501,
                -0.09741093371499746,
                -0.10535372550385447,
                -0.11033796833892903,
                -0.0824581135673655,
                -0.09046527408693653,
                -0.0006631499354066448,
                -0.054520021811768696,
                0.07110544481959484,
                -0.11061053520772213,
                -0.06968137577953688,
                -0.0991016745741457,
                -0.022349541363968797,
                -0.03697143562564442,
                0.1017048480992003,
                0.023410795347031825,
                0.19791083172582336,
                -0.08890120548705252,
                -0.10906184797102145,
                -0.10793714699095347,
                -0.09227521823922726,
                -0.09862785034174865,
                -0.021044072304502448,
                -0.06879174747160234,
                0.0446152769826164,
                -0.11043660022671989,
                -0.08172551653527418,
                -0.1050367564016598,
                -0.04050278462201569,
                -0.05347157821374651,
                0.07298604368335292,
                0.0008013480894445665,
                0.16308261620856243,
                -0.1038367625070361,
                -0.09956165159061683,
                -0.1106548648939826,
                -0.07055702950015028,
                -0.0802184183324954,
                0.021802126611441465,
                -0.03816397996131117,
                0.09968000611758741,
                -0.10870042285953196,
                -0.05555312435046324,
                -0.09108251439343394,
                -0.0021121538163139243,
                -0.01838669709032461,
                0.13250833447436777,
                0.04810488090982154,
                0.23482377415265668,
                -0.06656954421896114,
                0.011059771035257867,
                -0.036715106301206404,
                0.07675533197071704,
                0.05634674471209036,
                0.23177354134474557,
                0.13509950576555468,
                0.3463691072649843,
                -0.021813346957069844,
                0.10471357620717403,
                0.032489691323476996,
                0.19485855769182459,
                0.16791558834359957,
                0.39224470534671907,
                0.2711192852519402,
                0.5312921102607749,
                -0.04836668146495106,
                0.05371116588346131,
                -0.006288078000076503,
                0.13163129727470613,
                0.1079547162621391,
                0.3078323558832905,
                0.19893278794080715,
                0.4346536788136698,
                0.013090940083340994,
                0.16406750545301219,
                0.07961869378209109,
                0.2664376280026681,
                0.23623017884373373,
                0.4850114302902519,
                0.3516598269201949,
                0.6362852534955027,
                -0.05851189505460001,
                0.03134161969825814,
                -0.022545407313480828,
                0.10314943161528152,
                0.08110666574656598,
                0.26875880599103374,
                0.16597204349544686,
                0.3894672105030236,
                -0.0054051058441729645,
                0.1333465662073378,
                0.05501025436178539,
                0.2296040811446675,
                0.2010286143813021,
                0.43758371505669497,
                0.31034524542302394,
                0.582744286369535,
                -0.03613385125366467,
                0.07816846462071084,
                0.012056935252103227,
                0.16220098539558303,
                0.13689099059373444,
                0.348994288189939,
                0.2339818348533064,
                0.4819286107820911,
                0.03367486409110905,
                0.19687647004332998,
                0.10631508426677858,
                0.3053592757817071,
                0.27352039713510745,
                0.5345279692850974,
                0.39506314656441577,
                0.6919151312931336,
                -0.047538120894514715,
                -0.10726201881803088,
                -0.0863552053670352,
                -0.11025851137551224,
                -0.11121856438734708,
                -0.07320423983603831,
                -0.10116663411161086,
                -0.0273313200536032,
                -0.09604706845562894,
                -0.10690214871847728,
                -0.11042978715785928,
                -0.08546409744797424,
                -0.09305002244120622,
                -0.006165524578583951,
                -0.05856306930799289,
                0.06414267907156533,
                -0.07595966716143657,
                -0.11124921831482573,
                -0.1025595984827819,
                -0.10202847387681888,
                -0.10630201246275756,
                -0.0438527086519158,
                -0.08403262316021111,
                0.014237795477914027,
                -0.10780012791175958,
                -0.09422059049569485,
                -0.10996556319295603,
                -0.06056515122170912,
                -0.07146206034875692,
                0.039857869025852186,
                -0.024757427247040425,
                0.12238389870322491,
                -0.06279065313756013,
                -0.11029739177431727,
                -0.09549916775961192,
                -0.10718527385530675,
                -0.10980218810587779,
                -0.05957039935708601,
                -0.09364154070884505,
                -0.007588701089195457,
                -0.10296540650961117,
                -0.10160319769829718,
                -0.11123949305993805,
                -0.07405646328079955,
                -0.0832980745692912,
                0.015804107950051473,
                -0.042702296677429405,
                0.09222120809207565,
                -0.08704514625896158,
                -0.11011747889887928,
                -0.10753647941261552,
                -0.09478809048262413,
                -0.10071797861222752,
                -0.0260511060412738,
                -0.07233982120320348,
                0.03814823274372678,
                -0.11055119488560244,
                -0.08475428650070461,
                -0.10660795836369358,
                -0.0449901192439887,
                -0.057541899864557,
                0.06599584139736003,
                -0.004728379685031712,
                0.15463083507030195,
                -0.0937526761246148,
                -0.04375852927720365,
                -0.07771425566246169,
                0.008114708349785478,
                -0.008201852829678306,
                0.1395717971299007,
                0.05672596584792097,
                0.2403358579699241,
                -0.06766895276696823,
                0.031213980697823513,
                -0.027186310481909788,
                0.10753213190837628,
                0.08465302698101082,
                0.281319504656451,
                0.17402706729262002,
                0.40653056184368574,
                -0.08488351398560635,
                -0.010445203730201772,
                -0.0566230962662157,
                0.053650371849820425,
                0.03405178671241213,
                0.20627157529330836,
                0.11120257988484289,
                0.3192589928002313,
                -0.042108568472706775,
                0.0812194706708238,
                0.010596537020428063,
                0.16976044652338362,
                0.14360262908071575,
                0.3647163689918877,
                0.24520020050982957,
                0.5021513602068269,
                -0.09036124673239111,
                -0.028145074239409932,
                -0.06821185534679916,
                0.029839303362782277,
                0.011881561127514395,
                0.1718782130053465,
                0.08292083368035989,
                0.2787539175105144,
                -0.055932018296116034,
                0.055173406282628665,
                -0.009338174945694217,
                0.13760293797937673,
                0.1130842319408614,
                0.3219742676747707,
                0.20857000160555866,
                0.4532972543740604,
                -0.07731943278574496,
                0.00934113018243178,
                -0.0429479319054476,
                0.07954796315965817,
                0.05830891116210622,
                0.24275197406437413,
                0.14157129311521005,
                0.36185117532640115,
                -0.026198537128936137,
                0.10935224286370729,
                0.03261789300100869,
                0.20400472795844343,
                0.17620832670695408,
                0.4095459197476715,
                0.2839177737285602,
                0.5530929918986073,
                -0.09733345927336112,
                -0.10232352352585522,
                -0.10878483572768174,
                -0.07794939507257392,
                -0.08643578377655847,
                0.0063268882788980645,
                -0.04901101699180055,
                0.07957807126588189,
                -0.10856121394119411,
                -0.06467553929743695,
                -0.09557482822030344,
                -0.01586321375976781,
                -0.03095367400834539,
                0.11068743531792626,
                0.03091018340077006,
                0.20837822679098583,
                -0.107116318961361,
                -0.08766865974618146,
                -0.10634888602216855,
                -0.05107550962933283,
                -0.06286458493931305,
                0.054337114435182146,
                -0.013220367204427303,
                0.13980800211861907,
                -0.1016678337821979,
                -0.03334382908100095,
                -0.07646234055744532,
                0.027687836968720132,
                0.009297596555611866,
                0.1753785211343551,
                0.08338129369703762,
                0.2852894268241882,
                -0.10326711859604173,
                -0.0960383561930646,
                -0.10860910756875536,
                -0.06555473541928235,
                -0.07569261119052316,
                0.029289528112107933,
                -0.032158141812840206,
                0.10865053926904593,
                -0.1061568309480419,
                -0.05005203202092019,
                -0.08706091152386453,
                0.00486994242799708,
                -0.011870627443770805,
                0.1419903374294023,
                0.05610312411586589,
                0.24579115899908094,
                -0.10888102946646883,
                -0.0772144004488608,
                -0.10200413876832408,
                -0.03451168254963245,
                -0.047951631981503,
                0.0814697231230413,
                0.007802381291611188,
                0.1730505371062691,
                -0.09509417047152291,
                -0.014550875672046248,
                -0.06377906193215924,
                0.0525905260847809,
                0.032551092100516044,
                0.2108520833769934,
                0.11274478767174587,
                0.3268731286272609,
                -0.018489807001217266,
                0.08689627660225907,
                0.02524117338932166,
                0.16647578567953872,
                0.1418236118887075,
                0.3450282183796599,
                0.23446337195660585,
                0.47351844583485114,
                0.04495288900828481,
                0.19924693343581618,
                0.11313761411219592,
                0.3032811358386092,
                0.27212767345645233,
                0.5242456245938597,
                0.38922384941078675,
                0.6771932995001718,
                0.00905331695997435,
                0.1388930671545366,
                0.06501101409286224,
                0.23069976209570162,
                0.20279609067492,
                0.4304570103322412,
                0.3076638804037411,
                0.571175778046162,
                0.08920944670503751,
                0.26795843567538,
                0.1696215223426255,
                0.3842204784715222,
                0.3498192349032351,
                0.6263949585024026,
                0.47914416498165374,
                0.7915719188687415,
                -0.005762770726004818,
                0.11185006913452644,
                0.04408152984049796,
                0.19754313165240506,
                0.17126501465719293,
                0.38669768935886345,
                0.27001874569335255,
                0.5213021417850849,
                0.06603650776094712,
                0.23255794175440656,
                0.1403348671029908,
                0.34270602202903433,
                0.30992839888774115,
                0.5742751422165698,
                0.43313890520842246,
                0.7333374118610668,
                0.025958515350902697,
                0.16802533278996712,
                0.08802968685734419,
                0.2659457405538544,
                0.2364169413746464,
                0.4763062855660488,
                0.34739887893727606,
                0.6231394603010828,
                0.11447178620402693,
                0.3054484983957022,
                0.20099766161131682,
                0.42782458977978266,
                0.3918003040049809,
                0.6806051987868936,
                0.5272397526492739,
                0.851896947275479,
                -0.02805619463727999,
                -0.1014428687506729,
                -0.07370453684668725,
                -0.11127115990807658,
                -0.11037347810139085,
                -0.08602364367150693,
                -0.10715363042188031,
                -0.04698347577407437,
                -0.08588272510740753,
                -0.11040135460566172,
                -0.10709707201607162,
                -0.09579553661749883,
                -0.10152609450142908,
                -0.02830719548674048,
                -0.0738717622744782,
                0.035167653755499094,
                -0.061136337285218625,
                -0.11008903017118796,
                -0.09456770108819378,
                -0.10770029118428158,
                -0.1101172534937353,
                -0.06133297318751184,
                -0.09468020545240242,
                -0.010075511714107406,
                -0.10229518962984796,
                -0.1023796509121375,
                -0.11129246982234334,
                -0.07555669373179218,
                -0.08459949554186864,
                0.013054217681368685,
                -0.0447277839715247,
                0.08874656021928598,
                -0.04563797807691944,
                -0.10680767042988962,
                -0.08517783518572179,
                -0.11052745191388288,
                -0.11128720428880788,
                -0.07472016710802257,
                -0.10195876619798683,
                -0.029571363488338203,
                -0.09513071160279751,
                -0.10743227151334789,
                -0.11023653208948306,
