{
    "77": {
        "hyperparams": {
            "stocks": [
                "JNJ",
                "V"
            ],
            "start": "2015-01-01",
            "end": "2025-01-01",
            "risk_aversion": 0.1,
            "n_qubits": 11,
            "budget": 5296,
            "log_encoding": true,
            "layers": 10,
            "prices_now": {
                "JNJ": 143.4715576171875,
                "V": 315.5091247558594
            },
            "assets_to_qubits": {
                "JNJ": [
                    0,
                    1,
                    2,
                    3,
                    4,
                    5
                ],
                "V": [
                    6,
                    7,
                    8,
                    9,
                    10
                ]
            },
            "optimizer": "CMAES",
            "lambda_budget": 0.1
        },
        "continuous_variables_solution": {
            "weights": {
                "JNJ": 5.551115123125783e-17,
                "V": 1.0
            },
            "allocation": {
                "JNJ": 1,
                "V": 16
            },
            "value": -2963.074583490038,
            "left_overs": 104.38243899708232
        },
        "continuous_variables_solution_unconstrained": {
            "weights": {
                "JNJ": 0.0009659505458798563,
                "V": 1.0
            },
            "allocation": {
                "JNJ": 1,
                "V": 16
            },
            "value": -2963.074583490038,
            "left_overs": 104.38244262847638
        },
        "exact_solution": {
            "smallest_eigenvalues": [
                -0.1795225651196558
            ],
            "smallest_bitstrings": [
                "00100011110"
            ],
            "first_excited_energy": -0.1795207782771412,
            "optimized_portfolio": [
                {
                    "JNJ": 4,
                    "V": 15
                }
            ],
            "second_optimized_portfolio": [
                {
                    "JNJ": 6,
                    "V": 14
                }
            ],
            "spectrum": [
                -1.2325287588571651e-16,
                -0.17913334140228315,
                -0.1303566585267437,
                -0.14629174891526758,
                -0.07537444602409754,
                -0.1729182368473387,
                -0.1649442825311026,
                -0.09924503599701176,
                -0.04023616836219567,
                -0.1785767227924035,
                -0.15020000462327887,
                -0.12532153652599648,
                -0.10541469064404335,
                -0.16215693039639933,
                -0.17458894449403853,
                -0.06806088874310962,
                -0.020755315581407103,
                -0.17949270990019944,
                -0.14091568482296543,
                -0.13644484778564725,
                -0.09103183531979508,
                -0.1681754997173976,
                -0.1704041036995686,
                -0.08429150708137664,
                -0.05844255005156165,
                -0.17638527043446173,
                -0.15820955896006506,
                -0.11292165481506791,
                -0.11852297836763115,
                -0.1548623939015035,
                -0.17749872060848632,
                -0.0505529953225558,
                -0.1760950232261158,
                -0.05819177516227604,
                -0.15798174148586674,
                0.12335291740936244,
                -0.17724410386114953,
                0.022355339202208366,
                -0.11830061337926251,
                0.2448147688124127,
                -0.1792205995958771,
                -0.020473726221808604,
                -0.14069404416506057,
                0.18152488253080595,
                -0.17016477271224995,
                0.07029699524848562,
                -0.0908002804042762,
                0.3132245558074071,
                -0.17829552667632842,
                -0.03997153332794269,
                -0.1499760404224513,
                0.1517992795880142,
                -0.17434234437945223,
                0.04568699105476904,
                -0.10518888666980636,
                0.2783795470395336,
                -0.1788701560729536,
                0.00030183342156241605,
                -0.13013561612507202,
                0.2125299641799881,
                -0.1647112776093269,
                0.09618556438720166,
                -0.0751346326556432,
                0.3493500583966894,
                -0.12189621713277127,
                -0.1525957473309218,
                -0.17805286050326408,
                -0.04546670692771556,
                -0.16017363625415476,
                -0.10924486723746299,
                -0.17552905103117825,
                0.03875005907946297,
                -0.1435844619704576,
                -0.13347307281467527,
                -0.17934170075644557,
                -0.005913920824894395,
                -0.17166328715819046,
                -0.07990986694458585,
                -0.16661405308727495,
                0.08852690185457046,
                -0.13337769902838492,
                -0.14367252643612627,
                -0.1793349171962758,
                -0.026329112743797223,
                -0.16655593438936112,
                -0.09521579936802746,
                -0.17170940318569394,
                0.06299926433222093,
                -0.15251645885768372,
                -0.12199723801163265,
                -0.17807311340565418,
                0.015779067960742077,
                -0.17549562212093006,
                -0.06332689617379661,
                -0.16024287761939446,
                0.11533319611666742,
                -0.1620031092742013,
                0.10478279245846145,
                -0.0694945382942317,
                0.36092679562526225,
                -0.12596481275200516,
                0.2226143269137275,
                0.007417520692208701,
                0.519736491818378,
                -0.14653740868899995,
                0.1611393978846249,
                -0.033594408125180795,
                0.4377684086140226,
                -0.1002842476695231,
                0.2892094641684895,
                0.05354272736614416,
                0.606833335275562,
                -0.1549085577475952,
                0.13232141855096974,
                -0.052183359549361694,
                0.3987069325108937,
                -0.11376309742518187,
                0.2552717477648549,
                0.029840867887469123,
                0.5626436714289129,
                -0.13688953737610665,
                0.19123695653536427,
                -0.013727508622565636,
                0.4781115006873988,
                -0.08552811342431232,
                0.3244277275389765,
                0.07852329986576417,
                0.6523057854494836,
                -0.06938855417619083,
                -0.17431917908682867,
                -0.16265047798321491,
                -0.1043464222873425,
                -0.1262166677539332,
                -0.14954201116123828,
                -0.17868638795115804,
                -0.03872232892004123,
                -0.10035173742258244,
                -0.16448233086702066,
                -0.1732184586529268,
                -0.07408863223295403,
                -0.14698304758657593,
                -0.12949711155678667,
                -0.17905356287972884,
                0.0017540014786046275,
                -0.08550741277391372,
                -0.1700386235960042,
                -0.16857193476124516,
                -0.08985600076238945,
                -0.1372371990406983,
                -0.1401577070812657,
                -0.1795076176081632,
                -0.019123015679761598,
                -0.11392150042614144,
                -0.15765017185019403,
                -0.1765899712853879,
                -0.05704413697253815,
                -0.15545416035710297,
                -0.11756007019971007,
                -0.1773241200545767,
                0.023908927619962952,
                -0.17763783911142167,
                0.014664819589164381,
                -0.12234604915334021,
                0.233482744269137,
                -0.16020234394465316,
                0.11384138782861705,
                -0.06406039008043543,
                0.37360394019999327,
                -0.17147221953605796,
                0.061695882543318877,
                -0.09575748878916993,
                0.3009823582466763,
                -0.14382729378551973,
                0.17110306482577514,
                -0.02725342906093419,
                0.4513496249243182,
                -0.1751930078753906,
                0.03754114990201735,
                -0.10969025747556416,
                0.26659243472651,
                -0.15265302705465938,
                0.14183259281779292,
                -0.04629572906654435,
                0.41183613233195204,
                -0.16647536877636532,
                0.08712922418375604,
                -0.08054758710028534,
                0.3366527721771364,
                -0.13372501348176918,
                0.2016530358616579,
                -0.006933308731325131,
                0.49214470066300064,
                -0.15748566774659173,
                -0.11391186146779031,
                -0.1765195531919304,
                0.030405513602196264,
                -0.17720456451570754,
                -0.05197215452333537,
                -0.15542455299029712,
                0.1332337103259896,
                -0.1698952879397191,
                -0.08549603102564135,
                -0.16852374509592388,
                0.07926244707971822,
                -0.17941288940688055,
                -0.013338813064167494,
                -0.1372209633928595,
                0.19232112765222853,
                -0.16432798675019405,
                -0.10034236728231746,
                -0.17315951276161895,
                0.054194799180188685,
                -0.17894638788525186,
                -0.033294259553529375,
                -0.14696087517981782,
                0.16213778175053564,
                -0.17418750480861,
                -0.06937268483757641,
                -0.16261213301147476,
                0.1056086758377846,
                -0.17860397723562865,
                0.007894378143342937,
                -0.12620467510764385,
                0.2237839919064749,
                -0.1290552659177603,
                0.2123115747859317,
                0.000715290659964192,
                0.505841434589865,
                -0.0743924766006055,
                0.34882705368376,
                0.09627908439308061,
                0.6833722526655978,
                -0.1042788663150567,
                0.27800798408537797,
                0.04593943033836533,
                0.5920411296879249,
                -0.03939486773870774,
                0.4247708234458032,
                0.1517358872743222,
                0.7798372488021225,
                -0.1173057420247719,
                0.244519570430707,
                0.022688019396137803,
                0.5483000025247696,
                -0.05753265533694466,
                0.3861582195936522,
                0.12336773611812121,
                0.7309628597999254,
                -0.08997449466105503,
                0.31277706123113197,
                0.07046971829102114,
                0.6370651122373329,
                -0.0199789443399277,
                0.46466513605980786,
                0.18138375800446466,
                0.8299957411686008,
                -0.03680301536052125,
                -0.17883767932311057,
                -0.1486131915062683,
                -0.12743321135552776,
                -0.10290462379482251,
                -0.163342782564627,
                -0.1739257425500019,
                -0.07109950311873398,
                -0.07240282701749301,
                -0.1736415371851461,
                -0.16381921845417036,
                -0.10182002912267785,
                -0.12830818572984498,
                -0.14794038466986065,
                -0.17893213841658406,
                -0.03527019713749014,
                -0.05524016326042206,
                -0.17687737434909312,
                -0.1568536077097808,
                -0.11526495240672777,
                -0.11624370182441485,
                -0.15627960741013186,
                -0.17706649955714876,
                -0.0538235413472885,
                -0.08829098863830392,
                -0.16913004848421107,
                -0.16950995506919286,
                -0.08709827147950497,
                -0.13909803217927608,
                -0.1383249696583488,
                -0.1795225651196558,
                -0.015439275127058621,
                -0.17900611083696233,
                -0.023912770032689434,
                -0.1423079258525657,
                0.17626236603154272,
                -0.17086496514742933,
                0.06594609884454292,
                -0.09332704926334673,
                0.3070504618495581,
                -0.17748709155831566,
                0.018460328166265905,
                -0.12037102704633287,
                0.23909647012057772,
                -0.15913889067361758,
                0.1185461937618543,
                -0.06117474615840845,
                0.38012639839271156,
                -0.17888444099012712,
                -0.0033652057172709857,
                -0.13197778738409457,
                0.2070395567353302,
                -0.16563997793568247,
                0.09160674857921117,
                -0.07788952023182283,
                0.3429480544868474,
                -0.17481396692709444,
                0.04156402858598276,
                -0.10748749854803327,
                0.2724333538321613,
                -0.15136158240839248,
                0.14676465669894107,
                -0.043182555413449494,
                0.41858576655043106,
                -0.14180901099289467,
                -0.13537801964460328,
                -0.17940689332262644,
                -0.009659251526627959,
                -0.17080836404300237,
                -0.08273483207890703,
                -0.16759913901482604,
                0.08386066846139656,
                -0.15885851259671796,
                -0.11160979167802287,
                -0.176054206201731,
                0.03454435603882558,
                -0.17765803488507298,
                -0.04875179957155225,
                -0.1540407559007228,
                0.13829143243130138,
                -0.1509711888707076,
                -0.124132167244775,
                -0.1783682927382318,
                0.011803569357971564,
                -0.1748707591516077,
                -0.06638191272761679,
                -0.16145792439912454,
                0.11043663087566766,
                -0.16547092536699382,
                -0.09781073478678767,
                -0.17246452623237812,
                0.05856331735030852,
                -0.17917010910105952,
                -0.029844309114745508,
                -0.14534750070046737,
                0.16742530730107968,
                -0.14770275921334802,
                0.15636053354098417,
                -0.03656927924222264,
                0.43118955952182436,
                -0.1023551443414829,
                0.2835302013213194,
                0.04966526364554432,
                0.5993555223358341,
                -0.12758314467928838,
                0.2173851499196951,
                0.0039911924095102245,
                0.5127080948690399,
                -0.07201760678523617,
                0.35479764998957686,
                0.10045449129508918,
                0.6911342095804445,
                -0.13828143216749417,
                0.18623290603358195,
                -0.01692815002169429,
                0.4713078596999983,
                -0.0878251436382092,
                0.31852349939775976,
                0.07442038165767623,
                0.644603306548147,
                -0.11560776232379671,
                0.24981750097788535,
                0.026188933153139544,
                0.5553905514843255,
                -0.05493237401922158,
                0.3923529142137416,
                0.1277678029979391,
                0.7389485432265127,
                -0.09775425396302653,
                -0.16557374526650215,
                -0.1724652890021246,
                -0.0770264198123003,
                -0.1453077821817093,
                -0.1315113939744997,
                -0.17922255654337443,
                -0.002108118266783514,
                -0.1240803204756129,
                -0.1510947917932231,
                -0.17839427964621912,
                -0.042122167340544504,
                -0.16143626387664595,
                -0.10682236577663404,
                -0.17494933907440616,
                0.04301731885719391,
                -0.11155459332896508,
                -0.15897225390506328,
                -0.17606732871296638,
                -0.060212922645285945,
                -0.15400942293999026,
                -0.1198051617591917,
                -0.17772368735248056,
                0.01981557336428874,
                -0.13533139800428806,
                -0.14194122017867228,
                -0.17944605372638706,
                -0.022753964468952306,
                -0.1675882422545869,
                -0.09256284193610956,
                -0.17089939829524778,
                0.06749733297946238,
                -0.17197556473131753,
                0.0575573699644139,
                -0.09808060159853754,
                0.2950312948547511,
                -0.14524116369890755,
                0.16605801565129863,
                -0.030484692805138304,
                0.44449287983206015,
                -0.1611611235930589,
                0.10924952978834834,
                -0.06683770298605116,
                0.3672000062595754,
                -0.12421468887617396,
                0.22798463455498336,
                0.010979830531405504,
                0.5269121279884396,
                -0.1672064757050078,
                0.08276401809998515,
                -0.08309783259827344,
                0.3304752646030936,
                -0.13536630687353263,
                0.19638144157631604,
                -0.010391461839646765,
                0.4850615648521227,
                -0.15383939337578734,
                0.13701412140281433,
                -0.049300047065372665,
                0.4052057868743215,
                -0.1117861693487397,
                0.2608678362990212,
                0.033629375342923325,
                0.5700448616295447,
                -0.1689176844927831,
                -0.08818703695644967,
                -0.16938147073862014,
                0.07473869077426562,
                -0.17935330153545403,
                -0.016946165490978386,
                -0.138995490349299,
                0.18688072022448804,
                -0.17668606848051305,
                -0.055121338395628175,
                -0.1567407314486,
                0.1282516712311613,
                -0.17691869796892662,
                0.02633997827520741,
                -0.1161446563375231,
                0.25062773968646634,
                -0.1734394814568302,
                -0.07229278239578685,
                -0.16369909958494672,
                0.1008557873472973,
                -0.17877377614454226,
                0.0040579375429396275,
                -0.12820834461054614,
                0.21811436081700603,
                -0.1786573693546487,
                -0.036672527393162915,
                -0.14850623944358343,
                0.15692657066548266,
                -0.1737879654610161,
                0.0499001596070428,
                -0.10280427330582625,
                0.2844211104109035,
                -0.10603984565216593,
                0.2726584328715303,
                0.042380821619077004,
                0.584905803979083,
                -0.04205559255836224,
                0.4185278339150161,
                0.14728106637730465,
                0.7718104991931051,
                -0.07660357324316419,
                0.3430306336777682,
                0.09227217248600231,
                0.6757911128382461,
                -0.0023945969410585637,
                0.49915215106900146,
                0.2074092153641987,
                0.8729664859439048,
                -0.09196059527522252,
                0.3072040367295048,
                0.0666869072198174,
                0.6297068524438425,
                -0.022864307241443022,
                0.458198966575432,
                0.17670512302022573,
                0.821746255878622,
                -0.05996862572580639,
                0.3801384789001333,
                0.11913682192463088,
                0.7231588910229246,
                0.019353717511383334,
                0.5413876679179445,
                0.23939357325463073,
                0.9254715205879912,
                -0.018928604558128764,
                -0.1795131691331629,
                -0.14001218898462284,
                -0.13739076142031337,
                -0.08966668686843984,
                -0.168658451269661,
                -0.16996244544583095,
                -0.08570094749205115,
                -0.05684661499226514,
                -0.17663692303984385,
                -0.15753695285941915,
                -0.11409925531788118,
                -0.11738863903448934,
                -0.15557676184142416,
                -0.1772880801771804,
                -0.05219444054711885,
                -0.038524844732058174,
                -0.17871276625641275,
                -0.14941194713177805,
                -0.1263832752064164,
                -0.10416494319636665,
                -0.1627555747207498,
                -0.17426278566293174,
                -0.06958631020583039,
                -0.07389390219663233,
                -0.173285524987709,
                -0.16438714234861518,
                -0.10053853658214659,
                -0.12933773590228387,
                -0.1471218727975301,
                -0.17903823983123784,
                -0.03352514800494883,
                -0.17808463170621203,
                -0.041588632107706344,
                -0.1506799319056145,
                0.14926979322430267,
                -0.17458908749581248,
                0.043613643484201554,
                -0.10634953173060288,
                0.27539393694983505,
                -0.1788881472941911,
                -0.001543409436467076,
                -0.1310679278125419,
                0.20977242000304502,
                -0.16518665019089107,
                0.09388413960351125,
                -0.07652353612510006,
                0.34613636242839874,
                -0.17912416525011093,
                -0.022204902703065736,
                -0.14151215734589379,
                0.17888136753127437,
                -0.17052584512330737,
                0.06810960637557445,
                -0.09207506329834175,
                0.3101249060157862,
                -0.1773764870753321,
                0.02039603980883845,
                -0.11934710186562347,
                0.24194319343317677,
                -0.15857138659703685,
                0.1209374606231681,
                -0.05969478343253613,
                0.3834285743196427,
                -0.13238165973482935,
                -0.14451735752383357,
                -0.17925952291092861,
                -0.028094509013430326,
                -0.16602031751955548,
                -0.09652082310533677,
                -0.17209412657601655,
                0.06077322071703946,
                -0.15175066168907153,
                -0.12307214887195708,
                -0.17822778513858367,
                0.013783388303144356,
                -0.175190135590109,
                -0.06486207775877077,
                -0.16085765017253828,
                0.11287669610797055,
                -0.14270355220928532,
                -0.1344329403922891,
                -0.17938134201699274,
                -0.007794449458951948,
                -0.1712427409612104,
                -0.08132996324274852,
                -0.16711380062918524,
                0.08618564233876702,
                -0.15952293622156855,
                -0.1104348296565896,
                -0.17579874964627068,
                0.03663920825592032,
                -0.17786242411522413,
                -0.04711698800875065,
                -0.15332554723823513,
                0.1408466113461181,
                -0.15539508812967257,
                0.13002634780679795,
                -0.053575529451588264,
                0.39551094015895444,
                -0.11470283736736125,
                0.25252601627777793,
                0.02799695269474604,
                0.5589977231596466,
                -0.13760277592139852,
                0.18871649950182817,
                -0.015345630820577901,
                0.47469049819151066,
                -0.08669415986336557,
                0.3214568215678692,
                0.0764537391130922,
                0.6484349439110997,
                -0.14713731974012,
                0.15873161927464846,
                -0.03509957482957903,
                0.43445990240214194,
                -0.10133716448099642,
                0.2863511336848536,
                0.05158597170574596,
                0.6030749345503498,
                -0.1267913270998866,
                0.21998121941558763,
                0.00568648282585131,
                0.5162030091311235,
                -0.0707736686024398,
                0.35784333619248293,
                0.1026004605056278,
                0.6950780581843706,
                -0.08409909156847231,
                -0.1704751448038652,
                -0.16808595469965115,
                -0.09121594280934009,
                -0.13629007585673109,
                -0.14105577629721588,
                -0.179482820700344,
                -0.020945250311128098,
                -0.1127437910269814,
                -0.15831743239239157,
                -0.1763345718635994,
                -0.0586351669093634,
                -0.15473760966355316,
                -0.11868902929513986,
                -0.17752995940120275,
                0.021855359623075506,
                -0.09905872606081226,
                -0.165034213816268,
                -0.17284776691860892,
                -0.07556410436590319,
                -0.1461512116217698,
                -0.13051061482011647,
                -0.17914407913992753,
                -0.00018388301000528978,
                -0.12515425391961088,
                -0.15032466663124064,
                -0.17854628631043934,
                -0.04042894586190928,
                -0.16204921209630618,
                -0.10559086048288296,
                -0.1746403529215789,
                0.04517268750433254,
                -0.17534442742558637,
                0.035570641201283455,
                -0.11075230105974998,
                0.2637148603826427,
                -0.15326007595178215,
                0.13940842382656704,
                -0.04781222760843265,
                0.4085053126427909,
                -0.16685468826566396,
                0.08493184753738836,
                -0.0818369196963358,
                0.3335485610928588,
                -0.13455963312174973,
                0.19900213826003693,
                -0.008676862019336902,
                0.4885872886381649,
                -0.17173761111386,
                0.059611929678026664,
                -0.09693319300418632,
                0.2979914612740195,
                -0.14454814714554848,
                0.16856552430418736,
                -0.028883468134203852,
                0.4479055077753144,
                -0.1606955487126292,
                0.11153060630136824,
                -0.06546332029101387,
                0.37038642203797834,
                -0.12329439837361064,
                0.23071850255451837,
                0.012807776919760807,
                0.5305509427685684,
                -0.16373284751695344,
                -0.10158248220919855,
                -0.17348250030639772,
                0.05203779682309527,
                -0.1788104844307623,
                -0.03499280072425141,
                -0.14774250387488602,
                0.1595221883340366,
                -0.17382203249533662,
                -0.07084201445171838,
                -0.1631644664293636,
                0.1032224001182738,
                -0.17869755644505209,
                0.005966616680408006,
                -0.12721556035027137,
                0.22093902459210324,
                -0.16941499516575453,
                -0.08685075442913234,
                -0.1689614126433942,
                0.07699081284159329,
                -0.17939173731706115,
                -0.015151962547397297,
                -0.13811722446126476,
                0.1895908550535485,
                -0.17695388814782975,
                -0.05355608956545774,
                -0.15609153962962347,
                0.13073278204145086,
                -0.1767278451184568,
                0.028363135009069892,
                -0.1150373641688135,
                0.2535669456764212,
                -0.11809490560467908,
                0.24193405946624974,
                0.020999022904472312,
                0.5448205360824593,
                -0.05877219764285344,
                0.38312545848115315,
                0.12123011505044046,
                0.7270371379155325,
                -0.09098896910465021,
                0.3099678511572184,
                0.06855631174328697,
                0.6333624677711726,
                -0.021443323373088945,
                0.4614089601132809,
                0.17902210608664704,
                0.8258470306052833,
                -0.10518071644362423,
                0.2753106043156891,
                0.04413820363500579,
                0.5884500609163433,
                -0.040746856558480794,
                0.4216263386323654,
                0.14948622856449162,
                0.7758000222275002,
                -0.07551951460888456,
                0.34590605032333843,
                0.09425354688500232,
                0.6795580576562643,
                -0.000861423769398327,
                0.5024735985948087,
                0.20983797261100134,
                0.8771784893966076,
                -0.05362308101270485,
                -0.17710650395978528,
                -0.15615940638827358,
                -0.11641862239963516,
                -0.11508805125430568,
                -0.1569708085654276,
                -0.17683385998574103,
                -0.055440172401317454,
                -0.0869046259661729,
                -0.16959017013873603,
                -0.16904651462689158,
                -0.08848335454187783,
                -0.13817309810393696,
                -0.13924734963766797,
                -0.1795207782771412,
                -0.017287600961246912,
                -0.07090110623340906,
                -0.17398615262728168,
                -0.16324039331495016,
                -0.10308938952668864,
                -0.12726789211638295,
                -0.14874716208011765,
                -0.1788149179857284,
                -0.03700265649139128,
                -0.10163361736625351,
                -0.16391843229577577,
                -0.17357769680254204,
                -0.07260034257001657,
                -0.14780362103381833,
                -0.12847122170130076,
                -0.17895134200001583,
                0.0037051944027084445,
                -0.17885777411961984,
                -0.005162285820610021,
                -0.13286392851904055,
                0.20433264725663164,
                -0.16606999616278662,
                0.08935466255431473,
                -0.07923131701534586,
                0.3397864090915993,
                -0.17501571881227018,
                0.039539416780239194,
                -0.10860151998151937,
                0.2694990713861878,
                -0.1520197264299819,
                0.14428514207183124,
                -0.044752034464819374,
                0.415196756357595,
                -0.1775746538590136,
                0.01654947428467363,
                -0.12137112219075627,
                0.23627587216434737,
                -0.15968298862474956,
                0.11618038847537829,
                -0.06263039496948414,
                0.37685107157135195,
                -0.1711808685136436,
                0.06380774348546078,
                -0.09455497074876984,
                0.3040024974183416,
                -0.14308008377433085,
                0.17366915050145443,
                -0.025596059020384303,
                0.454823741284922,
                -0.15017735196035714,
                -0.12517659812875437,
                -0.17849394448281403,
                0.009840309406104265,
                -0.17453680272341704,
                -0.0678857044392273,
                -0.16204300693759577,
                0.10801370034041405,
                -0.16490706866955357,
                -0.09908483859116035,
                -0.1728199096131086,
                0.0563702533327958,
                -0.17906598486477215,
                -0.031577815586749915,
                -0.14616226178458355,
                0.16477243592967694,
                -0.15817967652742465,
                -0.11276905789048838,
                -0.17629472856583345,
                0.032466201119002856,
                -0.17743900232085807,
                -0.05037044456507027,
                -0.15474067954688397,
                0.1357535415094189,
                -0.17035946673149993,
                -0.08412377722189851,
                -0.1680693752925833,
                0.08155267973316979,
                -0.17941766336150894,
                -0.011507629156985394,
                -0.13630761598022978,
                0.19507062262528269,
                -0.13892366847434395,
                0.18378802032977232,
                -0.018473225306316843,
                0.4679654326915594,
                -0.08891922546902054,
                0.3156296068675665,
                0.0724250700588884,
                0.6408127224790944,
                -0.11647603383455249,
                0.2471480468842105,
                0.024418651002135108,
                0.5518240047015323,
                -0.05625205315255053,
                0.3892347013340636,
                0.12554762750365367,
                0.7349339924929844,
                -0.12833842744021728,
                0.21482796303513962,
                0.002333490772727356,
                0.5092535969207685,
                -0.07322451315285367,
                0.3517915832654078,
                0.09834672779616152,
                0.687231634093077,
                -0.1033363483811032,
                0.2807485125068601,
                0.047782445334967664,
                0.5956769473405445,
                -0.03800168085345688,
                0.4279592270418202,
                0.1540279844728336,
                0.7839201143239165,
                -0.11035350618931189,
                -0.15961422868633013,
                -0.17578783741115972,
                -0.0617769931988793,
                -0.15326919740385858,
                -0.12090805825021361,
                -0.1779048978463056,
                0.01778998146480394,
                -0.13436076352070175,
                -0.14281363020387103,
                -0.1793969114440765,
                -0.024548746351919924,
                -0.16707839382361073,
                -0.09389628798115868,
                -0.1713109771881607,
                0.06524082051000435,
                -0.12299446586921392,
                -0.15185197853536406,
                -0.17822996312622486,
                -0.043801581964576695,
                -0.16081123013173443,
                -0.10804052841699927,
                -0.17524573107326108,
                0.040876281233548986,
                -0.144452356893782,
                -0.13249904008822896,
                -0.17928858943790665,
                -0.004018292080472445,
                -0.17207062089108655,
                -0.07847516800066229,
                -0.16610051792578912,
                0.09088381891301417,
                -0.16752918075379947,
                0.08062729277123981,
                -0.08432877218595353,
                0.3274344428870781,
                -0.13614348275674848,
                0.19379250434996254,
                -0.012075552932335821,
                0.4815690911238881,
                -0.1543894281661925,
                0.1346512432661156,
                -0.050757632997332824,
                0.4019391160256724,
                -0.11279030954227579,
                0.25805292183500045,
                0.031718908406743386,
                0.5663266194084597,
                -0.16159751783540238,
                0.10699971559919375,
                -0.0681819841354597,
                0.3640462534539674,
                -0.1251053682707165,
                0.22528269921994265,
                0.009182536093960766,
                0.5233067664570821,
                -0.14590479187517413,
                0.16358209699662934,
                -0.03205554822376224,
                0.4411133025036328,
                -0.09919816136202322,
                0.29210341875816775,
                0.05553375989222983,
                0.6106289472178656,
                -0.17303887595140177,
                -0.07372400636899679,
                -0.16421505345698673,
                0.09850982310518835,
                -0.17883165895263686,
                0.002169324671497752,
                -0.12918204722745702,
                0.21531098780129082,
                -0.17848606609533574,
                -0.03833245643959085,
                -0.14925110204478648,
                0.1543519151450945,
                -0.17407493002412405,
                0.04778287229247823,
                -0.10400675909130175,
                0.28138898181650157,
                -0.176400129362125,
                -0.05666691830311729,
                -0.1573711490160482,
                0.12579136388539916,
                -0.177091133951932,
                0.024337027751112305,
                -0.1172327569029645,
                0.2477099943834733,
                -0.17929660509053857,
                -0.018720438364294337,
                -0.1398547808058933,
                0.18419170997521206,
                -0.1697829407703101,
                0.07250706604812626,
                -0.08950389671675182,
                0.31634820852972095,
                -0.09288724823326866,
                0.3044877494465929,
                0.06486363293966477,
                0.6261004010334905,
                -0.024239769365712618,
                0.4550372885846374,
                0.17443493866402632,
                0.8176955534065392,
                -0.061119813826413384,
                0.37719941316908284,
                0.11708998577963178,
                0.7193302547201361,
                0.017754230616036117,
                0.5380035319894878,
                0.23690024247456465,
                0.9211988588034443,
                -0.07764252715399783,
                0.3402029356555932,
                0.09033708982507596,
                0.6720735533996401,
                -0.0038821018657956255,
                0.49587922556076014,
                0.2050274333142944,
                0.8688047912001323,
                -0.043318949569018196,
                0.4154774420221882,
                0.14512253016164384,
                0.767870815706923,
                0.04066941209968716,
                0.5814104932443536,
                0.2700536008415578,
                0.9748780922668261,
                -0.009596070784190064,
                -0.17945515070738133,
                -0.13531622726406253,
                -0.1419732994667528,
                -0.0826523453370181,
                -0.1709203068118072,
                -0.1675852063464826,
                -0.09260513182115523,
                -0.0486731635961671,
                -0.17773875023360536,
                -0.1540002998955458,
                -0.11984248633073105,
                -0.11153345425983002,
                -0.15899884786604562,
                -0.1760703794554457,
                -0.060259857947571153,
                -0.029771849924013622,
                -0.17923464901212616,
                -0.1452956278639094,
                -0.13154612840515895,
                -0.09773017296898717,
                -0.16559751902454414,
                -0.17246529897542617,
                -0.07707107488839363,
                -0.06630000108418974,
                -0.17496734230172983,
                -0.16143018196569586,
                -0.10686221049656511,
                -0.12406215315467878,
                -0.1511241559278148,
                -0.17840036105485907,
                -0.042171292913376214,
                -0.17722324197647354,
                -0.05002417831557175,
                -0.15446450282717303,
                0.1361770151590789,
                -0.17605012888334892,
                0.03285034104004086,
                -0.11245888584493613,
                0.2599698086367738,
                -0.1791878455236221,
                -0.01114262854200932,
                -0.13601472392051808,
                0.19551421084487458,
                -0.16780930934072003,
                0.0819563239745405,
                -0.08379580047097948,
                0.32954580749325285,
                -0.17884328881291844,
                -0.031222235267480046,
                -0.14587780047099724,
                0.16520593371449238,
                -0.17256765985363803,
                0.05676410228261087,
                -0.0987658272874711,
                0.29411762903791017,
                -0.17825682377112068,
                0.010214831551932866,
                -0.12487513416145804,
                0.22710208691813233,
                -0.16177496366872257,
                0.10842722114532932,
                -0.06754864104277536,
                0.3662546097091155,
                -0.12727114616544954,
                -0.14868910371142846,
                -0.17878854275093414,
                -0.036913416422862395,
                -0.1632292491585956,
                -0.10301551792356703,
                -0.17394403285153884,
                0.04962868151383307,
                -0.1477998000524583,
                -0.1284052210824242,
                -0.17891713871440368,
                0.0038018520997719248,
                -0.17355902125293765,
                -0.07251871117490621,
                -0.16386834751690205,
                0.10056876029378548,
                -0.13817284815125636,
                -0.1391853137310371,
                -0.17949050256724686,
                -0.017194625702445707,
                -0.16903162830579987,
                -0.08840558664833495,
                -0.1695440714301576,
                0.07445945524429276,
                -0.15615195234209295,
                -0.1163486748849985,
                -0.1770683509886271,
                0.026076218541195736,
                -0.1768113531346397,
                -0.0553547152842819,
                -0.15691673556958766,
                0.127956823558124,
                -0.15883448754304436,
                0.11726840450338238,
                -0.061670782644074745,
                0.37808222847675244,
                -0.12046938674981614,
                0.2374337761894545,
                0.017571286609274487,
                0.5392302098325938,
                -0.14220556579181848,
                0.1747916699544549,
                -0.024605867121562378,
                0.4560926866458798,
                -0.09362485721809252,
                0.3051966272363542,
                0.06486217716189371,
                0.6274971074793795,
                -0.15115836946297084,
                0.14539029717354962,
                -0.043777264954644166,
                0.41644671481514756,
                -0.10768573807922946,
                0.2706749856505422,
                0.040577417160394154,
                0.5827223385491954,
                -0.13197594938162277,
                0.205472751347691,
                -0.004156411320049974,
                0.49702042314735906,
                -0.07828659168003227,
                0.34099895478688963,
                0.09042576977696049,
                0.6735548211399569,
                -0.07687571504670188,
                -0.17252928936318437,
                -0.16550019767352414,
                -0.0979135129799501,
                -0.13138530144255967,
                -0.14543111553794674,
                -0.17921665158471217,
                -0.02996624290208853,
                -0.10667967335158005,
                -0.1615320544639842,
                -0.17490852777478844,
                -0.06649428965121415,
                -0.15099228233072315,
                -0.12422534476712688,
                -0.1784238466998641,
                0.011672160499886288,
                -0.09241496962319701,
                -0.16766856838744346,
                -0.17084184731948487,
                -0.08284241237522844,
                -0.14182614655792708,
                -0.13546640858088216,
                -0.1794579143384752,
                -0.009785935568862073,
                -0.11966979611013898,
                -0.15411961611746633,
                -0.17770015824090624,
                -0.048868962655753155,
                -0.15888365330082954,
                -0.11170776728293252,
                -0.1761143425319454,
                0.03440825279471854,
                -0.17662543900019573,
                0.024982756184327114,
                -0.11668378661382664,
                0.24846340848335258,
                -0.1568656614517009,
                0.1264897289168787,
                -0.056071094587520035,
                0.39091900141502484,
                -0.16929783073944793,
                0.0731787912585494,
                -0.08893190108893606,
                0.3171299520243173,
                -0.13932799318001654,
                0.18491731794528105,
                -0.0181000237381262,
                0.4698327108559581,
                -0.17359965033501412,
                0.048441516238421585,
                -0.1034463789718571,
                0.28215649770102014,
                -0.1487350772702859,
                0.1550638287515722,
                -0.03772443012616235,
                0.42973513503255667,
                -0.16371987247078218,
                0.09919479034105325,
                -0.07314019454553405,
                0.3533840312263989,
                -0.12864427609977142,
                0.21605043093275778,
                0.002802308334524332,
                0.5112120139967916,
                -0.16074197280873498,
                -0.10788033887679316,
                -0.17513393939278205,
                0.041088176851641345,
                -0.17814033126752182,
                -0.04361579320744177,
                -0.15171656115754673,
                0.14624429395964608,
                -0.17199141942415147,
                -0.07830226227065251,
                -0.1659770766679296,
                0.09110885851231132,
                -0.17918808086591748,
                -0.003819493385205397,
                -0.13235135997419115,
                0.20649632691011577,
                -0.16700422770501727,
                -0.09372976369611039,
                -0.1711934040322079,
                0.06545928473179641,
                -0.17930189452352574,
                -0.02435646599420019,
                -0.1426721147895819,
                0.17573061655558356,
                -0.17570347903392514,
                -0.061597664314577416,
                -0.15948483769091915,
                0.11803711915584203,
                -0.17779879602407728,
                0.0179953202437915,
                -0.12075415176394086,
                0.23854167132430548,
                -0.12371174959977738,
                0.2269852681904584,
                0.010720078859135817,
                0.5251929084599549,
                -0.06671920088654648,
                0.36583845029254,
                0.10861729340840628,
                0.7050663330960625,
                -0.09777067973253992,
                0.2938502420375245,
                0.05711068070160868,
                0.6125635809731942,
                -0.030556064620847093,
                0.44295195222548156,
                0.16524157083499236,
                0.8027036295130489,
                -0.11137994172006993,
                0.2597774755582453,
                0.033275977829172,
                0.5682368848490246,
                -0.04927667191784533,
                0.40375440688576936,
                0.1362896167066331,
                0.7532430052658841,
                -0.08288381708397127,
                0.3292038155351405,
                0.082224384706476,
                0.658173295416119,
                -0.010557207103928342,
                0.4834313595569246,
                0.19547337836192114,
                0.8534485297596236,
                -0.04534485454035656,
                -0.1781040790841915,
                -0.15251816738150198,
                -0.12205808025686268,
                -0.10912816780254819,
                -0.16028886386003688,
                -0.17551172209035568,
                -0.06340211045558525,
                -0.07978554302869595,
                -0.17174787975181638,
                -0.16656475938988807,
                -0.09528390809069734,
                -0.133372489493998,
                -0.14372598121190894,
                -0.17935841070047598,
                -0.026411231740069558,
                -0.06320244574746861,
                -0.17556376980974686,
                -0.16017888070940922,
                -0.10930936034080846,
                -0.12188763545319431,
                -0.1526454754769515,
                -0.17807264491473723,
                -0.04554540116771997,
                -0.09509412596495209,
                -0.16665628713768568,
                -0.17167573232703792,
                -0.07998155105700014,
                -0.1435826841674661,
                -0.13353023395378769,
                -0.17936892301326424,
                -0.005999404384697342,
                -0.17906577861328726,
                -0.01467197838638414,
                -0.13772004201915572,
                0.1901626636299461,
                -0.168601449023279,
                0.07751574107849446,
                -0.08641345866988698,
                0.32328337483122505,
                -0.1763853056578757,
                0.028865329211918773,
                -0.11462046691687217,
                0.2541628207056351,
                -0.15571334837356093,
                0.13128092837830524,
                -0.05309775152775056,
                0.3975264025861902,
                -0.17836341528360988,
                0.0064576378679174285,
                -0.12680860846082495,
                0.2215228183636448,
                -0.16279548693043172,
                0.10375887939230916,
                -0.07039427552924203,
                0.35976444575969196,
                -0.17313135169599597,
                0.05255129503933783,
                -0.1011554686703946,
                0.2880829207264514,
                -0.14735490997416845,
                0.16008211276860868,
                -0.03452371261010223,
                0.43656952071965927,
                -0.14612561894492732,
                -0.13041014406184914,
                -0.17908302676044413,
                -4.259048090454393e-05,
                -0.17280509893021895,
                -0.07544323844097064,
                -0.16495378737665467,
                0.09580390150951706,
                -0.16201526536179045,
                -0.10548021603412802,
                -0.17456971725750375,
                0.04532410530879577,
                -0.17849456979828832,
                -0.040297850601423144,
                -0.1502342818514599,
                0.15139856421672604,
                -0.15470788835279342,
                -0.11858348016023496,
                -0.17746414381118542,
                0.02200172628440872,
                -0.17628741802666964,
                -0.05850918480368121,
                -0.15823204523287876,
                0.12296176020971769,
                -0.16804769074232856,
                -0.09110019110031281,
                -0.1703996371929944,
                0.06992475785228795,
                -0.17942646967707848,
                -0.020809049912572763,
                -0.1409603619875869,
                0.18111455012897998,
                -0.1434492161976742,
                0.16993744363894264,
                -0.027657641635388912,
                0.44944016194691505,
                -0.09577337364672225,
                0.2994428274823404,
                0.06090856263944213,
                0.6199465164680072,
                -0.12216568302556902,
                0.23212964522668478,
                0.014068426697876666,
                0.5321285815146723,
                -0.06427111724118753,
                0.37187897205488196,
                0.1128643424237675,
                0.7128963538704163,
                -0.1334459774203438,
                0.20039354174325902,
                -0.007433771364265867,
                0.4901433275399369,
                -0.08066106595766379,
                0.3350204016668125,
                0.08624689457747992,
                0.665779794212484,
                -0.10960819616275935,
                0.26514599229343744,
                0.03684914007844358,
                0.5753962127521487,
                -0.04660336530829586,
                0.4100188021891736,
                0.14076111904411692,
                0.7612965096612434,
                -0.1041859060431746,
                -0.16272630234135615,
                -0.1742587054086021,
                -0.06953425196153482,
                -0.14942056676126353,
                -0.12634214940679597,
                -0.17869594886228668,
                0.007708249749553377,
                -0.12935259168689894,
                -0.14708657854923576,
                -0.17902777570085032,
                -0.03346806871993228,
                -0.16438943665634753,
                -0.10049180947508754,
                -0.1732624248684758,
                0.0539963143003841,
                -0.11740656698221277,
                -0.15554445723327787,
                -0.1772808066536768,
                -0.05213983052500367,
                -0.15754241847846173,
                -0.11405529758866048,
                -0.17661695297044067,
                0.03021320912733308,
                -0.1400239403328956,
                -0.13735252511126456,
                -0.17949952204897118,
                -0.013518774691540588,
                -0.16996155613217662,
                -0.08565151854970376,
                -0.16863224871683474,
                0.07905778246189366,
                -0.16988719604295383,
                0.06895678543375916,
                -0.09133984304546452,
                0.31109687622797294,
                -0.14082730583863173,
                0.17978949782812875,
                -0.021415466796377333,
                0.46289474813258624,
                -0.15791017705622434,
                0.12181473425294798,
                -0.05893291625312061,
                0.3844334479274593,
                -0.11863756681223556,
                0.2428829025662707,
                0.021213926317221226,
                0.546483008664835,
                -0.16453685856395212,
                0.09474626819016388,
                -0.07577511012943994,
                0.34712470654422756,
                -0.13037086223428163,
                0.21069625194226865,
                -0.0007398559678394991,
                0.5040478649098519,
                -0.15000703407443194,
                0.15016240242107903,
                -0.040813093294351774,
                0.423023369853451,
                -0.10562727678874614,
                0.27634969383751323,
                0.044446073519366254,
                0.5902004742117278,
                -0.1711113210797242,
                -0.08108906853615874,
                -0.1669315274993245,
                0.08649037166635207,
                -0.17922562625761856,
                -0.007522129367142235,
                -0.13422216780985274,
                0.2009617781915356,
                -0.1777191589445261,
                -0.04686052355402741,
                -0.1531292471791907,
                0.14116781441976417,
                -0.17563001792507144,
                0.036927629947455264,
                -0.11020917888286669,
                0.2658741843191379,
                -0.1750528712218441,
                -0.0646134364096285,
                -0.1606684217727562,
                0.11318964404022921,
                -0.1780656295745467,
                0.01406373094488139,
                -0.12285398540696976,
                0.23277805191814005,
                -0.17911010561293123,
                -0.027830149980888265,
                -0.14431387440697435,
                0.17042511347023853,
                -0.17191868733594667,
                0.06106977296745355,
                -0.0962875935874836,
                0.3002504313982199,
                -0.0996009202380129,
                0.28843477861222405,
                0.05348441282231687,
                0.6053642349416412,
                -0.033285267722209126,
                0.43664397831008855,
                0.16071994613472307,
                0.7946138598782626,
                -0.0689991717835216,
                0.3599765774591378,
                0.10454314549031951,
                0.6974216685650911,
                0.007542118007876787,
                0.5184391180560518,
                0.22201654623199302,
                0.8969433511866565,
                -0.08493898654187407,
                0.32356510738173705,
                0.0783741249174214,
                0.6507512619771169,
                -0.013510846903760849,
                0.47690044330638093,
                0.1907281590753443,
                0.8451362801798379,
                -0.05178131970711435,
                0.39766944645389835,
                0.13199168147366797,
                0.7453757629918433,
                0.02987380860695255,
                0.5612602855069799,
                0.2545853398757313,
                0.9500354065234091,
                -0.02799759139225846,
                -0.17930735967283662,
                -0.14444452022024964,
                -0.13254408423054126,
                -0.09641745391949683,
                -0.16613262644480115,
                -0.17207596959166535,
                -0.07853242569498314,
                -0.0647565092362779,
                -0.17527120081967257,
                -0.16080993666207072,
                -0.1080917895573843,
                -0.12298022488450147,
                -0.1518906251617808,
                -0.17824201303710613,
                -0.04386457584238237,
                -0.047014288383656046,
                -0.17792702293394158,
                -0.15326461746606906,
                -0.12095623595168475,
                -0.11033612761074046,
                -0.1596496213375883,
                -0.1757965318322765,
                -0.06183715402664356,
                -0.08122423838235027,
                -0.17133977640862721,
                -0.16708041156366632,
                -0.09395057744942326,
                -0.13434970483459935,
                -0.14285549565756878,
                -0.17941232162315862,
                -0.024614498205575795,
                -0.1786789905977389,
                -0.032884907643854336,
                -0.14662781336498157,
                0.16263149403847632,
                -0.17286077111163933,
                0.05464548219882385,
                -0.09997232891074564,
                0.29108740295434576,
                -0.17832129970533783,
                0.00832416337429785,
                -0.12585343710026792,
                0.22429975582341338,
                -0.16229658329120877,
                0.1060806811841862,
                -0.06898326185646708,
                0.3629964732002496,
                -0.17913795247798686,
                -0.012919305047547193,
                -0.13687889399860487,
                0.19282582516413016,
                -0.16821668990923117,
                0.07972374069012031,
                -0.08511637088457394,
                0.3264016288682393,
                -0.1762289390910144,
                0.03084569216408584,
                -0.113551298804379,
                0.257053531235545,
                -0.15510033273038737,
                0.13371652356183383,
                -0.05157283262242726,
                0.40087220650800387,
                -0.137227651967336,
                -0.1400803758173281,
                -0.1794656815710569,
                -0.019009838209994214,
                -0.16854672869415271,
                -0.08976064306265588,
                -0.16997920602311278,
                0.07218382994781596,
                -0.15543693762206756,
                -0.11747371984781135,
                -0.17727351723214196,
                0.024030837659302137,
                -0.1765565141421669,
                -0.05693982359141052,
                -0.15758183148803034,
                0.12545086594051275,
                -0.14696970363656964,
                -0.12941527177674725,
                -0.17900731444099394,
                0.0018715641684360963,
                -0.1731891580203836,
                -0.07398878773882386,
                -0.16441846290895024,
                0.09817798056670499,
                -0.16262929954555422,
                -0.10425556429861607,
                -0.17426418488941237,
                0.04746818867132205,
                -0.17864871734281929,
                -0.03861356955010482,
                -0.14946918136685575,
                0.1540027178163649,
                -0.15168461327247673,
                0.14305694720755074,
                -0.04520846741654645,
                0.4132132690493245,
                -0.10866486007372272,
                0.2678913787868483,
                0.03869483701815774,
                0.5790393769463017,
                -0.13272873793147616,
                0.20291421475024263,
                -0.00581338453734724,
                0.4935621850130252,
                -0.07949184768977091,
                0.33799038215584165,
                0.08831773467392759,
                0.6696471931021468,
                -0.14284510912510645,
                0.1723457113854357,
                -0.02614997618161365,
                0.4527468353416637,
                -0.09471707040723806,
                0.30230052516826605,
                0.06286685128538594,
                0.623701806271466,
                -0.1213353676923083,
                0.23476269065487748,
                0.0158014901923452,
                0.5356596020931315,
                -0.06298903458363597,
                0.37496120844088904,
                0.11504769519828204,
                0.7168758468064717,
                -0.0910586258399361,
                -0.16815666043007135,
                -0.17040767762141262,
                -0.08425361325809605,
                -0.14093092632557264,
                -0.13641590169093604,
                -0.179484817088562,
                -0.011659245860435112,
                -0.11854402916256584,
                -0.15483837628878952,
                -0.17749651609452272,
                -0.05051116210533082,
                -0.15821896152953746,
                -0.11288807000806342,
                -0.1763718193895989,
                0.03230370751955128,
                -0.10543862249286626,
                -0.16213547321135038,
                -0.17458962042610598,
                -0.06802097652467079,
                -0.15021232786902516,
                -0.12529023235853118,
                -0.17856603211070243,
                0.009683248975860542,
                -0.13037481087601027,
                -0.14626523333573682,
                -0.17912827897682132,
                -0.031723982996608564,
                -0.16495076699567796,
                -0.0992092529744723,
                -0.17290206793700416,
                0.05620234211251151,
                -0.17379455459799437,
                0.04642875150686738,
                -0.10455132916289286,
                0.2792373903724584,
                -0.14938533088598743,
                0.15259775619382665,
                -0.03928351904564756,
                0.42636317105804855,
                -0.1641425389404534,
                0.09695533163132536,
                -0.07447227789849814,
                0.35023847924241075,
                -0.12952195366715713,
                0.2133578127908386,
                0.0010163295776134404,
                0.5076136588303551,
                -0.16960663873000048,
                0.07105266877999394,
                -0.09015043455200672,
                0.31409761754328397,
                -0.1400919784292094,
                0.18233796480411318,
                -0.019772571300816555,
                0.46634754942730594,
                -0.1574021426353252,
                0.12413695400851676,
                -0.057516695931526404,
                0.3876602400943087,
                -0.1176751186673973,
                0.2456575394400654,
                0.023083372198891252,
                0.5501617892300724,
                -0.1664581380256644,
                -0.09501811054219014,
                -0.17156506854857784,
                0.06325456797799181,
                -0.17921486339053744,
                -0.026102989381638995,
                -0.14350220698880675,
                0.17306759467990257,
                -0.17538696992303643,
                -0.0631151032613676,
                -0.16008574361137257,
                0.11560326974369442,
                -0.1779411521447371,
                0.016019708209452057,
                -0.12181338698293648,
                0.235649425313588,
                -0.171560133594496,
                -0.07970515686623941,
                -0.16646336951864976,
                0.08878957966333964,
                -0.1792157539586402,
                -0.005680559828668461,
                -0.13329602834903193,
                0.203718700167499,
                -0.17793857322775963,
                -0.04524777459041929,
                -0.15243206636640583,
                0.14369586403302523,
                -0.17539095882689454,
                0.038998015208284505,
                -0.10905413309177217,
                0.2688600212705459,
                -0.11220438819884801,
                0.25715832142415557,
                0.031552482068207564,
                0.5647247038068451,
                -0.05055111436660096,
                0.40068845782975715,
                0.13411791536072493,
                0.7492850602427888,
                -0.08393338531311567,
                0.32636118763996363,
                0.08027668612028832,
                0.6544381798159822,
                -0.012056288107852932,
                0.480142230074016,
                0.19307786245548297,
                0.8492678485822596,
                -0.09870771876949017,
                0.2911193312062154,
                0.0552750577782,
                0.6089399187685154,
                -0.03194285506359792,
                0.43977439610592256,
                0.1629579394255654,
                0.7986343054958774,
                -0.06788123642519606,
                0.3628841434835578,
                0.10655756917581499,
                0.7012197903842158,
                0.009108763243569651,
                0.5217922378306016,
                0.2244779118702297,
                0.901186018275311,
                -0.061637660862003486,
                -0.17584489295709654,
                -0.15953686107240417,
                -0.11051476325243281,
                -0.12078423346522407,
                -0.15338854891869663,
                -0.17789210201267097,
                -0.04721360765520997,
                -0.09376003852970718,
                -0.167168343968454,
                -0.1712644333263491,
                -0.0814182905601524,
                -0.14270996749013837,
                -0.13450441880038033,
                -0.17941918353843966,
                -0.007899220115647464,
                -0.07833610911035366,
                -0.1721444601165754,
                -0.16603809637989764,
                -0.09660496374062902,
                -0.13238442943678375,
                -0.1445845977651999,
                -0.17929326285430897,
                -0.028195224325254706,
                -0.10790942384966454,
                -0.1609164178887044,
                -0.17521579596454578,
                -0.06495456641016067,
                -0.15176079701648182,
                -0.12314786006180359,
                -0.1782697627794434,
                0.013674607612860929,
                -0.17838187155236357,
                0.004616560545462654,
                -0.12773934601000642,
                0.21877258333104604,
                -0.16327037399304634,
                0.10146312292214285,
                -0.07178037818820288,
                0.35655983781943734,
                -0.17337810183324787,
                0.050482847136710994,
                -0.10231394351340825,
                0.28510549196633395,
                -0.14805778888532167,
                0.15755909787722294,
                -0.03613734547343933,
                0.43313773628033414,
                -0.1765179292204151,
                0.02691055810615438,
                -0.11566508753934981,
                0.25129898624921004,
                -0.15630224875340254,
                0.1288715371708843,
                -0.0545976307487015,
                0.3942082068029112,
                -0.16896228649945938,
                0.07533363188216305,
                -0.08768576036396533,
                0.3201923554042603,
                -0.13853686615899347,
                0.18752603462459722,
                -0.016399343455793046,
                0.47334870651195704,
                -0.15396408017960495,
                -0.11967722490850577,
                -0.17763950309154192,
                0.019989618609827783,
                -0.1760033387937095,
                -0.060062066367556094,
                -0.1588666475301449,
                0.1204902421988252,
                -0.16753378927577434,
                -0.0924234990276542,
                -0.1708046364856997,
                0.06768297397090828,
                -0.17937214007098395,
                -0.022591527436756426,
                -0.14182454214793674,
                0.17841322819954708,
                -0.16138642184269314,
                -0.10668874180639606,
                -0.1748599019116523,
                0.04319716602951042,
                -0.1783253737129571,
                -0.041965526613335996,
                -0.15098367548130742,
                0.14881215371183645,
                -0.17240611839794728,
                -0.07688133113775134,
                -0.16547359205596962,
                0.09344725854536484,
                -0.1791435484484823,
                -0.0019398780648811624,
                -0.13138910743391086,
                0.20929370711170797,
                -0.134125794295744,
                0.1979126124383192,
                -0.009015694968776066,
                0.48676573411922136,
                -0.08179237129145564,
                0.33209089507115525,
                0.08421512795942146,
                0.661954509501866,
                -0.1105138719739712,
                0.26244070710177425,
                0.035042203993169645,
                0.5717947301777447,
                -0.04796008261774951,
                0.4068651968059351,
                0.13850469197494075,
                0.7572474979655776,
                -0.12295845878717349,
                0.22953652042639733,
                0.012373973367842612,
                0.5286390318982821,
                -0.06551515501453054,
                0.36883740148002686,
                0.11072022506158644,
                0.7089591970150237,
                -0.09679189215423364,
                0.2966254155199822,
                0.058989189285922665,
                0.6162331226899573,
                -0.029126987060802172,
                0.4461745494428201,
                0.16756874641660946,
                0.8068197314242841,
                -0.1162569725138678,
                -0.15623741533662036,
                -0.1770525895836096,
                -0.05375452102091361,
                -0.15685358545261557,
                -0.11520900477064042,
                -0.1768493012999347,
                0.02813720615169696,
                -0.13910475070479655,
                -0.13827583440767022,
                -0.17950158806505573,
                -0.015364074348432637,
                -0.16950304333690341,
                -0.08703568217608068,
                -0.16909489045331053,
                0.07675097014343846,
                -0.12831820641007036,
                -0.14789470715419079,
                -0.17891470101209594,
                -0.0351980527682576,
                -0.16381576755060334,
                -0.10176073681776843,
                -0.17360991777312024,
                0.051804920647992365,
                -0.14861656072239565,
                -0.12738065106778035,
                -0.1788131553900239,
                0.0057476109446540575,
                -0.17391534279745863,
                -0.07103366947789146,
                -0.16330409864963497,
                0.1029755766825351,
                -0.16490124508825077,
                0.09256919282969428,
                -0.0770471017057835,
                0.3440443092235229,
                -0.1311894139083441,
                0.20806734283894618,
                -0.002464657129484063,
                0.5005162299667312,
                -0.15059859976270457,
                0.14775936106534315,
                -0.042311562519811635,
                0.4197173283303237,
                -0.10667263313672773,
                0.2734950033679728,
                0.04249507426815608,
                0.5864432847647283,
                -0.15838817805142769,
                0.11952466287224034,
                -0.060318165609783356,
                0.38124022141609487,
                -0.11956954274559697,
                0.2401410927238139,
                0.01937601012161101,
                0.5428385923469059,
                -0.14153238792542822,
                0.17727351105928413,
                -0.02302711946240148,
                0.45947590429330315,
                -0.09249853744667727,
                0.3081293237601121,
                0.06689273362202505,
                0.6313306068857024,
                -0.1747001712762286,
                -0.06609164554614357,
                -0.16123185724140277,
                0.1107972635382119,
                -0.17817121501961303,
                0.012128408303071018,
                -0.12387493046259804,
                0.22992857427050073,
                -0.17898660871670052,
                -0.029536928758843534,
                -0.1451061012905298,
                0.1678041952392439,
                -0.172253246280534,
                0.05890592037306016,
                -0.09753719543866082,
                0.2971723607799574,
                -0.17748107635375832,
                -0.04845302147510523,
                -0.1538070882522906,
                0.13866116702257195,
                -0.17585010298347553,
                0.03487804133208886,
                -0.11134445926669026,
                0.2629104151220798,
                -0.17921668487890313,
                -0.009343182557578643,
                -0.13512876219315478,
                0.19822658370482155,
                -0.16738053608622994,
                0.08421225560417164,
                -0.08245297947713659,
                0.332714672099135,
                -0.08589845991831146,
                0.3208177421714911,
                0.0765188652293586,
                0.6471147125901043,
                -0.014918720999942838,
                0.4737081683048271,
                0.18842643399276165,
                0.841055996882716,
                -0.05296512626756352,
                0.3946995409891107,
                0.12991307999683144,
                0.7415172850235147,
                0.028242120757003716,
                0.5578457998201225,
                0.25206069750411647,
                0.9457334292837061,
                -0.07007084569964445,
                0.3571179200402556,
                0.10257618689334724,
                0.6936741387392091,
                0.0060223060537102245,
                0.5151357185970596,
                0.21960333745694965,
                0.8927522077366119,
                -0.034581140514915,
                0.43356286747884015,
                0.1585297563237799,
                0.7906444645806175,
                0.05174090955549879,
                0.6018386997732081,
                0.2857987512566384,
                1.0000000000000027
            ],
            "result_with_budget": [
                {
                    "portfolio": {
                        "JNJ": 4,
                        "V": 15
                    },
                    "budget": 5306.523101806641,
                    "difference": -10.523101806640625,
                    "objective_value": -3225.121237348471
                }
            ],
            "result_with_budget_excited": [
                {
                    "portfolio": {
                        "JNJ": 6,
                        "V": 14
                    },
                    "budget": 5277.957092285156,
                    "difference": 18.04290771484375,
                    "objective_value": -3281.4473269329465
                }
            ]
        },
        "qaoa_solution": {
            "two_most_probable_states": [
                "01110011100",
                "11110011100"
            ],
            "final_expectation_value": -0.17074084273434822,
            "params": [
                2.4589679165378056,
                -3.0954698870228743,
                0.03661230082488964,
                -19.255073701264223,
                10.531819859989655,
                2.6713956836323884,
                12.577928521880612,
                19.609730818670503,
                19.833606409466356,
                5.316354347623057,
                4.722760738139259,
                -0.9108481168659999,
                1.5472252280328833,
                0.16386120621289293,
                1.777496599068577,
                1.3412124019747316,
                3.0410544737227334,
                3.0815241181349275,
                1.526361666264329,
                1.5572196747037357
            ],
            "total_steps": 800,
            "states_probs": [
                0.004921608525564547,
                0.005687920732117414
            ],
            "optimized_portfolios": [
                {
                    "JNJ": 14,
                    "V": 7
                },
                {
                    "JNJ": 15,
                    "V": 7
                }
            ],
            "training_history": {
                "xbest": [
                    2.4589679165378056,
                    -3.0954698870228743,
                    0.03661230082488964,
                    -19.255073701264223,
                    10.531819859989655,
                    2.6713956836323884,
                    12.577928521880612,
                    19.609730818670503,
                    19.833606409466356,
                    5.316354347623057,
                    4.722760738139259,
                    -0.9108481168659999,
                    1.5472252280328833,
                    0.16386120621289293,
                    1.777496599068577,
                    1.3412124019747316,
                    3.0410544737227334,
                    3.0815241181349275,
                    1.526361666264329,
                    1.5572196747037357
                ],
                "fbest": -0.17074084273434822,
                "evals_best": 9534,
                "evaluations": 9600,
                "iterations": 800,
                "xfavorite": [
                    2.4470472370828684,
                    -3.108964720956051,
                    0.11675775188816015,
                    -19.260533350203268,
                    10.576301230638407,
                    2.621327049455413,
                    12.66052393312896,
                    19.75756756121682,
                    19.81795671659452,
                    5.320612037437332,
                    4.721121402563888,
                    -0.9075915248320533,
                    1.5482745084945408,
                    0.16067007165825012,
                    1.7880215304616087,
                    1.3349385086215257,
                    3.0408001062924908,
                    3.0832866062523205,
                    1.5244837760727536,
                    1.5547348780149692
                ],
                "stds": [
                    0.01812188377031419,
                    0.03360866696983443,
                    0.04702941778820684,
                    0.09934501988329879,
                    0.08510310130860661,
                    0.034672097597426677,
                    0.0609698883199019,
                    0.09177588028860455,
                    0.11136059035558524,
                    0.022391607307533742,
                    0.006185958580021506,
                    0.005824891772832456,
                    0.005121781390921287,
                    0.0031522673911302253,
                    0.0056575416515463085,
                    0.004141377319808485,
                    0.0020633129935758543,
                    0.0017304323347149416,
                    0.001503779144999764,
                    0.001843280519728045
                ],
                "stop": {
                    "maxiter": 800
                }
            },
            "objective_values": [
                -3415.3408719071026,
                -4208.0801476207
            ],
            "result_with_budget": [
                {
                    "portfolio": {
                        "JNJ": 14,
                        "V": 7
                    },
                    "budget": 4217.165679931641,
                    "difference": 1078.8343200683594
                },
                {
                    "portfolio": {
                        "JNJ": 15,
                        "V": 7
                    },
                    "budget": 4360.637237548828,
                    "difference": 935.3627624511719
                }
            ]
        }
    }
}