{
    "14": {
        "hyperparams": {
            "stocks": [
                "DOW",
                "MSFT",
                "TRV"
            ],
            "start": "2015-01-01",
            "end": "2025-01-01",
            "risk_aversion": 0.1,
            "n_qubits": 13,
            "budget": 2213,
            "log_encoding": true,
            "layers": 10,
            "prices_now": {
                "DOW": 39.3990364074707,
                "MSFT": 420.6565246582031,
                "TRV": 239.9084930419922
            },
            "assets_to_qubits": {
                "DOW": [
                    0,
                    1,
                    2,
                    3,
                    4,
                    5
                ],
                "MSFT": [
                    6,
                    7,
                    8
                ],
                "TRV": [
                    9,
                    10,
                    11,
                    12
                ]
            },
            "optimizer": "CMAES",
            "lambda_budget": 0.1
        },
        "continuous_variables_solution": {
            "weights": {
                "DOW": 0.0,
                "MSFT": 0.9999999999999998,
                "TRV": 3.0531133177191805e-16
            },
            "allocation": {
                "DOW": 1,
                "MSFT": 5,
                "TRV": 0
            },
            "value": -29.038999268798463,
            "left_overs": 70.31833983830529
        },
        "continuous_variables_solution_unconstrained": {
            "weights": {
                "DOW": 0.0,
                "MSFT": 1.0,
                "TRV": 0.013729232426818023
            },
            "allocation": {
                "DOW": 2,
                "MSFT": 5,
                "TRV": 0
            },
            "value": -48.7674638124105,
            "left_overs": 30.919294338165855
        },
        "exact_solution": {
            "smallest_eigenvalues": [
                -0.11223835381323656
            ],
            "smallest_bitstrings": [
                "1100001010000"
            ],
            "first_excited_energy": -0.11223771896001773,
            "optimized_portfolio": [
                {
                    "DOW": 3,
                    "MSFT": 5,
                    "TRV": 0
                }
            ],
            "second_optimized_portfolio": [
                {
                    "DOW": 1,
                    "MSFT": 4,
                    "TRV": 2
                }
            ],
            "spectrum": [
                -6.403841719972408e-17,
                -0.110253683682951,
                -0.07623752007513455,
                -0.10202734052829922,
                -0.04339560477191347,
                -0.11142264441375886,
                -0.0985242950892775,
                -0.08206313996216467,
                -0.023016953960105346,
                -0.11215843868819912,
                -0.08870042186145118,
                -0.09336667290117791,
                -0.06113584564328297,
                -0.10804579641198624,
                -0.105708834138721,
                -0.06811603843586399,
                -0.10579516537995677,
                -0.06800392684416141,
                -0.10801489116661196,
                0.014265074641498907,
                -0.1121826524154194,
                -0.0321538870069923,
                -0.09328965621827952,
                0.07125836476058885,
                -0.11030820691160452,
                -0.05139971530262352,
                -0.10197212806017596,
                0.041439559659178074,
                -0.11141829827490117,
                -0.010265840685265018,
                -0.08196707319667111,
                0.10372229004548537,
                -0.06911981734517321,
                -0.10535253426217121,
                -0.1083489385647148,
                -0.06010635576291531,
                -0.09401155017241856,
                -0.08801267939867478,
                -0.11213014440424075,
                -0.02162854399305064,
                -0.08288489299763711,
                -0.09800313278367699,
                -0.11155921025277414,
                -0.04218923067169734,
                -0.10249963366519739,
                -0.07538062124734128,
                -0.11006138698704325,
                0.0015764559605996877,
                -0.11002562512296497,
                0.0017932473090894136,
                -0.07523461402112776,
                0.12108840430126709,
                -0.09790832008037322,
                0.05615501393845596,
                -0.04200189423253849,
                0.1965992123542338,
                -0.10528639050104395,
                0.027653008712550425,
                -0.059938325204380166,
                0.15752123792735032,
                -0.08789116183227359,
                0.0872999126709882,
                -0.021424870249171463,
                0.23832317609385076,
                -0.03861545185770418,
                -0.11185898263374476,
                -0.09634887552230946,
                -0.08512307370712129,
                -0.07275915661072564,
                -0.1037736959623743,
                -0.10938296412335181,
                -0.055902290154861374,
                -0.05700648075191191,
                -0.10913673570581066,
                -0.10418550745780338,
                -0.07183428476702357,
                -0.08587334843591447,
                -0.09576933474970177,
                -0.11194091569297233,
                -0.03732636238914927,
                -0.11196604318192487,
                -0.03716149061322232,
                -0.09568058976117923,
                0.06362015050578794,
                -0.10910121324159149,
                0.007944209115282643,
                -0.07170175367671529,
                0.12987193386628762,
                -0.11185298227960598,
                -0.01592960200430642,
                -0.08501113055278815,
                0.09542368085370283,
                -0.10371050824529184,
                0.034460568223637376,
                -0.055752032482619764,
                0.16696573384938643,
                -0.09151306978810696,
                -0.0907342256743525,
                -0.11223763941826155,
                -0.026977030692013935,
                -0.10715273722779751,
                -0.06413946027388802,
                -0.10676574459296091,
                0.020758276081829178,
                -0.10065215324553313,
                -0.07875750625047277,
                -0.11082144968482656,
                -0.004431343834084555,
                -0.11101464232448975,
                -0.04687951067868545,
                -0.10007014590450276,
                0.048592604949391924,
                -0.09997381599978165,
                0.048860468345647286,
                -0.04667682563337301,
                0.1866700605605983,
                -0.07860385617357461,
                0.11247873044029559,
                -0.00418991801776986,
                0.271440446311984,
                -0.09060832559517577,
                0.0793483090482678,
                -0.026753562924420726,
                0.22773246619023044,
                -0.06396013150020942,
                0.14825240641200274,
                0.02101458414909998,
                0.31779487364388265,
                -0.08993928871456648,
                -0.08797256363070353,
                -0.11016961697505663,
                -0.023280198847873673,
                -0.10535412700019307,
                -0.06094303785307873,
                -0.10437846037646063,
                0.025026432891629254,
                -0.09897120132164287,
                -0.07578634099300503,
                -0.10860035670569577,
                -0.00045804310591546465,
                -0.1090872280277871,
                -0.043441418832991865,
                -0.09750289143716982,
                0.053174663350444726,
                -0.09813240787950099,
                0.05213555836356829,
                -0.044230124421833855,
                0.19103876706929304,
                -0.07648505522397593,
                0.11626484199497523,
                -0.0013595426155094106,
                0.2764685876881089,
                -0.08863420533330384,
                0.08287029231342082,
                -0.02412232551462842,
                0.23242095598745352,
                -0.06168402300472817,
                0.15232053961052275,
                0.02405935765006347,
                0.3231831932013023,
                -0.11026877485805807,
                -0.034157409299631125,
                -0.09343553842892578,
                0.06763664074293642,
                -0.107153826037071,
                0.011420189274795727,
                -0.06910622647349114,
                0.13450281190894361,
                -0.11003626851528726,
                -0.01269781851570858,
                -0.0825977719089639,
                0.09973780112161114,
                -0.10162056128879972,
                0.038197897861994165,
                -0.05295981716014654,
                0.1719331557227974,
                -0.053527749319603184,
                0.17090946757481215,
                0.03744940838382409,
                0.3469296532254262,
                -0.01334520366245894,
                0.2535942209625337,
                0.09886454697424595,
                0.45092740576251106,
                -0.03476248709682206,
                0.21092120592987926,
                0.06682885203449408,
                0.39759498080541894,
                0.010725083942454425,
                0.2989298932872462,
                0.13355767498979929,
                0.5069285075389235,
                -0.10416212173051816,
                -0.0651245283258438,
                -0.10586133138366664,
                0.018117766466322033,
                -0.11031238277638113,
                -0.028821406904893012,
                -0.0908014756409604,
                0.0757036649432362,
                -0.10856197913064457,
                -0.04830183810377297,
                -0.09965800336736184,
                0.045579176927515924,
                -0.10941247073920761,
                -0.006681975145181515,
                -0.07929068744819077,
                0.108492688925257,
                -0.0798887781585809,
                0.10746218905453427,
                -0.007449807535081498,
                0.26492288739259306,
                -0.048974188425578664,
                0.1808687236992351,
                0.044692631019193414,
                0.359636127884913,
                -0.06575722159696011,
                0.14283518716335972,
                0.017293606810605006,
                0.31094637648765294,
                -0.029538719891557947,
                0.22156415507053892,
                0.07474842267131405,
                0.4109936968205078,
                -0.10825896898814809,
                0.0049291587765510824,
                -0.07289191589200693,
                0.12527683242037554,
                -0.09587815611832991,
                0.05978213756949851,
                -0.039292369100331105,
                0.20142430378205148,
                -0.10339377958908517,
                0.03102609387725184,
                -0.057419329334227276,
                0.16201824869222312,
                -0.08571118823518288,
                0.0911985978494931,
                -0.018509926021867785,
                0.2434965045138139,
                -0.019048973724533864,
                0.24247782778201374,
                0.09046791408270528,
                0.43705954153519416,
                0.030402268258311573,
                0.3344417891973784,
                0.16115661755236502,
                0.5503429198431976,
                0.004350356582591453,
                0.28712879324803803,
                0.12448381168230842,
                0.4923672566856027,
                0.05910776846768426,
                0.3844182204505983,
                0.2004875376856843,
                0.6109881346562933,
                -0.05473949103925658,
                -0.10930238868222501,
                -0.1031639788876519,
                -0.07311018035858362,
                -0.08423520803553579,
                -0.09650089260858384,
                -0.11152142905406377,
                -0.03912269614666129,
                -0.07080797546340643,
                -0.10422485149768788,
                -0.10866442353225338,
                -0.05744153805129638,
                -0.09502071649835893,
                -0.08612964210212466,
                -0.11173432436804605,
                -0.018152585904138156,
                -0.11186058528098101,
                -0.018294079861061897,
                -0.08623170943910267,
                0.09200304027648688,
                -0.1043320675949811,
                0.03155587576693649,
                -0.0575543616769347,
                0.16305574404802078,
                -0.10941751574252641,
                0.005306736424684144,
                -0.07321551214666645,
                0.12620314803889274,
                -0.09660367175670069,
                0.06045430490284245,
                -0.03924749012051106,
                0.20256199386876986,
                -0.09952530228468061,
                -0.08002723562043475,
                -0.11092472801699045,
                -0.006785186651144565,
                -0.1105096495835801,
                -0.0487027551795017,
                -0.10076577574593558,
                0.04573341304763374,
                -0.1063383679942166,
                -0.0656886660350449,
                -0.10716733440129349,
                0.018148456792418426,
                -0.11203862638330571,
                -0.029068584728836614,
                -0.091719332553701,
                0.07597079926722035,
                -0.09174391130781977,
                0.0758991970728576,
                -0.029083149555337095,
                0.22325696377958779,
                -0.0657008609102442,
                0.14427729114685103,
                0.018114759190746833,
                0.3128469326489334,
                -0.08004390376841929,
                0.10876356057804183,
                -0.006807096950143651,
                0.26672508526298183,
                -0.048714165239470635,
                0.1824414039286116,
                0.045683235188909675,
                0.3616237199145208,
                -0.08118863410574316,
                -0.09872194079137296,
                -0.11110097427346431,
                -0.04400544440533879,
                -0.10142884238682516,
                -0.07665925310911005,
                -0.11020046157540135,
                -0.0007527652457787737,
                -0.09262949335053451,
                -0.08901403380512384,
                -0.11197261507624763,
                -0.02370447903901095,
                -0.10758618475123942,
                -0.06165670458445385,
                -0.10578381847979783,
                0.024850789920987434,
                -0.10585884291825971,
                0.024744900346613762,
                -0.06171449371802583,
                0.15357162528874327,
                -0.08907327811975387,
                0.08385858151279625,
                -0.02377714692794754,
                0.23389255570360387,
                -0.09878741011217536,
                0.05297732228847004,
                -0.04406850561243707,
                0.19240554084765135,
                -0.07671585365326135,
                0.11738966896282897,
                -0.0008396255490717487,
                0.2780338596275894,
                -0.10974934268439902,
                -0.05321803405816309,
                -0.1026350441167722,
                0.03855087512503574,
                -0.11147745517923625,
                -0.012631138153616307,
                -0.0832171540093141,
                0.10033614250950697,
                -0.11193443572533555,
                -0.034248498298756834,
                -0.09424837472848428,
                0.06811756244147553,
                -0.10837785617054595,
                0.011634988908316114,
                -0.06954063825595498,
                0.1352077566879389,
                -0.06951556902899599,
                0.1351691179579125,
                0.011662587579417157,
                0.3010594064990507,
                -0.034214572990892984,
                0.21281233386423778,
                0.06812164276449632,
                0.3999192471889354,
                -0.05318676451314636,
                0.1726657697110899,
                0.03856898914811435,
                0.3491621428123622,
                -0.012598352762322152,
                0.2556098497727744,
                0.10032138895622815,
                0.4533319578119402,
                -0.10225403361719627,
                -0.04224666413967862,
                -0.09357298243862734,
                0.05181624088252569,
                -0.10323895601215781,
                -0.0005634895135414911,
                -0.07324589091275323,
                0.11490593027639577,
                -0.10407724900358391,
                -0.022741339662945396,
                -0.08474274636056016,
                0.08202147193615712,
                -0.09973795145534316,
                0.0242884871516104,
                -0.059081014079880714,
                0.1504714155740702,
                -0.06103948278633136,
                0.1475283231988885,
                0.021897106764366705,
                0.3159516828790642,
                -0.024902418668224253,
                0.226384393291277,
                0.07937009009016223,
                0.4162443697849921,
                -0.04430310217225438,
                0.18561831085524336,
                0.04929869783760781,
                0.36475643448650247,
                -0.002836132262307594,
                0.26982826817442623,
                0.11211278236171494,
                0.47041738526971855,
                -0.09789198016634666,
                0.03638738457917341,
                -0.05208702241157427,
                0.167625658788249,
                -0.0803177783889386,
                0.09665464008814477,
                -0.013189102952967342,
                0.24931423120479326,
                -0.09043631653939287,
                0.06518387277576308,
                -0.033972152264342484,
                0.207129357807298,
                -0.0675351141152296,
                0.13080133577157513,
                0.010263575950056931,
                0.29418212706374164,
                0.008306906721095308,
                0.29118028967433823,
                0.12838319816575391,
                0.4967987959881553,
                0.06301074378738723,
                0.3886300804898826,
                0.20443565373235031,
                0.6157010012893297,
                0.03432592851565546,
                0.33856619874994337,
                0.16507368324142732,
                0.5549072710265338,
                0.09436270096040315,
                0.4413736809737678,
                0.2464706568903867,
                0.6791819316839176,
                -0.10413410757818238,
                -0.006992753103336548,
                -0.07689204720908237,
                0.10565664353166908,
                -0.0958399243805529,
                0.04398188102909217,
                -0.04728006043120155,
                0.178045131280985,
                -0.1013181078158983,
                0.017157866654559966,
                -0.06341974956481485,
                0.1405107908788615,
                -0.08769832987848152,
                0.07348091506942687,
                -0.02847155358682665,
                0.21826148861495745,
                -0.030428250768590275,
                0.21529015862481152,
                0.07107715941193903,
                0.40230981242159564,
                0.01499170022022611,
                0.30344246503386213,
                0.13783931703398625,
                0.5119065722594673,
                -0.009050795477165396,
                0.2580277988571328,
                0.10312292046311981,
                0.45576608650046174,
                0.04170056054160731,
                0.35153587902853006,
                0.1752278721703129,
                0.5707331903998895,
                -0.08352724605528165,
                0.08789424045383713,
                -0.019157459609906332,
                0.237723821308039,
                -0.056672091156012634,
                0.15745530076449657,
                0.029027451513040616,
                0.32871378625848896,
                -0.07143145907021271,
                0.12133718102409692,
                0.00360050475450073,
                0.2818777181546879,
                -0.03924786650683773,
                0.1962502731363828,
                0.05712485529930834,
                0.37823389790854073,
                0.055166463538128305,
                0.3751992764224484,
                0.19381573999100252,
                0.5994192367635095,
                0.11915520744355594,
                0.481947821289209,
                0.27915963870534016,
                0.7276282816142485,
                0.08582755443905811,
                0.4272340813861066,
                0.23515151391516956,
                0.6621806020269336,
                0.15515079518182404,
                0.5393422664174641,
                0.3258416858194701,
                0.7957642446389148,
                -0.029689270966806573,
                -0.11216040465437406,
                -0.09204691006809294,
                -0.08999690954587801,
                -0.06614705282746804,
                -0.10636583070508719,
                -0.107385930007718,
                -0.06304754725176169,
                -0.04923775149891794,
                -0.1105845612774956,
                -0.10103673780992696,
                -0.07784519547783102,
                -0.08041688542774371,
                -0.09950352575693285,
                -0.11109399830900128,
                -0.045603078859702474,
                -0.11116502683368863,
                -0.045559917536961335,
                -0.09949254677385981,
                0.050671902815731425,
                -0.11060936239911585,
                -0.002734343440637863,
                -0.07781089268208775,
                0.11466568975200091,
                -0.11220713912733422,
                -0.025469316293150638,
                -0.08997258605786394,
                0.08134489334955165,
                -0.10637131029996098,
                0.022645785025151913,
                -0.06300688146970727,
                0.1506352748554056,
                -0.08665031916923875,
                -0.09508594714848391,
                -0.11199395769881658,
                -0.03589034395899195,
                -0.10460184516594175,
                -0.07077683817546397,
                -0.10882335678946518,
                0.009580016723352083,
                -0.09694583366875505,
                -0.08425319180784051,
                -0.11172923373990519,
                -0.014478583069291279,
                -0.10961801572390588,
                -0.054656150658959124,
                -0.10327579008285194,
                0.03628638983908532,
                -0.10323247010929389,
                0.03641929778768101,
                -0.05454140856404705,
                0.16969178926409248,
                -0.08416850823697129,
                0.09776343954603538,
                -0.01434709651725381,
                0.2522116027591409,
                -0.09502065780421474,
                0.06576876509363981,
                -0.03576543981504936,
                0.209627278484076,
                -0.07067558664631181,
                0.1324041535616222,
                0.009714254918342677,
                0.29744579333379273,
                -0.06222554060224721,
                -0.10767953227182069,
                -0.10607642261499696,
                -0.06700047520320764,
                -0.08943030057439653,
                -0.0926279212956664,
                -0.11216080039436672,
                -0.030790906420742368,
                -0.07714758725099684,
                -0.1014753442667614,
                -0.11043905474977693,
                -0.050218880188418406,
                -0.09907336684164376,
                -0.08113655197222992,
                -0.11124114699021202,
                -0.008715643686122198,
                -0.11125472496843113,
                -0.008627069646903573,
                -0.08107328358278933,
                0.10612450796768942,
                -0.10144506096824006,
                0.04345751468564727,
                -0.05013551188752899,
                0.17938097236779435,
                -0.10766994565054482,
                0.016092831719384925,
                -0.06692542064850594,
                0.141428583825612,
                -0.09257966036635483,
                0.07346778746254766,
                -0.030702947916945233,
                0.219982680632652,
                -0.102963516884797,
                -0.07437947328180154,
                -0.1097993824267784,
                0.003333703299120785,
                -0.11166157526422386,
                -0.040812383787023385,
                -0.09737344474534439,
                0.05806546284776799,
                -0.10863239019176103,
                -0.058917917120723105,
                -0.10490713111009069,
                0.029375925769349488,
                -0.11205070995920309,
                -0.02006211348221641,
                -0.08719776236180486,
                0.08940327316061376,
                -0.08709810394429639,
                0.08957942929835076,
                -0.019896720295863982,
                0.24137403434628782,
                -0.05877952433843504,
                0.16018369722697987,
                0.029554576405401278,
                0.33315789012228275,
                -0.07425910649891652,
                0.12355873913861949,
                0.0035075686417216827,
                0.2859412757437383,
                -0.040658898495510555,
                0.19945516018627543,
                0.05824496079026737,
                0.38302493293251766,
                -0.0992525264652434,
                -0.06849636845415415,
                -0.10513782326822206,
                0.010751462695215564,
                -0.10750653934335082,
                -0.034203723535651424,
                -0.09213761811658312,
                0.06638113160574154,
                -0.10470685758258307,
                -0.052682148390328434,
                -0.09996723540150697,
                0.03723120941322905,
                -0.10765055129254407,
                -0.013059675779617636,
                -0.0816477521306959,
                0.09820284621100962,
                -0.08281588443343245,
                0.09636019275458894,
                -0.014512566019529138,
                0.24988821336613057,
                -0.05398053849856028,
                0.16778643441897803,
                0.035597567721804516,
                0.3426782455582115,
                -0.06972672493096845,
                0.13073963510723677,
                0.009211603706629783,
                0.2949463719920841,
                -0.03557620785684686,
                0.207502105624675,
                0.06464664213310735,
                0.3930855478271294,
                -0.10727270059125439,
                -0.0023136845371431857,
                -0.07606699167545063,
                0.11406994392140034,
                -0.09698362278693574,
                0.05054367226411239,
                -0.044513659836091214,
                0.1882774590994505,
                -0.10345606520553251,
                0.02278211898119002,
                -0.06162051612738602,
                0.14983774446194806,
                -0.08785430446828162,
                0.08097244183430842,
                -0.02474515510663407,
                0.22939075318434218,
                -0.0258791346630082,
                0.22752889650643635,
                0.07952874190662458,
                0.41821024899311227,
                0.021505829289700403,
                0.317528368453495,
                0.14819952520334248,
                0.5295876413848878,
                -0.003515807210543379,
                0.2711941192927852,
                0.11253249852719953,
                0.47256115618691946,
                0.049186940529263645,
                0.36653320733561073,
                0.18653118645434433,
                0.5892914667618114,
                -0.10732206406333543,
                -0.03946620930730723,
                -0.09466266192444335,
                0.058348467696065984,
                -0.10630491800379831,
                0.004108280707471817,
                -0.0723863420532783,
                0.12326648667448807,
                -0.10814110124213085,
                -0.0190114490499799,
                -0.08485435064042247,
                0.0894719586812117,
                -0.10181246968724585,
                0.029894422281642952,
                -0.057257392674166824,
                0.1597336928202415,
                -0.05840769591549914,
                0.1578824535475055,
                0.028447011439170698,
                0.3299860010764532,
                -0.020297970485066572,
                0.23859475639834052,
                0.08783697822407284,
                0.4320690971927255,
                -0.04068166330591574,
                0.19690451302835685,
                0.056810732634273754,
                0.3796902297873029,
                0.0027445240324993694,
                0.2829547227984078,
                0.12152708852176995,
                0.48712434126142534,
                -0.09910409383127729,
                0.04296163429363887,
                -0.04935042719373303,
                0.17791636291830884,
                -0.07954228992014505,
                0.10510290112646668,
                -0.008519164582615493,
                0.26141454198261344,
                -0.09065139647761798,
                0.07269899491792996,
                -0.030265335757437752,
                0.21832904907997688,
                -0.06577568108558647,
                0.1401748436480221,
                0.015889378231756426,
                0.30717453118274446,
                0.014770210070758669,
                0.305300018597677,
                0.13873307923934006,
                0.5145614971921949,
                0.07143129312735307,
                0.4045877891056336,
                0.2166856840710147,
                0.6352344397656777,
                0.041771264879314075,
                0.353608961644264,
                0.1763773660193619,
                0.5735597020444653,
                0.10375148471250571,
                0.4582380885349208,
                0.25965942211968046,
                0.6995874967367165,
                -0.07493924726661237,
                -0.10138419969326952,
                -0.10933530202182477,
                -0.051029705331932844,
                -0.09742765166475433,
                -0.08151138827039044,
                -0.11065636193570448,
                -0.009930133231756408,
                -0.08750571001252118,
                -0.09277337038522972,
                -0.11131955162613223,
                -0.031807750096779344,
                -0.1047044172334544,
                -0.06759720070339105,
                -0.1073448791329328,
                0.014604396736248085,
                -0.10764220389853969,
                0.014117246129327883,
                -0.06795073077779797,
                0.13862415853080476,
                -0.09309012539909729,
                0.0710614363421458,
                -0.032217409037653924,
                0.21681520493631237,
                -0.10168919704357497,
                0.04126260568698379,
                -0.05140875505172934,
                0.176390498124553,
                -0.08184423715088969,
                0.10351488756453371,
                -0.010375742093603552,
                0.2598996272635535,
                -0.10751924180448187,
                -0.05986685166851124,
                -0.10487371307097125,
                0.027560675731388148,
                -0.11148843275769289,
                -0.02145987662065028,
                -0.08766885904476361,
                0.08720421033117927,
                -0.1108264681966931,
                -0.04198950456546578,
                -0.09759547289836164,
                0.05605395137450521,
                -0.10950443208544396,
                0.0017231332234749553,
                -0.07509296928038901,
                0.12101275248670205,
                -0.07530619995897016,
                0.12057071704668866,
                0.0014359233258232288,
                0.2821637112910691,
                -0.04223062355999544,
                0.19605534640359637,
                0.055700438992908656,
                0.37890599124755264,
                -0.06009187674377297,
                0.15698566993813814,
                0.027242966601470003,
                0.3292049445976964,
                -0.021721640181241255,
                0.23778094432496114,
                0.08680933955428623,
                0.43126824795028984,
                -0.09528626344931558,
                -0.08468371615102861,
                -0.11116205001758557,
                -0.015793477710892578,
                -0.10851530734850988,
                -0.055544193580708105,
                -0.10322046140570516,
                0.03457764275327544,
                -0.10322322724133666,
                -0.07143980938921278,
                -0.10851520506677818,
                0.008063925174132661,
                -0.11116182457488795,
                -0.03699579187406405,
                -0.09527694101066735,
                0.06374895070573801,
                -0.09553170423997732,
                0.06328513528125977,
                -0.03731551581420685,
                0.2063342299441284,
                -0.07171816612407574,
                0.12949913129128424,
                0.007683051335334821,
                0.29380041712951926,
                -0.08494817998275207,
                0.09506508850719124,
                -0.01614117820158781,
                0.2487377822853115,
                -0.05584088664364208,
                0.16658843730934755,
                0.034158147644618914,
                0.34152350698031314,
                -0.11163796633175753,
                -0.026933304025785993,
                -0.09047003207183947,
                0.07903310032463019,
                -0.10634679033705423,
                0.02074188638460928,
                -0.06400127418784209,
                0.14794993638657014,
                -0.11031520610078895,
                -0.004422142916609519,
                -0.07856008523329143,
                0.11216268461150596,
                -0.09973199143242557,
                0.048559909141500164,
                -0.04679267249961223,
                0.18639617974120362,
                -0.04696540652616877,
                0.18597436217454097,
                0.048303914281430584,
                0.366113016430344,
                -0.004627191622612354,
                0.2707304739829037,
                0.11183510312909974,
                0.4721323627040239,
                -0.027119992019841315,
                0.2270247315061993,
                0.07874401777402944,
                0.4177924096978709,
                0.02051381909800375,
                0.31709281169264414,
                0.14757819360687893,
                0.5291342963645459,
                -0.0981810452854107,
                -0.00837666267976513,
                -0.07467031804000875,
                0.10080293528281685,
                -0.0917676063409746,
                0.04084545800138658,
                -0.04687749653808377,
                0.17151063425297638,
                -0.09630910780931824,
                0.01489337608696798,
                -0.062111610246279106,
                0.13481204692194101,
                -0.08455515496023307,
                0.06948136663914041,
                -0.028966392167524464,
                0.21090067967932283,
                -0.032012214180626476,
                0.20651496157653618,
                0.06583189424867382,
                0.3901461990494113,
                0.011561298805228196,
                0.2929547362725651,
                0.13081203058900845,
                0.49810498959039184,
                -0.011561845409277976,
                0.2483918343278199,
                0.0969824600874377,
                0.44277866980234115,
                0.037358701207397656,
                0.34020554781078,
                0.16732228732564294,
                0.5561272376413237,
                -0.08134973676204175,
                0.08280669799310862,
                -0.020676742254754025,
                0.22920669684852044,
                -0.05635841024116219,
                0.15063499847130654,
                0.025707338339046513,
                0.31853704551063455,
                -0.0701896428052627,
                0.11537884570211217,
                0.001176710953019579,
                0.2725260555530113,
                -0.03985460473741402,
                0.18857698828852007,
                0.05291677306340433,
                0.36724169753697167,
                0.04983547552655729,
                0.36275277089486435,
                0.18485988941630963,
                0.5836264295881466,
                0.11199564630507546,
                0.4678094866686656,
                0.2684410505969925,
                0.7102196266340625,
                0.07957832366593644,
                0.41393707100801624,
                0.22531002132258818,
                0.6455749635921676,
                0.14708897460065865,
                0.5243719466890014,
                0.31425470722396,
                0.777562546353773,
                -0.09382843142190496,
                0.03314968426171888,
                -0.05173765482318132,
                0.1609381495100309,
                -0.0781265752728663,
                0.09167424381624271,
                -0.014649792579703544,
                0.24095646008025132,
                -0.08731267510848077,
                0.061070455875809775,
                -0.03453186483582425,
                0.19960203194767764,
                -0.06626872178882441,
                0.12496285586475749,
                0.007910170899168992,
                0.2850034405172409,
                0.004847602007856185,
                0.28056737213466,
                0.12128069267018297,
                0.48281840083747707,
                0.057713874196634415,
                0.37631492323463445,
                0.19556070951651758,
                0.6000936382752192,
                0.02994392950531369,
                0.32709761538820603,
                0.15708072947441523,
                0.5401085289268966,
                0.08815894303241321,
                0.4282212002800472,
                0.23672233857483813,
                0.662775832316293,
                -0.06074449287072919,
                0.14059493316907415,
                0.018512931210154317,
                0.30560917506274377,
                -0.0264626212558759,
                0.21772829817614284,
                0.07419442931794211,
                0.4042530098634807,
                -0.044939531687124536,
                0.17781911099799377,
                0.045014639442581154,
                0.3535847262798464,
                -0.005312303038567514,
                0.2603243508974413,
                0.10605395820240505,
                0.45761608083531613,
                0.10295194333956438,
                0.45307178104081214,
                0.25657006456092946,
                0.6925709515948767,
                0.17440717364953315,
                0.5674390713132161,
                0.34945365545920437,
                0.8284836425152742,
                0.137341884814125,
                0.5089108351483617,
                0.301670926483281,
                0.759178650869056,
                0.21414936520856417,
                0.6286584425536501,
                0.3999200056792278,
                0.9004880783795602,
                -0.015416687832009774,
                -0.11178955582826482,
                -0.08471830048252278,
                -0.09660345613177566,
                -0.05534509853114975,
                -0.10948085978826884,
                -0.10353411193545477,
                -0.07315198186408937,
                -0.03670018898246963,
                -0.11195599213999681,
                -0.09544604744754716,
                -0.08619984407833624,
                -0.07135121831962261,
                -0.10436356295915132,
                -0.10898209696006618,
                -0.057459074847353124,
                -0.10905479097740504,
                -0.05736980628627007,
                -0.10433381186018582,
                0.031870420240756675,
                -0.11197310213923482,
                -0.018036792367299822,
                -0.08613396379471407,
                0.09235796912746459,
                -0.1118334930336695,
                -0.039024721630408994,
                -0.09655417338918519,
                0.060791237983095096,
                -0.10947332331131492,
                0.005594674141346476,
                -0.07307268926623393,
                0.12657150513990548,
                -0.07845829708657866,
                -0.10080429380276133,
                -0.11074939250197353,
                -0.04859290487200469,
                -0.09988198512067158,
                -0.07998426369301308,
                -0.11105795018237481,
                -0.006624467047605686,
                -0.09048954668655333,
                -0.0917153665103727,
                -0.11222371918712969,
                -0.028931211295323483,
                -0.10663536581832662,
                -0.06561034112457291,
                -0.1072516400893508,
                0.018328170925009202,
                -0.10720549808836459,
                0.018515267893958253,
                -0.06547054226272296,
                0.14478822525756976,
                -0.09161760573155862,
                0.07636308780077646,
                -0.028760964038878536,
                0.22379720515133975,
                -0.10073127038811548,
                0.046117389892221576,
                -0.048436307539699124,
                0.1829692960275596,
                -0.07986416072372908,
                0.10925310267009043,
                -0.006443969537544285,
                0.26727289250713054,
                -0.050993100623909944,
                -0.11035300363624527,
                -0.10178962776415622,
                -0.07665468131297799,
                -0.08166922098898112,
                -0.09878883600135956,
                -0.1113519455500434,
                -0.04394498292768768,
                -0.06765050760955667,
                -0.1058918519771123,
                -0.10789072731005885,
                -0.061622153439496084,
                -0.09304901839766609,
                -0.08904333568896756,
                -0.11217286129184108,
                -0.023622350929781894,
                -0.11218592055153152,
                -0.023483688310075374,
                -0.08895821240697165,
                0.08427239542530997,
                -0.10585124406228734,
                0.025106490053043256,
                -0.06150367559132309,
                0.1540203590450073,
                -0.11033821089486322,
                -0.0005102003691030468,
                -0.07655136008566636,
                0.11782319318500113,
                -0.09872470086492803,
                0.05336709980074205,
                -0.043814640907314434,
                0.19286480867745912,
                -0.09781221899137403,
                -0.08314328187959276,
                -0.11159749335754333,
                -0.012417939250845946,
                -0.10998331114268468,
                -0.05306697686011454,
                -0.10265200293912323,
                0.0388097748890607,
                -0.10521723720737032,
                -0.06942638051411056,
                -0.1084449109628809,
                0.011873180689638484,
                -0.11211017002062056,
                -0.03406440248540525,
                -0.09421829968182245,
                0.06839271060737175,
                -0.09411339683026713,
                0.06862727530304662,
                -0.03387063156001321,
                0.21341816582454168,
                -0.06927203883451728,
                0.13573323540800927,
                0.01209436228494099,
                0.30168878508836117,
                -0.08301253397834167,
                0.10085827290822812,
                -0.01220883510640948,
                0.2562298133752217,
                -0.05289154379773888,
                0.1732529280589489,
                0.03903952704284487,
                0.34979604504826767,
                -0.09534258540566494,
                -0.0790336147304332,
                -0.1084254367803263,
                -0.007093341980042379,
                -0.10718923126069656,
                -0.04838714284192504,
                -0.09904317277156856,
                0.044858998292221,
                -0.10259174261738065,
                -0.06504062532237427,
                -0.10506214635839352,
                0.017549779010642714,
                -0.10913412224689646,
                -0.02907184054486672,
                -0.09036738810338378,
                0.07483584143666301,
                -0.09123757843048073,
                0.07342924249868961,
                -0.030161181294687322,
                0.21961366698454896,
                -0.06600913188697917,
                0.14119170920849974,
                0.016315077134249133,
                0.30870710085871383,
                -0.07995027399492415,
                0.10597875746797038,
                -0.008252171863376711,
                0.2628256692780376,
                -0.04941312619357124,
                0.17906952128885342,
                0.043541790439016535,
                0.3572595841229029,
                -0.10952564798932161,
                -0.01904429301236212,
                -0.08553189663831313,
                0.09001403854395197,
                -0.10283619618909944,
                0.03015822997665735,
                -0.05760433284654207,
                0.16053473042396307,
                -0.10750728309421594,
                0.004226001576429664,
                -0.07289657987003799,
                0.12394051814462957,
                -0.09551140977307628,
                0.05875376734471952,
                -0.039653979239178384,
                0.19979824936610305,
                -0.040475685835111956,
                0.1983903724533779,
                0.05768974502289371,
                0.38170926887071566,
                0.0032948249788512345,
                0.28471684794341356,
                0.12271826538230453,
                0.4893800075645962,
                -0.019917938205895856,
                0.24022110922248383,
                0.08887419965351141,
                0.4342090441594135,
                0.02916367804438375,
                0.3318790605969262,
                0.1592232153622786,
                0.547223829894766,
                -0.10649285074208427,
                -0.053099280012509804,
                -0.10103813458140541,
                0.037399039430284685,
                -0.10907179912804484,
                -0.013175258373833501,
                -0.08238363426046273,
                0.09863501748556837,
                -0.10910841869086917,
                -0.034467872025330325,
                -0.09303903388716443,
                0.06668357460433695,
                -0.10638203875880468,
                0.010779911892289279,
                -0.06907078357874306,
                0.13325491785203922,
                -0.06991603890089475,
                0.13184863617225764,
                0.00970405504893176,
                0.29659922769372093,
                -0.03541695469050746,
                0.20889258836230443,
                0.06545598775399457,
                0.3949807328470997,
                -0.05399370621388296,
                0.16903850647530985,
                0.036250562624138394,
                0.3444548298082923,
                -0.01418473421160338,
                0.25141232960790555,
                0.09732157938541629,
                0.44817858341256495,
                -0.10444066648399698,
                0.023131743152968554,
                -0.06190636917787973,
                0.15075209535370795,
                -0.08848209022558563,
                0.081613740647401,
                -0.02470489320174241,
                0.23055859865504805,
                -0.09778801438659314,
                0.05104140314331177,
                -0.044634419756397134,
                0.18932106040171506,
                -0.07652189229398891,
                0.11485015502772454,
                -0.0021165889791787294,
                0.2744663083039454,
                -0.0029161400407561374,
                0.2730549167540041,
                0.11379631092936311,
                0.4749442990372805,
                0.050126607868367284,
                0.3686649749186768,
                0.18810235387623872,
                0.5919054550878393,
                0.022277419998860747,
                0.3195270418988905,
                0.1496191723043546,
                0.5320888316306027,
                0.08063252209910744,
                0.42047021200021273,
                0.22924715300411067,
                0.6543958644235909,
                -0.06546427473922552,
                -0.10599966486565836,
                -0.10688908199364379,
                -0.06274563584856606,
                -0.09146330426444453,
                -0.08967187313179774,
                -0.11173650245499368,
                -0.02521266630011183,
                -0.07978515795118411,
                -0.0991600878394951,
                -0.11063543704162503,
                -0.045305541594068695,
                -0.10049815005543446,
                -0.0775340594634925,
                -0.11019151578242488,
                -0.0024658498598697128,
                -0.11038599866616618,
                -0.0027572159480234466,
                -0.07774172509453577,
                0.11462411303902743,
                -0.0993533518799858,
                0.050629812479452564,
                -0.045545238243116536,
                0.18923474704142032,
                -0.10619171133565218,
                0.02261092451428626,
                -0.06296698774807662,
                0.15060179096111556,
                -0.08987025985123658,
                0.08130050605090934,
                -0.025475617303971836,
                0.23052423821112775,
                -0.10415188209570801,
                -0.07060948374428523,
                -0.10854404902625474,
                0.009705299636380392,
                -0.11163596128903817,
                -0.03575345925355379,
                -0.09487065253809375,
                0.06577546693880341,
                -0.10921560839314405,
                -0.05450630223982567,
                -0.10303041067526135,
                0.03641338404336446,
                -0.11141232874763797,
                -0.01434994509421581,
                -0.08406396375124832,
                0.09779275684170356,
                -0.08416494329552328,
                0.09755950943482887,
                -0.014480084165097726,
                0.25201352014938994,
                -0.05461362244305553,
                0.16948048541808045,
                0.03624193890248409,
                0.34516806223691066,
                -0.07071169940405332,
                0.13219404955412165,
                0.009556943992895714,
                0.2972624811687778,
                -0.03587000355241946,
                0.20941992354232017,
                0.06557580825152885,
                0.3957315686971513,
                -0.08886467040118294,
                -0.09236219766500685,
                -0.11177361096105908,
                -0.030578493816584982,
                -0.10560643593896275,
                -0.06677062517274764,
                -0.10736089634692463,
                0.01622267676805095,
                -0.09855707685633526,
                -0.0808909823209162,
                -0.11089010212039065,
                -0.008504599517447782,
                -0.11001215981940392,
                -0.05000014073533832,
                -0.10118520698324678,
                0.04360451935282693,
                -0.10133248325333032,
                0.04334293065544182,
                -0.05016845658927408,
                0.1792598119362128,
                -0.08104075372230059,
                0.10599655413098043,
                -0.008709518138833774,
                0.2631419590305776,
                -0.09250884089768789,
                0.07334408547012757,
                -0.030762728202780188,
                0.21987291482045293,
                -0.0669275370731489,
                0.14130141894752066,
                0.015992057084337107,
                0.30906822570386183,
                -0.11132572537678921,
                -0.04074125243790339,
                -0.09720016863342999,
                0.058106058285708626,
                -0.10955167431376396,
                0.0033799168462686872,
                -0.07426552191780554,
                0.12344603954241952,
                -0.11176055733815225,
                -0.02000576615318678,
                -0.08705612437298875,
                0.089448733641194,
                -0.10469844006178262,
                0.029416830457806704,
                -0.05882752619828699,
                0.16009920871448094,
                -0.058883125817738434,
                0.15989285958472202,
                0.029323688262789183,
                0.33288561998293204,
                -0.02007168351234911,
                0.24108196709023408,
                0.0893094505205274,
                0.4353134605196872,
                -0.04080002310229542,
                0.19916116673829923,
                0.057992335701193824,
                0.38277088308791163,
                0.0033026260182999114,
                0.2856563913622335,
                0.12327596461474062,
                0.49051468182771174,
                -0.10115490848831733,
                -0.026322509099604343,
                -0.0850945610095706,
                0.07525841428676804,
                -0.09845812193190061,
                0.019110273649328557,
                -0.06105327280718717,
                0.14213604697087542,
                -0.10113920851555046,
                -0.004944685143152221,
                -0.0744093484423554,
                0.10735512967126713,
                -0.09311035418350695,
                0.045844059487201515,
                -0.04502484072245344,
                0.17960305722270845,
                -0.04748702794688588,
                0.17598425635730655,
                0.04286641435280942,
                0.35196986187074464,
                -0.007649893591757976,
                0.2586116313682715,
                0.10407362339582595,
                0.45607385661776,
                -0.028902655565524866,
                0.215957487656579,
                0.07213289220086246,
                0.402677675849783,
                0.01627264935263437,
                0.30394847652610757,
                0.13869019814367115,
                0.5121603920361448,
                -0.09056998793418293,
                0.058573070206218734,
                -0.0373672360149241,
                0.1973511961539086,
                -0.0693050367426259,
                0.12260064205582531,
                0.00525475446049727,
                0.2828392539560648,
                -0.08127094083403512,
                0.08924735987410108,
                -0.01739250432573797,
                0.2387520984341661,
                -0.0546709326939148,
                0.1586346573729344,
                0.030576082137573037,
                0.32961460216889626,
                0.028097672106557652,
                0.3259154397432681,
                0.15561043560492618,
                0.5391191467052009,
                0.08651118059284342,
                0.4271478044154313,
                0.23540755194925136,
                0.6618447626630387,
                0.05596943414254228,
                0.3751901748134654,
                0.19417097286831922,
                0.5991366834056239,
                0.11972435124785911,
                0.48179016599506197,
                0.27932181146587154,
                0.7272454207511116,
                -0.09992448255848956,
                0.012061093389344168,
                -0.0652939470470827,
                0.13223935498571612,
                -0.0879441052231091,
                0.06679065470847591,
                -0.031962861467552624,
                0.20842152202794365,
                -0.09526735090253764,
                0.0380868461002402,
                -0.04996424790977033,
                0.16898782860644027,
                -0.07795342676025353,
                0.0981742356295041,
                -0.01128827013272763,
                0.2505423504934303,
                -0.013757637425649361,
                0.2468845632889217,
                0.09517436506620831,
                0.4414778702363693,
                0.03536714934666162,
                0.33881377404055746,
                0.16567593089071783,
                0.5548919542781041,
                0.009470166347623425,
                0.29150822081749195,
                0.12908757807614887,
                0.4968401888095505,
                0.06393472715577427,
                0.3888030361979352,
                0.2049410379219763,
                0.6156351787095908,
                -0.07309098773464788,
                0.11321394445134712,
                -0.0013139479225560242,
                0.2705945040014632,
                -0.04254045805480657,
                0.1865407803465999,
                0.05060007652239595,
                0.36538983052024954,
                -0.059149530651846326,
                0.1485373900562059,
                0.02330637307772795,
                0.3166485161420102,
                -0.02326240277139902,
                0.2272258801501623,
                0.08056872841132946,
                0.4168204107915656,
                0.07807940605948054,
                0.4130774773496677,
                0.22417517448849741,
                0.6448943260163467,
                0.14578272711142612,
                0.5236143356771064,
                0.3132690566458549,
                0.7769329380665745,
                0.11059566400642416,
                0.46700395205127443,
                0.2673836358743573,
                0.7095678051545531,
                0.18364205937097558,
                0.5829104898791536,
                0.36183309962723376,
                0.846991785232157,
                -0.04280424509650734,
                -0.11134222296308306,
                -0.09820459307880645,
                -0.0821784421272549,
                -0.07578533763040803,
                -0.10205092424344069,
                -0.11005836783045102,
                -0.051717951759252916,
                -0.06061482434027838,
                -0.10801882604121159,
                -0.10545242433426259,
                -0.06827215559502194,
                -0.08831540407589682,
                -0.09343773902326892,
                -0.11202184384862097,
                -0.03251485324569456,
                -0.11210884065685585,
                -0.03254672541397112,
                -0.0934688121705259,
                0.07070230899384385,
                -0.10807177518053247,
                0.013783620677835782,
                -0.06829553342071447,
                0.13821693898419554,
                -0.1114108000393582,
                -0.01070465124729503,
                -0.08220376946781445,
                0.10313462524725671,
                -0.10209128836502034,
                0.04091896573228239,
                -0.051743427486115746,
                0.1759503244032737,
                -0.09368061529323606,
                -0.0881717231091091,
                -0.1120621144101711,
                -0.021967650388491484,
                -0.10815323628573399,
                -0.06036200593322062,
                -0.10540321875786006,
                0.027018555677786365,
                -0.10223717278303614,
                -0.07558952462456194,
                -0.11005392130473836,
                0.0012009895030733995,
                -0.11142837649815156,
                -0.042488340076403605,
                -0.09810937863860651,
                0.05548607392208034,
                -0.09808774490176546,
                0.055534636164556804,
                -0.042423165195957145,
                0.19583364694028885,
                -0.07553960559004565,
                0.1203879940711103,
                0.0012663817840565755,
                0.2818795815196705,
                -0.08813444360406582,
                0.08663774635239259,
                -0.021900361439999304,
                0.2375310487776449,
                -0.06030270473216807,
                0.1567863031037495,
                0.02707778943149965,
                0.32888036777715757,
                -0.07229838548881613,
                -0.10381367934625814,
                -0.1091896223257759,
                -0.05613031473844173,
                -0.09602538334049536,
                -0.08526343692850431,
                -0.11178726518468833,
                -0.016407294272079192,
                -0.08548202051104391,
                -0.09586101051925668,
                -0.11180953916661261,
                -0.03759301151313356,
                -0.10392806888008217,
                -0.07202015582140957,
                -0.10912219645516329,
                0.007427838565064724,
                -0.10915454214465493,
                0.007436782554574538,
                -0.07200263755550691,
                0.12921015675636358,
                -0.09586212394890258,
                0.06302832591395356,
                -0.03757147110962935,
                0.20599006818066343,
                -0.10382895939739291,
                0.033909224300727875,
                -0.05610883364689191,
                0.16627483426026227,
                -0.08525353387773597,
                0.09479498697120271,
                -0.016389849194519603,
                0.24835695692226903,
                -0.10695081317244125,
                -0.06441614669473163,
                -0.10682190488487585,
                0.020309801589289304,
                -0.11216875357390292,
                -0.02734640214578998,
                -0.09090604254795483,
                0.07855987031193244,
                -0.11088014904148182,
                -0.04720415002277499,
                -0.10018539552407608,
                0.04811010889773994,
                -0.11081617326043665,
                -0.004842051899004934,
                -0.0789831936194925,
                0.11166013582438868,
                -0.07890825906186509,
                0.11174711150187634,
                -0.004730162115765025,
                0.2705730987413091,
                -0.047104008682745356,
                0.18586292279010017,
                0.048218279791349204,
                0.36588581975180007,
                -0.06432705201560686,
                0.14748120177104737,
                0.02042189090642216,
                0.3169035987725399,
                -0.02723857872965312,
                0.22689322254816488,
                0.07865975370039537,
                0.4175209084959707,
                -0.10158668859363372,
                -0.05626789861188671,
                -0.10021910169392127,
                0.030352392813035357,
                -0.10622100222591076,
                -0.018297228021700297,
                -0.08357149594410278,
                0.08969363618990432,
                -0.10523281005629397,
                -0.03861667114559933,
                -0.09322663622892445,
                0.05868573859826798,
                -0.10455015328119542,
                0.004691940236601571,
                -0.07125237019041612,
                0.12337779389248686,
                -0.0727813746046193,
                0.12102486330531455,
                0.0028069241325336097,
                0.2819641118332428,
                -0.04031069805240465,
                0.19614809752303727,
                0.05658175759862762,
                0.3784863531283863,
                -0.05787629399641147,
                0.15725069226655738,
                0.02836151678557305,
                0.32888608261008356,
                -0.020083378126951313,
                0.2377186853759026,
                0.08746905404509576,
                0.43076672851705355,
                -0.10342574537215436,
                0.016129106308039428,
                -0.06495138480348163,
                0.13990429850245126,
                -0.08950929281629967,
                0.07267383204175339,
                -0.02974214298270281,
                0.21783356528515316,
                -0.09779711469624632,
                0.043066536741875765,
                -0.04867882908286077,
                0.1775307345620272,
                -0.07856111949884677,
                0.10495255009664216,
                -0.008139967441788368,
                0.2608145473885512,
                -0.00965038052752065,
                0.25842325790006987,
                0.10305936575594433,
                0.4565360632038532,
                0.041378150268438135,
                0.35212962638143985,
                0.1754039188808648,
                0.5716564025572022,
                0.014532934026295855,
                0.3039397671681566,
                0.13789802823777506,
                0.5127560993604561,
                0.07088652525673274,
                0.4029944902532503,
                0.21557849357079115,
                0.6332388263351685,
                -0.10656645639858751,
                -0.02413150802423943,
                -0.08664635667194033,
                0.08106511089481906,
                -0.10192580838537994,
                0.023125644247597724,
                -0.06071841655598839,
                0.1496997578637256,
                -0.10557540862745625,
                -0.0018374481304361489,
                -0.07501408402500713,
                0.11404470165058182,
                -0.09561651964497987,
                0.05075930279274308,
                -0.043758019409754975,
                0.18803201204488298,
                -0.04527691592264011,
                0.18566097735034362,
                0.04887114636054533,
                0.36518579515601324,
                -0.003527776806923741,
                0.2700751896999857,
                0.1119303128769162,
                0.4710064342595901,
                -0.02573294673201534,
                0.22653185585385419,
                0.07906751442720993,
                0.4167564769011991,
                0.021339826704371654,
                0.31629260939598014,
                0.1474609733891518,
                0.5279374965661797,
                -0.09216418174226977,
                0.06451440437659335,
                -0.0351337692066913,
                0.20687045873736556,
                -0.06897106019171094,
                0.13034781690730382,
                0.00935776321250333,
                0.2940955831105152,
                -0.08189754371315187,
                0.09609575424042723,
                -0.014220443743184298,
                0.24914435121148457,
                -0.053383546738389166,
                0.16727217447228418,
                0.03560223492768046,
                0.34172593535726714,
                0.034098673881799546,
                0.3393122334751334,
                0.16537206772958016,
                0.5560154876071968,
                0.0944075470296359,
                0.4423119576429264,
                0.2470030825762167,
                0.6804368512065447,
                0.06292180135702956,
                0.389474965507548,
                0.20485355440556466,
                0.6168855323957354,
                0.12855719216353498,
                0.49782488880069053,
                0.2918221323332053,
                0.7466713217867915,
                -0.08311644481764195,
                -0.09539752647097115,
                -0.11044942372326359,
                -0.03789867066944071,
                -0.10207766071011266,
                -0.07195834560769664,
                -0.10822516652468754,
                0.006791246920225833,
                -0.09392035498235297,
                -0.08500491957951621,
                -0.11066223917555314,
                -0.016883132558896705,
                -0.10758761564477708,
                -0.056256660543866556,
                -0.10313726058677143,
                0.03312581060732511,
                -0.1035777091902572,
                0.03239130104914845,
                -0.056801983255888484,
                0.1640704228751312,
                -0.08548827064189234,
                0.09291536775575109,
                -0.01751150510496888,
                0.24586698957858685,
                -0.0958571682171611,
                0.0613250874822224,
                -0.03848275796333415,
                0.20363782851380755,
                -0.07247017328394835,
                0.12716338270573926,
                0.006112817327461241,
                0.2907593457332276,
                -0.10957765361519302,
                -0.047739108706991586,
                -0.09985874091017473,
                0.046846423765156575,
                -0.11001471047115764,
                -0.005759150872091486,
                -0.07910279030240179,
                0.11008775107861617,
                -0.11111990674776488,
                -0.028076729464554705,
                -0.09080622896833838,
                0.07713695377840714,
                -0.10626127001704798,
                0.01921481949422429,
                -0.06474743131629042,
                0.14570020691736066,
                -0.06511442551828096,
                0.14499657857862855,
                0.018723380142460968,
                0.31377654731997423,
                -0.028495982758606767,
                0.22406825849616605,
                0.07655139240963361,
                0.4141323555187873,
                -0.048129867146409704,
                0.18320349326157323,
                0.046310790961903665,
                0.36262279852637375,
                -0.006211880762189815,
                0.26759216353059245,
                0.10944627490608468,
                0.46830670637315136,
                -0.1004045674503495,
                -0.07562714755933346,
                -0.1092121941980951,
                0.00041420404699847477,
                -0.11010398509309736,
                -0.04291798392030838,
                -0.09772243378421681,
                0.05437935856773332,
                -0.10657778584445822,
                -0.06059985345862053,
                -0.1047925138091718,
                0.026067008032279706,
                -0.11098239463403371,
                -0.022580370726660092,
                -0.0880009847332449,
                0.08535262269884779,
                -0.08840413209433938,
                0.08463439089824164,
                -0.023098046163806427,
                0.2348630074318209,
                -0.06105051581863961,
                0.15443181539046033,
                0.025460812446154214,
                0.3259386838423373,
                -0.07605174072221775,
                0.11820452093512308,
                -0.00014491751855281898,
                0.2790695842228477,
                -0.04339958999701251,
                0.1933175393063484,
                0.05372020994465849,
                0.37547177016013766,
                -0.11063545575747734,
                -0.011733076139671967,
                -0.08238877319501718,
                0.10139836536909637,
                -0.10180956773470205,
                0.039518508866122334,
                -0.05236592385986191,
                0.17391682289183233,
                -0.1075464593601297,
                0.012564796954402843,
                -0.0687030832111191,
                0.1363270923409967,
                -0.09342396190678139,
                0.06912927622540264,
                -0.03337627733908016,
                0.2141689724792696,
                -0.03370827337839058,
                0.21347826639357723,
                0.06866265485639385,
                0.40081148795265215,
                0.012175666176791842,
                0.30182512093103236,
                0.1357606155338448,
                0.5104484715758899,
                -0.012091220628598688,
                0.25632241754228846,
                0.10088473744896283,
                0.4542979276148921,
                0.03909330283655294,
                0.3499876900140832,
                0.17329140373756283,
                0.5692646321176705,
                -0.0932155612129164,
                0.011718260805710376,
                -0.062178119289226064,
                0.12858244100170088,
                -0.08304790072124225,
                0.06477207495108257,
                -0.030593802142149584,
                0.20316495497630369,
                -0.0894687512280385,
                0.03690154257457569,
                -0.047726084670326296,
                0.16452617368049674,
                -0.07395153240609513,
                0.09533173287716605,
                -0.010779595590511417,
                0.24450085865880863,
                -0.014494630707924372,
                0.23925135252651866,
                0.0909192086767449,
                0.43061685953015705,
                0.0328541950249414,
                0.32954724739667884,
                0.15971359961707318,
                0.5424765595405627,
                0.007841051937404336,
                0.2830535774001993,
                0.12397437658340803,
                0.48519689432055757,
                0.06054637266547841,
                0.3787343342822551,
                0.1981386507162832,
                0.6024580257842173,
                -0.07011257986232898,
                0.10921741761774999,
                -0.0018916428983138014,
                0.2633265619951468,
                -0.04135662637437544,
                0.18088948473507296,
                0.04829517263800876,
                0.35654463271414444,
                -0.05707246280419235,
                0.14370879279899254,
                0.02186070466596918,
                0.3085869431481825,
                -0.022963544874265964,
                0.22076141678010677,
                0.0774134855441685,
                0.40720175287489674,
                0.0736424917527579,
                0.40182496079110125,
                0.21625898581672273,
                0.6304585737441308,
                0.13958894141832504,
                0.5107504306341403,
                0.3036662016149722,
                0.7609661480321118,
                0.10527608471879045,
                0.45494087785685694,
                0.2586195676823408,
                0.6943613535545968,
                0.17658268437433308,
                0.569255639301429,
                0.35140070896533887,
                0.8302751761829049,
                -0.08572818937685174,
                0.05640128719567639,
                -0.03610015430064539,
                0.1918865462316601,
                -0.06626694401566961,
                0.11876354175686037,
                0.004784788191656448,
                0.275786090287531,
                -0.0773350027808624,
                0.08623827652444642,
                -0.016998271244955013,
                0.23248823289090878,
                -0.052522511588750785,
                0.15397898204094376,
                0.02925072432946298,
                0.3217822163973013,
                0.025508760307572726,
                0.3164703808279846,
                0.14952268644466496,
                0.5264684513360299,
                0.08215579326836835,
                0.41608033400463085,
                0.22762282285476695,
                0.6476512970845061,
                0.05249309963284082,
                0.3649290910965246,
                0.18723023174001038,
                0.585709466824901,
                0.11449843953103687,
                0.46992610552469405,
                0.27070225693356886,
                0.7122961369149765,
                -0.046368232679914266,
                0.1701672382809429,
                0.04044795801699218,
                0.34290311761096276,
                -0.00831642625303109,
                0.2511505116496273,
                0.09993791585102536,
                0.44544123312984024,
                -0.028680620531146932,
                0.20931368838467332,
                0.06885139693911697,
                0.3928229445485662,
                0.014725900059135407,
                0.29567965563600945,
                0.13370926348517073,
                0.5007601297427384,
                0.12990713214606056,
                0.49531574715387516,
                0.29112871842113636,
                0.7425879246022546,
                0.20515422954813597,
                0.613558213578109,
                0.38784436908080183,
                0.8824218317860756,
                0.16619058649113047,
                0.55308960319665,
                0.33814300681606674,
                0.8111532631348839,
                0.24679970804613907,
                0.6767236226828095,
                0.44023465077215596,
                0.956395873768142,
                -0.007850849502428543,
                -0.11116608373913613,
                -0.08062109591550552,
                -0.09946173895701459,
                -0.04951312247600705,
                -0.11059707961919184,
                -0.10117295353539378,
                -0.07775506422305271,
                -0.03000119097996839,
                -0.11220209246818218,
                -0.09221668378758281,
                -0.08993016176143971,
                -0.06638649151526012,
                -0.1063504950613774,
                -0.10748955385590268,
                -0.06293569738331439,
                -0.10756792389659396,
                -0.06283245315876602,
                -0.10631831852083164,
                0.022919942964862435,
                -0.11222125885292537,
                -0.02524196043497921,
                -0.08985651201991325,
                0.08165902916517943,
                -0.11121399492262395,
                -0.04535830344043924,
                -0.09940746653833678,
                0.05096694639034902,
                -0.11058946638785487,
                -0.0024827771872398463,
                -0.07766500683816725,
                0.11499703707225116,
                -0.07393174667298881,
                -0.1032234031259499,
                -0.1096927056603433,
                -0.054496666674025855,
                -0.09708980765152651,
                -0.08414440948379391,
                -0.11173823711647433,
                -0.014274789869659077,
                -0.08683006587637353,
                -0.0950046944659728,
                -0.11203531099826629,
                -0.035707862639689995,
                -0.10471077111098355,
                -0.07064194963644609,
                -0.10880108429975345,
                0.009803349006784857,
                -0.10875883597448897,
                0.010008001117796256,
                -0.07049704441990233,
                0.13278966979334253,
                -0.09490675844229197,
                0.06611167492178883,
                -0.035526715729486125,
                0.21004814515431267,
                -0.10315234670038596,
                0.036738401783377325,
                -0.05433217411114821,
                0.17009593138194803,
                -0.08402177348838423,
                0.09812851590035636,
                -0.014080172735341814,
                0.252647205305511,
                -0.04494686471381142,
                -0.11125071062473703,
                -0.0992126054763071,
                -0.08103555695305716,
                -0.07735708516581798,
                -0.10142688966116704,
                -0.11051141571103111,
                -0.050071521322138844,
                -0.062471217903450046,
                -0.1076594457292138,
                -0.1061817560408664,
                -0.06687548251842705,
                -0.08960428981954076,
                -0.09255246808371968,
                -0.11220120897767576,
                -0.03062290019956439,
                -0.11221908286133285,
                -0.030468501951523858,
                -0.09246360867801633,
                0.07379805728314216,
                -0.10761980815913748,
                0.01637836028509664,
                -0.06674769988885233,
                0.1417965548157504,
                -0.11123891814136729,
                -0.008366333384406711,
                -0.08092582304684585,
                0.10647455205496874,
                -0.10136147940891073,
                0.04376625021822194,
                -0.04992876687055263,
                0.17976493555447462,
                -0.09480545292848962,
                -0.08708403257172571,
                -0.11206131090635447,
                -0.019844896339081607,
                -0.10871122592676725,
                -0.058749488861128955,
                -0.10485331063556995,
                0.029635323470119764,
                -0.10307768166982058,
                -0.07423769922996339,
                -0.10977725232107523,
                0.0035728804330572156,
                -0.11170586060577552,
                -0.0406187787161664,
                -0.09728906192853441,
                0.058343254348913756,
                -0.09718707225559563,
                0.058597253249239055,
                -0.04041847165623389,
                0.19989502080529728,
                -0.07408197716702734,
                0.12395820223003674,
                0.0038066161033359835,
                0.2864140620455927,
                -0.08695415884176626,
                0.08995611004040487,
                -0.01962635486354156,
                0.2418313354585687,
                -0.058570205313466524,
                0.16060424939155052,
                0.029880961990062394,
                0.33364411896753615,
                -0.09282279157634134,
                -0.08369740498421045,
                -0.10948531288932602,
                -0.015388214306204942,
                -0.10645642460730025,
                -0.054862895408371574,
                -0.10190179269457812,
                0.034737483294151585,
                -0.10096475326928343,
                -0.07060952489317683,
                -0.10702061390137492,
                0.00834254855412207,
                -0.10929692218481814,
                -0.03645623546871886,
                -0.09412776703561075,
                0.06379806980271098,
                -0.0948708157867754,
                0.06258343403339532,
                -0.03738774822472084,
                0.205119781301316,
                -0.07143597776752521,
                0.12852564932714303,
                0.007282311164347661,
                0.2923774495226465,
                -0.08447957438926142,
                0.09422374725130038,
                -0.01638100572297511,
                0.24741491609132973,
                -0.05573904569163487,
                0.16549051814635715,
                0.033603381494930806,
                0.3400089583084514,
                -0.11008101380263934,
                -0.026797456061629036,
                -0.0896736220276111,
                0.07862143602957365,
                -0.10518178976248142,
                0.02058903015304984,
                -0.06354845957275389,
                0.14731099383724014,
                -0.10895704762215548,
                -0.004434281962025377,
                -0.07793869939609673,
                0.11163333785834688,
                -0.09875430840586343,
                0.04827380975685187,
                -0.046501771912078826,
                0.18565593226725877,
                -0.04718963285208783,
                0.1844485197341492,
                0.04737521807431965,
                0.3641104208206218,
                -0.005216251506613918,
                0.2689503889863498,
                0.11059360151085741,
                0.46994062210112647,
                -0.02752968267436053,
                0.22536790339966514,
                0.07765546289254298,
                0.4156909687842481,
                0.019751689293263094,
                0.31519740279181785,
                0.14619086139912538,
                0.5268610058966235,
                -0.10551030563512466,
                -0.05930735547505017,
                -0.1036385691865853,
                0.027555738244008542,
                -0.10987784396657481,
                -0.021197315857372587,
                -0.08678462391859819,
                0.08696284544967257,
                -0.10901946642058084,
                -0.0415820536297243,
                -0.09653895251646248,
                0.05592681422818281,
                -0.10808453066144307,
                0.0018481631091704467,
                -0.07437447695357817,
                0.12066533600339484,
                -0.07508926843423129,
                0.11945523832332018,
                0.0009339058079393314,
                0.28055332861539345,
                -0.04238553569770804,
                0.19467677920892415,
                0.054877688054137806,
                0.3770966997581749,
                -0.06006385723073219,
                0.15573483996014328,
                0.026577183773419343,
                0.32749089207694243,
                -0.022053299399137378,
                0.23628245816118612,
                0.08583662191386783,
                0.4293723525783641,
                -0.10653462119267561,
                0.01383267436184067,
                -0.06759013341640537,
                0.13780930326606852,
                -0.09236794555391588,
                0.07049654528357803,
                -0.03219294010615274,
                0.21578237422732452,
                -0.10077719121035107,
                0.04083418199315497,
                -0.05121950576683286,
                0.17546255443763845,
                -0.08130592819952744,
                0.10282111791245467,
                -0.0105092815827722,
                0.25877031514222176,
                -0.011171545625139856,
                0.2575637279006658,
                0.10193659509941407,
                0.4557915506615729,
                0.04007225977585657,
                0.3513469498490985,
                0.1744304796143943,
                0.5709097308509686,
                0.013123323472505895,
                0.30312339798209603,
                0.13685424893683665,
                0.5120156497352648,
                0.06967631613311291,
                0.40223583400537705,
                0.2146665388080408,
                0.6324754433401436,
                -0.06025544806659252,
                -0.10781180179355355,
                -0.10518340139083067,
                -0.06809318548921377,
                -0.08800439942668258,
                -0.09324933428574157,
                -0.11178771395235122,
                -0.03233543415326309,
                -0.07545090223754862,
                -0.10185431418940395,
                -0.10980772116417369,
                -0.05154003628367138,
                -0.09791542169356544,
                -0.08199594648663454,
                -0.11112266298718414,
                -0.01047826467430526,
                -0.11127906127444924,
                -0.01068930952621154,
                -0.08214613357979268,
                0.10314507143079481,
                -0.10200022775733338,
                0.040926835485953994,
                -0.05171126414027205,
                0.17597409415388784,
                -0.10796123850268342,
                0.013794014036799059,
                -0.06825167149721327,
                0.13823265988787511,
                -0.09339541427361163,
                0.0707101672415429,
                -0.03252409791643039,
                0.21637058547687435,
                -0.10199322323425199,
                -0.07548054180794463,
                -0.10989249595814489,
                0.0012932013813729208,
                -0.11122909988952444,
                -0.042392551047868175,
                -0.09797828413599312,
                0.05558502402791937,
                -0.10793243224554845,
                -0.06026077841912942,
                -0.1052579425567599,
                0.027112803576388,
                -0.111882659813572,
                -0.021874895686050094,
                -0.08805275551548784,
                0.08671102557182973,
                -0.0881114072494757,
                0.08656413974597947,
                -0.021942414439752412,
                0.23746501423169905,
                -0.06031605565324472,
                0.15671124244921417,
                0.027015418289990874,
                0.3288345382364439,
                -0.07553567985166733,
                0.12031239409229243,
                0.0012130780500648624,
                0.28182220844301503,
                -0.042451871477241394,
                0.19576174564921375,
                0.05546546828474375,
                0.3785032632722087,
                -0.08518074131540397,
                -0.0957035387520244,
                -0.11159477276185063,
                -0.037458026310639866,
                -0.10367334897908438,
                -0.07187862771561078,
                -0.10894007900830018,
                0.007566380362312097,
                -0.09574816584573172,
                -0.08511506841550935,
                -0.11158977999741383,
                -0.0162718368807117,
                -0.10895574856894245,
                -0.05599327685030723,
                -0.10364492882023961,
                0.03405776404820418,
                -0.10375202866137091,
                0.03387948698502549,
                -0.05610157305114037,
                0.16624636118136557,
                -0.08521517287048576,
                0.0947607496354053,
                -0.01640552095306227,
                0.2483452111171993,
                -0.09580536807068017,
                0.06299509922482512,
                -0.037576741369420914,
                0.20596854469031875,
                -0.07198080408991069,
                0.12917747484314615,
                0.007412925996564326,
                0.2933775959161387,
                -0.11069272515429703,
                -0.04714255607289633,
                -0.10007635920108497,
                0.04816079558503249,
                -0.11067146193426909,
                -0.004790827839200471,
                -0.07890209600190852,
                0.11172081639666116,
                -0.11200352199071127,
                -0.027291178534398015,
                -0.0908119862861347,
                0.07861419386328229,
                -0.10669595442627215,
                0.02035948422689691,
                -0.06434589896195834,
                0.1474818502271201,
                -0.06435695984092711,
                0.14736497217406483,
                0.020331622561995746,
                0.31680139710899563,
                -0.027302617352880056,
                0.22677865889968715,
                0.07855185545140676,
                0.41744246359371967,
                -0.047151925870361676,
                0.18574623283406197,
                0.048118077846316616,
                0.3657940284506122,
                -0.004808346905425652,
                0.2704633354094992,
                0.111633841588074,
                0.4717479864046306,
                -0.10193184465580231,
                -0.03452967295525959,
                -0.08956970254513184,
                0.06328248743784563,
                -0.10108011639699387,
                0.009023503613758648,
                -0.06739001565122092,
                0.12826104721001905,
                -0.10283768557680355,
                -0.014090481101156686,
                -0.07981421101083115,
                0.09443092872027191,
                -0.09665788824565515,
                0.0348139277157066,
                -0.05229566876783284,
                0.16477468826105882,
                -0.05449636107724807,
                0.16150478885635297,
                0.03213975639069494,
                0.333699176402711,
                -0.01651363628218266,
                0.24224153866987977,
                0.09147517898525,
                0.43589224534273324,
                -0.03683815310353654,
                0.20053393066186018,
                0.060471472753185075,
                0.38345284194949364,
                0.006478535081889641,
                0.2866293562309908,
                0.1251524196097172,
                0.49101932876075843,
                -0.09446118751205164,
                0.04723196995907004,
                -0.04496606051265702,
                0.18223024560663723,
                -0.07504590015930489,
                0.1093744962100258,
                -0.004210693825677079,
                0.26581337413935346,
                -0.08608595801760009,
                0.07696493387390833,
                -0.025923535037696354,
                0.22267997166474254,
                -0.06133971665426876,
                0.14446235190582282,
                0.02017395923404974,
                0.31163234679662266,
                0.017966209064223863,
                0.30829304790882883,
                0.14175166745885118,
                0.517693888876618,
                0.07452042208914376,
                0.4076290676047155,
                0.2196716945146436,
                0.6385024423098614,
                0.0449093898005806,
                0.35662085965451584,
                0.17937481787531925,
                0.5767542348446558,
                0.10680070003716928,
                0.46131946352218445,
                0.2626438903118326,
                0.7029405018627533,
                -0.10225807455198842,
                0.002287507307145549,
                -0.07133041913953884,
                0.11869149730183491,
                -0.09212504076231105,
                0.05513476025950074,
                -0.03986342858595955,
                0.19297168077588225,
                -0.09852361338451539,
                0.027373289851597985,
                -0.05693167486454333,
                0.15449025452169982,
                -0.08306108360856716,
                0.08557358926316354,
                -0.020124208399228894,
                0.23413764562444403,
                -0.02232752807847699,
                0.23083421114477112,
                0.08288219449064628,
                0.42163051115662104,
                0.02494042370562626,
                0.32086995433205595,
                0.15150933996916474,
                0.533130618555067,
                -2.7088397589742273e-05,
                0.27451237102545584,
                0.1158593420955956,
                0.47603716890873454,
                0.052576378132336815,
                0.3699087286212432,
                0.18983375684027196,
                0.5929128264800375,
                -0.07854076243241408,
                0.10030422232367082,
                -0.010476162451117653,
                0.2538992827851955,
                -0.04984225192950271,
                0.17174324034338537,
                0.03956867439788926,
                0.34678669928827377,
                -0.06552428759503211,
                0.13468496906637803,
                0.01321068346052517,
                0.299000641359793,
                -0.03149333394683957,
                0.21148075529918273,
                0.0685993306777123,
                0.39725937454288174,
                0.0663853399834287,
                0.3938818750006775,
                0.20874870803767073,
                0.6218899285246476,
                0.13222687005583825,
                0.5025194758949025,
                0.29596279691894234,
                0.7520083571239582,
                0.09797178190099558,
                0.44685998317864084,
                0.251018443612164,
                0.6856046694966452,
                0.16915202276130267,
                0.5608621691183098,
                0.3435833850991026,
                0.8211030062031887,
                -0.03639263969505127,
                -0.11190177959180529,
                -0.09527362614838623,
                -0.08624133112438122,
                -0.07111299856102911,
                -0.10436036322263499,
                -0.10887124431101651,
                -0.057538223906914966,
                -0.055072611720572116,
                -0.10945290072830856,
                -0.1033930473587601,
                -0.0732132216842689,
                -0.08451346500856514,
                -0.09662343421142487,
                -0.1117076829695466,
                -0.03921540610120884,
                -0.11178413753617329,
                -0.039205791864582465,
                -0.0966302174139025,
                0.06053110477166713,
                -0.10948886486905494,
                0.005370477644555273,
                -0.07320414242973923,
                0.1262833235017515,
                -0.1119567008216434,
                -0.01824028075503412,
                -0.08623839272609447,
                0.09208278199543928,
                -0.10438019764619237,
                0.031627313021903726,
                -0.057526835664870095,
                0.16313375780607367,
                -0.09031197376332954,
                -0.09178026701983748,
                -0.11217670611776114,
                -0.029083789189153848,
                -0.10652505423644339,
                -0.06572245922049415,
                -0.10726326396374218,
                0.01814258976174742,
