{
    "90": {
        "hyperparams": {
            "stocks": [
                "AXP",
                "JNJ",
                "JPM",
                "MRK"
            ],
            "start": "2015-01-01",
            "end": "2025-01-01",
            "risk_aversion": 0.1,
            "n_qubits": 6,
            "budget": 366,
            "log_encoding": true,
            "layers": 6,
            "prices_now": {
                "AXP": 296.0938415527344,
                "JNJ": 143.4715576171875,
                "JPM": 238.4783477783203,
                "MRK": 98.6279525756836
            },
            "assets_to_qubits": {
                "AXP": [
                    0
                ],
                "JNJ": [
                    1,
                    2
                ],
                "JPM": [
                    3
                ],
                "MRK": [
                    4,
                    5
                ]
            }
        },
        "continuous_variables_solution": {
            "weights": {
                "AXP": 1.1167282376600696e-16,
                "JNJ": 0.0,
                "JPM": 0.7589451760678793,
                "MRK": 0.24105482393212063
            },
            "allocation": {
                "JPM": 1,
                "MRK": 1,
                "AXP": 0,
                "JNJ": 0
            },
            "value": 0.0700858836867773,
            "left_overs": 28.89369929164394
        },
        "exact_solution": {
            "smallest_eigenvalues": [
                -0.2005007551076772
            ],
            "smallest_bitstrings": [
                "010100"
            ],
            "first_excited_energy": -0.20030768017495318,
            "optimized_portfolio": [
                {
                    "AXP": 0,
                    "JNJ": 1,
                    "JPM": 1,
                    "MRK": 0
                }
            ],
            "second_optimized_portfolio": [
                {
                    "AXP": 0,
                    "JNJ": 2,
                    "JPM": 0,
                    "MRK": 1
                }
            ],
            "spectrum": [
                -7.336043313085245e-17,
                -0.15818134043617202,
                -0.09367813588422563,
                -0.1935094418530028,
                -0.1764958545985101,
                -0.19358988215999332,
                -0.19963034682226113,
                -0.15837427874742213,
                -0.1915094292541498,
                -0.1799309451479569,
                -0.20030768017495318,
                -0.1303790203512595,
                -0.16276924197668538,
                -0.010103322457769983,
                -0.10102379302364599,
                0.10999238360429202,
                -0.1266228999947788,
                -0.19992438263511023,
                -0.17786111403491475,
                -0.1928125179829965,
                -0.2005007551076772,
                -0.1327148749102021,
                -0.1811953030336043,
                -0.05505927286365475,
                -0.19465935516456215,
                -0.09820070633269747,
                -0.16101755717655816,
                -0.006208582801546377,
                -0.0633010469032657,
                0.1742451325280354,
                0.04088449602411362,
                0.3367810925013811,
                -0.1935537419835284,
                -0.17656163076187428,
                -0.1996451623683729,
                -0.12430297727716876,
                -0.15826853827821138,
                -0.00018896439997313923,
                -0.09381624515212683,
                0.12261348392656166,
                -0.13024288817268867,
                0.05650912674732762,
                -0.05145438074116669,
                0.1936478361987233,
                0.11027852927591472,
                0.43811817527912433,
                0.25961082937602165,
                0.6458007789526,
                -0.1927665265819307,
                -0.09089452291022342,
                -0.15641800615810644,
                0.0038041090581147075,
                -0.054863257535468044,
                0.18809628170022893,
                0.05202901032516363,
                0.3533387525475723,
                -0.005982561585068149,
                0.26564967240997583,
                0.11524602356741183,
                0.44522860285808497,
                0.3371571230153887,
                0.7498771062246278,
                0.5289295573741303,
                0.9999999975437911
            ],
            "result_with_budget": [
                {
                    "portfolio": {
                        "AXP": 0,
                        "JNJ": 1,
                        "JPM": 1,
                        "MRK": 0
                    },
                    "budget": 381.9499053955078,
                    "difference": -15.949905395507812,
                    "objective_value": -0.04866304251143411
                }
            ],
            "result_with_budget_excited": [
                {
                    "portfolio": {
                        "AXP": 0,
                        "JNJ": 2,
                        "JPM": 0,
                        "MRK": 1
                    },
                    "budget": 385.5710678100586,
                    "difference": -19.571067810058594,
                    "objective_value": -1.0450696293021857
                }
            ]
        },
        "qaoa_solution": {
            "two_most_probable_states": [
                "010001",
                "000011"
            ],
            "final_expectation_value": -0.18811552749691623,
            "params": [
                0.38827832482827235,
                2.9211080759400123,
                -2.5389423225612906,
                1.3343498206159263,
                12.493119775911737,
                14.591556972369252,
                3.0129296945565134,
                1.9185105215737703,
                2.704455071527437,
                1.0665399499942978,
                3.033592120119562,
                -0.06099989820166617
            ],
            "total_steps": 1000,
            "states_probs": [
                0.07273996846982853,
                0.07310767025176343
            ],
            "optimized_portfolios": [
                {
                    "AXP": 0,
                    "JNJ": 1,
                    "JPM": 0,
                    "MRK": 2
                },
                {
                    "AXP": 0,
                    "JNJ": 0,
                    "JPM": 0,
                    "MRK": 3
                }
            ],
            "training_history": {
                "xbest": [
                    0.38827832482827235,
                    2.9211080759400123,
                    -2.5389423225612906,
                    1.3343498206159263,
                    12.493119775911737,
                    14.591556972369252,
                    3.0129296945565134,
                    1.9185105215737703,
                    2.704455071527437,
                    1.0665399499942978,
                    3.033592120119562,
                    -0.06099989820166617
                ],
                "fbest": -0.18811552749691623,
                "evals_best": 10995,
                "evaluations": 11000,
                "iterations": 1000,
                "xfavorite": [
                    0.3916945251496662,
                    2.916856590182873,
                    -2.539817171043424,
                    1.333916753907027,
                    12.493286313392911,
                    14.594927678308352,
                    3.01350033881201,
                    1.9185803618995678,
                    2.704672647832256,
                    1.0661982266767913,
                    3.0335334447173374,
                    -0.061021827763242366
                ],
                "stds": [
                    0.006682040878653603,
                    0.007266550825274572,
                    0.0013208655286446151,
                    0.0007692243002982566,
                    0.004117977230201465,
                    0.004856595940893526,
                    0.001971207723679089,
                    0.00024105861364878245,
                    0.0002632002696103937,
                    0.00030616931356897885,
                    4.544759606842042e-05,
                    3.493004326249461e-05
                ],
                "stop": {
                    "maxiter": 1000
                }
            },
            "objective_values": [
                -0.6988810971380759,
                -2.3076105808941447
            ],
            "result_with_budget": [
                {
                    "portfolio": {
                        "AXP": 0,
                        "JNJ": 1,
                        "JPM": 0,
                        "MRK": 2
                    },
                    "budget": 340.7274627685547,
                    "difference": 25.272537231445312
                },
                {
                    "portfolio": {
                        "AXP": 0,
                        "JNJ": 0,
                        "JPM": 0,
                        "MRK": 3
                    },
                    "budget": 295.8838577270508,
                    "difference": 70.11614227294922
                }
            ]
        }
    }
}