{
    "63": {
        "hyperparams": {
            "stocks": [
                "CAT",
                "GS",
                "TRV"
            ],
            "start": "2015-01-01",
            "end": "2025-01-01",
            "risk_aversion": 0.1,
            "n_qubits": 12,
            "budget": 3861,
            "log_encoding": true,
            "layers": 10,
            "prices_now": {
                "CAT": 359.7030334472656,
                "GS": 569.7945556640625,
                "TRV": 239.9084930419922
            },
            "assets_to_qubits": {
                "CAT": [
                    0,
                    1,
                    2,
                    3
                ],
                "GS": [
                    4,
                    5,
                    6
                ],
                "TRV": [
                    7,
                    8,
                    9,
                    10,
                    11
                ]
            },
            "optimizer": "CMAES",
            "lambda_budget": 0.9
        },
        "continuous_variables_solution": {
            "weights": {
                "CAT": 0.9554462186733631,
                "GS": 0.04455378132663693,
                "TRV": 4.336808689942018e-19
            },
            "allocation": {
                "CAT": 10,
                "TRV": 1,
                "GS": 0
            },
            "value": -189.5777729470415,
            "left_overs": 24.061170778534688
        },
        "continuous_variables_solution_unconstrained": {
            "weights": {
                "CAT": 0.9622503640552106,
                "GS": 0.06336091543715498,
                "TRV": 0.020621329412528477
            },
            "allocation": {
                "CAT": 10,
                "TRV": 1,
                "GS": 0
            },
            "value": -189.5777729470415,
            "left_overs": 24.06117160640042
        },
        "exact_solution": {
            "smallest_eigenvalues": [
                -0.09737961355763816
            ],
            "smallest_bitstrings": [
                "011011000000"
            ],
            "first_excited_energy": -0.0973795422520515,
            "optimized_portfolio": [
                {
                    "CAT": 6,
                    "GS": 3,
                    "TRV": 0
                }
            ],
            "second_optimized_portfolio": [
                {
                    "CAT": 4,
                    "GS": 3,
                    "TRV": 3
                }
            ],
            "spectrum": [
                2.3540748934514376e-16,
                -0.09737120877939912,
                -0.07275047186505387,
                -0.07385095002686681,
                -0.04239102916142541,
                -0.09162968781107367,
                -0.09107759289293313,
                -0.044032467217974755,
                -0.02269943444649162,
                -0.09600495989384764,
                -0.08341813604926032,
                -0.060446852273233,
                -0.05907473426578043,
                -0.08424511852819982,
                -0.09572868045512309,
                -0.02460740879628666,
                -0.011725695166606504,
                -0.09706419620545109,
                -0.07846032084776941,
                -0.06752516402805747,
                -0.05110887212671879,
                -0.08831358353918389,
                -0.09377919404987747,
                -0.03469629740133958,
                -0.0329212142312292,
                -0.09419346822068034,
                -0.08762389985335986,
                -0.052615969130744414,
                -0.06628860496631325,
                -0.0794242541503428,
                -0.09692602748863191,
                -0.0137657487672963,
                -0.08103494235677039,
                -0.06410377399296725,
                -0.09663521709092876,
                0.01657223489596331,
                -0.0948510216102571,
                -0.02978492342462171,
                -0.08638659517549888,
                0.0749704275829268,
                -0.08944692661333647,
                -0.048448984274117056,
                -0.09301508416885829,
                0.0442660140205877,
                -0.09724715266784431,
                -0.008111292640936976,
                -0.07674956336923458,
                0.10868588644845265,
                -0.08561691706938351,
                -0.05665252044400608,
                -0.09520118456180862,
                0.030042819738298504,
                -0.09642508839330266,
                -0.019324324044129308,
                -0.08194415988968559,
                0.09145174957934452,
                -0.09252496428012005,
                -0.03949313075930867,
                -0.09007689519582779,
                0.0592418664745637,
                -0.09731720072150221,
                0.0038542125128173334,
                -0.07080277789402473,
                0.12667289392585426,
                -0.049000807231010524,
                -0.08922098322967253,
                -0.09317622785804439,
                -0.037123019008386014,
                -0.07710437746017954,
                -0.06919087461905833,
                -0.09721552400398623,
                0.006985211013816122,
                -0.06455652268289563,
                -0.08071050059583226,
                -0.09670001487347049,
                -0.016574132521619343,
                -0.0866443092835078,
                -0.05466181889614062,
                -0.09472258090830846,
                0.03355541006305953,
                -0.05715464474317333,
                -0.08534186802477309,
                -0.09531414629939614,
                -0.027224859086369832,
                -0.0822503387279025,
                -0.062302544470423056,
                -0.09634512097510639,
                0.01989392760078592,
                -0.07120643589170936,
                -0.0753268477688997,
                -0.09733381441405942,
                -0.005170792132443558,
                -0.09028627696465705,
                -0.046268657718390976,
                -0.09234787763351288,
                0.04796971258619853,
                -0.09610238908756819,
                -0.02201951340213347,
                -0.0831273975852766,
                0.08723490504205023,
                -0.09563093247758761,
                0.02658824628374592,
                -0.05859075158468102,
                0.15992328868958575,
                -0.09737062352592343,
                0.0007796631606271777,
                -0.07236329553481288,
                0.12207368713143735,
                -0.09088322886253972,
                0.05540654717110036,
                -0.04180956659293187,
                0.20078413298230108,
                -0.0971124926444357,
                -0.010996082584910328,
                -0.07812139044548627,
                0.10427796901290681,
                -0.09363308877775883,
                0.04062116146229652,
                -0.05057625275973527,
                0.179977277945655,
                -0.0968767734734804,
                0.013307760108512291,
                -0.06585309058696447,
                0.1406221096794164,
                -0.08738133746950885,
                0.07094444668806105,
                -0.03229066381410813,
                0.2223439110851692,
                -0.026621237068365,
                -0.09541696519402176,
                -0.08508419354072094,
                -0.05760789450142863,
                -0.061868539966317984,
                -0.08253116889120982,
                -0.09626741297228827,
                -0.020644564214540348,
                -0.04574881314125624,
                -0.09047860820002968,
                -0.09217992408524067,
                -0.040631414967932725,
                -0.07498036146436263,
                -0.07157436706451811,
                -0.09734649206074794,
                0.002353050023720759,
                -0.03656100385019486,
                -0.09332390556804357,
                -0.08900807960569976,
                -0.049495927714961696,
                -0.06880044348052147,
                -0.07742895689964302,
                -0.09718301534451593,
                -0.00952212814193389,
                -0.05418466055810227,
                -0.08688104069105052,
                -0.09459970858815533,
                -0.031014309853671485,
                -0.0804082825305242,
                -0.06496735998303571,
                -0.09675781772592512,
                0.014981023692964305,
                -0.09068950324745681,
                -0.045182529803823666,
                -0.09200216151188212,
                0.0497826366462373,
                -0.0973618209829556,
                -0.00371924637445901,
                -0.07460954160961619,
                0.11532589547373798,
                -0.0955296153241652,
                -0.02595555703426714,
                -0.08481005057586322,
                0.08104890306099374,
                -0.09618603934397332,
                0.021526707179311474,
                -0.061400441671357914,
                0.152614030950109,
                -0.09348554362741462,
                -0.03594519268694969,
                -0.08878214483314459,
                0.06503945407611475,
                -0.09714993472503172,
                0.008527504883594206,
                -0.06838107866520463,
                0.13359354316801283,
                -0.0968217108541782,
                -0.015213587346763589,
                -0.08008585724876668,
                0.09781103310762784,
                -0.0944701203523797,
                0.035278403015575624,
                -0.05366760213293422,
                0.1723874153306501,
                -0.06713870955046736,
                -0.0787832555267029,
                -0.09702657066846551,
                -0.012396312977000463,
                -0.0880985390999961,
                -0.051608796029425905,
                -0.09392192023392332,
                0.0388568706433784,
                -0.07912256133116824,
                -0.06670062891883391,
                -0.09697840346261916,
                0.011725006439218168,
                -0.09406657437742938,
                -0.033507464255101205,
                -0.0878569404409284,
                0.06899968430078585,
                -0.07350661650668663,
                -0.07311807581460433,
                -0.09737851637891276,
                -0.0007119471701570197,
                -0.09145855492446173,
                -0.04293433688494398,
                -0.09126550478615839,
                0.05355188240448983,
                -0.08398653809042347,
                -0.05953088089042055,
                -0.09582621197835525,
                0.024914595807836788,
                -0.09592258452153965,
                -0.02332813718705637,
                -0.08369620025313254,
                0.0852003312928486,
                -0.09727359600964863,
                0.005385285501738984,
                -0.07001091823256678,
                0.12892905358412726,
                -0.0896583506211526,
                0.06113756644517357,
                -0.038330216416603294,
                0.20876262233674087,
                -0.09496994654838267,
                0.03175668740297379,
                -0.05567481116438913,
                0.1673403805354165,
                -0.08133871494777062,
                0.09352824003238261,
                -0.017976928647093424,
                0.25319620845407215,
                -0.09649775985160416,
                0.018194820553133678,
                -0.06321891391890147,
                0.14775837845078604,
                -0.08587454467709713,
                0.07695665798854437,
                -0.028529673087800914,
                0.2306029694199273,
                -0.09269014706641215,
                0.04607092310031308,
                -0.04737858692771666,
                0.18767511089481365,
                -0.07605084539573065,
                0.11085235662961282,
                -0.0066719530492972325,
                0.2765423974998397,
                -0.09106292392670703,
                -0.04412075691109067,
                -0.09165747878537864,
                0.05155978002803257,
                -0.09737610745674116,
                -0.0022995291251961575,
                -0.07390614299270451,
                0.11745985845936308,
                -0.09572345379408026,
                -0.024714752704313583,
                -0.08428597272137658,
                0.08300453757983589,
                -0.09602081507292332,
                0.02312520779188429,
                -0.06051780769566813,
                0.15492614869416457,
                -0.09376917011522717,
                -0.03479388995074805,
                -0.08834775593683544,
                0.06690586267033585,
                -0.09707445998010722,
                0.010036630698892463,
                -0.06758805100356753,
                0.13581660593627776,
                -0.0969257688594973,
                -0.01388331105253598,
                -0.07947210902749234,
                0.09985585288352472,
                -0.09421515962754956,
                0.03696624327690117,
                -0.0526953859536253,
                0.17478854186388681,
                -0.08641126619835604,
                0.07483406892863148,
                -0.029855368111537252,
                0.22767117049670538,
                -0.06414940683052614,
                0.14523299864345007,
                0.016471943283861,
                0.32215147080449963,
                -0.07678430811018427,
                0.10852879140381624,
                -0.008195957340893751,
                0.2734058566893526,
                -0.048506467716948956,
                0.1849470094138227,
                0.04414854046708799,
                0.3739084436703651,
                -0.08197377523240879,
                0.0913052633992058,
                -0.01940171213331156,
                0.25016217343512553,
                -0.05670394901248442,
                0.16471375757004586,
                0.029934140792288108,
                0.34765350937247436,
                -0.07084285562783038,
                0.12650469016179638,
                0.003761919477309902,
                0.29740227148646275,
                -0.039556946736196835,
                0.2059327983979845,
                0.05911517252372511,
                0.40091633192911863,
                -0.09722045085051423,
                0.006873115062155027,
                -0.06923984124775268,
                0.13113175003242455,
                -0.08924613629527137,
                0.06298310931284809,
                -0.03720057158537574,
                0.21132182433431912,
                -0.09473724651144202,
                0.03342343806380436,
                -0.054724407885759406,
                0.16972141628131598,
                -0.08074703795990207,
                0.09555243517524192,
                -0.016668138042574457,
                0.25593339261931763,
                -0.09635483286983917,
                0.019772126085572918,
                -0.06235816388440773,
                0.15005026548874406,
                -0.08537259187697255,
                0.07889154517514924,
                -0.02731044270763388,
                0.23325118620172147,
                -0.09236768412151247,
                0.04782708666614244,
                -0.04633855159025517,
                0.19014525208717337,
                -0.07536945988637853,
                0.11296582198629004,
                -0.0052736289247749275,
                0.2793685002680132,
                -0.05863533432956508,
                0.1597621917064449,
                0.02649600195265453,
                0.34117815412770086,
                -0.022085870577478656,
                0.24445023872907568,
                0.08711147578875206,
                0.4499489234210911,
                -0.0418645965274593,
                0.2006014007560078,
                0.0552994466647866,
                0.3940579779329509,
                0.0007009505631430731,
                0.29130903679227155,
                0.1219323084292458,
                0.5088514338206729,
                -0.050625958351178446,
                0.17980561221934732,
                0.040521663856930054,
                0.36724170242739457,
                -0.011068479690525612,
                0.2675033709571391,
                0.10414577688103471,
                0.4790237042108125,
                -0.032351238104513465,
                0.2221495960858026,
                0.07082937513785967,
                0.4216270334214876,
                0.01322243794129227,
                0.3158672820077207,
                0.14047110219889114,
                0.5394321720316589,
                -0.09626252456587489,
                -0.02074470118030035,
                -0.08256951109111296,
                0.0892248403091088,
                -0.09543196409141169,
                0.028220889515849917,
                -0.05767422104372976,
                0.16226988871157677,
                -0.09735118937147103,
                0.002233452740466203,
                -0.07162604724056147,
                0.12424203870500883,
                -0.09050477268376397,
                0.057217909311640294,
                -0.040713844396757314,
                0.20330880255652933,
                -0.09718283957111373,
                -0.009631766910737095,
                -0.07747381379698562,
                0.1063571327256028,
                -0.09334437000051199,
                0.042343181681477646,
                -0.049570114377357304,
                0.18241293579566814,
                -0.09676756708815629,
                0.014850992667581931,
                -0.06502619053530906,
                0.14287960714933995,
                -0.08691315825850707,
                0.07284511430448046,
                -0.031105383211528153,
                0.22495754490004566,
                -0.07464414635139174,
                0.11517722830717902,
                -0.003800549486335482,
                0.28230370941437716,
                -0.04523849304066488,
                0.19272069314266999,
                0.0496708272381802,
                0.3839292130397349,
                -0.06144530205324346,
                0.1524441827805611,
                0.021430870787061226,
                0.3316109493033332,
                -0.02602361847105615,
                0.2360070843599627,
                0.08091953277154912,
                0.4392589376519656,
                -0.06842071458331364,
                0.13343453027382768,
                0.008439105840325797,
                0.30658097759784425,
                -0.03600707134750658,
                0.21398763223966016,
                0.06491907196869554,
                0.4112176143277428,
                -0.05371789878230766,
                0.17220622382173395,
                0.03517476934048528,
                0.357393676532942,
                -0.015288117428569701,
                0.25877909450180403,
                0.09767224063722604,
                0.46805324201837056,
                -0.09393669942428617,
                0.03873270159479392,
                -0.05166846268786917,
                0.17728052218758866,
                -0.07881861910643606,
                0.10198714164986122,
                -0.012485186444668889,
                0.2646156799227434,
                -0.08788162105488215,
                0.06885521384699186,
                -0.03358104728676921,
                0.2194426841011381,
                -0.06674760513668113,
                0.1381287975695254,
                0.011619320342626527,
                0.31279993428045544,
                -0.09128514625367759,
                0.053417799218086925,
                -0.04300079923028686,
                0.1979852743507548,
                -0.07315912024621851,
                0.11968173296535645,
                -0.0008090274200375099,
                0.28833137215097854,
                -0.08372611539906816,
                0.08504498192582277,
                -0.02340918442074341,
                0.24165280189079347,
                -0.0595840583451213,
                0.15732837891055168,
                0.024799886283766663,
                0.33802142376710115,
                -0.03838482384655068,
                0.20858897183493397,
                0.06103429570284806,
                0.40429452055627385,
                0.005308468450902687,
                0.3004216497167163,
                0.12879390003853736,
                0.5202106194737094,
                -0.018042184443733726,
                0.25300045884143324,
                0.09340978059247013,
                0.4607469593005739,
                0.0316672480802914,
                0.3508528818275722,
                0.1671868793459108,
                0.5826859505043978,
                -0.028589499848291122,
                0.2304185223456554,
                0.07684597181530259,
                0.4321443642447596,
                0.018111834251714837,
                0.32526098843791845,
                0.14761426703365238,
                0.5510717969482094,
                -0.006742866103963505,
                0.2763348208666652,
                0.11072574757100706,
                0.4901023592758546,
                0.04597472846941807,
                0.37719737643394496,
                0.18751176951583992,
                0.6150531406982812,
                -0.05905464718586588,
                -0.08426927834181513,
                -0.09572719433513915,
                -0.02466899968187209,
                -0.08340676508789649,
                -0.060487958220243096,
                -0.09601511985866107,
                0.02319020533308285,
                -0.07273463378659747,
                -0.07388317758906865,
                -0.0973752885138498,
                -0.002244608497380484,
                -0.09107098122936871,
                -0.04408333625108823,
                -0.0916465164472508,
                0.05163583785569633,
                -0.06627061975174109,
                -0.07945235113779092,
                -0.0969272646279418,
                -0.013833083261841406,
                -0.08761486738924029,
                -0.052661841404077106,
                -0.0942068843369834,
                0.037036643410629885,
                -0.07844668443433775,
                -0.06756172482406841,
                -0.09707124712902504,
                0.010096471490831498,
                -0.09377509474831375,
                -0.034752402885825824,
                -0.08833399032175368,
                0.06698784255147339,
                -0.09724631902701755,
                -0.008158195534146154,
                -0.07676855012733089,
                0.10859823151923872,
                -0.09302344502076315,
                0.04420063585728162,
                -0.04848062087245232,
                0.1850373979168451,
                -0.09663883880232199,
                0.016516532522145334,
                -0.06412879564689038,
                0.14531242546233902,
                -0.0864000530212801,
                0.07489442325618018,
                -0.029823829081027948,
                0.22777356972960078,
                -0.09731856391231641,
                0.0038030147888465237,
                -0.07082471422302866,
                0.126579006385436,
                -0.09008775518393333,
                0.059171298655348495,
                -0.03952831549340499,
                0.2060290565061591,
                -0.09520713574085402,
                0.02998239363741354,
                -0.056680772434995,
                0.16479853872935107,
                -0.08196032357275254,
                0.09137005263530962,
                -0.019367132667528465,
                0.2502709945704455,
                -0.08663382628661595,
                -0.05469725059290339,
                -0.09473127008077911,
                0.03348092532237356,
                -0.09669846792718795,
                -0.016627255665095722,
                -0.08073131847578902,
                0.09562999963195767,
                -0.09317008741047583,
                -0.037166874692230185,
                -0.08923546314975811,
                0.06305016409832145,
                -0.09721889557602537,
                0.006921902873083696,
                -0.06921865173621661,
                0.1312208403697929,
                -0.09027793850249871,
                -0.046308200603692846,
                -0.09235939840732615,
                0.04788924454918889,
                -0.09733468147074126,
                -0.005228888453277885,
                -0.07535106297872386,
                0.11304901772808851,
                -0.09531026660440786,
                -0.02727323843689433,
                -0.08535944389419511,
                0.07896373239913448,
                -0.09635109683303061,
                0.019825159739481006,
                -0.06233405733051606,
                0.15014552299030376,
                -0.09089209944188115,
                0.05534796417708446,
                -0.04183898282088534,
                0.20068302194007032,
                -0.07238165755907308,
                0.12199580653387745,
                0.0007370374496174163,
                0.29141251606345236,
                -0.08314085557476733,
                0.08716712781886618,
                -0.022055227929158205,
                0.24454228504819991,
                -0.05861440833340435,
                0.15983432150736737,
                0.026538022438763555,
                0.34129414823300736,
                -0.0873924668049145,
                0.0708813755935451,
                -0.03232315721004995,
                0.22223630848933845,
                -0.06587404650817741,
                0.14053881331987994,
                0.013261425828331716,
                0.3159768788316385,
                -0.07813725624521695,
                0.10420525837475281,
                -0.011035171464246223,
                0.2676010031460999,
                -0.05060272652466068,
                0.17988237562191706,
                0.04056685779874705,
                0.36736438280087397,
                -0.07496507136627067,
                -0.07160413850498608,
                -0.09735007889978631,
                0.0022850461528221536,
                -0.0921734552579706,
                -0.04067850038469686,
                -0.09049407762145195,
                0.057289158768690056,
                -0.08507319681114053,
                -0.05764590940285154,
                -0.09542622792720579,
                0.028281848087466213,
                -0.0962657806461997,
                -0.02070162126610511,
                -0.08255344986003553,
                0.08930738044283823,
                -0.08039511442903019,
                -0.0650011544012499,
                -0.09676418079184199,
                0.014907157572863528,
                -0.09459561480754994,
                -0.03106626381883639,
                -0.08689983564971146,
                0.07292187949689725,
                -0.08899931288148266,
                -0.04953836986318998,
                -0.09333620066701809,
                0.04240916535097186,
                -0.09718394013893092,
                -0.009584532076031865,
                -0.07745489360969283,
                0.1064457162647254,
                -0.09619005035577641,
                0.021473990948185327,
                -0.06142462607941247,
                0.15251968430438917,
                -0.08482339974273378,
                0.08097730520680507,
                -0.02599266629021127,
                0.236103984307392,
                -0.09201069149799079,
                0.049720925967101745,
                -0.0452128784024485,
                0.19280639817888334,
                -0.07462808422877715,
                0.11524344365237912,
                -0.0037637868195459895,
                0.2824128697369253,
                -0.09447635795459569,
                0.03522129652225816,
                -0.05369479870699699,
                0.1722867078059676,
                -0.08010175172877432,
                0.0977341337479358,
                -0.015254323751734187,
                0.25888198682473784,
                -0.08879304225475995,
                0.06497291602940028,
                -0.03597884242682329,
                0.2140788061775603,
                -0.06840238150767,
                0.13350527867068945,
                0.00847897424916677,
                0.3066966908022515,
                -0.09406090979999845,
                -0.033548606036483485,
                -0.08787076252012413,
                0.06891864960695573,
                -0.09698179934310089,
                0.011665786113188685,
                -0.06672683545813439,
                0.13821274130860414,
                -0.09702530263492726,
                -0.01244606408534891,
                -0.07880298802074062,
                0.10206035211813175,
                -0.0939303214636249,
                0.03878724714387942,
                -0.05164211430948336,
                0.17737623182505136,
                -0.09591908942385613,
                -0.023373480774649458,
                -0.0837129117150136,
                0.08511318984869434,
                -0.09583206322497947,
                0.024850295268613293,
                -0.0595605589590956,
                0.1574180718913087,
                -0.0973795422520515,
                -0.0007663207719395266,
                -0.07314097024840392,
                0.1197601856196514,
                -0.0912765598740059,
                0.053476683939500155,
                -0.04297147331652586,
                0.19808727731808567,
                -0.0813524612084415,
                0.09346373565162158,
                -0.018011612063769222,
                0.2530882591364434,
                -0.05569821178734623,
                0.16725615294311358,
                0.03170850024055926,
                0.3509630095007332,
                -0.07002932515298849,
                0.1288551503792814,
                0.005344164863732907,
                0.3005201015832223,
                -0.03835901784995409,
                0.20866707072853424,
                0.06108160939019827,
                0.4044174223363222,
                -0.07606688498499592,
                0.11078326390316398,
                -0.006709781042820422,
                0.2764278235470958,
                -0.04740463243832116,
                0.18758535087718198,
                0.04601894354170427,
                0.37731374924395406,
                -0.06323977143117573,
                0.1476794333767002,
                0.018150249944875282,
                0.3253651455492893,
                -0.02856135073713062,
                0.23050135779776665,
                0.0768965290788963,
                0.4322740880861741,
                -0.09602470481339984,
                0.023074514977162605,
                -0.060541182779016926,
                0.15483556559486727,
                -0.0842989223450206,
                0.08293576745227069,
                -0.02475051134449241,
                0.2387766771667003,
                -0.09166576480290844,
                0.05150047848171353,
                -0.04415004197817722,
                0.1953007667073437,
                -0.07392409761659702,
                0.11738068583582947,
                -0.0023423989928957156,
                0.28526371298186226,
                -0.0942212187194873,
                0.036911348948519655,
                -0.05272165020924079,
                0.1746918523889484,
                -0.07948751384792668,
                0.09978200287638284,
                -0.013922540970604575,
                0.26164377730989324,
                -0.08835833571222249,
                0.06684193894366688,
                -0.03482633672664433,
                0.21666235792471755,
                -0.06760865929572024,
                0.13573185870140386,
                0.00998994295168663,
                0.3096365405611415,
                -0.04852962382623334,
                0.1848732134951826,
                0.044104506028636484,
                0.3737912629558117,
                -0.00822873848117782,
                0.2733123675475148,
                0.10847128287944174,
                0.4863128658871562,
                -0.029883170235462338,
                0.22758799072761993,
                0.07478361207822457,
                0.4285465230859849,
                0.016433776060425814,
                0.3220466727025309,
                0.1451677351180224,
                0.5470907321689208,
                -0.03958238885665398,
                0.20585442161534306,
                0.05906800090798042,
                0.4007925341432685,
                0.0037265008078664432,
                0.2973032574420503,
                0.1264433966818485,
                0.51632532994801,
                -0.019431957511134336,
                0.25007395929901916,
                0.09125136399863384,
                0.4570532822587086,
                0.02989310473189504,
                0.34754265879983753,
                0.16464432965109876,
                0.5786091320285032,
                -0.08076053819586693,
                0.09549029051760496,
                -0.016701781604494814,
                0.2558296489315008,
                -0.05474723132377553,
                0.16964040561069094,
                0.03337688493553973,
                0.35406088744445047,
                -0.06925785300204845,
                0.13106061871128216,
                0.006833314929904154,
                0.3034398220940064,
                -0.03722858093757583,
                0.21122996756316015,
                0.0629291326978123,
                0.4076932733920932,
                -0.07538518298990238,
                0.1128992909535804,
                -0.005310280847717182,
                0.27925839967048566,
                -0.04636391657748842,
                0.1900589438392304,
                0.047776910234903935,
                0.38050063747368895,
                -0.06237853933082306,
                0.14997431070767497,
                0.019729028637592613,
                0.32837396712677064,
                -0.027341208498684925,
                0.23315352070331619,
                0.07883358223735856,
                0.43563885312823897,
                0.0006680836116465835,
                0.29122338060347813,
                0.1218777511252423,
                0.5087205300501053,
                0.05525661434327827,
                0.3939517628006876,
                0.20053276633643846,
                0.6355327477214819,
                0.026458335235175642,
                0.3410826976464913,
                0.15970092689382864,
                0.5706209984877625,
                0.08706303796009324,
                0.44983091721406737,
                0.24437349853913848,
                0.7034562309611858,
                0.013187212207493375,
                0.3157768408384813,
                0.1404132692738072,
                0.5392943814006931,
                0.07078379967973317,
                0.4215150564338757,
                0.22207700543054354,
                0.6691179931706096,
                0.04048146469625922,
                0.3671409910445543,
                0.1797407499946141,
                0.6027004353361085,
                0.1040943481897948,
                0.47889939216218175,
                0.26742227867540197,
                0.7385475221218659,
                -0.09051346259919726,
                0.057161514903280544,
                -0.04074233901908828,
                0.20321167311830857,
                -0.07164392388484611,
                0.12416717744749156,
                0.002192316370306095,
                0.2942978192788119,
                -0.08258265249735933,
                0.08915965061007666,
                -0.020779226672786394,
                0.24724934629248063,
                -0.0576971907383515,
                0.16218440556268737,
                0.02817248819542307,
                0.34435751428639577,
                -0.08692404308001067,
                0.0727844271551942,
                -0.03113682539706389,
                0.2248541850225883,
                -0.06504656434915768,
                0.14279955836681468,
                0.014806310210429625,
                0.3189512365475247,
                -0.07748928272478095,
                0.10628722140987176,
                -0.009669520712053249,
                0.27039720707767106,
                -0.04959578792209496,
                0.18232176218092472,
                0.04229087946335976,
                0.37051670964898026,
                -0.026051622530893673,
                0.23592738503183136,
                0.08087025399839073,
                0.43913493176250623,
                0.021393076340475874,
                0.33151112870562666,
                0.15238113322041608,
                0.5588018099708904,
                -0.003833274029605527,
                0.2822144204216929,
                0.11512138698061547,
                0.49746278047755826,
                0.04962753940332317,
                0.3838178448314607,
                0.1926497156036941,
                0.6231524672522596,
                -0.015318442681705215,
                0.2586947134548873,
                0.09761975666832018,
                0.4679224853665022,
                0.03513428576445077,
                0.3572882137597125,
                0.17213930486939688,
                0.5906006561056053,
                0.008403894651950593,
                0.30648654517427404,
                0.13337517016956268,
                0.527755870345443,
                0.06487285548750857,
                0.41110006816677086,
                0.21391239766146364,
                0.6564573036644908,
                -0.06676592703763562,
                0.13806085280808894,
                0.011580497241626884,
                0.3126895072334896,
                -0.03360883849049103,
                0.21935546453536775,
                0.0688032037336167,
                0.41806589746820394,
                -0.051691360948430284,
                0.17720339457605572,
                0.03868759140953036,
                0.3638722091137377,
                -0.012518261240179143,
                0.2645173852335196,
                0.1019275446994529,
                0.47527100690631524,
                -0.059604633482002026,
                0.15725595173301815,
                0.024757991617048995,
                0.33790451093307056,
                -0.023439563960214023,
                0.2415601722885154,
                0.08498926888661354,
                0.4462919962943604,
                -0.043026099760417116,
                0.19790321902918795,
                0.05336932030331551,
                0.3905926534752177,
                -0.0008449136500127325,
                0.28822714806623656,
                0.11961806186025059,
                0.5050029880076649,
                0.03162950209714787,
                0.35076121412806444,
                0.16712700811604125,
                0.582548074947638,
                0.09336188462853401,
                0.46063428535618584,
                0.25292619453990267,
                0.7165056978735062,
                0.06099166585741394,
                0.40419283712272575,
                0.20852224332748692,
                0.6480211950484004,
                0.1287402816348139,
                0.5200859061766095,
                0.3003390970395237,
                0.788002042833044,
                0.04593458370808856,
                0.37710081808545054,
                0.1874485498326781,
                0.614908239776253,
                0.11067505205640527,
                0.4899838013894125,
                0.27625651107906785,
                0.7518773602789842,
                0.07680076132171103,
                0.43203731203195844,
                0.23034811538479683,
                0.6818869955638933,
                0.14755759314421757,
                0.5509406475137154,
                0.32517398620946664,
                0.8248798073393614,
                -0.032908115134266634,
                -0.09420106054200153,
                -0.0876196320240561,
                -0.05264082056800805,
                -0.06627969102295656,
                -0.07943965302882355,
                -0.09692716299412296,
                -0.013801995025259944,
                -0.051097826502771546,
                -0.08832489190515033,
                -0.09377751471911011,
                -0.034726584949945294,
                -0.07845365382511435,
                -0.06754506491945819,
                -0.0970684099174593,
                0.010133340261539623,
                -0.04237894933955706,
                -0.09163909366076736,
                -0.09107459333521575,
                -0.044059973700690994,
                -0.07274266466250037,
                -0.0738685461597233,
                -0.0973738481523326,
                -0.0022106960874474974,
                -0.0590647423916479,
                -0.08425842302740616,
                -0.09572837793573599,
                -0.024640608060285875,
                -0.08341264727466643,
                -0.06046917005641379,
                -0.09601082304562936,
                0.023230167281056972,
                -0.09252142745024913,
                -0.039511811456588684,
                -0.09008268999741878,
                0.05920437553501658,
                -0.09731803355448104,
                0.003827015367872995,
                -0.07081442323028497,
                0.12662303558447183,
                -0.0964236808729046,
                -0.01934705931314258,
                -0.08195275037158598,
                0.0914083526560521,
                -0.09520440582460446,
                0.03001071638068853,
                -0.056667516841214155,
                0.16484884017643447,
                -0.09484853786916814,
                -0.029805582809277163,
                -0.08639375773502167,
                0.07493005076626641,
                -0.09663722331472763,
                0.016542642501311614,
                -0.06411705551934442,
                0.14535952058714596,
                -0.0972468491291131,
                -0.008136205620357578,
                -0.076759646567025,
                0.10863933055994188,
                -0.09301956674789608,
                0.04423127935770174,
                -0.048465778851937195,
                0.18509105071177756,
                -0.0711981102236253,
                -0.07533993806346873,
                -0.09733455094050367,
                -0.005201897851085222,
                -0.09028221907728487,
                -0.046289899887855916,
                -0.09235423146717292,
                0.04792673538380523,
                -0.08224409963730442,
                -0.062319515259423204,
                -0.0963485447772151,
                0.019857155648358597,
                -0.0953124012735253,
                -0.02725080055486962,
                -0.08535143167840772,
                0.0790072448110799,
                -0.07709708556715453,
                -0.0692058586146223,
                -0.09721757613831042,
                0.006951337240770657,
                -0.09317330762960482,
                -0.037146555023013554,
                -0.08922890468523342,
                0.06309059757562026,
                -0.08663914665177161,
                -0.05468087420008556,
                -0.09472743706717338,
                0.03351560517720528,
                -0.09669948722287233,
                -0.01660259568176809,
                -0.08072178565278053,
                0.09567673189958173,
                -0.09687804568668773,
                0.013283391783527384,
                -0.06586400237863185,
                0.14057809778390573,
                -0.08738710048273618,
                0.07091117808761135,
                -0.03230767862293013,
                0.2222870166147078,
                -0.09363654265994206,
                0.04059255486076033,
                -0.050590078263872414,
                0.17992711068892386,
                -0.07812962708436264,
                0.10423957765864439,
                -0.011016599323169651,
                0.2676582438177509,
                -0.09563328190705792,
                0.026561809471247047,
                -0.058603088098090166,
                0.15987626828049517,
                -0.08313437453496933,
                0.08719913497359011,
                -0.02203823778304674,
                0.2445961871961866,
                -0.09088781906295279,
                0.05537566484993614,
                -0.0418249499858511,
                0.2007306759148022,
                -0.07237284224465854,
                0.12203255004451388,
                0.0007572666506996091,
                0.2914732443888814,
                -0.05417394654913256,
                -0.08689137074503336,
                -0.09459793649652137,
                -0.03104227236390384,
                -0.08040179258183433,
                -0.06498566684616713,
                -0.09676155354841742,
                0.014941430437385073,
                -0.06879179829336321,
                -0.0774430840197246,
                -0.0971838799365432,
                -0.009555640621290658,
                -0.08900386834467217,
                -0.04951883403063108,
                -0.0933307842003423,
                0.04244933806778187,
                -0.06185885188070535,
                -0.08254335195815654,
                -0.09626693221866753,
                -0.020675237672981156,
                -0.08507882519017956,
                -0.05762844631260938,
                -0.09542223615946588,
                0.028319003758284923,
                -0.07497278077982289,
                -0.07159053390697216,
                -0.09734876063512346,
                0.0023165658216735626,
                -0.09217691003416009,
                -0.04065678997359696,
                -0.09048717165215217,
                0.05733248740025246,
                -0.09682057572051753,
                -0.015235099405051208,
                -0.08009420290630911,
                0.09777029895670183,
                -0.09447341304327478,
                0.03524818500260249,
                -0.053681922159509406,
                0.17233405859821022,
                -0.09715095387715594,
                0.008501847604603836,
                -0.06839227781569701,
                0.13354677954804361,
                -0.08878786734833338,
                0.06500422278334209,
                -0.035962938005278014,
                0.21413255816352778,
                -0.09736175040009759,
                -0.003742781418471569,
                -0.07461928290527522,
                0.11528221472918515,
                -0.09200664726470037,
                0.049749970876125094,
                -0.045198522109783236,
                0.1928568783436002,
                -0.09618817804432614,
                0.021498823787023245,
                -0.061413165522466534,
                0.15256404354386616,
                -0.08481705818293792,
                0.08101098385097227,
                -0.025975140727015872,
                0.23616115519245312,
                -0.08398060461555859,
                -0.059546754532941455,
                -0.09582947060272726,
                0.024880314145904026,
                -0.0959209673615764,
                -0.02335234258397838,
                -0.08370519039156812,
                0.08515393259500154,
                -0.09145472818963679,
                -0.04295417685710768,
                -0.09127150368507797,
                0.053511815837231115,
                -0.09737924866116937,
                -0.0007409541194897879,
                -0.07313034519006179,
                0.11980707407520746,
                -0.08809364845533174,
                -0.0516266052644123,
                -0.09392651993948131,
                0.03881976261740696,
                -0.09702610843165899,
                -0.012422862319637764,
                -0.07879384696942751,
                0.10210409854694585,
                -0.09406383726114906,
                -0.03352943473822122,
                -0.08786440127445128,
                0.06895652238592428,
                -0.09698037448891325,
                0.011693423593142602,
                -0.06671465748453434,
                0.13826291476420455,
                -0.09269383287658639,
                0.04604367300349982,
                -0.04739208073112426,
                0.18762778612207104,
                -0.07605908979514706,
                0.11081600712279746,
                -0.006691683331739246,
                0.276481925344953,
                -0.08588044194631736,
                0.076925074152452,
                -0.02854614323007705,
                0.23054936098690787,
                -0.06322967815220132,
                0.14771679430926593,
                0.018171509296691424,
                0.3254259136528647,
                -0.08966312751648961,
                0.0611082011556178,
                -0.038345165228816626,
                0.20871222592702504,
                -0.0700203986464307,
                0.12889014769499124,
                0.005363807151059509,
                0.3005774632572789,
                -0.08134576650866165,
                0.09349432966689272,
                -0.017994991069756733,
                0.2531392429823509,
                -0.055686911651181295,
                0.16729599164238362,
                0.03173145377417575,
                0.3510273352162093,
                -0.09692463726366837,
                -0.013903977814455447,
                -0.07948016531534635,
                0.09981678297480645,
                -0.0942183422799113,
                0.03693724715582088,
                -0.0527091715245673,
                0.1747373574787584,
                -0.09707543410122932,
                0.010011998794683834,
                -0.06759884646074801,
                0.13577175239171943,
                -0.08835328696726186,
                0.06687206622526454,
                -0.03481095361242431,
                0.21671400925416207,
                -0.09737601818213498,
                -0.0023221308884709556,
                -0.07391553981170083,
                0.117417962818782,
                -0.09166181583138616,
                0.05152844057288024,
                -0.04413614321574467,
                0.1953492757474204,
                -0.09602287829334546,
                0.023098445978096085,
                -0.06053006452714129,
                0.1548782004444461,
                -0.08429274195606315,
                0.08296816585993161,
                -0.02473357497538936,
                0.23883161375368284,
                -0.07085128178178787,
                0.12647276599392054,
                0.0037437183022144206,
                0.29735030627181186,
                -0.039569915034415204,
                0.2058917915936172,
                0.0590907514788416,
                0.4008512362700977,
                -0.05671457841326362,
                0.16467750803938014,
                0.029912971572680587,
                0.34759526895616705,
                -0.019417192012122948,
                0.25011594041360974,
                0.09127726971574485,
                0.4571186440325066,
                -0.06415891996610121,
                0.14519896346850936,
                0.016452291244571406,
                0.32209643817962,
                -0.02986956830012418,
                0.2276276115162284,
                0.07480790398065507,
                0.4286084817622054,
                -0.04851824729558708,
                0.18490843754970315,
                0.04412578312197164,
                0.37384685045236715,
                -0.008212769338852278,
                0.27335682313280024,
                0.10849887952341064,
                0.48638178193578113,
                -0.09237132366971229,
                0.04780083744217348,
                -0.04635165333583325,
                0.19009980002144972,
                -0.07537751800328776,
                0.11293087639201119,
                -0.0052926956192748485,
                0.27931043536941585,
                -0.08537838109330056,
                0.07886115551239853,
                -0.027326393246372933,
                0.233199709531008,
                -0.06236864716688813,
                0.15001031143765303,
                0.019749638840175006,
                0.3284324009552441,
                -0.08925083808801212,
                0.0629548394915482,
                -0.037215066621742864,
                0.21127342810442823,
                -0.06924909009979019,
                0.13109435908993272,
                0.006852378456131672,
                0.30349498563588756,
                -0.08075394440793057,
                0.0955198217978542,
                -0.016685610924335445,
                0.25587869460205803,
                -0.05473617392306411,
                0.1696787767321694,
                0.03339911482211364,
                0.3541227386322284,
                -0.032364471121489,
                0.2221118996966307,
                0.07080601576592255,
                0.42156841927045724,
                0.013204519949473139,
                0.3158200974608451,
                0.1404412487812678,
                0.53935989056973,
                -0.011083979160532203,
                0.26746115465365267,
                0.10411932058571866,
                0.4789585546339427,
                0.040501138241979685,
                0.3671890642755165,
                0.17977202444795082,
                0.6027728752970529,
                -0.022100220126905684,
                0.24441033610934787,
                0.08708660316545824,
                0.4498871138000106,
                0.02647680610146811,
                0.3411283057630589,
                0.15973051558040136,
                0.5706898977263923,
                0.0006842631553613387,
                0.2912643947227585,
                0.12190419341217595,
                0.5087827951732101,
                0.055277534752608375,
                0.39400241939529884,
                0.20056580777325717,
                0.6356088836865368,
                -0.09676881943134621,
                0.014827545935149226,
                -0.06503676310527164,
                0.14283736223638838,
                -0.08691877460326813,
                0.07281315711419153,
                -0.031121800490616587,
                0.22490293873933143,
                -0.09334774883280228,
                0.04231568336194909,
                -0.04958347972512375,
                0.18236478796574118,
                -0.07748181571012502,
                0.10632027234835179,
                -0.00965153230720218,
                0.27045223177556454,
                -0.09543426811576383,
                0.028195465585793847,
                -0.057686159922938275,
                0.16222475945233022,
                -0.08257629939854155,
                0.08919048937939719,
                -0.020762753180286822,
                0.247301165304113,
                -0.09050925407983482,
                0.05718823478172293,
                -0.040728701001461615,
                0.20325749730246923,
                -0.07163530903152332,
                0.12420254854303336,
                0.0022118906428747775,
                0.2943561946834065,
                -0.05372872553589621,
                0.17217142600260416,
                0.0351539967126052,
                0.35733840412325374,
                -0.01530355533483125,
                0.2587350136924555,
                0.09764511345848778,
                0.467984573137927,
                -0.036020131747581806,
                0.21394841298541817,
                0.06489526806030918,
                0.41115593780774556,
                0.008421109535641624,
                0.30653155808086013,
                0.13340375080235412,
                0.5278247521328638,
                -0.045250420949567924,
                0.19268373730644994,
                0.04964857315424438,
                0.38387080979162697,
                -0.0038172416657452917,
                0.2822570212098083,
                0.11514831842440401,
                0.4975281909567539,
                -0.026037847327228622,
                0.23596549165769998,
                0.08089410604125152,
                0.4391938407975465,
                0.021411515875909337,
                0.3315586699276634,
                0.15241144220665748,
                0.5588743162960607,
                -0.08373214601771028,
                0.08501590708985299,
                -0.0234248288348854,
                0.24160410992431713,
                -0.059594566913369354,
                0.15729041697806023,
                0.02477815186714883,
                0.3379598625688825,
                -0.07316732611889612,
                0.11964842643204052,
                -0.0008275790495763202,
                0.28827653148461835,
                -0.043013774968177376,
                0.19794219628472215,
                0.05339256941017079,
                0.3906545327958452,
                -0.0788257237364374,
                0.10195600161341364,
                -0.012502252334582565,
                0.26456398277078913,
                -0.051680181967145786,
                0.17724006209465581,
                0.03870926087258783,
                0.36393075234400035,
                -0.06675694411241848,
                0.1380932186138838,
                0.011599214080541952,
                0.3127418071416969,
                -0.033595329859925784,
                0.2193968636202801,
                0.06882810754417679,
                0.41813126200417766,
                -0.006758511647523929,
                0.27629420038922187,
                0.11069978556429916,
                0.4900403682377366,
                0.04595431931508549,
                0.3771470578175538,
                0.18747916915485968,
                0.6149772066953638,
                0.018093887041700243,
                0.32521574716007967,
                0.14758514005381423,
                0.5510031367618441,
                0.07682290340625139,
                0.43208847471912065,
                0.23038210316298585,
                0.6819630324577003,
                0.005291689794314498,
                0.3003787735918107,
                0.12876639178173183,
                0.5201453671304714,
                0.06101258389948997,
                0.4042414804961271,
                0.20855450755771138,
                0.6480936206023634,
                0.03164809224738436,
                0.3508051612622602,
                0.16715605654103632,
                0.5826137313078263,
                0.09338529699199155,
                0.46068808765863173,
                0.2529619891350458,
                0.7165855034412234,
                -0.07843958785571889,
                -0.06757584962285412,
                -0.09707314837077119,
                0.010064527315980844,
                -0.0937722419929401,
                -0.0347745897651188,
                -0.0883414519947884,
                0.06694414960572079,
                -0.087609847466778,
                -0.0526798038575035,
                -0.09421144647383428,
                0.036999092301014724,
                -0.09692670658312497,
                -0.01385991837076345,
                -0.079462988020625,
                0.09990010026696378,
                -0.08340069783802276,
                -0.0605039558144793,
                -0.09601832403235835,
                0.023155522238988105,
                -0.095725470677577,
                -0.02469345538597572,
                -0.08427829084601401,
                0.0830457371076163,
                -0.09106703126205079,
                -0.044103360256511064,
                -0.09165249620752527,
                0.05159528500521763,
                -0.09737593722578056,
                -0.0022739382201958495,
                -0.07389551702707606,
                0.11750729359079018,
                -0.09520960445856916,
                0.02995709065977511,
                -0.056692782723704524,
                0.16475382186249837,
                -0.08196724231636981,
                0.09133595599324654,
                -0.019385172280813594,
                0.25021353465814195,
                -0.09009238724096919,
                0.05914180864927514,
                -0.03954320470569841,
                0.20597825198543152,
                -0.07083408003302452,
                0.12653984646729177,
                0.003781516264625156,
                0.297460095718161,
                -0.09302698230426476,
                0.044173289501836646,
                -0.04849403900281146,
                0.184989705875734,
                -0.07677667004212946,
                0.10856166263367997,
                -0.00817792372462292,
                0.2734603776805374,
                -0.08640581068866579,
                0.0748626846975893,
                -0.02984025724460767,
                0.22771951079483166,
                -0.0641394567051681,
                0.14527055109345238,
                0.016493177278559104,
                0.3222127463781229,
                -0.0953079449561903,
                -0.027292906097276148,
                -0.08536637268662473,
                0.07892546736114484,
                -0.09635311248187065,
                0.019797073834149165,
                -0.06234677137336168,
                0.15009502167165428,
                -0.0973344750065041,
                -0.005252563641439594,
                -0.0753607568667398,
                0.11300491020953743,
                -0.09236378013087582,
                0.0478563077047601,
                -0.04632422689314844,
                0.1901962151846936,
                -0.09669719281935713,
                -0.01664887900522733,
                -0.08073960024814011,
                0.09558887995409557,
                -0.09473444845723641,
                0.03345047128976767,
                -0.05471158193304811,
                0.16976920623762914,
                -0.09721978448765625,
                0.006896075039544217,
                -0.06922982150470851,
                0.13117360718066834,
                -0.08924109346894321,
                0.0630146251284539,
                -0.03718467821207596,
                0.21137610456991657,
                -0.07814453555992776,
                0.10417422282866673,
                -0.01105232199036213,
                0.26754969868912704,
                -0.05061458784915039,
                0.17984215173689932,
                0.040543414618863655,
                0.3672998092786293,
                -0.06588354694506515,
                0.14050340161718722,
                0.01324127292311808,
                0.31591923191996313,
                -0.03233755622010351,
                0.22219079936373942,
                0.07085431721088278,
                0.421691869002992,
                -0.07239003227872767,
                0.1219626350981691,
                0.0007184194063655515,
                0.2913581110840784,
                -0.04185208857387826,
                0.20064021688157785,
                0.05532275632635861,
                0.39411937536087677,
                -0.05862506942888139,
                0.15979656053126112,
                0.02651626269769502,
                0.34123311335006384,
                -0.02207097365389702,
                0.2444939443327968,
                0.08713812841410604,
                0.45001734936212484,
                -0.08899460213834348,
                -0.049555254835536675,
                -0.09334060924062726,
                0.04237407681554673,
                -0.09718351754906418,
                -0.009609654804228365,
                -0.07746497261727536,
                0.10639863761039828,
                -0.0945929987810398,
                -0.031087070178954086,
                -0.08690695601522677,
                0.07288106745724851,
                -0.09676608739116913,
                0.014877286463743533,
                -0.0650144759335974,
                0.14292719451202762,
                -0.09216978184767752,
                -0.04069729899292408,
                -0.09049981354927722,
                0.05725127405542637,
                -0.09735080162091439,
                0.0022576055503030798,
                -0.07161580097508018,
                0.1242865161709838,
                -0.0962642466834761,
                -0.020724534123190218,
                -0.08256201637578048,
                0.08926350529919089,
                -0.09542936160100465,
                0.028249429210399808,
                -0.05766097022626086,
                0.16232072791557775,
                -0.08879791344236951,
                0.06494475922365756,
                -0.03599341519187447,
                0.21403081278552505,
                -0.06841176630624102,
                0.13346813327014745,
                0.008458242901823041,
                0.3066356937617348,
                -0.08010881394369293,
                0.09770169655311176,
                -0.015271835964686675,
                0.2588277795818533,
                -0.053706674678100114,
                0.17224438935053416,
                0.035197029321496286,
                0.3574549873628687,
                -0.08482935231398842,
                0.08094705936906788,
                -0.02600867613293545,
                0.236052953668746,
                -0.06143523307610599,
                0.15248001279708168,
                0.021451533578544346,
                0.33166889003793487,
                -0.07463628897644564,
                0.11520870814630921,
                -0.003782871324349306,
                0.2823553419031063,
                -0.045226074753314804,
                0.1927613073048961,
                0.04969476049732839,
                0.3839940441186694,
                -0.09737961355763816,
                -0.00078879423427141,
                -0.07315043274605325,
                0.1197187113376661,
                -0.09128102243419367,
                0.05344560692935983,
                -0.04298684069479197,
                0.19803331577992467,
                -0.0958342725887773,
                0.02482372573161338,
                -0.05957284226289073,
                0.15737063374554522,
                -0.08371977964230592,
                0.0850771569344046,
                -0.023392232528249162,
                0.2417071770781697,
                -0.09698292760005411,
                0.011641313723798334,
                -0.06673767776484939,
                0.13816835272127392,
                -0.08787640642799116,
                0.06888515301315035,
                -0.03356562575027521,
                0.21949382169937387,
                -0.0939336407188118,
                0.03875847760965191,
                -0.05165590442743978,
                0.1773256042387002,
                -0.07881112726827144,
                0.10202166151747097,
                -0.012466632212106353,
                0.26467343874840105,
                -0.06324946512963622,
                0.1476454935785902,
                0.018130505773530273,
                0.32531049488818325,
                -0.028575699657945236,
                0.23045802510283464,
                0.07687035336855089,
                0.4322058981292484,
                -0.047416579760705166,
                0.18754693674806122,
                0.04599613165318607,
                0.37725262511741225,
                -0.006726716569109819,
                0.27637909101901353,
                0.11075339123379993,
                0.49017075836172525,
                -0.055709016115488605,
                0.16722002919431483,
                0.03168725690917567,
                0.35090519383799385,
                -0.018027228846907245,
                0.25304228899788705,
                0.09343575541844937,
                0.460811850971175,
                -0.03837214516020639,
                0.20862625516039157,
                0.06105715491838187,
                0.4043528416547402,
                0.005325855084396817,
                0.30046847709064556,
                0.12882329273129428,
                0.5202826802330716,
                -0.08836309860465683,
                0.0668147536919168,
                -0.03484050107669138,
                0.2166161622448221,
                -0.0676178186165966,
                0.13569606505653348,
                0.009969868711446256,
                0.3095778529440241,
                -0.07949441739575935,
                0.09975071911704234,
                -0.013939528641852213,
                0.2615916154154303,
                -0.052733217453343,
                0.17465110044807258,
                0.03688788785895716,
                0.36057529583021414,
                -0.08430474348998185,
                0.08290658205443419,
                -0.02476605676369934,
                0.23872756600349887,
                -0.06055152472819994,
                0.15479735116783722,
                0.02305278716183575,
                0.33470014631058903,
                -0.07393211234671232,
                0.11734720087050007,
                -0.002360894728132192,
                0.2852083604791161,
                -0.04416288181287853,
                0.19525735589186893,
                0.051475199789698875,
                0.38720335850526805,
                -0.019446260031018327,
                0.2500354479899986,
                0.09122702949685693,
                0.4569940792347426,
                0.029874156194086385,
                0.3474947641269536,
                0.1646135729790162,
                0.578536399405941,
                0.003709949256007102,
                0.2972602765582318,
                0.1264159991369792,
                0.5162596582969531,
                0.05904647039771168,
                0.4007392444345141,
                0.20581997269938856,
                0.6438247483619799,
                -0.00824414933733636,
                0.27327167466334584,
                0.10844545155209995,
                0.4862505002781639,
                0.04408429194244521,
                0.3737407332353773,
                0.18484065465527955,
                0.6108040939462057,
                0.01641604682437204,
                0.3220012927654972,
                0.1451386973345945,
                0.5470216063896954,
                0.07476070963911616,
                0.4284903438190752,
                0.22755155919831493,
                0.6775984227557145,
                -0.06238806429301898,
                0.1499415086813169,
                0.019709806210675945,
                0.3283213332838993,
                -0.027355245056548065,
                0.2331117324259826,
                0.0788082034077082,
                0.43557321814497435,
                -0.04637563156961309,
                0.19002186258543663,
                0.04775474943959872,
                0.38044179102374626,
                -0.005326807539665364,
                0.27921143954097166,
                0.11287037739109126,
                0.4937160480475262,
                -0.05475783717349324,
                0.16960551513059435,
                0.033356225968139766,
                0.3540052169742925,
                -0.01671703984382366,
                0.25578533514619156,
                0.09546318622338035,
                0.46426817956673355,
                -0.03724143795606013,
                0.2111905885866432,
                0.06290540015811263,
                0.40763110698080424,
                0.006815468385115646,
                0.3033900901549947,
                0.13102980744777087,
                0.523916882139764,
                0.04046236433523007,
                0.3670966731492851,
                0.1797112446244556,
                0.6026345273173954,
                0.10407044813355151,
                0.47884527453512976,
                0.2673860661123329,
                0.7384675367913237,
                0.07076238165716596,
                0.4214660689889313,
                0.22204430271507192,
                0.6690453508772721,
                0.1403866857792121,
                0.5392346359265626,
                0.31573676889299124,
                0.8109015432601564,
                0.05523637338346372,
                0.39390516539510173,
                0.20050169904187576,
                0.6354635463462451,
                0.12185253683994118,
                0.5086636630221693,
                0.29118528435558505,
                0.7743080327244983,
                0.08704040178173897,
                0.44977942457165604,
                0.2443390822771871,
                0.7033799955591012,
                0.1596729145806371,
                0.5705582408930642,
                0.3410405533615642,
                0.8482481300507919,
                -0.07749642501582577,
                0.1062572390346043,
                -0.009686207650507022,
                0.27034780839383205,
                -0.04960738181831564,
                0.1822829848904879,
                0.04226816178532157,
                0.37045456683321193,
                -0.06505587077942682,
                0.14276538832747288,
                0.014786743630620876,
                0.3188957496563059,
                -0.03115086711850041,
                0.22481034386149762,
                0.07275824988951499,
                0.42502468712432845,
                -0.07165213514419538,
                0.1241351513740312,
                0.0021742212287505923,
                0.2942454451413958,
                -0.04075513446847527,
                0.20317042328452345,
                0.05713710830713191,
                0.39736318629515305,
                -0.05770762317122202,
                0.16214798666070984,
                0.02815138231314239,
                0.34429877271208126,
                -0.02079456401422286,
                0.24720279039106202,
                0.08913161629438021,
                0.45343912709812856,
                0.0083871960466466,
                0.30644514303479836,
                0.1333482578825057,
                0.5276933321005299,
                0.0648514364325145,
                0.4110490768863508,
                0.21387892309967743,
                0.6563809643712436,
                0.035115305015829684,
                0.357242243261439,
                0.17210926359157702,
                0.5905315176132746,
                0.09759570611135965,
                0.4678659838480486,
                0.2586574642833947,
                0.7252421243748809,
                0.0213752538693619,
                0.3314674966251369,
                0.15235269216009417,
                0.5587360443569219,
                0.08084754565639599,
                0.4390812488595888,
                0.2358920681454425,
                0.6904350508729707,
                0.04960736133643102,
                0.38376942280956633,
                0.19261799803507418,
                0.6230798057431911,
                0.11509593665165649,
                0.4974033287214617,
                0.282175144375527,
                0.7608022457544473,
                -0.04303801126574562,
                0.19786757422472623,
                0.05334754888843812,
                0.3905367517187838,
                -0.0008614015552580983,
                0.28818232086123424,
                0.11959000356573218,
                0.5049338232886169,
                -0.023453693793055043,
                0.2415201542863763,
                0.08496449796943484,
                0.4462297551242858,
                0.02473896886197039,
                0.33785440148748197,
                0.15722428115358417,
                0.5666493958118848,
                -0.03362184400599804,
                0.2193176853181822,
                0.06877996623743504,
                0.4180068967073332,
                0.01156276632317704,
                0.3126421003524434,
                0.1380310312990931,
                0.5354151429360211,
                -0.01253355032657743,
                0.264475019445131,
                0.10190116839251798,
                0.4752053792932036,
                0.03866722336533161,
                0.36381926958604244,
                0.17716978444115555,
                0.5986366412436391,
                0.07677925293520929,
                0.4319900528561173,
                0.23031600103427363,
                0.6818176826190864,
                0.14753120100322026,
                0.5508833732014946,
                0.3251350149340941,
                0.8247961360054697,
                0.11065118808326571,
                0.48993176906613795,
                0.2762211286218032,
                0.7518011766254665,
                0.1874194199100646,
                0.6148452176010323,
                0.3770579002480637,
                0.900803025159871,
                0.0933392177068327,
                0.46058469589728396,
                0.2528924839103965,
                0.7164330243812672,
                0.16709927560048943,
                0.5824879922527078,
                0.3507203166042064,
                0.8624230592414667,
                0.12871517746493166,
                0.5200313137785837,
                0.30030196257665903,
                0.7879221947753295,
                0.20849165433623906,
                0.6479550976662455,
                0.4041478002777001,
                0.9399360961881987,
                -0.01729925512588571,
                -0.09663133831341075,
                -0.08103025121593518,
                -0.06409109600018065,
                -0.05518055817366939,
                -0.08637987726408777,
                -0.09484757907198552,
                -0.029762446350140213,
                -0.037743828211350076,
                -0.09301013106452666,
                -0.08944302550070718,
                -0.048431931493825145,
                -0.06960939263847996,
                -0.07674030041387322,
                -0.09724374749347836,
                -0.008082252008977029,
                -0.027897519879968018,
                -0.09519684932112904,
                -0.08561265676459437,
                -0.05663778063601456,
                -0.06277096671101567,
                -0.08193627259569602,
                -0.09642172279807812,
                -0.019298713208607494,
                -0.046838176199687845,
                -0.09007115160777743,
                -0.09252133949618851,
                -0.03947350263004537,
                -0.07569582503184707,
                -0.0707919217789228,
                -0.09731362822623035,
                0.0038869901961887565,
                -0.08762338349592785,
                -0.05265299853480861,
                -0.09420415441104701,
                0.03704309179359963,
                -0.096929726978427,
                -0.01382416331074702,
                -0.07944571220775606,
                0.09995151335511585,
                -0.09378050265396151,
                -0.03474322925643456,
                -0.0883291191226937,
                0.06699196759647999,
                -0.09707097929429312,
                0.010104500601141233,
                -0.06755374442927486,
                0.13592214243032263,
                -0.09107792620005609,
                -0.044074258242210125,
                -0.09164267248723831,
                0.05164122069126644,
                -0.097376355555229,
                -0.002236051026113266,
                -0.07387581134812296,
                0.11756041554874216,
                -0.09573110583721678,
                -0.02465987654157252,
                -0.08426347328924502,
                0.08309538155289023,
                -0.09601358417132072,
                0.02319753361079635,
                -0.06047948341917234,
                0.1550367500473784,
                -0.06094465663164522,
                -0.08312566520668294,
                -0.0961005892971426,
                -0.022007670320794197,
                -0.08453849683624207,
                -0.05858559514545493,
                -0.09563007963098219,
                0.026610756641515604,
                -0.0742455093126217,
                -0.07236021407028576,
                -0.09736948063858164,
                0.0007962974225897335,
                -0.09182355442780885,
                -0.04180151953363636,
                -0.09088220943771877,
                0.05543610829646573,
                -0.06797106316273913,
                -0.07811906865023363,
                -0.0971110615535577,
                -0.010981973917869658,
                -0.08855702201630555,
                -0.05056975857593341,
                -0.09363221532920246,
                0.04064704476010273,
                -0.07976798961090711,
                -0.06584906798097126,
                -0.0968758270740879,
                0.013327191194192642,
                -0.0943380815964959,
                -0.032280837528825254,
                -0.0873800354745341,
                0.07097800174808377,
                -0.09733541701015327,
                -0.005213268211768044,
                -0.07534090216034833,
                0.11306128611774,
                -0.09235421704728378,
                0.047904501170414907,
                -0.04629441956064732,
                0.19025993240975864,
                -0.09634878310460937,
                0.019840899885226318,
                -0.062321890133563554,
                0.1501551812247644,
                -0.08535162926281215,
                0.07897784934301855,
                -0.02725828880430712,
                0.23337596543387223,
                -0.09721808707224855,
                0.0069376552000513896,
                -0.06920744195724632,
                0.13123190217722286,
                -0.08922893256375627,
                0.0630649361952336,
                -0.037152450402090816,
                0.21144151098749892,
                -0.09472749653676668,
                0.03349650242970773,
                -0.054684224111089814,
                0.16983117385405666,
                -0.08072229157011182,
                0.09564328420359075,
                -0.016611905185215665,
                0.2560633533464411,
                -0.04124278949747416,
                -0.09199937203312442,
                -0.0906862645604308,
                -0.045170294686752585,
                -0.07198036455575588,
                -0.07460362519394234,
                -0.09735968472946815,
                -0.0036967827386720276,
                -0.05811550361911534,
                -0.08480605172090536,
                -0.0955271024329575,
                -0.025938741263305073,
                -0.08283731373286543,
                -0.061391809753847726,
                -0.09618384081350437,
                0.021555975647462047,
                -0.05005512563986646,
                -0.08877883357956343,
                -0.09348270587327234,
                -0.03593079503451206,
                -0.07778483286951504,
                -0.06837390985104053,
                -0.09714782780717912,
                0.008553220704832923,
                -0.06542391873985606,
                -0.08008099374630323,
                -0.09681943553638098,
                -0.01519408665454364,
                -0.08713779544657191,
                -0.053657285187646855,
                -0.09446769804146773,
                0.03531153581167391,
                -0.09460023854889443,
                -0.0310540211678707,
                -0.08689338368891467,
                0.07293125348571974,
                -0.0967628169518906,
                0.014919259208068063,
                -0.06499093557260113,
                0.1429847578433031,
                -0.09718548401910496,
                -0.009572062966153145,
                -0.07744636669631161,
                0.10645262463370508,
                -0.09333215397205386,
                0.04242025285384707,
                -0.04952689488065681,
                0.18252807267549565,
                -0.09626884623458284,
                -0.020689194439238813,
                -0.08254591583853627,
                0.08931561893021744,
                -0.09542349125635458,
                0.028293526783967196,
                -0.05763500473183329,
                0.1623799902396588,
                -0.09735014410701309,
                0.0022974090623164686,
                -0.0715947144590525,
                0.12434232041485369,
                -0.09048879029966939,
                0.0572994802325084,
                -0.04066657721201181,
                0.20342906197335536,
                -0.07640485528857122,
                -0.07001021017207901,
                -0.09727322097515273,
                0.0053967879707917995,
                -0.0928549521697554,
                -0.038325777851072766,
                -0.0896587577200644,
                0.06116018426906527,
                -0.08613384324926934,
                -0.05567260964788769,
                -0.09497015486388924,
                0.03177319623972935,
                -0.09656811107516539,
                -0.01796941968291384,
                -0.08133884650688603,
                0.09355815921944882,
                -0.08164533080737246,
                -0.06321754646974587,
                -0.09649771895314643,
                0.01820869398839657,
                -0.09508753090462871,
                -0.028523809101436204,
                -0.08587487890629873,
                0.07698277183723072,
                -0.08987038636885525,
                -0.047375365445615415,
                -0.09269050845423396,
                0.04609034299341981,
                -0.09729667943208842,
                -0.006662568330746755,
                -0.07605063326480825,
                0.1108864016882194,
                -0.09582891470989027,
                0.02486927092549364,
                -0.0595467024444436,
                0.15743320349274348,
                -0.08370392148924735,
                0.08513157477383254,
                -0.023356155185445364,
                0.2417770524631127,
                -0.09127039493788824,
                0.05349567069247052,
                -0.04295568125077221,
                0.1980996519755142,
                -0.07312939858843687,
                0.11977730306896714,
                -0.0007479164110039652,
                0.2884658369168542,
                -0.09392564414185328,
                0.03880630166904092,
                -0.051627243061078396,
                0.17739008463675288,
                -0.07879267330068884,
                0.10207818980661182,
                -0.012428138971059969,
                0.26474499360227866,
                -0.08786315775250572,
                0.06893741535675454,
                -0.03353199366029408,
                0.2195619568777406,
                -0.06671408100313114,
                0.13822895892574083,
                0.011684542851824211,
                0.312939640779423,
                -0.09483898476249963,
                -0.029857579752497317,
                -0.08641402899452941,
                0.07484306099743557,
                -0.09664243009047793,
                0.016473642902045976,
                -0.06415286659199375,
                0.14525338240718352,
                -0.09724464855898948,
                -0.008196591122913235,
                -0.07678761764642757,
                0.10854292203624405,
                -0.09303225701985515,
                0.04415341878334619,
                -0.048509591432190316,
                0.18497485063314867,
                -0.09641779851715507,
                -0.019403223677671597,
                -0.08197685535318511,
                0.09131669103864928,
                -0.09521334349585431,
                0.02993731848748827,
                -0.05670730714455784,
                0.1647377139112523,
                -0.09731952847231529,
                0.003762352342946949,
                -0.07084629545082922,
                0.12652180242912925,
                -0.0900991572429218,
                0.05912198522465949,
                -0.039559692027592304,
                0.20596484801565373,
                -0.07947648135576432,
                0.09980820074951718,
                -0.013901035609035751,
                0.2616655129964132,
                -0.05270486963391603,
                0.17471717440231954,
                0.036936134006872574,
                0.36065612281064713,
                -0.06759465121189584,
                0.13575793109100848,
                0.010013295159863926,
                0.3096553348489092,
                -0.034807039484048855,
                0.2166862519450834,
                0.06686769013169461,
                0.41466831020518974,
                -0.07391155523633774,
                0.11740689578353264,
                -0.0023199217537227773,
                0.2852840791473725,
                -0.044131967795934327,
                0.19532546272156232,
                0.05152580824022049,
                0.3872857634017401,
                -0.06052575976666803,
                0.15486134420319725,
                0.02309863865523592,
                0.33477933164001245,
                -0.024730068178618995,
                0.23879958660800282,
                0.08296181020867682,
                0.4428038217638591,
                -0.09564109285535713,
                0.02649176187268088,
                -0.05864095594480551,
                0.15977055225228026,
                -0.08315703393982007,
                0.08711177460894723,
                -0.02209184478498551,
                0.24447090187886084,
                -0.09090301991186645,
                0.05529708056001545,
                -0.04187061040050559,
                0.20061533761572692,
                -0.07240305020177473,
                0.12193615288077517,
                0.0006955377011254556,
                0.29133766596490906,
                -0.09364804131044602,
                0.04051826750562501,
                -0.05063182447595194,
                0.17981662278488963,
                -0.07815604818199215,
                0.10414773281881315,
                -0.011074244045069412,
                0.26752785654196404,
                -0.08740602069389011,
                0.07082823701706364,
                -0.03235729174499583,
                0.2221667467337441,
                -0.06589802502956818,
                0.1404770777799148,
                0.013217529430939415,
                0.3159003871405179,
                -0.046345112204183775,
                0.19009182631498767,
                0.047805795761036246,
                0.3805280583555288,
                -0.005285886268869507,
                0.2792899445634977,
                0.1129311463761965,
                0.49380917317259715,
                -0.02731949797736047,
                0.23318605632922096,
                0.07886416920511685,
                0.4356630352836626,
                0.019755832459398846,
                0.32840382467978374,
                0.15000694887431315,
                0.5549669177462268,
                -0.03720829902420356,
                0.21126275380411708,
                0.06295891977284926,
                0.4077191784628829,
                0.006858951777305802,
                0.30347061368816225,
                0.13109292951501794,
                0.5240115656717278,
                -0.01667869799784253,
                0.25586177297159357,
                0.09552156913139229,
                0.46435968190689797,
                0.033404773847092166,
                0.3540896236235291,
                0.16967323653150573,
                0.5866752894890028,
                -0.09736087683707378,
                -0.003803790964364902,
                -0.07464834485396743,
                0.11518587967624269,
                -0.09202057531087132,
                0.049671806179461014,
                -0.04524322098236767,
                0.19274118700082693,
                -0.09619467441973692,
                0.0214293528959301,
                -0.06144997238493057,
                0.15245818925820465,
                -0.084838500973201,
                0.08092387154736022,
                -0.026027900047074684,
                0.2360352876271678,
                -0.09715375890062147,
                0.00843663510984416,
                -0.0684251951680444,
                0.13344572327297832,
                -0.08880554104857127,
                0.06492161734218896,
                -0.03601164471311758,
                0.2140118224389866,
                -0.09448361620371226,
                0.035174397600083056,
                -0.05372265530617727,
                0.17222332684585512,
                -0.08011944089018178,
                0.09767861100503544,
                -0.015291958781919664,
                0.2588116387831739,
                -0.06503164432300393,
                0.14282910914855163,
                0.01483151175463606,
                0.31897582994593193,
                -0.031116233973089644,
                0.22488263133653846,
                0.07281275574950238,
                0.4251116608569124,
                -0.04957792589936645,
                0.18235107792270439,
                0.042317856278417276,
                0.37053821411153703,
                -0.009646465206230522,
                0.27042409685185403,
                0.10631642556776255,
                0.4826966097057885,
                -0.05768077643474841,
                0.16221391482767555,
                0.028198627016250845,
                0.3443806655821405,
                -0.020757366747709068,
                0.24727710352079368,
                0.0891884798083887,
                0.45352766895382485,
                -0.04072308242606652,
                0.20324063673991172,
                0.05718922383966779,
                0.39744852784813295,
                0.002216487946007984,
                0.29432365663986343,
                0.1241966243300264,
                0.5126185424306868,
                -0.08967962915865177,
                0.06102908883951699,
                -0.03839185539725618,
                0.20859709201751625,
                -0.07005180071308109,
                0.12879355987692742,
                0.005301270475484973,
                0.3004425419387982,
                -0.08136968057390809,
                0.09340660275299342,
                -0.018049524020592768,
                0.2530143812035502,
                -0.05572589863856105,
                0.16719027527278624,
                0.031660731090514906,
                0.3508820013466552,
                -0.0859006416865446,
                0.07684168399193456,
                -0.02859673600573486,
                0.23042940326773825,
                -0.063264859230488,
                0.1476156770051693,
                0.0181049037363051,
                0.32528583151908447,
                -0.07608673707999286,
                0.11072388187892443,
                -0.006750196693338999,
                0.2763520765889232,
                -0.047434903192679664,
                0.1875173984398779,
                0.045968782290475824,
                0.37723110918935704,
                -0.023416878410619825,
                0.2415963652596883,
                0.08502182620993876,
                0.4463222144471585,
                0.02478618167297318,
                0.3379391286996049,
                0.15729131729227408,
                0.5667486775851986,
                -0.0008193600544214935,
                0.2882628801241926,
                0.11965224454250911,
                0.5050298153900136,
                0.05339986250984042,
                0.39062545084805383,
                0.19793927225943803,
                0.6314792529567751,
                -0.012494116014632756,
                0.26455342612510585,
                0.10196096671723245,
                0.47529963441294315,
                0.0387169963747256,
                0.3639060082414621,
                0.17723916916681393,
                0.5987374717843292,
                0.011607401310846808,
                0.3127247671132652,
                0.13809568553434226,
                0.5355128112424229,
                0.0688347989230211,
                0.4180975033795688,
                0.2193916594225923,
                0.6649740819704619,
                -0.06959231715431433,
                -0.07676777077404148,
                -0.09724537323121837,
                -0.008147450556798712,
                -0.08943470396272282,
                -0.04847648424187317,
                -0.0930234899281219,
                0.044221958303712276,
                -0.08101744057120422,
                -0.06412669916033877,
                -0.0966385703502756,
                0.016532025215442725,
                -0.09484404497313395,
                -0.02981683953905146,
                -0.08639995754709323,
                0.07492274724953146,
                -0.07568085856305168,
                -0.07082336106966564,
                -0.09731799667664881,
                0.003816003979308834,
                -0.0925153697571551,
                -0.039522859612836074,
                -0.09008779222792554,
                0.05919596979122833,
                -0.08560205801075546,
                -0.05667775186256303,
                -0.09520707507634121,
                0.030000660342841816,
                -0.09642071743877295,
                -0.01935838383315095,
                -0.08195995970599669,
                0.09140234487373092,
                -0.09707316349233813,
                0.010054237531430275,
                -0.06757587098163093,
                0.13583080851551094,
                -0.08834054648780787,
                0.06692308215548096,
                -0.03477810353679387,
                0.21678024303938603,
                -0.09421081522264171,
                0.0369839587685235,
                -0.052681205851034696,
                0.17480011809555002,
