{
    "77": {
        "hyperparams": {
            "stocks": [
                "JNJ",
                "V"
            ],
            "start": "2015-01-01",
            "end": "2025-01-01",
            "risk_aversion": 0.1,
            "n_qubits": 11,
            "budget": 5296,
            "log_encoding": true,
            "layers": 10,
            "prices_now": {
                "JNJ": 143.4715576171875,
                "V": 315.5091247558594
            },
            "assets_to_qubits": {
                "JNJ": [
                    0,
                    1,
                    2,
                    3,
                    4,
                    5
                ],
                "V": [
                    6,
                    7,
                    8,
                    9,
                    10
                ]
            },
            "optimizer": "CMAES",
            "lambda_budget": 0.01
        },
        "continuous_variables_solution": {
            "weights": {
                "JNJ": 0.0,
                "V": 1.0
            },
            "allocation": {
                "JNJ": 1,
                "V": 16
            },
            "value": -2963.078655092308,
            "left_overs": 104.38243899708232
        },
        "continuous_variables_solution_unconstrained": {
            "weights": {
                "JNJ": 0.000965908987739435,
                "V": 1.0
            },
            "allocation": {
                "JNJ": 1,
                "V": 16
            },
            "value": -2963.078655092308,
            "left_overs": 104.38244262829448
        },
        "exact_solution": {
            "smallest_eigenvalues": [
                -0.16614079090536507
            ],
            "smallest_bitstrings": [
                "00100011110"
            ],
            "first_excited_energy": -0.16613570271554326,
            "optimized_portfolio": [
                {
                    "JNJ": 4,
                    "V": 15
                }
            ],
            "second_optimized_portfolio": [
                {
                    "JNJ": 6,
                    "V": 14
                }
            ],
            "spectrum": [
                -2.026047752690715e-16,
                -0.16580784947812263,
                -0.12075122835953303,
                -0.1348150650756982,
                -0.0698246543204527,
                -0.159849196987614,
                -0.15275790623960675,
                -0.09062354744507595,
                -0.037273810523550235,
                -0.16520842583746756,
                -0.1391215046323024,
                -0.11511968543931095,
                -0.09765121277521385,
                -0.14972133301061027,
                -0.1616553589147234,
                -0.06131406552381226,
                -0.01922723036541934,
                -0.16610259811535458,
                -0.13052782036371233,
                -0.12556672013044332,
                -0.08432858830535073,
                -0.15538193293615957,
                -0.15779935501164052,
                -0.07657129774967791,
                -0.05413966367053173,
                -0.1631243169277938,
                -0.14653173490503899,
                -0.1034724758292293,
                -0.10979221619797899,
                -0.1428661467660968,
                -0.16432513696038972,
                -0.044850130866205165,
                -0.16090275972158516,
                -0.048923125579393184,
                -0.14320818801444965,
                0.12267538387158236,
                -0.16159348956908018,
                0.027157374373032207,
                -0.10567901942906796,
                0.23775882896454734,
                -0.16362897566431342,
                -0.013305155738932426,
                -0.12684141364789628,
                0.17776284477024054,
                -0.1547892303515169,
                0.07247904714332637,
                -0.07971017862236818,
                0.30268167449255756,
                -0.16286067518120304,
                -0.03171883597020578,
                -0.13562361331801429,
                0.14960665836005202,
                -0.1587879352196441,
                0.04920986985043006,
                -0.09329611819645847,
                0.26960321125817965,
                -0.163206865308446,
                0.006319649889704271,
                -0.11686032368522228,
                0.2071461473338285,
                -0.14959634437402622,
                0.09696687575520072,
                -0.06491970065972191,
                0.3369966576275643,
                -0.11277967780546932,
                -0.14047641455655083,
                -0.1646318180450501,
                -0.039774590055936365,
                -0.14818240018908999,
                -0.09973687389108266,
                -0.1620831056202192,
                0.0395153531216825,
                -0.13284798727417088,
                -0.12250351667973142,
                -0.1657356165478087,
                -0.0025527199662401553,
                -0.15877872170029536,
                -0.07216478003821614,
                -0.153666334761122,
                0.0864450910114491,
                -0.1234053441072038,
                -0.13208848877387733,
                -0.16577779574518195,
                -0.021768500699422016,
                -0.1540731212245597,
                -0.08655227665848234,
                -0.15847078626471348,
                0.062371510927327706,
                -0.14110717097320494,
                -0.11172012302814108,
                -0.16450437466336085,
                0.017874596845985725,
                -0.16229853055493207,
                -0.05657277405610918,
                -0.147668610591675,
                0.11173817280462506,
                -0.1388730311335639,
                0.11537565129483751,
                -0.05047041403959518,
                0.3595722001616978,
                -0.10430485303896231,
                0.22761403645289421,
                0.022721131368659053,
                0.5114010783450337,
                -0.12399213367585551,
                0.16903871822975444,
                -0.016300544301091076,
                0.4329927796283081,
                -0.07980124190407936,
                0.29111906458551834,
                0.0666083159396883,
                0.5948183105843671,
                -0.13203279527096415,
                0.1415942078388154,
                -0.033991135152403304,
                0.3956603142044877,
                -0.0926557471674761,
                0.2587492089404107,
                0.04405564192960511,
                0.5524822152060619,
                -0.11474989095646335,
                0.19771127677223646,
                0.0026029833625200835,
                0.47157216019414455,
                -0.06573994712879444,
                0.32472593242100306,
                0.09038101297528892,
                0.6384121629691343,
                -0.0642706068502818,
                -0.16115434353399402,
                -0.1506211372773499,
                -0.09542338783816126,
                -0.11690449935181305,
                -0.13785920241958796,
                -0.16538719981150976,
                -0.03375348855466716,
                -0.09295071419258974,
                -0.15189410577848259,
                -0.16037565983981775,
                -0.06699912380686754,
                -0.13612920559523942,
                -0.11903936542213994,
                -0.1656492448084845,
                0.004327541604839018,
                -0.0792013151748085,
                -0.15712045278074468,
                -0.15609090103471598,
                -0.08181308742100954,
                -0.12710819631007683,
                -0.12904807905416252,
                -0.1661123528821147,
                -0.015318310995008763,
                -0.10551854733511262,
                -0.14547410704588778,
                -0.16347468766773812,
                -0.05097983205801164,
                -0.14396703591058566,
                -0.10783163131399692,
                -0.16399691483750048,
                0.025185968910802096,
                -0.15914271702881752,
                0.02358314288069316,
                -0.10627139615911443,
                0.2312358958805862,
                -0.1422884107564277,
                0.11762441627068274,
                -0.05101233267050399,
                0.3645570126964413,
                -0.15310653046834402,
                0.06816563141432166,
                -0.08105266613212428,
                0.2954234483806377,
                -0.126679848691482,
                0.17197551795382063,
                -0.016138130921438912,
                0.43865636498326926,
                -0.15672187024369363,
                0.045265814712386915,
                -0.09426400169792865,
                0.2627126199870657,
                -0.135083503519464,
                0.14418738955112056,
                -0.034180268561484484,
                0.40098469265749076,
                -0.14829572207564654,
                0.0922845075264267,
                -0.06663594437817477,
                0.32937076505763524,
                -0.11707623591715702,
                0.20099095074691517,
                0.0031157600613608764,
                0.47757464839831093,
                -0.14518148253823923,
                -0.10329990481513207,
                -0.16237332663364204,
                0.03266969970330702,
                -0.16328051965412613,
                -0.044975946820602214,
                -0.14240357278590868,
                0.1297534558671379,
                -0.15660384601555363,
                -0.07654644738513527,
                -0.15477537730186589,
                0.07877395094031894,
                -0.1652058704868077,
                -0.008575258851926093,
                -0.1252485244673925,
                0.1856251144046003,
                -0.15148556012257416,
                -0.09052452165138178,
                -0.15917053375340953,
                0.055113438179357724,
                -0.16483749915793175,
                -0.027380234454914082,
                -0.13442457756690082,
                0.1570766730132048,
                -0.16053572411936054,
                -0.06136412700576731,
                -0.14918677172478959,
                0.10365326245321929,
                -0.16438478281473454,
                0.011440769727188485,
                -0.11487409320496081,
                0.2154010392365545,
                -0.09883784770976853,
                0.2278386813924336,
                0.025514826371832687,
                0.5091327921459788,
                -0.04635485523979374,
                0.35854262349989446,
                0.11687354756698018,
                0.6797716281922207,
                -0.07501387753537525,
                0.2907144398621772,
                0.0687510732983449,
                0.5919353873697301,
                -0.012849395387000995,
                0.4313421290440656,
                0.16989739026498998,
                0.7726641670031623,
                -0.08752956922425059,
                0.2586586518511822,
                0.046523081058995136,
                0.5499062631560879,
                -0.030208678274081725,
                0.39431974331123637,
                0.1427718148680784,
                0.7255844078984973,
                -0.061289437486715476,
                0.32400831949465264,
                0.09220060770271285,
                0.6352229083125455,
                0.005724563306077257,
                0.4696122894958171,
                0.19825231309874733,
                0.8210138837600566,
                -0.03409277519624497,
                -0.16546340245673122,
                -0.13765185276506894,
                -0.11712660624017013,
                -0.09532509296643335,
                -0.15084798784199274,
                -0.16104548624564316,
                -0.06421159888509145,
                -0.06707099262663085,
                -0.16053904917036596,
                -0.15171762013727516,
                -0.09307437127517809,
                -0.11885303854154933,
                -0.13638066949504965,
                -0.1656296577648417,
                -0.030524984442120248,
                -0.05117230786941118,
                -0.16359650418404612,
                -0.14527664870260018,
                -0.10570101107285562,
                -0.10767999913049012,
                -0.1442119942831591,
                -0.16393093258800354,
                -0.047972140135734934,
                -0.08178866278171762,
                -0.1562899318166965,
                -0.15697413092650334,
                -0.07924511179173968,
                -0.12884380978522217,
                -0.1273526731504693,
                -0.16614079090536507,
                -0.01186832202064801,
                -0.16226684080980866,
                -0.01500314166519527,
                -0.12702419954774738,
                0.174565308876837,
                -0.15420415038197519,
                0.07003020939287657,
                -0.08065340020962616,
                0.29873583530385067,
                -0.1606211407111017,
                0.0250835833974227,
                -0.10624284201827155,
                0.23418720199463514,
                -0.14300807967945153,
                0.11985203776660072,
                -0.050244328327604906,
                0.3682302659011473,
                -0.16203995183160316,
                0.004433652913567348,
                -0.11723384638204964,
                0.20376156730406844,
                -0.14920402363760513,
                0.09433073026583369,
                -0.06605207631620727,
                0.33286359819666567,
                -0.15800952170350804,
                0.04694847444397442,
                -0.09404983125521388,
                0.2658445070625422,
                -0.13561519803451497,
                0.14659619128098308,
                -0.033228566314418506,
                0.40483836725950423,
                -0.13102448452478907,
                -0.12398900506918004,
                -0.16557072829322186,
                -0.005694417817637759,
                -0.1577864353464485,
                -0.0744767646396079,
                -0.1543267851431057,
                0.08246870403839901,
                -0.14677509285160847,
                -0.10163531818384389,
                -0.1623310341896552,
                0.03595704262051358,
                -0.16405359810076794,
                -0.042500919225474165,
                -0.1415493115938062,
                0.13385674729824573,
                -0.13949192647419403,
                -0.1134120300594686,
                -0.16454594543810672,
                0.014524761906578738,
                -0.16151338298673887,
                -0.05909181666824734,
                -0.14853527995506652,
                0.10755212995790653,
                -0.15287345744154054,
                -0.08865740431400693,
                -0.15892499887596953,
                0.058604358908869336,
                -0.16540631974484402,
                -0.02470237245478802,
                -0.13336764965922607,
                0.1613847253723207,
                -0.12141350543778742,
                0.16892794559544203,
                -0.01509221830177772,
                0.4316000412968258,
                -0.07791504465282145,
                0.2903635469023575,
                0.06715157158833995,
                0.5927941171715086,
                -0.10207437018825657,
                0.22717984081699158,
                0.02359543200708012,
                0.5096920017040955,
                -0.04892486245406885,
                0.3584972415314082,
                0.11559062247064392,
                0.6809283210301694,
                -0.11234583162645323,
                0.19743851627695005,
                0.0036439103941095733,
                0.47002108627485434,
                -0.06402451396122963,
                0.32381047286764814,
                0.0907597950637894,
                0.6362308005424594,
                -0.09059787584909657,
                0.25815410340247413,
                0.04476406126763845,
                0.5506154412278593,
                -0.03261461012903588,
                0.3944262718087476,
                0.14164600326760898,
                0.7268895670061567,
                -0.0905116097024149,
                -0.15284273402479795,
                -0.15962916992397155,
                -0.06965944447185052,
                -0.1345369748605417,
                -0.12084088867893367,
                -0.16574912160844765,
                0.0008007623003723366,
                -0.11488908328355385,
                -0.13923365029852777,
                -0.16506370508934928,
                -0.03684597095838099,
                -0.14945180864205673,
                -0.09765346207223666,
                -0.16167818803871628,
                0.0432954980494179,
                -0.1032913636828274,
                -0.14663550188124866,
                -0.16293966204856766,
                -0.053855980437994944,
                -0.1425862778889728,
                -0.10984723186861586,
                -0.164308687226127,
                0.02144117176576405,
                -0.12530442205375558,
                -0.13063589391298894,
                -0.16600048313907392,
                -0.018627661212958807,
                -0.15513298594075395,
                -0.0842580591979478,
                -0.15785657341077172,
                0.06636573069958604,
                -0.15139473761907465,
                0.06698743224322617,
                -0.08080610037630556,
                0.29284687578049157,
                -0.12570660657654706,
                0.17009571254775915,
                -0.016608125983102226,
                0.43538610539633643,
                -0.1409474874983266,
                0.11609469917489512,
                -0.05112520183903163,
                0.36163332150408883,
                -0.10566286659354088,
                0.22900721192447152,
                0.022758111102906597,
                0.5141257226711177,
                -0.146769776318849,
                0.09093035695029547,
                -0.06656939845431786,
                0.32662055064579415,
                -0.11628570741024122,
                0.1989365685866872,
                0.0024679992353966967,
                0.47413124223376096,
                -0.13392680564805917,
                0.1424824633392808,
                -0.03447197556459401,
                0.39788766223403255,
                -0.09383678388879596,
                0.26030988171157016,
                0.04426397931348158,
                0.5553722553152666,
                -0.15517190383620313,
                -0.07831429235937443,
                -0.15495281834398625,
                0.07542061065463959,
                -0.1645818717461536,
                -0.011135585642678065,
                -0.1262226604699491,
                0.1814764701119951,
                -0.1622534720782128,
                -0.04714007617039495,
                -0.14297984448394044,
                0.12600285981909468,
                -0.16215075081426597,
                0.029713042551992405,
                -0.10467115862502527,
                0.24185906051278663,
                -0.15930647370363857,
                -0.06333013877549484,
                -0.14956376262967616,
                0.1001013796057452,
                -0.16396168503307998,
                0.008682308111992899,
                -0.11604686768244682,
                0.2110530049364074,
                -0.16401219297978284,
                -0.02974245965112325,
                -0.13519988847023043,
                0.1531271656440429,
                -0.1591481283813669,
                0.051958497298473474,
                -0.09209412313293439,
                0.27389698591868855,
                -0.07095352444004968,
                0.2923164456206872,
                0.07155128020340196,
                0.5923870663567404,
                -0.009427737934066859,
                0.43236386653673736,
                0.1720916328831004,
                0.7725542384111065,
                -0.042616115529577114,
                0.3598531089783635,
                0.11936894647304663,
                0.6799415569509742,
                0.028623712841113175,
                0.5098683340928968,
                0.22973519957942432,
                0.8702484821854596,
                -0.057390471215810146,
                0.32546420483547517,
                0.0948479404035078,
                0.6355334618348588,
                0.008989310098868367,
                0.4704906239014943,
                0.2002972782600809,
                0.8207646676172046,
                -0.026629032342597253,
                0.39548552200091464,
                0.1451161929071749,
                0.7256141851130521,
                0.049477130059622565,
                0.5504995957907096,
                0.2604075260644903,
                0.9210087502520387,
                -0.017534943207772345,
                -0.1661293867828804,
                -0.12969164404628733,
                -0.12647036326198527,
                -0.08306393950811988,
                -0.15584497294241387,
                -0.15739336471020363,
                -0.07792077520985746,
                -0.05266114639171861,
                -0.16336874225491396,
                -0.1459103824400357,
                -0.1045983272611217,
                -0.10874164441217776,
                -0.14354888939812585,
                -0.16413515706076318,
                -0.04642476200970737,
                -0.035688402850420256,
                -0.16534391745279145,
                -0.13839267982263934,
                -0.11613426237547961,
                -0.09649356954702312,
                -0.15029408146597809,
                -0.16135728591396778,
                -0.06277592199833008,
                -0.06845305208664315,
                -0.16020280053141497,
                -0.15224416069705013,
                -0.09186102780467595,
                -0.11980780763035798,
                -0.13560810135282222,
                -0.16572615222096063,
                -0.028865530401552812,
                -0.16213790319748242,
                -0.03253749518530069,
                -0.13567887129992892,
                0.14803219130989723,
                -0.15845644651869448,
                0.04801279725143612,
                -0.09373446567812396,
                0.26765148927280963,
                -0.16268035700464847,
                0.00531160165251818,
                -0.11710752860135262,
                0.205383090340122,
                -0.14945874112594756,
                0.09558103352758368,
                -0.06554849626534287,
                0.3348560856753186,
                -0.16300449790063246,
                -0.01421856191805211,
                -0.12699275251344763,
                0.1760940852588799,
                -0.15455481927530582,
                0.0711875647588163,
                -0.08024383010076563,
                0.3006355575160948,
                -0.1611646397058972,
                0.02605477524285061,
                -0.10602188930360723,
                0.23590145572646673,
                -0.1431671365387839,
                0.12119521800237942,
                -0.0496469191836178,
                0.37031555765152674,
                -0.1224086897483668,
                -0.1327525503146151,
                -0.16561344298306427,
                -0.023264124583488685,
                -0.15349354328421036,
                -0.08763128615742971,
                -0.15872068685736043,
                0.06045672681443927,
                -0.14031934119219405,
                -0.11259150520816938,
                -0.16454721509300915,
                0.01616976604152047,
                -0.16192674164518114,
                -0.05785982748070281,
                -0.14812554824565247,
                0.10961257906818997,
                -0.13195582366683614,
                -0.12327120707560471,
                -0.16567488388061377,
                -0.00415286088244679,
                -0.15830308925606093,
                -0.07334775255370218,
                -0.15401974990169978,
                0.08442501599662139,
                -0.1474987610501118,
                -0.10071202452517339,
                -0.16222948588951877,
                0.03770564583195245,
                -0.16436378444904312,
                -0.04116585602309433,
                -0.14103689643028597,
                0.13602154040088618,
                -0.13077130694096964,
                0.14149447444591626,
                -0.03342294276937992,
                0.39491098987237744,
                -0.09174451779074452,
                0.25832282793171196,
                0.044287139861682354,
                0.551412772426133,
                -0.11366448981159386,
                0.19744770157133965,
                0.0030020906657745408,
                0.47066247849222625,
                -0.06500108403031182,
                0.3241376716775996,
                0.09044626731768116,
                0.6371834454758972,
                -0.12281893523599069,
                0.16885692756238876,
                -0.015817085791969727,
                0.43216319520437535,
                -0.0789764144822642,
                0.29061163482077507,
                0.06675652822468045,
                0.5936691765226382,
                -0.10330677033484126,
                0.22726893571851628,
                0.023036256393194537,
                0.5104114484380783,
                -0.049817091373746916,
                0.35890331247613544,
                0.1153582616582286,
                0.6819584227162557,
                -0.07788513520092188,
                -0.15750178426612757,
                -0.15562273507774801,
                -0.08305243510851198,
                -0.1262162776248664,
                -0.1298569140872383,
                -0.16606831050974688,
                -0.016992059860464988,
                -0.10441461653916784,
                -0.14606886913032444,
                -0.16321848218247545,
                -0.05243583930550083,
                -0.14328700219600124,
                -0.10885529157239476,
                -0.16416534814631492,
                0.023293286442299284,
                -0.09174069531151888,
                -0.15238207914013788,
                -0.16001345565899802,
                -0.06834667288755963,
                -0.1353432384174114,
                -0.11995551216284783,
                -0.16571139433522805,
                0.0025444818064380655,
                -0.1159065973741926,
                -0.13856091381420246,
                -0.1652370436821026,
                -0.03531822448344857,
                -0.15004703272275602,
                -0.09655477716519503,
                -0.16142916624872541,
                0.04525629865420755,
                -0.15585574294561602,
                0.04467299995271477,
                -0.09413734515460201,
                0.26141329804181135,
                -0.1345900512386273,
                0.14324014039237534,
                -0.03441540789273037,
                0.39933478012149576,
                -0.14761672215970464,
                0.09151412540209863,
                -0.06669075579145237,
                0.32789601750608727,
                -0.11676686145149187,
                0.1998674249568941,
                0.002701322923683118,
                0.47574972157261125,
                -0.15233417120015705,
                0.0674839385605979,
                -0.08101689294237263,
                0.29403637418406275,
                -0.12627861217527855,
                0.1709400635494895,
                -0.016463041049399045,
                0.43691893333602144,
                -0.14170237525597365,
                0.11676551995831017,
                -0.05115744367715136,
                0.3629946569453832,
                -0.10605354377077886,
                0.2300244188238866,
                0.023079408779407277,
                0.5158298084969594,
                -0.1507029937728626,
                -0.09135064444776128,
                -0.15919694098332368,
                0.053489822495336264,
                -0.16446101655807352,
                -0.028604941821571445,
                -0.13485156012329638,
                0.15505294584794124,
                -0.15995665384813576,
                -0.06238955658244926,
                -0.14941370096730586,
                0.10182979638761086,
                -0.16421008940622336,
                0.010016703633784327,
                -0.11550077030361117,
                0.21317653032646763,
                -0.15592314812641941,
                -0.07747223406590079,
                -0.15490211099586573,
                0.07705045453481899,
                -0.16493037542218184,
                -0.009899628594416727,
                -0.12577539227092518,
                0.18350106831801485,
                -0.16280284989903118,
                -0.04610101204561923,
                -0.14273058040226158,
                0.12782991746190434,
                -0.1622992627430148,
                0.0311458895430219,
                -0.10402632899776884,
                0.24408163600969426,
                -0.08557185810756729,
                0.2593680927736183,
                0.04784128663338241,
                0.5500306449825797,
                -0.028575002248235608,
                0.3947341311995956,
                0.14378223521359276,
                0.7254229512185416,
                -0.059494869458922656,
                0.3245695480649758,
                0.09336401497338984,
                0.6352039049049353,
                0.007199488489821192,
                0.4698810984452674,
                0.19911144797054778,
                0.8207107958424106,
                -0.0731380262194489,
                0.29134959627934304,
                0.06999164642811506,
                0.5919879532135092,
                -0.011295355556742838,
                0.431683576615531,
                0.17083196206266013,
                0.7724317988204742,
                -0.044641007728398435,
                0.3590302671409101,
                0.11796024182320139,
                0.6796812885236635,
                0.026911144717248904,
                0.5093292504274015,
                0.22862277721945182,
                0.8702629654793571,
                -0.049672093497407616,
                -0.16380648735348727,
                -0.14462944870877883,
                -0.10677938152497671,
                -0.10660621055783875,
                -0.14485433087061686,
                -0.16371136336928235,
                -0.049491104315957365,
                -0.08050169592550477,
                -0.15671568660286486,
                -0.15654056108214867,
                -0.08054315416143207,
                -0.1279832401910013,
                -0.12821251165087824,
                -0.16613570271554326,
                -0.013609567831458282,
                -0.06567741753699513,
                -0.16085682374554403,
                -0.15117719577911018,
                -0.09426242831990861,
                -0.1178858475008108,
                -0.13713163515458218,
                -0.16551726213971832,
                -0.032154912589685836,
                -0.09414471703558622,
                -0.15138192538529147,
                -0.16071886353414075,
                -0.06561993905298547,
                -0.13689794227285831,
                -0.11809557509114663,
                -0.16556576928480157,
                0.0061467846834882,
                -0.16127394940307313,
                0.0036975648145908726,
                -0.11722754626332499,
                0.2022933697451583,
                -0.14882047633388726,
                0.09322774230056521,
                -0.06641869485944973,
                0.33103100189997237,
                -0.15743545279341034,
                0.046028670164221366,
                -0.09423047656930195,
                0.2641940637413082,
                -0.13542087035222108,
                0.14531044219836278,
                -0.03378029581025803,
                0.4028236008471176,
                -0.15995128840123848,
                0.024255563775706465,
                -0.10633014301185453,
                0.2326278630857598,
                -0.142719298064121,
                0.11865762329207949,
                -0.050703603261272365,
                0.3663065935595803,
                -0.15372551189363007,
                0.06901875357890197,
                -0.0809271467933049,
                0.29699431076697086,
                -0.1269240277840263,
                0.1731883033463825,
                -0.01564713763584207,
                0.4405845975459571,
                -0.13861854932298603,
                -0.11417525933031744,
                -0.1644941578246831,
                0.012946053070632757,
                -0.16105206189450758,
                -0.06026228817814548,
                -0.14889138265707239,
                0.10556330929212246,
                -0.1522064786058918,
                -0.08962418528205499,
                -0.1590773068521332,
                0.056820883434527764,
                -0.1651500257509879,
                -0.026076783278285852,
                -0.13392735615042714,
                0.15918987103494905,
                -0.14600501430014182,
                -0.10250031281815478,
                -0.1623813388494363,
                0.03427601591405685,
                -0.16369486251791246,
                -0.04377332242525987,
                -0.14200723318704664,
                0.13176500272712907,
                -0.15722237108358209,
                -0.07554536665255626,
                -0.15458102121971437,
                0.0805826351579107,
                -0.1654167457088814,
                -0.007170925939559764,
                -0.1246504762059544,
                0.18784012846964795,
                -0.11077689312478656,
                0.19770080492082256,
                0.004545496201530796,
                0.46966509795153794,
                -0.06279319845641901,
                0.3237614352117771,
                0.09133866505649563,
                0.6355713577672012,
                -0.08919879047184054,
                0.2582601269788868,
                0.04550346739591711,
                0.5501073436151848,
                -0.03154909117180364,
                0.39422326682866454,
                0.1420658707412121,
                0.7260794332679986,
                -0.10059062552573464,
                0.22736383957729392,
                0.024415715661540154,
                0.5092598563498091,
                -0.04777668501821211,
                0.3583710903453671,
                0.11608980637218333,
                0.6801934578689451,
                -0.07660009774784024,
                0.29039189625367484,
                0.06781051107632932,
                0.5922102583321412,
                -0.014108891973728182,
                0.43132042851794866,
                0.16926885256345206,
                0.7732322172770344,
                -0.10214507271488013,
                -0.14717022849194725,
                -0.16263448083705115,
                -0.05523644827102987,
                -0.14186113174941387,
                -0.11080366020707161,
                -0.1644231704590988,
                0.019633447254535398,
                -0.1243689059510951,
                -0.1313812341302625,
                -0.16590511674669642,
                -0.020221300273589468,
                -0.15461791478921008,
                -0.08542616009929094,
                -0.1581810510024034,
                0.06434289658765802,
                -0.11384823723146731,
                -0.1398736312686316,
                -0.16486343380707,
                -0.03833291699778235,
                -0.14883172999794794,
                -0.09871564676647954,
                -0.16189764348891086,
                0.041380353627045854,
                -0.13370668748176204,
                -0.12169170677202928,
                -0.16575866880752518,
                -0.0008997983372381848,
                -0.15921906000299627,
                -0.07093363517249532,
                -0.1532722974229684,
                0.0885231106257865,
                -0.14574052272183366,
                0.0905476247577652,
                -0.06625748015777572,
                0.32555881744125587,
                -0.1156183967732832,
                0.1982128194119153,
                0.002430196394373751,
                0.47273367853513676,
                -0.13307939732207721,
                0.1419287885730209,
                -0.03433557177364095,
                0.39665779955404007,
                -0.09334793328595167,
                0.2594168163664055,
                0.04405316778699722,
                0.5538073091277324,
                -0.14000938185502296,
                0.11562638030440436,
                -0.05090121114992918,
                0.3604874631342759,
                -0.10508498381005998,
                0.22819871675518236,
                0.022633661046282325,
                0.5126444347822677,
                -0.12494945867238486,
                0.1694568989270351,
                -0.016558982121895265,
                0.4340723455203686,
                -0.08040590002214479,
                0.29186940233720604,
                0.06669053125173557,
                0.5962250551195586,
                -0.15857614474464024,
                -0.06417677388817372,
                -0.14962788739292052,
                0.09847714218210363,
                -0.1636305155651996,
                0.0074466980474198865,
                -0.1165033008336133,
                0.20903960832973148,
                -0.16348198188739252,
                -0.030783680652401873,
                -0.13546048569428656,
                0.15130847007042922,
                -0.1590150342229987,
                0.05052858506881243,
                -0.09274586560460854,
                0.2716885354687599,
                -0.16162334345322496,
                -0.04808403570098048,
                -0.14314229191474695,
                0.12428141681040966,
                -0.1619187329200736,
                0.028380277413043158,
                -0.10522530539182695,
                0.2397481879562012,
                -0.16415130912583678,
                -0.012274018908323364,
                -0.12658124835382908,
                0.1795604612526804,
                -0.15491843382446777,
                0.0738935455770438,
                -0.07906352636604497,
                0.3048630448861261,
                -0.054956558036114364,
                0.32671203528291765,
                0.09667209909208094,
                0.636231354956828,
                0.011113728043357666,
                0.4714606265301392,
                0.20182953425523584,
                0.8211952901278287,
                -0.02435107624146557,
                0.39659366878639374,
                0.14679341064227638,
                0.7261778930309822,
                0.05145031884229201,
                0.5513328838405517,
                0.26179668960612584,
                0.9213072772249912,
                -0.04026049012484724,
                0.3610308982862401,
                0.12111938041274933,
                0.6805722131258894,
                0.03067223445078339,
                0.5107698076053312,
                0.2311956825574604,
                0.8706129400639874,
                -0.007226846406052815,
                0.4334027556761026,
                0.17369612921698177,
                0.7730512730212361,
                0.0734496859260019,
                0.5931524988567253,
                0.2936347295657546,
                0.973281414688168,
                -0.008889557570523293,
                -0.16609187998120337,
                -0.12534384642943827,
                -0.13076735500799977,
                -0.07656647909033348,
                -0.1579709703894088,
                -0.15519840559298462,
                -0.08439768942245904,
                -0.045089596048842814,
                -0.1644121412036049,
                -0.14263851722833928,
                -0.10998407433715779,
                -0.10331870831484977,
                -0.1467593578560107,
                -0.16301825749200013,
                -0.05399543493007079,
                -0.027579914266809134,
                -0.16584666316809796,
                -0.1345827379324913,
                -0.12097534154597803,
                -0.09053330575475416,
                -0.15296206911905433,
                -0.1597012011539389,
                -0.0697993803831222,
                -0.06141850364218196,
                -0.16178727590047562,
                -0.14951061558613596,
                -0.09779204573788619,
                -0.1149223527679761,
                -0.13936156368482658,
                -0.16514877114812096,
                -0.03698411069144969,
                -0.16165766546373714,
                -0.04087283362696954,
                -0.13958319459946114,
                0.13520787867948394,
                -0.16016340159658957,
                0.037440935654830185,
                -0.09984777072650786,
                0.2525573596124992,
                -0.16329253363279997,
                -0.0041400972640866455,
                -0.12211480120208232,
                0.19142612982659776,
                -0.15226301850608562,
                0.08388502728125882,
                -0.07277109667248893,
                0.3186200858398958,
                -0.16307018307214563,
                -0.023111616556846536,
                -0.13144817630556246,
                0.16270400260957976,
                -0.15681010628746964,
                0.060054139818856614,
                -0.08691136372935104,
                0.2849710916320605,
                -0.16232389881264872,
                0.016043481497169096,
                -0.11158178149956624,
                0.22137648703280002,
                -0.14652108519118426,
                0.1089355900160974,
                -0.05742544703826431,
                0.35350680366647175,
                -0.11772033859046832,
                -0.1367438198113752,
                -0.16525011292658723,
                -0.03165107702304974,
                -0.15096472442915485,
                -0.09381454264328537,
                -0.16053024021241516,
                0.049852931339345305,
                -0.13671010150607635,
                -0.11767739446122749,
                -0.16526931253335328,
                0.0066761253517476,
                -0.16047983274512198,
                -0.06514337844050885,
                -0.1510247656979624,
                0.09789498250801326,
                -0.12780687581020847,
                -0.1278094542512422,
                -0.1658540252556013,
                -0.013092735365515815,
                -0.15631502800272054,
                -0.0800807791360981,
                -0.15637384804727314,
                0.07326478700174702,
                -0.14442955687432443,
                -0.10634624272477677,
                -0.16349504649969163,
                0.027657372301698402,
                -0.16345844512441068,
                -0.049000708111761646,
                -0.14448183017613062,
                0.12374561975930354,
                -0.13497779257586354,
                0.1282722434131837,
                -0.042105636220241174,
                0.3770743865541219,
                -0.09818191017149341,
                0.24280348415278444,
                0.03334331289923266,
                0.5312373246582011,
                -0.11898471941120936,
                0.1830793426323253,
                -0.006809100603370327,
                0.4516592409452514,
                -0.0725592377732586,
                0.3074623063604763,
                0.07836548702225288,
                0.6158300317301145,
                -0.12758187673648455,
                0.15506222845792791,
                -0.025063522152885973,
                0.4137439605354993,
                -0.08597372648618828,
                0.27451492109532494,
                0.05524477553599119,
                0.5729054764706839,
                -0.10918514273768112,
                0.21232570271153964,
                0.012659275747065714,
                0.49082281401494615,
                -0.05793703144214568,
                0.34164799145160357,
                0.10270732940497965,
                0.6600138113962603,
                -0.07120110262272797,
                -0.15945347472034024,
                -0.15324599370411016,
                -0.08936520295161696,
                -0.1216839671296481,
                -0.13398434348215785,
                -0.16585242341351333,
                -0.025501203776452583,
                -0.09880605400496237,
                -0.1491073189987813,
                -0.16192141742073626,
                -0.05984532559963371,
                -0.13983190549942173,
                -0.11407410037064608,
                -0.1650323195338482,
                0.013681365968978029,
                -0.08559431124123507,
                -0.15487688302273697,
                -0.15817637619489824,
                -0.07520744379511626,
                -0.1313494033662659,
                -0.12462832003953334,
                -0.16603671514330462,
                -0.006515649285990732,
                -0.11083605187481532,
                -0.142143564696573,
                -0.16448036888612375,
                -0.04327716095686454,
                -0.14713095976181859,
                -0.10232023179539185,
                -0.1628382533614431,
                0.035091764124960984,
                -0.1576448199656493,
                0.03397628885876364,
                -0.10035279324290339,
                0.24616892706708046,
                -0.13858617135923104,
                0.13027861802603516,
                -0.042863906933074625,
                0.381788085085155,
                -0.1505078750039586,
                0.0796871734566269,
                -0.0740209241004057,
                0.31150300881453113,
                -0.1218710200652276,
                0.18576682283568532,
                -0.006869297123442939,
                0.4570441117988778,
                -0.15467393593607523,
                0.05622263700176401,
                -0.08778926106244839,
                0.27821830419412197,
                -0.13082835640506038,
                0.15740957620775495,
                -0.025472115573419635,
                0.4187934457153521,
                -0.1451456390715952,
                0.10437183523386323,
                -0.0590463148026672,
                0.34602544739521995,
                -0.11171292951382741,
                0.21535252964853926,
                0.01294625069916479,
                0.4965427245308483,
                -0.1480730937714603,
                -0.0974603161486867,
                -0.16091781869291596,
                0.04294183558499258,
                -0.16400247243573593,
                -0.03692686191633601,
                -0.1387613637349033,
                0.14226363558305996,
                -0.1584115134244837,
                -0.06960371505990323,
                -0.15222776373681965,
                0.09016314474969442,
                -0.16484015807341676,
                0.0005835673162737969,
                -0.12050905030413847,
                0.1992603877705775,
                -0.15383540955873734,
                -0.08413375103528312,
                -0.15716927299793707,
                0.06594362326282172,
                -0.16501587439829182,
                -0.018776713739584214,
                -0.13023408089834806,
                0.17014887485092509,
                -0.1618007668002999,
                -0.05386863074133984,
                -0.14609218288475953,
                0.11560244698322017,
                -0.16347445016450837,
                0.021155793460646444,
                -0.10958492919926982,
                0.229600456007829,
                -0.092372287593364,
                0.24342775314064477,
                0.036506785871210326,
                0.5294011939466327,
                -0.03763421548152608,
                0.37646036399026644,
                0.13015450502393314,
                0.7024141219884951,
                -0.06742271772811878,
                0.30746518679277984,
                0.08088523211712584,
                0.6133878164502008,
                -0.0029952156529103723,
                0.4504323612362375,
                0.18432992544353574,
                0.7965029427158797,
                -0.08050168305964911,
                0.2748279076287076,
                0.05808557653851916,
                0.5707659351524422,
                -0.02092178726629467,
                0.4128230311494641,
                0.1566279525651091,
                0.7488242542676217,
                -0.05313403397176408,
                0.3413418871726767,
                0.1049075796904429,
                0.6572696038361284,
                0.016147091713837713,
                0.489290885518604,
                0.21326248547082619,
                0.8454531880576887,
                -0.04200487093046601,
                -0.16475905904235824,
                -0.14126366241522711,
                -0.11207873784305092,
                -0.10108830997257218,
                -0.14797602248463257,
                -0.16250192179470332,
                -0.05697810823422203,
                -0.0739088751929719,
                -0.15875184003926981,
                -0.15425232846235,
                -0.08693499653525882,
                -0.12354095783051114,
                -0.13242187763723282,
                -0.16600646932230337,
                -0.02219458854749845,
                -0.05854734233344157,
                -0.16235095298971328,
                -0.1483500428862923,
                -0.10010770446506445,
                -0.11290565753295317,
                -0.1407968856951349,
                -0.16484773627850316,
                -0.040190556764880286,
                -0.08808928035228858,
                -0.15396059212145183,
                -0.15896986053022813,
                -0.07255901652765484,
                -0.13299378698027584,
                -0.12284963551314745,
                -0.16597722758472974,
                -0.0029883713278952753,
                -0.16191163489951696,
                -0.005799719128341843,
                -0.1222696944714527,
                0.18827877210655278,
                -0.1516547781168919,
                0.08148029281351388,
                -0.07368135774848081,
                0.3147308353851571,
                -0.15917013254814064,
                0.0354083363928326,
                -0.1003812087035825,
                0.24903907413750606,
                -0.13935760169814124,
                0.13243163134378924,
                -0.04215841604728876,
                0.38537329271082227,
                -0.161137153790868,
                0.014197251919155789,
                -0.11192617606477451,
                0.21804365634749237,
                -0.1461044524514625,
                0.10634503506304016,
                -0.05852354276485598,
                0.3494319880581249,
                -0.15600966295595856,
                0.057835381420873355,
                -0.08763341471609506,
                0.2812673420611805,
                -0.13141308291334794,
                0.15974216351214746,
                -0.024584365195795398,
                0.42255730065604236,
                -0.13494979994037573,
                -0.11921409944802283,
                -0.16516230450919286,
                0.0034912172159061988,
                -0.15954825493330624,
                -0.067502744317774,
                -0.15173993232881064,
                0.09387989191190504,
                -0.14961941391327507,
                -0.09576232783140143,
                -0.1608345089802418,
                0.04625362192568082,
                -0.16473122932727866,
                -0.03442274393149053,
                -0.13786972523048122,
                0.1463863878014576,
                -0.14287692186764037,
                -0.10808843899214152,
                -0.16359373797853163,
                0.024265422274135702,
                -0.16273333048940533,
                -0.05156612072097404,
                -0.14540237234456546,
                0.11952205240330349,
                -0.1551767273912046,
                -0.08223427836692274,
                -0.15688359937184362,
                0.06945777322582589,
                -0.16554116803264893,
                -0.016070891622241325,
                -0.12914073811587604,
                0.17447508988985264,
                -0.11625650619469155,
                0.18314537075658707,
                -0.005438253075457038,
                0.4504589252821422,
                -0.07051715510345408,
                0.30689123255580913,
                0.07907823597951352,
                0.6140065754454641,
                -0.09579873408103387,
                0.2425498688766725,
                0.034383578997513556,
                0.5297247859568085,
                -0.04040092311988608,
                0.37618781923852246,
                0.12866031966383704,
                0.7033264068438635,
                -0.10662995478825554,
                0.21223162228574963,
                0.01386443578319903,
                0.489466209909929,
                -0.05606408529757924,
                0.3409189390051532,
                0.10325740019552215,
                0.6580353171611796,
                -0.08376157632834447,
                0.2741023171868454,
                0.05612091376857295,
                0.5712373295366712,
                -0.023526166097490288,
                0.4127003146416038,
                0.15528896631374592,
                0.749882755335611,
                -0.0964528122157437,
                -0.15013363315816677,
                -0.16125737315181535,
                -0.06257722976400695,
                -0.13832399677364263,
                -0.11595042616864767,
                -0.16521242994878713,
                0.010086557876894725,
                -0.11975368537507114,
                -0.13543507754698061,
                -0.1656103102810478,
                -0.028663534282414395,
                -0.15216009085548401,
                -0.09166851216473601,
                -0.16005632094782993,
                0.053687969223580975,
                -0.10869437721953526,
                -0.14338195607109686,
                -0.16402726737494963,
                -0.046224035627353124,
                -0.1458340861276847,
                -0.10440986159982271,
                -0.16322965390862762,
                0.03127987931868035,
                -0.12963036776093093,
                -0.12629168975159108,
                -0.16600566349228515,
                -0.009893948438559294,
                -0.15730140730741873,
                -0.07772483530095745,
                -0.15569135796036856,
                0.07731283961043012,
                -0.14871801473072713,
                0.07861044969117084,
                -0.0736852582696981,
                0.3090416296305994,
                -0.12081436203584517,
                0.18399518400557255,
                -0.007244172279820187,
                0.45389640813838134,
                -0.13716454839066947,
                0.128853679962297,
                -0.042884708070259195,
                0.37898322660538336,
                -0.09965804764140623,
                0.24405188114830254,
                0.033249512777695334,
                0.5338018492081268,
                -0.14354032023727317,
                0.10312080138689053,
                -0.05888919531538049,
                0.343392235558091,
                -0.11083759552141195,
                0.2134080393052676,
                0.0123951671845167,
                0.49322376736872137,
                -0.12958961121088733,
                0.1558111123102284,
                -0.02567023909790051,
                0.41581709912171566,
                -0.08727439568759562,
                0.27592897115571663,
                0.05532065666435128,
                0.5756333847340435,
                -0.1570078969022363,
                -0.07138409330646345,
                -0.1524263055835642,
                0.0868071814038209,
                -0.1642410403986039,
                -0.0019845054757138803,
                -0.12150017118014586,
                0.19511457902877596,
                -0.1630020701800398,
                -0.039101172861651726,
                -0.13935672023071763,
                0.13851310382157675,
                -0.16071827576751788,
                0.039979951944218536,
                -0.09884637099020999,
                0.2566294057695158,
                -0.16059901236292387,
                -0.05584601043467555,
                -0.14648927708053514,
                0.11204927425924274,
                -0.16307531985244914,
                0.018390835110417163,
                -0.11077360711898251,
                0.22525667435966576,
                -0.16421634190285841,
                -0.021147913223858887,
                -0.1310274371269808,
                0.16620080691075853,
                -0.15716894496488168,
                0.0627847471174248,
                -0.08571703015849755,
                0.28923514480646434,
                -0.06312904809055336,
                0.30933153267210206,
                0.08393359601379691,
                0.6141213613670461,
                0.0006670107319727535,
                0.451727033919254,
                0.1867802487828811,
                0.7966841464631037,
                -0.033658574992959364,
                0.3780394451655699,
                0.1329019808276796,
                0.7028705079230609,
                0.03985999334352788,
                0.5304140944948955,
                0.2455844397899152,
                0.8955858282001471,
                -0.048999969530249904,
                0.3430642299326366,
                0.10780501884619895,
                0.6578643084215788,
                0.019654272984435638,
                0.4904443563304398,
                0.2155655647342302,
                0.8454974733049071,
                -0.017103416969346905,
                0.4142595647930451,
                0.1592263989239772,
                0.7491428157500369,
                0.06128585404678609,
                0.571638869562967,
                0.2768390256438757,
                0.9469523017555675,
                -0.02593606492758655,
                -0.16592002706422102,
                -0.13379440380853339,
                -0.12192362160133519,
                -0.08931688088095782,
                -0.15347079911900427,
                -0.15934250348102305,
                -0.07119227386225921,
                -0.059988338213670556,
                -0.1620778548181139,
                -0.14893685151149896,
                -0.09896194462053717,
                -0.1139198350199978,
                -0.14008949075498314,
                -0.16500574615642563,
                -0.03860148446336359,
                -0.04355258845491905,
                -0.16459400247333025,
                -0.1419574129554356,
                -0.11104299870545661,
                -0.10220920931213093,
                -0.14737754877213347,
                -0.16276731350431375,
                -0.05550037597311616,
                -0.07524316998823544,
                -0.15837050097015978,
                -0.15473210580471483,
                -0.08567890676176018,
                -0.12444837906075107,
                -0.13160530721093858,
                -0.16605695303714843,
                -0.020493812019982995,
                -0.16234160335272493,
                -0.023914989849518613,
                -0.13149322312837172,
                0.16115056758507731,
                -0.15647069205660594,
                0.05887514227641112,
                -0.08733704658774169,
                0.2830435264764243,
                -0.16179054485541675,
                0.015052092770096405,
                -0.11181756950387844,
                0.21963600348741444,
                -0.14637443457796814,
                0.10756928035020838,
                -0.05804028835040877,
                0.3513920138841174,
                -0.16266173441939488,
                -0.005037535971781253,
                -0.12225533127701521,
                0.18977916780738083,
                -0.15202012622719233,
                0.08261234346104396,
                -0.07329144393735346,
                0.31659893311840315,
                -0.1597271713865757,
                0.036355698563136404,
                -0.10017860507834375,
                0.2507233462686034,
                -0.1395325191065174,
                0.1337479898591276,
                -0.04158201236808741,
                0.3874252751451949,
                -0.12684375050203653,
                -0.12850137445437024,
                -0.16572070201996755,
                -0.014612375707967055,
                -0.1557678132684351,
                -0.08118581011292164,
                -0.15665327665184622,
                0.0713281592849439,
                -0.1436746942010498,
                -0.10724458595431094,
                -0.16356818667791687,
                0.025929590486711375,
                -0.1631183735603058,
                -0.0503128014838579,
                -0.14496748214663815,
                0.12159933178430518,
                -0.1358511912227854,
                -0.1184724999578915,
                -0.16523924974853169,
                0.0050524954562447,
                -0.16003624582158513,
                -0.06635188691352725,
                -0.15140730724761117,
                0.09585363332710362,
                -0.15031375569192026,
                -0.09481618978591017,
                -0.16070653960680983,
                0.04802082149755382,
                -0.1650134580114879,
                -0.0330668764379944,
                -0.13733259341941353,
                0.14856740149887196,
                -0.12625081586581885,
                0.15504535359087032,
                -0.024419449906562016,
                0.4130851447316842,
                -0.08498985482495963,
                0.274175139696207,
                0.05555555874515064,
                0.5719306189727439,
                -0.10802865515959983,
                0.21214683559898143,
                0.013135944641139275,
                0.490005658238797,
                -0.057123928249136216,
                0.3411482637977657,
                0.10285363466946154,
                0.6588817804999741,
                -0.11774119672924588,
                0.18298133002720654,
                -0.006248926612032249,
                0.4509211685035078,
                -0.07166097440677477,
                0.3070424377004623,
                0.07859386216198785,
                0.6147765283630139,
                -0.09711196835336106,
                0.24254403202252287,
                0.03373685611287561,
                0.5303412451102815,
                -0.04137725882032249,
                0.3764950144326475,
                0.1283368032556971,
                0.7042492412845561,
                -0.08432216820421906,
                -0.15529848495593915,
                -0.15775069960023205,
                -0.0764841716760443,
                -0.13050083174813007,
                -0.12547606431072053,
                -0.16603413659348612,
                -0.008225081465208704,
                -0.1097758340602154,
                -0.14277793760334714,
                -0.16426616097265936,
                -0.044769720937319846,
                -0.14649386524129446,
                -0.10338205774893075,
                -0.16304757478481444,
                0.03316430972064498,
                -0.0976399153278423,
                -0.14963523824035888,
                -0.16160146195180844,
                -0.061229846388364664,
                -0.13908908669700423,
                -0.11502878982282286,
                -0.16513565027398755,
                0.011863073300946563,
                -0.12072960042108091,
                -0.13472532015183988,
                -0.16574400322612268,
                -0.02710206297344092,
                -0.15271460867254003,
                -0.09053437046777696,
                -0.1597688819611026,
                0.05568059487155727,
                -0.1537731720021376,
                0.05567584096389834,
                -0.08762261251024475,
                0.27697169902351576,
                -0.1302976737193434,
                0.1565116108797485,
                -0.025664333456812516,
                0.4171998507328924,
                -0.14443072661465614,
                0.10364908340643497,
                -0.059059690466951656,
                0.34460519602839207,
                -0.11136496482065622,
                0.2142799831818393,
                0.01257626266694451,
                0.4947759785862446,
                -0.14970024639218574,
                0.07905229986741316,
                -0.07394444227656233,
                0.3101695358527962,
                -0.1214318784776747,
                0.18478149476354036,
                -0.007150527219591008,
                0.45536392412410304,
                -0.13796356963068127,
                0.12946817353263865,
                -0.04296684458614215,
                0.3802811309583816,
                -0.10009565498121939,
                0.24500929281452208,
                0.03351778342626659,
                0.5354387002555953,
                -0.1530697573688344,
                -0.08496921370397209,
                -0.1572091429138666,
                0.06431546186010864,
                -0.16465466413883448,
                -0.02000844781923132,
                -0.1306725486513949,
                0.16812325079624527,
                -0.1612378107585519,
                -0.05490226459004367,
                -0.14633160704798145,
                0.1137757386341855,
                -0.16331414524857737,
                0.01972592017202915,
                -0.11022203981177264,
                0.22737543756108072,
                -0.15774733497483526,
                -0.07053827905767707,
                -0.15236748147902254,
                0.08843574909829219,
                -0.1645794986701243,
                -0.0007472246251613234,
                -0.12104688270776603,
                0.19713513322610962,
                -0.16354050121042304,
                -0.03805954787870193,
                -0.1391003666547784,
                0.1403375223465614,
                -0.16085768563642958,
                0.041412843722911874,
                -0.09819663226924749,
                0.2588464904081325,
                -0.07843335649283173,
                0.27566315388567225,
                0.059521656835281836,
                0.5710247242655287,
                -0.01917395007168269,
                0.4133674414308956,
                0.15776012902158668,
                0.7488017576027598,
                -0.051227098613893435,
                0.3420310086274276,
                0.10619078139841692,
                0.657387263099991,
                0.017738013863780044,
                0.4896918883285144,
                0.214245380086,
                0.8452913994575028,
                -0.06543538026692944,
                0.30822718707458124,
                0.08224463458188902,
                0.6135759120281691,
                -0.0013261020000130872,
                0.45090491168962704,
                0.18538724992353076,
                0.7964106989546241,
                -0.035807108965551906,
                0.3770769600251888,
                0.1313619693094409,
                0.7024615884183768,
                0.038020034816070455,
                0.5297309475567379,
                0.2443366262617713,
                0.895446904776981,
                -0.057094128714667056,
                -0.1626051223729447,
                -0.14774877204593642,
                -0.10122784685138744,
                -0.11187841783113767,
                -0.14148228527407855,
                -0.1646733086608986,
                -0.04174983398704385,
                -0.08684910928748046,
                -0.1544299924896296,
                -0.1585818470425366,
                -0.07389812236479107,
                -0.13217947737757815,
                -0.12375191245577244,
                -0.16601682428173312,
                -0.004769137796399324,
                -0.07256220362049609,
                -0.1591135357571908,
                -0.15375765210409212,
                -0.08816447652565537,
                -0.12262017646579518,
                -0.13321559925845863,
                -0.1659389921859938,
                -0.023864438789724524,
                -0.0999546116176884,
                -0.14855331955952175,
                -0.16222065330693372,
                -0.058427141901651575,
                -0.14055585174035298,
                -0.11308981712707902,
                -0.16490586666557897,
                0.015537946188275989,
                -0.16035169255213935,
                0.0134910527667125,
                -0.11189553773764013,
                0.2166115698131509,
                -0.1456990905559293,
                0.10527496316583385,
                -0.05886313164811674,
                0.3476388655774841,
                -0.15541497832422627,
                0.05694695866904553,
                -0.08778839707535921,
                0.27965467018088486,
                -0.13119569981031384,
                0.1584909069964697,
                -0.02510765636774926,
                0.420583752393568,
                -0.15848024821720422,
                0.03461094676350249,
                -0.10044351436039153,
                0.2475166712165415,
                -0.13904639032137625,
                0.13127091594192722,
                -0.04258996223386524,
                0.38348996110739525,
                -0.15115492971666536,
                0.0805009805526897,
                -0.0739287632695993,
                0.3130279282319309,
                -0.12214583113799948,
                0.1869370631270105,
                -0.00641455670862228,
                0.4589228356899568,
                -0.14202952969725088,
                -0.1088710309059214,
                -0.16356495984693883,
                0.022671668974070164,
                -0.16229659054598852,
                -0.05275387970188675,
                -0.1457797450264415,
                0.11752059811527285,
                -0.15453505259974384,
                -0.08321940537131609,
                -0.1570580680582295,
                0.06766043772892863,
                -0.1653086903334877,
                -0.01746148939267849,
                -0.12972078189784983,
                0.17226887028928703,
                -0.14887498511915395,
                -0.09664618205019357,
                -0.16090740398089212,
                0.0445581377310436,
                -0.1643966977110192,
                -0.03571188958509626,
                -0.13834845570388546,
                0.14428263854277804,
                -0.1590091385117843,
                -0.06858916832924519,
                -0.15201588899530896,
                0.09198057096417245,
                -0.16503174005795732,
                0.0019990881436116902,
                -0.11989542579649268,
                0.20148153007944805,
                -0.10497168566676734,
                0.2125974794842254,
                0.014862135507876831,
                0.4892219161184757,
                -0.054740131441718326,
                0.3409774489750285,
                0.10393602750666958,
                0.6574918836588827,
                -0.08227152744502497,
                0.2743138778740612,
                0.056958234535328195,
                0.5708430628470352,
                -0.022366291985476953,
                0.4126069097609542,
                0.15581047574449922,
                0.7491908511790765,
                -0.09422484760041258,
                0.24283841522483465,
                0.03530087168499725,
                0.5294053980851287,
                -0.03915925417595678,
                0.3761702366702257,
                0.12926019795832946,
                0.7027086578650882,
                -0.06911041251475905,
                0.3070261190305584,
                0.07983600620111905,
                0.6135376314592506,
                -0.004359697456231774,
                0.45028995457406945,
                0.18358887773563096,
                0.7969414193841037,
                -0.10758763262093732,
                -0.1439515106124816,
                -0.16375960898340716,
                -0.04763596516187456,
                -0.14514755850027614,
                -0.10539951867185376,
                -0.16338039643441823,
                0.02944262797303209,
                -0.1287339550783925,
                -0.12707107928036745,
                -0.1659472091356766,
                -0.011518102746515142,
                -0.1568244278013093,
                -0.07892530239920392,
                -0.15605140014312494,
                0.0752615090357324,
                -0.11875216946256334,
                -0.13610950238302252,
                -0.1654472616714824,
                -0.030181474041064603,
                -0.15157837253501047,
                -0.09276349956906094,
                -0.16031169358483924,
                0.05174380790777117,
                -0.1375325756058419,
                -0.11683488852912535,
                -0.16525856805700104,
                0.008355970953568536,
                -0.16088507570838692,
                -0.06388333965868967,
                -0.15059839806208566,
                0.09999778831691203,
                -0.1424597254275731,
                0.10280174444260273,
                -0.05852010445833061,
                0.34240135162944235,
                -0.11011611191534723,
                0.21275146847507345,
                0.012417704330379848,
                0.49190089171227697,
                -0.12868946677338197,
                0.15532284336100657,
                -0.025475100012623007,
                0.41465998412138655,
                -0.08672989329931649,
                0.27510489864141296,
                0.05517183177605901,
                0.5741451089099522,
                -0.13617440933010502,
                0.12844989637960366,
                -0.042602768698583954,
                0.3779091614685039,
                -0.09902525772549736,
                0.24331146632188946,
                0.03318622078876708,
                0.5323962352772454,
                -0.12000376483621078,
                0.18342265722081305,
                -0.007135496022850892,
                0.45265636087849187,
                -0.07322865098740933,
                0.3081340719958459,
                0.07837637439805453,
                0.6171502886290045,
                -0.15987499999156116,
                -0.05669043589787909,
                -0.14655579098281588,
                0.1104325166134999,
                -0.16274858716539406,
                0.017159985842042,
                -0.11123021393241847,
                0.22325364434756687,
                -0.16369152847407062,
                -0.022185669981673158,
                -0.13128933673106194,
                0.164391013544011,
                -0.1570392847458165,
                0.06136093419543982,
                -0.08636777561594117,
                0.28703856729756955,
                -0.16237780392551368,
                -0.04004230069061057,
                -0.13952101866589747,
                0.13679984656043084,
                -0.1604901984782319,
                0.038652611612363136,
                -0.09940011132587454,
                0.2545296477358933,
                -0.16381540024534388,
                -0.0031188314663711018,
                -0.12185950233001655,
                0.1932081993253393,
                -0.1523948378480582,
                0.08528690062416933,
                -0.07213172922612429,
                0.32078281952189686,
                -0.046432629318944124,
                0.34446162924569584,
                0.10977033981342901,
                0.6587208483360368,
                0.021915901666569544,
                0.4915683828706483,
                0.2172431023840332,
                0.8460915333239231,
                -0.014690162962960131,
                0.41551948698774216,
                0.16104681764635873,
                0.7498675448390341,
                0.06339820835823401,
                0.5726284719854619,
                0.2783755934662709,
                0.9474167245329782,
                -0.031168592364639994,
                0.37936790136602044,
                0.134794591155508,
                0.7036609928349097,
                0.04204669784156663,
                0.5314707319045943,
                0.2471912604908115,
                0.8961149474902553,
                0.0030041513365937403,
                0.45291881747416635,
                0.18852898119288328,
                0.797343405168118,
                0.0859721603952717,
                0.6150442692047565,
                0.3107982979455142,
                0.9999999999999997
            ],
            "result_with_budget": [
                {
                    "portfolio": {
                        "JNJ": 4,
                        "V": 15
                    },
                    "budget": 5306.523101806641,
                    "difference": -10.523101806640625,
                    "objective_value": -3225.123510270419
                }
            ],
            "result_with_budget_excited": [
                {
                    "portfolio": {
                        "JNJ": 6,
                        "V": 14
                    },
                    "budget": 5277.957092285156,
                    "difference": 18.04290771484375,
                    "objective_value": -3281.447754569135
                }
            ]
        },
        "qaoa_solution": {
            "two_most_probable_states": [
                "01110011100",
                "11110011100"
            ],
            "final_expectation_value": -0.15445044208071868,
            "params": [
                2.128591835637413,
                4.824154271108762,
                1.7140211128087544,
                10.039812461770287,
                12.899941412645187,
                -2.126306425639955,
                4.746403899739315,
                2.682992575454884,
                8.821911682428414,
                1.0751103792588348,
                2.608755958333524,
                1.2797918505488626,
                1.5909129110505849,
                -0.13400507576337434,
                1.6856562512758027,
                2.92386524795277,
                1.3890920406011646,
                3.2230787508710925,
                1.3996892917803743,
                1.7317414376361515
            ],
            "total_steps": 800,
            "states_probs": [
                0.003333685487829783,
                0.003469027451400618
            ],
            "optimized_portfolios": [
                {
                    "JNJ": 14,
                    "V": 7
                },
                {
                    "JNJ": 15,
                    "V": 7
                }
            ],
            "training_history": {
                "xbest": [
                    2.128591835637413,
                    4.824154271108762,
                    1.7140211128087544,
                    10.039812461770287,
                    12.899941412645187,
                    -2.126306425639955,
                    4.746403899739315,
                    2.682992575454884,
                    8.821911682428414,
                    1.0751103792588348,
                    2.608755958333524,
                    1.2797918505488626,
                    1.5909129110505849,
                    -0.13400507576337434,
                    1.6856562512758027,
                    2.92386524795277,
                    1.3890920406011646,
                    3.2230787508710925,
                    1.3996892917803743,
                    1.7317414376361515
                ],
                "fbest": -0.15445044208071868,
                "evals_best": 9591,
                "evaluations": 9600,
                "iterations": 800,
                "xfavorite": [
                    2.128267646065878,
                    4.818807268635086,
                    1.6947344298208515,
                    10.053292963043647,
                    12.888857112415026,
                    -2.1242400465631954,
                    4.754788491465155,
                    2.675218918411931,
                    8.81660114691488,
                    1.0795452799963896,
                    2.6083204917215395,
                    1.2802822569084802,
                    1.590237039874659,
                    -0.13430125456759107,
                    1.6837547031578417,
                    2.9257071718670744,
                    1.3891599797342378,
                    3.224193174835435,
                    1.3989572930977154,
                    1.7316034584377125
                ],
                "stds": [
                    0.010064369369334367,
                    0.02063531975226223,
                    0.014696307628076439,
                    0.047882553922588784,
                    0.03679754593324911,
                    0.015635356439871826,
                    0.013394311515482827,
                    0.013494166080430116,
                    0.04936447615806551,
                    0.017118276430616565,
                    0.001618846570849869,
                    0.002437820700574335,
                    0.002097813735432267,
                    0.0008710912867676071,
                    0.001429391659104268,
                    0.0016816753802636685,
                    0.002557111128459433,
                    0.00230771073579864,
                    0.0031318650265280425,
                    0.0031021465593823673
                ],
                "stop": {
                    "maxiter": 800
                }
            },
            "objective_values": [
                -3415.327495598,
                -4208.062967878873
            ],
            "result_with_budget": [
                {
                    "portfolio": {
                        "JNJ": 14,
                        "V": 7
                    },
                    "budget": 4217.165679931641,
                    "difference": 1078.8343200683594
                },
                {
                    "portfolio": {
                        "JNJ": 15,
                        "V": 7
                    },
                    "budget": 4360.637237548828,
                    "difference": 935.3627624511719
                }
            ]
        }
    }
}