{
    "98": {
        "hyperparams": {
            "stocks": [
                "AXP",
                "HD"
            ],
            "start": "2015-01-01",
            "end": "2025-01-01",
            "risk_aversion": 0.1,
            "n_qubits": 6,
            "budget": 2166,
            "log_encoding": true,
            "layers": 6,
            "prices_now": {
                "AXP": 295.1141052246094,
                "HD": 386.5369873046875
            },
            "assets_to_qubits": {
                "AXP": [
                    0,
                    1,
                    2
                ],
                "HD": [
                    3,
                    4,
                    5
                ]
            },
            "optimizer": "CMAES",
            "lambda_budget": 0.9
        },
        "continuous_variables_solution": {
            "weights": {
                "AXP": 0.5,
                "HD": 0.5
            },
            "allocation": {
                "AXP": 3,
                "HD": 3
            },
            "value": -59.17226041817839,
            "left_overs": 121.04671885227253
        },
        "continuous_variables_solution_unconstrained": {
            "weights": {
                "AXP": 0.48891801491769227,
                "HD": 0.4948716961283419
            },
            "allocation": {
                "AXP": 3,
                "HD": 3
            },
            "value": -59.17226041817839,
            "left_overs": 121.04671499335223
        },
        "exact_solution": {
            "smallest_eigenvalues": [
                -0.5270874839570461
            ],
            "smallest_bitstrings": [
                "011100"
            ],
            "first_excited_energy": -0.5269980892471929,
            "optimized_portfolio": [
                {
                    "AXP": 6,
                    "HD": 1
                }
            ],
            "second_optimized_portfolio": [
                {
                    "AXP": 2,
                    "HD": 4
                }
            ],
            "spectrum": [
                -1.0961221428974141e-16,
                -0.48393044380470307,
                -0.3091107620036555,
                -0.5244584210814459,
                -0.1713417409654043,
                -0.5209809484870753,
                -0.4133070185745973,
                -0.4943627277141762,
                -0.4179720870495943,
                -0.49178606867093555,
                -0.5220250723985796,
                -0.3272540205094261,
                -0.486785026357195,
                -0.42630675506259796,
                -0.5236921267541492,
                -0.19462767725833927,
                -0.2481255072802507,
                -0.5269980892471929,
                -0.4547075147132802,
                -0.46499639104252255,
                -0.3682029015775452,
                -0.5127838406855043,
                -0.5076392752075787,
                -0.3836355795048889,
                -0.5095391884940695,
                -0.3782935091285812,
                -0.5110627231788979,
                -0.11123027546811318,
                -0.5270874839570461,
                -0.2615487381376608,
                -0.4614647808003065,
                0.07266209357286282,
                -0.13384760230864845,
                -0.5152491873746148,
                -0.3916940103994998,
                -0.5045124011534099,
                -0.2795571784468617,
                -0.5266673493769453,
                -0.47025804015654626,
                -0.4487841953605104,
                -0.4735406241438451,
                -0.4448249279852621,
                -0.5263289477999349,
                -0.22902740158370657,
                -0.5167212701693339,
                -0.35371293976095863,
                -0.5023635451461869,
                -0.07076811223056373,
                -0.3428336872363391,
                -0.5191770814772985,
                -0.4981512271331925,
                -0.4059103026703047,
                -0.4372788726123189,
                -0.47933034440094247,
                -0.5254506658492212,
                -0.29891678200216465,
                -0.525967642626394,
                -0.2921916343603461,
                -0.47622624092825994,
                0.0261375557112377,
                -0.5178835201797879,
                -0.14981396238548786,
                -0.4009956660426296,
                0.235663148092493
            ],
            "result_with_budget": [
                {
                    "portfolio": {
                        "AXP": 6,
                        "HD": 1
                    },
                    "budget": 2157.2216186523438,
                    "difference": 8.77838134765625,
                    "objective_value": -153.5925999059209
                }
            ],
            "result_with_budget_excited": [
                {
                    "portfolio": {
                        "AXP": 2,
                        "HD": 4
                    },
                    "budget": 2136.3761596679688,
                    "difference": 29.62384033203125,
                    "objective_value": -64.71392753943182
                }
            ]
        },
        "qaoa_solution": {
            "two_most_probable_states": [
                "000011",
                "110110"
            ],
            "final_expectation_value": -0.5129787698325841,
            "params": [
                2.5480265128936272,
                6.874607110808526,
                -16.517052702038885,
                -11.231926818615555,
                0.34106701348783064,
                40.802409539631746,
                2.8316469248514986,
                3.034443087115649,
                3.235690296743657,
                0.7976551951275772,
                2.403502491587629,
                -0.04278779480497029
            ],
            "total_steps": 799,
            "states_probs": [
                0.060870105787377636,
                0.06447783933725672
            ],
            "optimized_portfolios": [
                {
                    "AXP": 0,
                    "HD": 6
                },
                {
                    "AXP": 3,
                    "HD": 3
                }
            ],
            "training_history": {
                "xbest": [
                    2.5480265128936272,
                    6.874607110808526,
                    -16.517052702038885,
                    -11.231926818615555,
                    0.34106701348783064,
                    40.802409539631746,
                    2.8316469248514986,
                    3.034443087115649,
                    3.235690296743657,
                    0.7976551951275772,
                    2.403502491587629,
                    -0.04278779480497029
                ],
                "fbest": -0.5129787698325841,
                "evals_best": 8788,
                "evaluations": 8789,
                "iterations": 799,
                "xfavorite": [
                    2.548026015096766,
                    6.874606240675779,
                    -16.517049753867894,
                    -11.231928445395782,
                    0.3410671196565425,
                    40.80241058475977,
                    2.8316469047259405,
                    3.0344430665712867,
                    3.2356903184900605,
                    0.7976545016349429,
                    2.403503207247423,
                    -0.042787797585705514
                ],
                "stds": [
                    1.4849967806237963e-06,
                    3.3241927566353567e-06,
                    6.214033523221723e-06,
                    4.631360567668577e-06,
                    3.9832282910849187e-07,
                    1.0366320994094356e-05,
                    1.2044266395135123e-07,
                    7.96216996511111e-08,
                    6.560891886339148e-08,
                    8.73201673308742e-07,
                    8.779051473265701e-07,
                    5.3198639352817955e-08
                ],
                "stop": {
                    "tolfun": 1e-11
                }
            },
            "objective_values": [
                -98.88553458343664,
                -59.17226041817839
            ],
            "result_with_budget": [
                {
                    "portfolio": {
                        "AXP": 0,
                        "HD": 6
                    },
                    "budget": 2319.221923828125,
                    "difference": -153.221923828125
                },
                {
                    "portfolio": {
                        "AXP": 3,
                        "HD": 3
                    },
                    "budget": 2044.9532775878906,
                    "difference": 121.04672241210938
                }
            ]
        }
    }
}