{
    "23": {
        "hyperparams": {
            "stocks": [
                "AMGN",
                "HON"
            ],
            "start": "2015-01-01",
            "end": "2025-01-01",
            "risk_aversion": 0.1,
            "n_qubits": 8,
            "budget": 2544,
            "log_encoding": true,
            "layers": 8,
            "prices_now": {
                "AMGN": 258.5511779785156,
                "HON": 224.6875
            },
            "assets_to_qubits": {
                "AMGN": [
                    0,
                    1,
                    2,
                    3
                ],
                "HON": [
                    4,
                    5,
                    6,
                    7
                ]
            },
            "optimizer": "CMAES",
            "lambda_budget": 0.1
        },
        "continuous_variables_solution": {
            "weights": {
                "AMGN": 0.5,
                "HON": 0.5
            },
            "allocation": {
                "AMGN": 5,
                "HON": 5
            },
            "value": -137.48877825998554,
            "left_overs": 127.80660171977888
        },
        "continuous_variables_solution_unconstrained": {
            "weights": {
                "AMGN": 0.5180003973551912,
                "HON": 0.5013040421887076
            },
            "allocation": {
                "AMGN": 5,
                "HON": 5
            },
            "value": -137.48877825998554,
            "left_overs": 127.80660944471856
        },
        "exact_solution": {
            "smallest_eigenvalues": [
                -0.303954554347823
            ],
            "smallest_bitstrings": [
                "10011000"
            ],
            "first_excited_energy": -0.30394174134793883,
            "optimized_portfolio": [
                {
                    "AMGN": 9,
                    "HON": 1
                }
            ],
            "second_optimized_portfolio": [
                {
                    "AMGN": 2,
                    "HON": 9
                }
            ],
            "spectrum": [
                1.7228941314728088e-17,
                -0.2777817154815712,
                -0.17683237975061766,
                -0.3028256576780157,
                -0.0979007602241136,
                -0.29979384430730954,
                -0.23679347294861552,
                -0.28687201514023714,
                -0.05132147276551589,
                -0.29116003471616736,
                -0.20918436541079993,
                -0.29722237634421694,
                -0.13973777717558444,
                -0.30368258970196915,
                -0.25965938248744624,
                -0.27177378483663833,
                -0.29333702674520074,
                -0.22185269284055376,
                -0.29554453614518805,
                -0.0722294104362786,
                -0.3039267818246077,
                -0.1565350736165843,
                -0.2681876869660223,
                0.031070654263839377,
                -0.3010032783766389,
                -0.1915670280435829,
                -0.28423813633256984,
                -0.022954112292102324,
                -0.30210729975014544,
                -0.11675612286777727,
                -0.247392716030175,
                0.08984583059973715,
                -0.1969046054937547,
                -0.3000568902230429,
                -0.2864255586521701,
                -0.23777138225144023,
                -0.2511501703402463,
                -0.2784060289932582,
                -0.3027287762436179,
                -0.17814720098912346,
                -0.2263985720153912,
                -0.2916041101523152,
                -0.2969488500927618,
                -0.2103333794165621,
                -0.2711592391987349,
                -0.2604620161234693,
                -0.303764941158744,
                -0.14121198167030957,
                -0.28928673711251657,
                -0.04315691374925331,
                -0.20417794411633466,
                0.19381330882383457,
                -0.2562196472996181,
                0.06583165214332119,
                -0.13315841626673597,
                0.3407950224107735,
                -0.2751248548395584,
                0.008963631562757953,
                -0.17104064564900923,
                0.26492868645340634,
                -0.23257080108435668,
                0.12744793075359365,
                -0.09053070788476715,
                0.42141333413350224,
                -0.11101096832968542,
                -0.30147876173638244,
                -0.24418783433801067,
                -0.2828589667899119,
                -0.18708418136768645,
                -0.3016598402307078,
                -0.28232023733225703,
                -0.24507069668303744,
                -0.15141870090605924,
                -0.30394174134793883,
                -0.26562558436960765,
                -0.2663386332836084,
                -0.21800728647966983,
                -0.2946324657969713,
                -0.29427143531465116,
                -0.21905432972407246,
                -0.3038731791721226,
                -0.1450673145751917,
                -0.2624229472957125,
                0.048228239604502635,
                -0.29263466749201406,
                -0.05791477189720713,
                -0.21323511156479263,
                0.1733683817709188,
                -0.3006254293761302,
                -0.10386447214229293,
                -0.2402012622289204,
                0.10842321632137213,
                -0.2799006181461255,
                -0.007217469113465721,
                -0.1815239852532703,
                0.2430647153560213,
                -0.2576803167842998,
                -0.27351529586576634,
                -0.30354485280124904,
                -0.16756199380287556,
                -0.2900980798419171,
                -0.23003155292720723,
                -0.2980183371988832,
                -0.08610056520680069,
                -0.27626046508962016,
                -0.2541463097575245,
                -0.3031534363924309,
                -0.1292056781873681,
                -0.2991929617369187,
                -0.20117035671772254,
                -0.2881391212399235,
                -0.03824575152767095,
                -0.2495751828656207,
                0.08388123770590221,
                -0.12080690372235335,
                0.36452863047429734,
                -0.19467915095468785,
                0.214706979165611,
                -0.0279549255951813,
                0.533353462027953,
                -0.2244990107701787,
                0.14692003743619475,
                -0.0767536374121507,
                0.44656515765256544,
                -0.16011525197612186,
                0.2872428836899961,
                0.025589817847990384,
                0.624894599072715,
                -0.05864513217052756,
                -0.2927700717919861,
                -0.21364979836445508,
                -0.29598238582825387,
                -0.14563212814026122,
                -0.3038667833391067,
                -0.26269660507345977,
                -0.269111586667223,
                -0.1045097364311726,
                -0.30069077207896927,
                -0.24054469243714816,
                -0.2849206539092127,
                -0.18201220308023996,
                -0.3022975320020267,
                -0.2801051973794268,
                -0.24855437585550216,
                -0.3017452886924071,
                -0.18660047980288164,
                -0.2821240233606214,
                -0.01514135451414758,
                -0.3014209460267175,
                -0.11036553303497855,
                -0.2438517658144463,
                0.0990785654618395,
                -0.303954554347823,
                -0.1508562901998459,
                -0.26536002029571226,
                0.03959369426737318,
                -0.2941442073727867,
                -0.06512748259915481,
                -0.2175987688841084,
                0.163314219454786,
                -0.23043225782168908,
                -0.28992612749636026,
                -0.29812507201981214,
                -0.20580698918637919,
                -0.2737639442604127,
                -0.25735894644726964,
                -0.30351349477522854,
                -0.135264354566471,
                -0.2544693233988636,
                -0.276015301844778,
                -0.3031910423364979,
                -0.17290991203619255,
                -0.2883159401194056,
                -0.23395641166408732,
                -0.2990920143726622,
                -0.09286943246105676,
                -0.2725717751480044,
                0.017221003866155226,
                -0.1656333612806904,
                0.27602949223766127,
                -0.22859026306874242,
                0.13712801021123072,
                -0.08369770634916494,
                0.43393256820268605,
                -0.2529527692754937,
                0.07480060580141192,
                -0.12703812484071852,
                0.35260534941858296,
                -0.1994839241020694,
                0.2042040188741127,
                -0.03561153870393827,
                0.5200121850448822,
                -0.15709747920912992,
                -0.3039077297504321,
                -0.26844644525494893,
                -0.26345533185066833,
                -0.22225688406404903,
                -0.2931729528437875,
                -0.2956643207346748,
                -0.21474926990136423,
                -0.19204833363483348,
                -0.3009128836717511,
                -0.28442699550484485,
                -0.24147624246808558,
                -0.24772298824453476,
                -0.2806873256614809,
                -0.30215804401578783,
                -0.18327356786903432,
                -0.2997204285418967,
                -0.09725290121904832,
                -0.23644102516001875,
                0.11787968100609979,
                -0.27756767000405075,
                0.0008175123091612757,
                -0.17633743485262338,
                0.25394041885150115,
                -0.29101563053211277,
                -0.050591274645490326,
                -0.20876157605475404,
                0.18353476624332016,
                -0.2593762525667183,
                0.05697422338871958,
                -0.13916807248622318,
                0.32909763725086527,
                -0.2786486329261906,
                -0.2508242195798793,
                -0.3026847383930921,
                -0.12303620720155421,
                -0.3001524210553677,
                -0.19642366610769252,
                -0.286243134337198,
                -0.030655637436741563,
                -0.2917718443452643,
                -0.22599695485217353,
                -0.29683586637017173,
                -0.0792204856837163,
                -0.30379014473488347,
                -0.16210366567199888,
                -0.27090608929614346,
                0.022659259890216554,
                -0.22029657043586104,
                0.1568242038954764,
                -0.06969816846382738,
                0.4593111528072236,
                -0.154485914553954,
                0.29856898170594687,
                0.034070335546707124,
                0.6390581397340511,
                -0.1897631862071123,
                0.22532234587959338,
                -0.02018677709881189,
                0.5468085437158332,
                -0.11446438501601634,
                0.37656495118772654,
                0.09307377460950926,
                0.7360610153514776
            ],
            "result_with_budget": [
                {
                    "portfolio": {
                        "AMGN": 9,
                        "HON": 1
                    },
                    "budget": 2551.6481018066406,
                    "difference": -7.648101806640625,
                    "objective_value": -184.1896886284951
                }
            ],
            "result_with_budget_excited": [
                {
                    "portfolio": {
                        "AMGN": 2,
                        "HON": 9
                    },
                    "budget": 2539.2898559570312,
                    "difference": 4.71014404296875,
                    "objective_value": -460.8303409525165
                }
            ]
        },
        "qaoa_solution": {
            "two_most_probable_states": [
                "11001110",
                "11001100"
            ],
            "final_expectation_value": -0.2576484262601718,
            "params": [
                4.478765335018381,
                1.5457125026046898,
                1.1340322793317625,
                6.602683972347933,
                5.818637526011637,
                3.8620985722631263,
                0.6445712899002989,
                -1.97509268044565,
                2.4389311677358214,
                -0.10014871481678948,
                3.0594409640284663,
                2.025598875111915,
                1.1135192438564487,
                -0.03679012292763437,
                1.909436177784229,
                2.49287306946754
            ],
            "total_steps": 800,
            "states_probs": [
                0.02743305094750937,
                0.03126952217919015
            ],
            "optimized_portfolios": [
                {
                    "AMGN": 3,
                    "HON": 7
                },
                {
                    "AMGN": 3,
                    "HON": 3
                }
            ],
            "training_history": {
                "xbest": [
                    4.478765335018381,
                    1.5457125026046898,
                    1.1340322793317625,
                    6.602683972347933,
                    5.818637526011637,
                    3.8620985722631263,
                    0.6445712899002989,
                    -1.97509268044565,
                    2.4389311677358214,
                    -0.10014871481678948,
                    3.0594409640284663,
                    2.025598875111915,
                    1.1135192438564487,
                    -0.03679012292763437,
                    1.909436177784229,
                    2.49287306946754
                ],
                "fbest": -0.2576484262601718,
                "evals_best": 9484,
                "evaluations": 9600,
                "iterations": 800,
                "xfavorite": [
                    4.478494001415819,
                    1.5429821118905893,
                    1.1375864247840062,
                    6.600765975393536,
                    5.820195455064127,
                    3.8542786117530343,
                    0.6533829640135722,
                    -1.976099108052714,
                    2.439070577304256,
                    -0.10037111986845743,
                    3.0594920701183237,
                    2.0255155547240844,
                    1.1136849749782987,
                    -0.036608121986911824,
                    1.9091201442493393,
                    2.49289691295574
                ],
                "stds": [
                    0.00032134552200269515,
                    0.002541334896773914,
                    0.002826232679272751,
                    0.003148016707854205,
                    0.0004140268049739589,
                    0.005089556539523546,
                    0.005152955042267245,
                    0.00039878916612336873,
                    0.00014841503980268987,
                    0.0001970688957986074,
                    0.00020837963174224848,
                    3.470300379791647e-05,
                    7.349989976974219e-05,
                    0.0003168174510923916,
                    0.0003314969994298234,
                    6.769855831203324e-05
                ],
                "stop": {
                    "maxiter": 800
                }
            },
            "objective_values": [
                -226.27400976474217,
                -17.28977133121884
            ],
            "result_with_budget": [
                {
                    "portfolio": {
                        "AMGN": 3,
                        "HON": 7
                    },
                    "budget": 2348.466033935547,
                    "difference": 195.53396606445312
                },
                {
                    "portfolio": {
                        "AMGN": 3,
                        "HON": 3
                    },
                    "budget": 1449.7160339355469,
                    "difference": 1094.2839660644531
                }
            ]
        }
    }
}