{
    "20": {
        "hyperparams": {
            "stocks": [
                "GS",
                "MRK"
            ],
            "start": "2015-01-01",
            "end": "2025-01-01",
            "risk_aversion": 0.1,
            "n_qubits": 8,
            "budget": 2499,
            "log_encoding": true,
            "layers": 8,
            "prices_now": {
                "GS": 569.7945556640625,
                "MRK": 98.6279525756836
            },
            "assets_to_qubits": {
                "GS": [
                    0,
                    1,
                    2
                ],
                "MRK": [
                    3,
                    4,
                    5,
                    6,
                    7
                ]
            },
            "optimizer": "CMAES",
            "lambda_budget": 100
        },
        "continuous_variables_solution": {
            "weights": {
                "GS": 0.6478152341945779,
                "MRK": 0.35218476580542213
            },
            "allocation": {
                "GS": 3,
                "MRK": 8
            },
            "value": -152.70576399075543,
            "left_overs": 0.5927125832058664
        },
        "continuous_variables_solution_unconstrained": {
            "weights": {
                "GS": 0.6485218871835503,
                "MRK": 0.3837598306914114
            },
            "allocation": {
                "GS": 3,
                "MRK": 8
            },
            "value": -152.70576399075543,
            "left_overs": 0.5927128232133327
        },
        "exact_solution": {
            "smallest_eigenvalues": [
                -0.31611050657627693
            ],
            "smallest_bitstrings": [
                "11000010"
            ],
            "first_excited_energy": -0.31608733034457526,
            "optimized_portfolio": [
                {
                    "GS": 3,
                    "MRK": 8
                }
            ],
            "second_optimized_portfolio": [
                {
                    "GS": 2,
                    "MRK": 14
                }
            ],
            "spectrum": [
                -1.707930806423e-17,
                -0.27317842328703146,
                -0.16810201932964883,
                -0.3152289749677603,
                -0.09192920294689307,
                -0.30208195163556156,
                -0.228518434336162,
                -0.3126194390023408,
                -0.047934149253648306,
                -0.2895997475811989,
                -0.20027977831613372,
                -0.3158937806752745,
                -0.1319851601532801,
                -0.31062502959001786,
                -0.252817983996456,
                -0.3054059416220332,
                -0.02445946153806128,
                -0.28188147512192446,
                -0.1846832865057084,
                -0.31605377074773067,
                -0.11244956869293728,
                -0.30684588176562444,
                -0.24116059769744583,
                -0.30950508532013177,
                -0.0704240630887706,
                -0.29633323999015776,
                -0.21489149439458075,
                -0.31474900376734233,
                -0.1505359771157545,
                -0.3134193942798691,
                -0.26349059271267306,
                -0.30032200677082,
                -0.3136645801458488,
                -0.22273120972215446,
                -0.29971070404836214,
                -0.0827258595291304,
                -0.31456583569037455,
                -0.16060678762843497,
                -0.2690991703159937,
                0.01091162894875989,
                -0.31608475577038136,
                -0.19363855891312162,
                -0.28637448876040245,
                -0.037876689121262117,
                -0.3091078189679098,
                -0.12363588999652857,
                -0.2478847453103938,
                0.06363910301932584,
                -0.31536705488665256,
                -0.20867727403421185,
                -0.29353498411023204,
                -0.060793667285906156,
                -0.312329214492159,
                -0.14261372999694716,
                -0.258984346370229,
                0.036782970938735456,
                -0.3158176827376105,
                -0.17761506368275384,
                -0.27822921763109637,
                -0.013974924050715688,
                -0.3049016489040248,
                -0.10367326679687298,
                -0.23580036661453488,
                0.09148002632919007,
                -0.22256825416351997,
                -0.3136907825456453,
                -0.299642326512327,
                -0.2647133849922333,
                -0.2689834837149663,
                -0.29708033646379284,
                -0.31454476769763895,
                -0.21658987380382302,
                -0.24774541674032255,
                -0.30735511966842743,
                -0.30906309862055276,
                -0.242621203143522,
                -0.2862824541552653,
                -0.28286642706590814,
                -0.31608733034457526,
                -0.18661938864047795,
                -0.23564922236801952,
                -0.31101534080543863,
                -0.3048451002569845,
                -0.2541596870075503,
                -0.2781253560842604,
                -0.2904657729297113,
                -0.31580843756140425,
                -0.20209702624498746,
                -0.25885683722172215,
                -0.3027101184591976,
                -0.3122963212359724,
                -0.23009793241638318,
                -0.2934547777150966,
                -0.2742822980427936,
                -0.31538144552591607,
                -0.17015695985235227,
                -0.2732889768109474,
                -0.00029970245632614814,
                -0.1683071501896184,
                0.23073360439387866,
                -0.22867625743102896,
                0.10733869753679316,
                -0.09218164013704132,
                0.3698850725337869,
                -0.25295216505476076,
                0.05154993719797514,
                -0.13221394683452187,
                0.2983397645168602,
                -0.20046125299610038,
                0.16706658443742625,
                -0.048210226686703044,
                0.445369536788781,
                -0.2636129578814096,
                0.02513272762850093,
                -0.15075293624080344,
                0.26404429146604375,
                -0.21506114239803217,
                0.1367102497754616,
                -0.07068832199322421,
                0.4071349095859278,
                -0.2413065982708619,
                0.07895192692894253,
                -0.11269018160228018,
                0.33362002453152667,
                -0.1848765890109156,
                0.19840770235370966,
                -0.024747353694808374,
                0.48458895528172197,
                -0.12771811806533415,
                -0.3098685943110142,
                -0.25030616404948747,
                -0.3064051717621004,
                -0.19689033437181,
                -0.3160151356229105,
                -0.28796559226333185,
                -0.281038648424369,
                -0.16427377400542367,
                -0.3149114251049785,
                -0.2711054296520195,
                -0.29569148380730464,
                -0.2255677982351735,
                -0.3131797200018422,
                -0.3008866484872802,
                -0.2624466572835016,
                -0.1464883329480993,
                -0.3128823994001553,
                -0.26119818453648713,
                -0.3015407207166986,
                -0.21172145344854212,
                -0.3150898189702773,
                -0.2949185089100753,
                -0.2722350478683788,
                -0.1810744411789583,
                -0.31595567075042985,
                -0.28002789902938346,
                -0.2888574600505123,
                -0.23842936851917831,
                -0.3102848378883757,
                -0.30587001047406737,
                -0.25167347553215325,
                -0.3099107697459818,
                -0.12794944807397454,
                -0.25044291868452373,
                0.05756987990718772,
                -0.2880550379621036,
                -0.043068037285624826,
                -0.19707439698649495,
                0.1739643579003917,
                -0.3009524517432749,
                -0.0874783029660532,
                -0.2257282094564285,
                0.11379754501855398,
                -0.2712185274616832,
                0.0052813548417427565,
                -0.16448147786711523,
                0.2380703268939568,
                -0.30592399768222733,
                -0.10820626524851533,
                -0.23857795178682048,
                0.08519131948880039,
                -0.28012916988468867,
                -0.019385732419050478,
                -0.18127032599505152,
                0.20552494733778973,
                -0.29499613186934237,
                -0.06576556055010035,
                -0.21189369132521296,
                0.14338855748128948,
                -0.2613231104791291,
                0.03093322532741936,
                -0.14670785208037482,
                0.2716004977079101,
                -0.2845504082291794,
                -0.28464498777252106,
                -0.31611050657627693,
                -0.190153614363243,
                -0.3082086508727276,
                -0.24527755390154857,
                -0.3082559604589364,
                -0.11927311480753196,
                -0.29834907737383914,
                -0.26693083103401327,
                -0.31415278506071476,
                -0.15668293836988392,
                -0.31412912779079344,
                -0.21968515050642728,
                -0.29842002936906625,
                -0.07792413534066338,
                -0.29194212972287953,
                -0.27628029910980795,
                -0.31562403351574614,
                -0.17391066931580731,
                -0.3116612764868938,
                -0.23297374337770385,
                -0.3038303834617202,
                -0.09909102010722258,
                -0.30377125112299136,
                -0.2565965828693647,
                -0.311696760843766,
                -0.1384704205413482,
                -0.3156122045711829,
                -0.205411774457771,
                -0.2920248976593794,
                -0.05577245936955365,
                -0.20379920107103058,
                0.16021802755353007,
                -0.053303398217419425,
                0.43676531443019323,
                -0.13642949378917854,
                0.29061341729981416,
                0.04557910061685015,
                0.598673773386452,
                -0.17208389541599625,
                0.22344616202083065,
                -0.005831700529327519,
                0.5157499698920353,
                -0.09683599524406046,
                0.3617197992706451,
                0.10092900863445368,
                0.685536733260434,
                -0.18843393520491922,
                0.19133970502914024,
                -0.030059937116390448,
                0.4757652491546387,
                -0.11712513171465434,
                0.32567421705714833,
                0.07276166602929988,
                0.6416128582302211,
                -0.15474908164376375,
                0.25653739920580587,
                0.01938131191262085,
                0.556719477627939,
                -0.07556208416272174,
                0.39875016477168496,
                0.13008112895533983,
                0.7304453996168258
            ],
            "result_with_budget": [
                {
                    "portfolio": {
                        "GS": 3,
                        "MRK": 8
                    },
                    "budget": 2498.4072875976562,
                    "difference": 0.59271240234375,
                    "objective_value": -152.70576399075543
                }
            ],
            "result_with_budget_excited": [
                {
                    "portfolio": {
                        "GS": 2,
                        "MRK": 14
                    },
                    "budget": 2520.3804473876953,
                    "difference": -21.380447387695312,
                    "objective_value": -1244.170929555109
                }
            ]
        },
        "qaoa_solution": {
            "two_most_probable_states": [
                "00110000",
                "00100000"
            ],
            "final_expectation_value": -0.2906787345518921,
            "params": [
                2.5133133938128096,
                3.9110847017315438,
                4.404034272603245,
                6.667943953155848,
                6.545277239966852,
                3.751378432789071,
                1.135480617559565,
                2.0429712768595656,
                0.8735497765160133,
                0.9710094681639504,
                2.8993356320844406,
                2.0436022080594674,
                1.9416336088046218,
                -0.09790615964926219,
                3.034981772209142,
                1.4244018600726436
            ],
            "total_steps": 800,
            "states_probs": [
                0.0862539929040618,
                0.10195696925348195
            ],
            "optimized_portfolios": [
                {
                    "GS": 4,
                    "MRK": 1
                },
                {
                    "GS": 4,
                    "MRK": 0
                }
            ],
            "training_history": {
                "xbest": [
                    2.5133133938128096,
                    3.9110847017315438,
                    4.404034272603245,
                    6.667943953155848,
                    6.545277239966852,
                    3.751378432789071,
                    1.135480617559565,
                    2.0429712768595656,
                    0.8735497765160133,
                    0.9710094681639504,
                    2.8993356320844406,
                    2.0436022080594674,
                    1.9416336088046218,
                    -0.09790615964926219,
                    3.034981772209142,
                    1.4244018600726436
                ],
                "fbest": -0.2906787345518921,
                "evals_best": 9595,
                "evaluations": 9600,
                "iterations": 800,
                "xfavorite": [
                    2.5165649539642128,
                    3.9124189721141147,
                    4.395525724249716,
                    6.672472350865193,
                    6.553005873471728,
                    3.7560461579180773,
                    1.0905443693258114,
                    2.0686562629685668,
                    0.8739628505786288,
                    0.9714193177490726,
                    2.89883082901323,
                    2.0432913175549237,
                    1.940940879620328,
                    -0.09679142265768852,
                    3.0355870806132748,
                    1.4227196550476617
                ],
                "stds": [
                    0.0042839269708103405,
                    0.005386537550220566,
                    0.012071429978594908,
                    0.017881888255691418,
                    0.013307843537084965,
                    0.04446397346198869,
                    0.05688714713197286,
                    0.04119737716012943,
                    0.0006558183525139409,
                    0.0008567457019882178,
                    0.0008302187510425085,
                    0.0010196883513043196,
                    0.001300869235412817,
                    0.004895029819263234,
                    0.005171506988646731,
                    0.00284923358583238
                ],
                "stop": {
                    "maxiter": 800
                }
            },
            "objective_values": [
                -12.49952405066778,
                -10.047982196877237
            ],
            "result_with_budget": [
                {
                    "portfolio": {
                        "GS": 4,
                        "MRK": 1
                    },
                    "budget": 2377.8061752319336,
                    "difference": 121.1938247680664
                },
                {
                    "portfolio": {
                        "GS": 4,
                        "MRK": 0
                    },
                    "budget": 2279.17822265625,
                    "difference": 219.82177734375
                }
            ]
        }
    }
}