{
    "87": {
        "hyperparams": {
            "stocks": [
                "JPM",
                "VZ"
            ],
            "start": "2015-01-01",
            "end": "2025-01-01",
            "risk_aversion": 0.1,
            "n_qubits": 7,
            "budget": 924,
            "log_encoding": true,
            "layers": 7,
            "prices_now": {
                "JPM": 237.0184326171875,
                "VZ": 38.672569274902344
            },
            "assets_to_qubits": {
                "JPM": [
                    0,
                    1
                ],
                "VZ": [
                    2,
                    3,
                    4,
                    5,
                    6
                ]
            },
            "optimizer": "CMAES",
            "lambda_budget": 100
        },
        "continuous_variables_solution": {
            "weights": {
                "JPM": 0.9182535948786951,
                "VZ": 0.08174640512130503
            },
            "allocation": {
                "JPM": 3,
                "VZ": 3
            },
            "value": -10.50538560748343,
            "left_overs": 96.92699414312631
        },
        "continuous_variables_solution_unconstrained": {
            "weights": {
                "JPM": 0.918959049607114,
                "VZ": 0.07880352352315295
            },
            "allocation": {
                "JPM": 3,
                "VZ": 3
            },
            "value": -10.50538560748343,
            "left_overs": 96.9269938240717
        },
        "exact_solution": {
            "smallest_eigenvalues": [
                -0.5976792805422991
            ],
            "smallest_bitstrings": [
                "0000011"
            ],
            "first_excited_energy": -0.5976369338205137,
            "optimized_portfolio": [
                {
                    "JPM": 0,
                    "VZ": 24
                }
            ],
            "second_optimized_portfolio": [
                {
                    "JPM": 1,
                    "VZ": 18
                }
            ],
            "spectrum": [
                5.2278069484980015e-17,
                -0.5324704516469372,
                -0.33324316677479626,
                -0.5976792805422991,
                -0.18337347619071556,
                -0.581827402416466,
                -0.44960891426126026,
                -0.5800254904846981,
                -0.0958747057308206,
                -0.5613370281687494,
                -0.3956140475262364,
                -0.5930406355354818,
                -0.26249630196007967,
                -0.5939415102143862,
                -0.4952277301822149,
                -0.558633753836203,
                -0.04898434445291456,
                -0.5479507614484883,
                -0.36547560687007885,
                -0.5964070150896411,
                -0.22398188301780306,
                -0.5889314938999963,
                -0.4734653311407132,
                -0.5703767020996376,
                -0.14067108329794095,
                -0.5726292444274332,
                -0.4236584847852355,
                -0.5875801310772774,
                -0.29891673077064007,
                -0.5968574422682208,
                -0.5148961057166044,
                -0.544796633180721,
                -0.45595743768088726,
                -0.5777491723091135,
                -0.5838612329607658,
                -0.4376187095618932,
                -0.5366612266221339,
                -0.5244364687778201,
                -0.5975573026945626,
                -0.3172953026103561,
                -0.5004972996295179,
                -0.5552809197786798,
                -0.594897273806227,
                -0.38164525333408184,
                -0.5644492096752233,
                -0.48521575556692964,
                -0.5918412832642143,
                -0.24456876627306365,
                -0.47927436023059933,
                -0.5675620671363376,
                -0.5904262528729041,
                -0.41067903783248727,
                -0.5516022119699521,
                -0.5058731491997178,
                -0.5957463015591851,
                -0.2819791136056228,
                -0.5196262553963794,
                -0.5409057229103608,
                -0.5972742918572145,
                -0.35051734531864354,
                -0.5752022175455528,
                -0.4624642788425508,
                -0.5858422421950011,
                -0.20506424815351784,
                -0.2673066725835671,
                -0.5944377707236821,
                -0.49788015526625884,
                -0.5569769588367568,
                -0.39934530576574745,
                -0.5924598966508233,
                -0.5629110653385011,
                -0.4879883634861232,
                -0.33751395667852313,
                -0.5976369338205137,
                -0.5345836167428958,
                -0.5266709097435404,
                -0.4528007106436821,
                -0.578906595256959,
                -0.5828624644734679,
                -0.4409292287288056,
                -0.30345730619927824,
                -0.5970843735754232,
                -0.5172788855958445,
                -0.5428709909945566,
                -0.427120002073337,
                -0.5867302832466302,
                -0.5739337736421525,
                -0.46550587564579693,
                -0.369476623512781,
                -0.5960954441059184,
                -0.5497943447766346,
                -0.5083767043084201,
                -0.4763874292571334,
                -0.5689888236176488,
                -0.5896971321905402,
                -0.41425841024873195,
                -0.5659522940979754,
                -0.48240465222936024,
                -0.5911863971743885,
                -0.2396045270538957,
                -0.5953212368209186,
                -0.3777571138786131,
                -0.5535476229005462,
                -0.06794630144861127,
                -0.5848247330173356,
                -0.4342689814968903,
                -0.5765550156598164,
                -0.15796366027080652,
                -0.5974417967432604,
                -0.31286898585297085,
                -0.5221641827530681,
                0.030447640312294546,
                -0.5764355051666508,
                -0.4593838377711177,
                -0.5849177058310846,
                -0.19983114975337787,
                -0.5974285105824498,
                -0.3463600866541735,
                -0.5389029112766657,
                -0.019796409384086226,
                -0.5911199771960229,
                -0.4070600761081572,
                -0.5660983227843198,
                -0.11400204788540427,
                -0.5953610931382134,
                -0.27728380246535556,
                -0.5033314317423582,
                0.08278586007243627
            ],
            "result_with_budget": [
                {
                    "portfolio": {
                        "JPM": 0,
                        "VZ": 24
                    },
                    "budget": 928.1416625976562,
                    "difference": -4.14166259765625,
                    "objective_value": -8412.714568014366
                }
            ],
            "result_with_budget_excited": [
                {
                    "portfolio": {
                        "JPM": 1,
                        "VZ": 18
                    },
                    "budget": 933.1246795654297,
                    "difference": -9.124679565429688,
                    "objective_value": -2626.194504639241
                }
            ]
        },
        "qaoa_solution": {
            "two_most_probable_states": [
                "1100010",
                "0100001"
            ],
            "final_expectation_value": -0.5814261899009635,
            "params": [
                -2.1370971556098595,
                2.453680621976073,
                5.818585941433338,
                -0.8828871050311647,
                9.74871050183741,
                9.144161860873218,
                10.566942923327632,
                1.3572313452180638,
                2.4381499927342642,
                0.611058616644501,
                2.207102295249413,
                -0.12016089263045168,
                3.0656059638113398,
                1.520228566434654
            ],
            "total_steps": 800,
            "states_probs": [
                0.026676355562656743,
                0.02824604674453573
            ],
            "optimized_portfolios": [
                {
                    "JPM": 3,
                    "VZ": 8
                },
                {
                    "JPM": 2,
                    "VZ": 16
                }
            ],
            "training_history": {
                "xbest": [
                    -2.1370971556098595,
                    2.453680621976073,
                    5.818585941433338,
                    -0.8828871050311647,
                    9.74871050183741,
                    9.144161860873218,
                    10.566942923327632,
                    1.3572313452180638,
                    2.4381499927342642,
                    0.611058616644501,
                    2.207102295249413,
                    -0.12016089263045168,
                    3.0656059638113398,
                    1.520228566434654
                ],
                "fbest": -0.5814261899009635,
                "evals_best": 8798,
                "evaluations": 8800,
                "iterations": 800,
                "xfavorite": [
                    -2.1724749747705925,
                    2.4026261859137166,
                    5.765591003144985,
                    -0.8700960610590195,
                    9.801065068683402,
                    9.125074061004373,
                    10.733019745156806,
                    1.3533736942917816,
                    2.4336787046612494,
                    0.6238790593900084,
                    2.20002511033627,
                    -0.11806387624861434,
                    3.0658176017535372,
                    1.5198389687317446
                ],
                "stds": [
                    0.08613975388554644,
                    0.051163146486870516,
                    0.12821269941184496,
                    0.023770040852896204,
                    0.10315515263553786,
                    0.10891368690281512,
                    0.18483202503243323,
                    0.00781745273383783,
                    0.008040747421843839,
                    0.01714012476473873,
                    0.013566267636746758,
                    0.0016112466177068854,
                    0.0011573006390378647,
                    0.0014924191249450732
                ],
                "stop": {
                    "maxiter": 800
                }
            },
            "objective_values": [
                -116.96150656204307,
                -1629.3463706141183
            ],
            "result_with_budget": [
                {
                    "portfolio": {
                        "JPM": 3,
                        "VZ": 8
                    },
                    "budget": 1020.4358520507812,
                    "difference": -96.43585205078125
                },
                {
                    "portfolio": {
                        "JPM": 2,
                        "VZ": 16
                    },
                    "budget": 1092.7979736328125,
                    "difference": -168.7979736328125
                }
            ]
        }
    }
}