{
    "15": {
        "hyperparams": {
            "stocks": [
                "GS",
                "JNJ",
                "MSFT",
                "UNH",
                "WBA"
            ],
            "start": "2015-01-01",
            "end": "2025-01-01",
            "risk_aversion": 0.1,
            "n_qubits": 13,
            "budget": 747,
            "log_encoding": true,
            "layers": 10,
            "prices_now": {
                "GS": 569.7945556640625,
                "JNJ": 143.4715576171875,
                "MSFT": 420.6565246582031,
                "UNH": 503.7073059082031,
                "WBA": 9.329999923706055
            },
            "assets_to_qubits": {
                "GS": [
                    0
                ],
                "JNJ": [
                    1,
                    2,
                    3
                ],
                "MSFT": [
                    4
                ],
                "UNH": [
                    5
                ],
                "WBA": [
                    6,
                    7,
                    8,
                    9,
                    10,
                    11,
                    12
                ]
            }
        },
        "continuous_variables_solution": {
            "weights": {
                "GS": 0.0,
                "JNJ": 0.0,
                "MSFT": 1.0,
                "UNH": 9.71445146547012e-17,
                "WBA": 2.0829269855382137e-16
            },
            "allocation": {
                "MSFT": 1,
                "WBA": 11,
                "GS": 0,
                "JNJ": 0,
                "UNH": 0
            },
            "value": -706.2107367506449,
            "left_overs": 223.7134761334006
        },
        "exact_solution": {
            "smallest_eigenvalues": [
                -0.05968738885826259
            ],
            "smallest_bitstrings": [
                "0010100010000"
            ],
            "first_excited_energy": -0.059687234047198647,
            "optimized_portfolio": [
                {
                    "GS": 0,
                    "JNJ": 2,
                    "MSFT": 1,
                    "UNH": 0,
                    "WBA": 4
                }
            ],
            "second_optimized_portfolio": [
                {
                    "GS": 0,
                    "JNJ": 5,
                    "MSFT": 0,
                    "UNH": 0,
                    "WBA": 3
                }
            ],
            "spectrum": [
                -2.3014901616436045e-16,
                -0.04830635945632329,
                -0.037606861908449044,
                -0.012105047467482144,
                -0.02143530632254835,
                -0.03783594012426173,
                -0.04725879446291011,
                0.03345767974807607,
                -0.011329507806603339,
                -0.04472537670042592,
                -0.04335865090470655,
                0.007879248921648329,
                -0.03023811828300056,
                -0.027144336345586897,
                -0.049020797259520785,
                0.0653311764527491,
                -0.005814786349436374,
                -0.04690059133337234,
                -0.04069832974246782,
                -0.002770381476374344,
                -0.026006564065117685,
                -0.03299828983548287,
                -0.04842699302799031,
                0.04856171303671813,
                -0.016539111386647473,
                -0.04172385805795469,
                -0.04555687015297351,
                0.019926603483453563,
                -0.0341119648626741,
                -0.020204271026375255,
                -0.04899630078664098,
                0.08386178088170525,
                -0.002944711950564469,
                -0.047696229090742524,
                -0.03920468093265985,
                -0.007597039013854289,
                -0.023762399353189606,
                -0.03553991631661544,
                -0.04791207536483108,
                0.04080737308095358,
                -0.013972891618685056,
                -0.0433315854499674,
                -0.04451758444658932,
                0.013722911721408024,
                -0.032221006760574385,
                -0.02381455717977387,
                -0.04908870723517684,
                0.07437022763439967,
                -0.008609895115587239,
                -0.04591264253884962,
                -0.04208424247467704,
                0.002384966572487934,
                -0.02816585348622048,
                -0.030202638144417343,
                -0.04879836269810849,
                0.05673235993398344,
                -0.01902702958392059,
                -0.03989458143348285,
                -0.04647213271512145,
                0.02650117508085712,
                -0.03590823617164523,
                -0.01630424590340261,
                -0.048737583714091905,
                0.09381830595882214,
                -0.001481673068921188,
                -0.048024065374413054,
                -0.03841857773564676,
                -0.009890254691670703,
                -0.022609105096692776,
                -0.036718110050838124,
                -0.047602414176315,
                0.03708266645182564,
                -0.012660782027490044,
                -0.04405475517945096,
                -0.043952808103030844,
                0.010756746976067783,
                -0.031240889447360094,
                -0.025513941041995947,
                -0.04907442506762554,
                0.06979491074088569,
                -0.007221739846407774,
                -0.04643108894833182,
                -0.041404983889463634,
                -0.0002344292598282507,
                -0.027096947777520954,
                -0.031632751454461226,
                -0.048630953314063655,
                0.05259426144300812,
                -0.017792937181772554,
                -0.04083739712269927,
                -0.04603028568861465,
                0.023166843218426943,
                -0.03502211654714576,
                -0.018291060739701593,
                -0.048888113620598465,
                0.08878113467653602,
                -0.004389094606181309,
                -0.04732201912102126,
                -0.039964744737968995,
                -0.005224164226971501,
                -0.024894964691904782,
                -0.034300325075917903,
                -0.04818714890555343,
                0.04463323820390652,
                -0.015265713360746815,
                -0.04255493484699186,
                -0.04505245199316998,
                0.016779080545422986,
                -0.03317814464181706,
                -0.022045049732552034,
                -0.04906291345857674,
                0.07905866688243085,
                -0.009979179527879667,
                -0.04534437003028869,
                -0.04273562814624215,
                0.005089092817982054,
                -0.029213006200736007,
                -0.028706865469328824,
                -0.04892854146687352,
                0.06097749766843714,
                -0.020241214783303964,
                -0.03889442773497561,
                -0.04688183269993496,
                0.0299309870488445,
                -0.036769947564999635,
                -0.014242640900763315,
                -0.04854393017317695,
                0.09897488506804965,
                -0.053356609380551735,
                -0.037392325276585044,
                -0.05879985473838041,
                0.030801455548874052,
                -0.05870665677467748,
                -0.010907728715076663,
                -0.052387577055881665,
                0.09229934267031506,
                -0.05664307793960379,
                -0.025800221083118174,
                -0.056517317313065085,
                0.058759176233545256,
                -0.05946897438081442,
                0.007777959449906452,
                -0.046125044403167954,
                0.1321219805402543,
                -0.05514983027036972,
                -0.03198004483913009,
                -0.05787366064583181,
                0.04412423816340976,
                -0.059257395064277414,
                -0.002071858197455298,
                -0.04954278274054956,
                0.11137957745721704,
                -0.05783141262338507,
                -0.01879610972900444,
                -0.05469998271787303,
                0.07478891629616359,
                -0.05932350383075045,
                0.01871141963522248,
                -0.04209056889286083,
                0.15462214958497938,
                -0.05429053421859533,
                -0.034778707931071545,
                -0.058388725196611285,
                0.03730386635688117,
                -0.059023429086130154,
                -0.006612307360336088,
                -0.051034187304908,
                0.10163753740498035,
                -0.057275794615846205,
                -0.022404874349161566,
                -0.05566832802552598,
                0.06659440413137269,
                -0.05944211499581959,
                0.013104751786440796,
                -0.04418776234242568,
                0.14314624298744275,
                -0.05593418360734458,
                -0.028989546507895796,
                -0.05725110937534416,
                0.05127259824349186,
                -0.059406621889505275,
                0.002722027157514148,
                -0.04790819276102516,
                0.12153710899314142,
                -0.058308808588148096,
                -0.014966328284240302,
                -0.05360792023386662,
                0.08335354944849115,
                -0.05911039862045119,
                0.024607180825741586,
                -0.03982748400715009,
                0.16656215594452112,
                -0.053832888682065684,
                -0.03610823088356931,
                -0.05860706776644524,
                0.034013534628010274,
                -0.05887528082558278,
                -0.008790128894468738,
                -0.05172781877419812,
                0.09691867935359184,
                -0.0569690113051752,
                -0.024128757923006137,
                -0.056107477504286504,
                0.06263254903938308,
                -0.05946685017399569,
                0.010406939388744287,
                -0.04517602644818356,
                0.1375784268160423,
                -0.05555140230348186,
                -0.030509207326470184,
                -0.05757605073721162,
                0.04765678505982545,
                -0.05934272957697392,
                0.000292871527279949,
                -0.048743716995036046,
                0.11640567099959448,
                -0.05807996647673474,
                -0.016909328948090274,
                -0.0541696965999205,
                0.07902428254910766,
                -0.059228942277568454,
                0.02162257954368004,
                -0.04098014453722291,
                0.1605333539140295,
                -0.05472952572045436,
                -0.03340292670386331,
                -0.0581444020364216,
                0.040673685173485644,
                -0.05915087892524786,
                -0.004373232036065017,
                -0.05030605529416817,
                0.10645735362386487,
                -0.05756330642123831,
                -0.020627639465663566,
                -0.05519934270363392,
                0.07064607712820682,
                -0.05939444503452176,
                0.01587252990030258,
                -0.043159523551358776,
                0.14882696703453444,
                -0.056298103321924996,
                -0.027420182077832162,
                -0.05689836097742535,
                0.0549729627427544,
                -0.0594487987804539,
                0.005216691360207444,
                -0.04703553209432764,
                0.12677537882758905,
                -0.05851776691689984,
                -0.012966126251187076,
                -0.05301407685621469,
                0.08777810320335189,
                -0.058967498457287805,
                0.02766640732905974,
                -0.03863180817776019,
                0.1727101442468787,
                -0.04829618638336739,
                -0.042917153083101504,
                -0.05904143061148062,
                0.02003248946831225,
                -0.05629830365958751,
                -0.019060787786193533,
                -0.05527439518295493,
                0.078929339675777,
                -0.05290879838018505,
                -0.03264054593880974,
                -0.058082259269948484,
                0.046687673819042146,
                -0.05838601248657707,
                -0.0016847527728468007,
                -0.0503319305567985,
                0.11745783094962682,
                -0.050752486226870334,
                -0.038162946635075363,
                -0.05877708591064529,
                0.0327035193360165,
                -0.05751182435192575,
                -0.010880148866741353,
                -0.053089880788232915,
                0.09736193702726352,
                -0.054760143299687807,
                -0.0262931669360048,
                -0.05692606888842797,
                0.062067639233027376,
                -0.058902937391248716,
                0.008595135682459076,
                -0.04695671155902061,
                0.13931265888717367,
                -0.04956165002078177,
                -0.04063265161234044,
                -0.05896126486685152,
                0.026208905244110688,
                -0.05694648638431508,
                -0.015093080999953056,
                -0.054251204382947074,
                0.08794357714456395,
                -0.05387302944150533,
                -0.029573654205234282,
                -0.0575638911352172,
                0.05419788578907148,
                -0.05869037998554445,
                0.00331514498457823,
                -0.04872434568767036,
                0.12815927435036736,
                -0.051868376100758166,
                -0.03550124368609658,
                -0.05848533705982016,
                0.0395263639914064,
                -0.0579923797704611,
                -0.006413578030265449,
                -0.05178524882468718,
                0.1071960704623359,
                -0.05556901160831588,
                -0.022791480220370086,
                -0.05616442640099701,
                0.07030777584382791,
                -0.05902093746618924,
                0.01416444212263036,
                -0.04502304315118192,
                0.15093044514404805,
                -0.04893823460442715,
                -0.04179763603670007,
                -0.05901413500266464,
                0.023081541677417425,
                -0.0566326374093351,
                -0.017107069631418042,
                -0.05477975081364795,
                0.08338666339984359,
                -0.05340049094432794,
                -0.031133332174298374,
                -0.057837741988295145,
                0.05039850682088185,
                -0.058549508700116604,
                0.0007807530086817768,
                -0.04954777812068693,
                0.12275283088974731,
                -0.051319827291385504,
                -0.03685652746586733,
                -0.058644887919491864,
                0.03607327792307318,
                -0.057762828896566774,
                -0.00867910202592134,
                -0.0524558097306885,
                0.10222629594985772,
                -0.05517443657408876,
                -0.024570456658151607,
                -0.05656100596257082,
                0.06614072413202284,
                -0.058973936702149836,
                0.01134304010490207,
                -0.046011013608470715,
                0.14506271510936067,
                -0.05016641174120135,
                -0.039421369473251505,
                -0.058882394590040674,
                0.029415815227934055,
                -0.05723962733191241,
                -0.013017789193642004,
                -0.05368812791546616,
                0.09260151833086587,
                -0.05432629179979485,
                -0.02796058051415329,
                -0.05726017991602137,
                0.05808714696384614,
                -0.05880830190955337,
                0.005919557033691934,
                -0.047860904101669925,
                0.13367869993310696,
                -0.05239806117341205,
                -0.0340962143686454,
                -0.058297957127283515,
                0.04306406319090423,
                -0.05820020313064712,
                -0.004082493591270478,
                -0.051077519504496814,
                0.11227274857597194,
                -0.05594369574010056,
                -0.02095525551484969,
                -0.05573575281866713,
                0.07457018119902305,
                -0.05904356465971316,
                0.017060526204839603,
                -0.04399202044072933,
                0.15691743818320267,
                -0.056323167237952894,
                0.013325095109307733,
                -0.034905157574804474,
                0.10826546544882457,
                -0.04824012076610753,
                0.05319485326072725,
                -0.015074351686964855,
                0.18309634658994747,
                -0.05289276604006741,
                0.031612453041032,
                -0.025911858163191775,
                0.14289353114631356,
                -0.04228744744095216,
                0.0785645158609228,
                -0.002107636112298748,
                0.22957334993095965,
                -0.054757909263929046,
                0.02208563393110201,
                -0.030623244738815353,
                0.1249243458498984,
                -0.04543317272222885,
                0.06537348939362495,
                -0.008876981277905309,
                0.20550483627497465,
                -0.05072287124272911,
                0.041962223277412745,
                -0.02074022926695645,
                0.16225559443372303,
                -0.038785127469969156,
                0.09283755462960541,
                0.005277403519501193,
                0.2553974117822252,
                -0.055577846237809043,
                0.017612994935716754,
                -0.03281608881381902,
                0.11643615188005622,
                -0.04687800678393952,
                0.05916184743244674,
                -0.012044557321016497,
                0.1940989322242456,
                -0.051846343209176145,
                0.03668080086515543,
                -0.023385623517327654,
                0.15239516574679965,
                -0.040582101858309065,
                0.0855613058587886,
                0.0015050629376082462,
                0.2422598405922964,
                -0.053863051567935895,
                0.026749792408174808,
                -0.028323082819249435,
                0.1337400654532291,
                -0.04390369494151502,
                0.071838178348057,
                -0.005566462136003752,
                0.21732569572809682,
                -0.04952123594680755,
                0.0474643100360572,
                -0.01797132343599266,
                0.1724856447475034,
                -0.03689379119093018,
                0.10040247082271005,
                0.009215356500549391,
                0.2689985099322505,
                -0.05595982259256615,
                0.015446368491193053,
                -0.033873381605146656,
                0.11231173844830233,
                -0.047569291462241724,
                0.05614828641840008,
                -0.013576362529525958,
                0.1885479440119239,
                -0.052379124034188075,
                0.034120459084726225,
                -0.024663371697059275,
                0.14760016800228667,
                -0.04144606533727183,
                0.0820285461490789,
                -0.00032087650438702525,
                0.23586098019278148,
                -0.05431987245771174,
                0.024393341560141453,
                -0.02948680782250331,
                0.12929063091170614,
                -0.04467914242895522,
                0.06857367014170543,
                -0.007239920087896674,
                0.21136266135987233,
                -0.05013190155281417,
                0.044685201348804195,
                -0.019371495202295634,
                0.16732373226123806,
                -0.03785143328934135,
                0.09658334585304666,
                0.00722529737619117,
                0.26213923418051527,
                -0.05517721905151459,
                0.01982580301058792,
                -0.03173285535588354,
                0.12063993903456582,
                -0.046166045247648245,
                0.06223656723196109,
                -0.010478309855113051,
                0.199750746878779,
                -0.05129430326217211,
                0.03929440813072159,
                -0.022078088598365755,
                0.15727985885102555,
                -0.039695234339818954,
                0.08916392709983961,
                0.003370909600703367,
                0.24877146796206315,
                -0.053387376882087854,
                0.029155865633257706,
                -0.02713159529376932,
                0.13827393335529395,
                -0.04310655818600922,
                0.07516809553212025,
                -0.00385593062555662,
                0.22339542562186013,
                -0.04889070353150305,
                0.050300529677920015,
                -0.016539138352070337,
                0.177742716954038,
                -0.03591182792014413,
                0.10429611223872916,
                0.011248358869938519,
                0.27597682646033533,
                -0.05648235629403243,
                -0.031469848853324205,
                -0.05743176956536556,
                0.04139782075577431,
                -0.05958937389227651,
                -0.002666928739772898,
                -0.04875354980131525,
                0.10529588208457089,
                -0.058647821060972376,
                -0.018722777637767203,
                -0.054018614029154484,
                0.07054959196614055,
                -0.059227722370960835,
                0.017191426375051375,
                -0.04135006640615988,
                0.14633763770416172,
                -0.05771514550724987,
                -0.025481076036305405,
                -0.05594079709283754,
                0.0553161770456634,
                -0.05957842806561226,
                0.006754053893281404,
                -0.04533904101823707,
                0.12498399393079802,
                -0.0592753280763278,
                -0.01113809426416156,
                -0.05163426323810624,
                0.08718082716809183,
                -0.05851925080078167,
                0.028714999227754178,
                -0.03674271770020434,
                0.16945252618421738,
                -0.05713607565401451,
                -0.028568225906273902,
                -0.056738376307848705,
                0.04819766269920985,
                -0.05962537206283743,
                0.0019207505274374634,
                -0.04711548584771218,
                0.11493760208964895,
                -0.05900016304174135,
                -0.015037414260810535,
                -0.052886270896430033,
                0.07868518295288553,
                -0.058919459171649355,
                0.022812948121531687,
                -0.039126559557337744,
                0.15766881783126496,
                -0.05821923753595796,
                -0.022201595361303443,
                -0.05503546582038394,
                0.06276340545941764,
                -0.05944659469173686,
                0.011841404130957904,
                -0.043419030321858836,
                0.13544671816338558,
                -0.059472178401409,
                -0.007017204320163255,
                -0.0502582155086931,
                0.09604737572158364,
                -0.058024340603950925,
                0.03490681191245957,
                -0.03419254639818604,
                0.18170123276392683,
                -0.056818534547247064,
                -0.030041810907273207,
                -0.057097881204788765,
                0.044758527376390835,
                -0.059617626952717724,
                -0.0004032735999136265,
                -0.04795149927679973,
                0.11006687898756984,
                -0.05883357596416367,
                -0.01690637259851345,
                -0.05346713496164069,
                0.07457305109557792,
                -0.059084919531590896,
                0.019967690187253438,
                -0.04025798811024348,
                0.15194743320979734,
                -0.057976592174272694,
                -0.023865810196807412,
                -0.055501831249779456,
                0.05899806648536865,
                -0.059523252156051414,
                0.009265438825074048,
                -0.04439731337009204,
                0.13016257780871007,
                -0.05938362159250574,
                -0.009105829273301282,
                -0.05096202575862049,
                0.0915670523034463,
                -0.05828381362625355,
                0.031774100454383676,
                -0.035488805786833263,
                0.175517967415929,
                -0.057434957545991795,
                -0.02704826233644161,
                -0.05635282808343175,
                0.05171646296088658,
                -0.05961238479290703,
                0.004306177517550234,
                -0.0462448803615531,
                0.11990948998884934,
                -0.05914745904467008,
                -0.01311496993008119,
                -0.05227549386171625,
                0.08288732495541203,
                -0.058731015680715426,
                0.02572833523384884,
                -0.03795505041425081,
                0.16350333134729833,
                -0.05844300893361631,
                -0.020487549425562523,
                -0.05454122342319124,
                0.06661348079481208,
                -0.059348180652593584,
                0.014483034276549407,
                -0.04240351213069218,
                0.14083790418321165,
                -0.059540824663655366,
                -0.004871236119823906,
                -0.049522253926171184,
                0.10062318543019799,
                -0.05774045553310625,
                0.03811431924829126,
                -0.032853158610724575,
                0.18800391259729068,
                -0.04799739481255357,
                0.04127966431469779,
                -0.016784749317667658,
                0.14613229236612327,
                -0.03501956033645764,
                0.08609337849866835,
                0.007955785676787909,
                0.2259606422893027,
                -0.042119930749454144,
                0.06203625839784017,
                -0.005338121853631395,
                0.18325514522581002,
                -0.026617896916456687,
                0.11394384739169881,
                0.023382577989401743,
                0.27494882438982254,
                -0.04520865052252634,
                0.05127417341361084,
                -0.011276518913063712,
                0.16403761720871243,
                -0.03098831303225642,
                0.09951161930889656,
                0.015382697326727736,
                0.24962362154400317,
                -0.038726293834449525,
                0.07362266544094873,
                0.0010612857768548488,
                0.20386752484831724,
                -0.02189041920150165,
                0.12945976004930784,
                0.03199922270970461,
                0.3020318503863298,
                -0.046640337225106056,
                0.04618439203847167,
                -0.014082603678321044,
                0.1549259684416698,
                -0.03304534096245061,
                0.0926799801002346,
                0.011600231089606058,
                0.2375902024643707,
                -0.040461662264239785,
                0.06772274855032101,
                -0.0021980985804000044,
                0.19338168658358998,
                -0.024300035533961734,
                0.12156186059139673,
                0.027610941176177694,
                0.28826450804590104,
                -0.04370202053953182,
                0.056555798169732864,
                -0.008362943074445694,
                0.17347726617903544,
                -0.02884654348950914,
                0.10659670474535592,
                0.019308355226686606,
                0.26207254593106943,
                -0.03691270184925896,
                0.07974360824488336,
                0.004444392611125056,
                0.21472349697731716,
                -0.019386305417168168,
                0.13764676383167387,
                0.03655340287405765,
                0.3162633072595196,
                -0.047328182927632766,
                0.043709312923523494,
                -0.015446454796759181,
                0.1504900026322045,
                -0.03404268880769618,
                0.08935656723261659,
                0.009761071052825789,
                0.23172566000920333,
                -0.04130037167898406,
                0.06485329217551773,
                -0.0037827656701982697,
                0.18827417319642273,
                -0.025470272092327245,
                0.1177184364336699,
                0.025477135652458995,
                0.2815509794681012,
                -0.04446473098115276,
                0.05389057310620623,
                -0.009833397279382029,
                0.16871580704423586,
                -0.029928149683216405,
                0.10302194780511649,
                0.01732729623670254,
                0.2557954097691865,
                -0.037829353916697395,
                0.07665502575056346,
                0.0027370933925594206,
                0.20924855896520847,
                -0.020650353801930026,
                0.1335165398660517,
                0.03425519379053151,
                0.30908877811106267,
                -0.04593383740569288,
                0.04870573140436455,
                -0.012692770940301874,
                0.15944142426211275,
                -0.03202729414005475,
                0.0960646492077297,
                0.013473893170565552,
                0.24355570648378203,
                -0.03960368102524826,
                0.07064555844776399,
                -0.0005835943814925469,
                0.19857902103559735,
                -0.023106863400001655,
                0.1254752531517805,
                0.029784723124687478,
                0.2950909481328909,
                -0.042920448308036756,
                0.05927072893935904,
                -0.006864680685856893,
                0.17832327967105174,
                -0.027743221200122143,
                0.11023697282617011,
                0.02132655227046301,
                0.26845651744897747,
                -0.03597616556181446,
                0.08288939443976875,
                0.00618376022564215,
                0.22029372512327586,
                -0.01809789961551135,
                0.1418516158234198,
                0.038894629114758945,
                0.32355702643171885,
                -0.05313334503640075,
                0.025558463507926593,
                -0.0272227064137948,
                0.1251669777328466,
                -0.042807586471492874,
                0.06774395662297097,
                -0.005127411590022197,
                0.20239430905010705,
                -0.04858202793263775,
                0.04499956513270679,
                -0.017099444498920646,
                0.16098730290559674,
                -0.0357313157658193,
                0.09428477898327357,
                0.00897931525875129,
                0.2500883552296377,
                -0.05100768158759995,
                0.034894900786061354,
                -0.022376325260349654,
                0.14242055402535078,
                -0.039439122443523385,
                0.08050696901772836,
                0.0016392212939099558,
                0.225409656080187,
                -0.045851402633872114,
                0.05592924250018117,
                -0.01136118043452745,
                0.1809499125832413,
                -0.031666233872069356,
                0.10914712360059493,
                0.016936705128151285,
                0.2765260458367857,
                -0.05210782722378377,
                0.030134076409584126,
                -0.024851524532999818,
                0.13363466084286876,
                -0.04116477797919647,
                0.07400284521569711,
                -0.0018131645825575837,
                0.21369991453300516,
                -0.04725527455444888,
                0.05035760159095467,
                -0.01429004208639682,
                0.17078883065577463,
                -0.03374468148221036,
                0.10157589941703453,
                0.012877982053037473,
                0.2630812226664885,
                -0.0498325889902222,
                0.0398477313393199,
                -0.019793551676049834,
                0.1515346897644215,
                -0.037628681835763324,
                0.08726474162211066,
                0.005234921850258422,
                0.23753518506686508,
                -0.04436928358773825,
                0.06172209200789038,
                -0.008308493177976509,
                0.1914813906176662,
                -0.02949322546114354,
                0.11700767457254148,
                0.021161469740512653,
                0.29043528556128434,
                -0.052629902566677954,
                0.02782353528853388,
                -0.0260499032446337,
                0.1293616621543169,
                -0.04199642488371371,
                0.07084326446299438,
                -0.00348723986147703,
                0.20799731508972988,
                -0.04792822842963538,
                0.04765235015993572,
                -0.015709410704484963,
                0.16584379222438753,
                -0.03474931147743223,
                0.09789589476659936,
                0.010909007794575555,
                0.2565290653779371,
                -0.05042953150990357,
                0.03734688271697871,
                -0.021098615469384734,
                0.14693595664031314,
                -0.03854462930519006,
                0.08385361546531825,
                0.0034188258441775524,
                0.23141971102789674,
                -0.04512020244268939,
                0.05879753301526495,
                -0.009850595809412329,
                0.18616866656173772,
                -0.03059172938858695,
                0.11304064889336644,
                0.019027950258908147,
                0.28342182692372114,
                -0.05156709808689434,
                0.03249091723744258,
                -0.023627144635298844,
                0.13798720888763963,
                -0.04031242247573127,
                0.07722373160882909,
                -0.00010455774828409316,
                0.2195035448304549,
                -0.046563044205562,
                0.05311625097282165,
                -0.01284081182036887,
                0.17582375446958756,
                -0.03271710131725215,
                0.10532592684302299,
                0.014886967219809675,
                0.26974636572650407,
                -0.049216782517385683,
                0.042398327609796484,
                -0.018460657646404317,
                0.15621803907716034,
                -0.0366910061626869,
                0.09074143080620085,
                0.007088187907478705,
                0.243757566237961,
                -0.0435984733771558,
                0.06470390161546201,
                -0.006734295125586503,
                0.19688947161120238,
                -0.028370347036491005,
                0.12104938513690908,
                0.023338043348983616,
                0.29756801097103586,
                0.0006812673469623266,
                0.14363614200358973,
                0.05875356654595517,
                0.27522783809184775,
                0.027091765040616562,
                0.2018316270488811,
                0.09691071905724957,
                0.36838431126602983,
                0.013275478345298287,
                0.17108638696319986,
                0.07691009315454342,
                0.31901869308251823,
                0.04220792656018676,
                0.23636409750531234,
                0.11904046144004847,
                0.4240241459457668,
                0.006828452215607393,
                0.15697813118157436,
                0.06761710739875335,
                0.29646811240568377,
                0.03448047538806124,
                0.21859167016410644,
                0.10768961350065955,
                0.39537421209855367,
                0.020027213953692988,
                0.1860175820808029,
                0.08666329428832145,
                0.3429621551120196,
                0.05029193790332013,
                0.25521853293350333,
                0.13100698447908157,
                0.45442963892600746,
                0.0037175574113918245,
                0.15021476883703103,
                0.06313345303830152,
                0.28568922141438097,
                0.030744764844533354,
                0.2100893255936925,
                0.10223127821632087,
                0.38167760146198654,
                0.016612826725188108,
                0.17844544858336678,
                0.08172711716863054,
                0.33081102651546573,
                0.04620412202536612,
                0.24565158624135572,
                0.12494390449601446,
                0.43900135068599694,
                0.010014256744738019,
                0.1639330095866802,
                0.07220807239460661,
                0.30757452939739177,
                0.03830082054741289,
                0.22734706020066853,
                0.11329088656864715,
                0.4094857803984476,
                0.02351975446148366,
                0.19381037745051025,
                0.09172297672645323,
                0.3554829066493555,
                0.054474107515803026,
                0.26507414646784216,
                0.137235672493171,
                0.47032145733405734,
                0.0021900979435327574,
                0.1469027793610229,
                0.0609307523268297,
                0.2804194595355029,
                0.02890803843764527,
                0.20593041262837944,
                0.09955409132003348,
                0.3749812607306096,
                0.014934584426341685,
                0.17473975025857133,
                0.07930397513194765,
                0.32487067923487173,
                0.04419473466904759,
                0.24097347727946028,
                0.1219725936413972,
                0.4314571328904327,
                0.008411963798246146,
                0.16043119918747353,
                0.06989894673955721,
                0.3019797461010198,
                0.036379940493754315,
                0.22293720162934302,
                0.11047205230330677,
                0.40237739130942424,
                0.021763637491019026,
                0.18988591475219266,
                0.08917741742453823,
                0.34917564337227575,
                0.05237104975539423,
                0.2601096728852766,
                0.1341002463835114,
                0.4623168210375204,
                0.005263664902300747,
                0.15357293902891836,
                0.06536209255490333,
                0.2910383570485546,
                0.032602165774427636,
                0.21430939690350995,
                0.10494290598202809,
                0.3884747691416193,
                0.01831032557429175,
                0.18220441171558335,
                0.08418004431981818,
                0.3368410694250635,
                0.04823641132298164,
                0.25039955653038165,
                0.12795512142050994,
                0.44665833619460876,
                0.011635400797190712,
                0.1674844415668438,
                0.07454495882878048,
                0.3132537462052229,
                0.04024338765253068,
                0.2318223274271179,
                0.11614679312294422,
                0.4167008656374312,
                0.02529573578788715,
                0.197791950544097,
                0.09430054783963802,
                0.3618853300343741,
                0.05660148446873261,
                0.2701131364109281,
                0.14041404081501582,
                0.478445135268118,
                -0.03704843181008086,
                -0.048697554200933094,
                -0.056327248907077014,
                0.00583458235326273,
                -0.04931982885292529,
                -0.029061956929409306,
                -0.05681475906914795,
                0.06056348548974024,
                -0.04379600947030048,
                -0.040534037273071186,
                -0.05749686635275698,
                0.030401896752937214,
                -0.05354060511704604,
                -0.013787592211629347,
                -0.05399442415663656,
                0.09702028758069424,
                -0.040572258736187694,
                -0.045000532217936845,
                -0.057127640403706624,
                0.017460740335668197,
                -0.051600076291210016,
                -0.02193294129103348,
                -0.05569180011158539,
                0.07795915256352988,
                -0.04671463008055645,
                -0.03524121091979749,
                -0.05740397056502667,
                0.04474081230894652,
                -0.05512341026990134,
                -0.004556100115988978,
                -0.05167872388643136,
                0.11784260237377885,
                -0.03884766540225802,
                -0.04694180015262591,
                -0.05677953206288019,
                0.011488332608233972,
                -0.0505014185582064,
                -0.02562025416776538,
                -0.056322463983539114,
                0.06905899104738168,
                -0.045293903387517855,
                -0.037994595651259955,
                -0.05751024491368039,
                0.0373913356187412,
                -0.05437797494474541,
                -0.009312103615155125,
                -0.05291673524417382,
                0.10720518903984654,
                -0.042221883612465226,
                -0.042866946633126894,
                -0.05736800794798475,
                0.023761847081472,
                -0.05261385496144783,
                -0.017991595644390866,
                -0.0549175825806317,
                0.08727563047517566,
                -0.04805705190446955,
                -0.03226626986940275,
                -0.05717366787968237,
                0.05246117781500168,
                -0.055774154556483733,
                0.0004896503862335796,
                -0.05027439576521207,
                0.1289449974650233,
                -0.03795736603072916,
                -0.047842449082085146,
                -0.05656619736774406,
                0.008622244988567979,
                -0.049920876413686636,
                -0.02737128830178854,
                -0.056585591474837243,
                0.06476137714631769,
                -0.04455453913386392,
                -0.039290591430033404,
                -0.0575182466874628,
                0.03385228174001291,
                -0.053970617464953415,
                -0.011584343174697562,
                -0.05347525326591944,
                0.10205694578883935,
                -0.0414064706487374,
                -0.043958212271772365,
                -0.057261522554004136,
                0.02056957082991314,
                -0.0521177051070718,
                -0.019994556884619066,
                -0.055322967512766226,
                0.0825646152878622,
                -0.04739570810870441,
                -0.0337819186647883,
                -0.05730460413337702,
                0.048553947868285686,
                -0.05546079898125778,
                -0.0020700281512741757,
                -0.05099773197088528,
                0.12333488992733724,
                -0.039719307871121365,
                -0.045994775913467796,
                -0.05696682621616877,
                0.014434081434119068,
                -0.051061230871553294,
                -0.023807820666866875,
                -0.05602474745755132,
                0.07345776577617526,
                -0.04601397899702362,
                -0.03664511725697014,
                -0.05747233307440038,
                0.041020395791673145,
                -0.05476235196079828,
                -0.0069697384918364,
                -0.052318139773004965,
                0.11246655709765178,
                -0.04301842498347901,
                -0.04172585321256666,
                -0.05744661921898548,
                0.027038855902549553,
                -0.05308825084906047,
                -0.015922973119529674,
                -0.05447496558713342,
                0.09209368729906074,
                -0.04869848764326696,
                -0.030693281263514182,
                -0.057010583256586735,
                0.05646389014199182,
                -0.0560631008096091,
                0.00312412112804632,
                -0.049507934360670476,
                0.13467451534112032,
                -0.05948426790304157,
                -0.006865808912084982,
                -0.04660025546242198,
                0.07965503316077956,
                -0.05567061350490667,
                0.028782269948970002,
                -0.031024506951212286,
                0.1503166564869884,
                -0.058188863554666924,
                0.009308028138153403,
                -0.03973597576360385,
                0.11219459850268357,
                -0.05185113867272798,
                0.05204973171880611,
                -0.020180251885510352,
                0.19472124037083846,
                -0.05898654636281737,
                0.0008373363540099647,
                -0.04338318804483038,
                0.09526873271614864,
                -0.053930451493038635,
                0.03990902377525352,
                -0.025888851135113203,
                0.17168785699904415,
                -0.0570862787667118,
                0.01860301166689955,
                -0.03562777564952554,
                0.13051527800427656,
                -0.04941478320342715,
                0.06527409013485119,
                -0.013854915104518417,
                0.21951240521493295,
                -0.05927271997279381,
                -0.003106759492999832,
                -0.045043688651870605,
                0.08730290115144584,
                -0.05484193458585985,
                0.03422313214378848,
                -0.028525686317098828,
                0.1608003323229674,
                -0.057676119178523146,
                0.013848810381925595,
                -0.037741553347112954,
                0.12117529459548854,
                -0.050678835985101485,
                0.05852197211969952,
                -0.017097539293421796,
                0.2068909987196966,
                -0.05862543302620587,
                0.0049732682401855315,
                -0.041615201812228074,
                0.10356255524829663,
                -0.05293423128845346,
                0.04584835334568913,
                -0.02310883068509801,
                0.18299087679970863,
                -0.05641821882678432,
                0.023578231049858178,
                -0.03339028139622569,
                0.14022538556799777,
                -0.04805623794417329,
                0.07231530371212744,
                -0.010446399153101013,
                0.23259791558657963,
                -0.05938781042469369,
                -0.005008998560072061,
                -0.04583474969713186,
                0.08343984051670435,
                -0.0552665116632222,
                0.031472589993452094,
                -0.029792033187371347,
                0.15550873328800527,
                -0.05794206605751719,
                0.011552208916196578,
                -0.03875341929057381,
                0.116640705032281,
                -0.051276292596441585,
                0.055251435434470815,
                -0.018658518683453265,
                0.2007504341053565,
                -0.05881538469301429,
                0.002880890536757841,
                -0.042512860525783173,
                0.09937401049446243,
                -0.05344306224308253,
                0.0428464753819631,
                -0.02451707014336081,
                0.17728669421128,
                -0.05676210436078218,
                0.021062511250340317,
                -0.034524773576744744,
                0.13532338105959482,
                -0.04874750143721001,
                0.06875797595174035,
                -0.012171775264221776,
                0.2259963610283365,
                -0.05913897626285835,
                -0.001158261980843132,
                -0.04422664731938382,
                0.09124544951779942,
                -0.05439665962695036,
                0.03703492849138996,
                -0.027224838971754928,
                0.16619289040605797,
                -0.05739090145250909,
                0.01619876344605828,
                -0.036699851745275014,
                0.12579970282579592,
                -0.05005844501214613,
                0.061862475046596484,
                -0.015496585166083167,
                0.2131444722087362,
                -0.058416620487562125,
                0.0071153497846646084,
                -0.04068973630656391,
                0.10783565202079404,
                -0.05240368539293574,
                0.04891574034818908,
                -0.021663454801338855,
                0.18880189216885626,
                -0.056054450109195526,
                0.026151152566517816,
                -0.03222372232967494,
                0.1452226777533219,
                -0.04734061830740873,
                0.07594725727846144,
                -0.008678007631477172,
                0.23931865747488448,
                -0.059522031036655286,
                -0.017488814169024015,
                -0.051940017182324445,
                0.06378790613855859,
                -0.05836044739266479,
                0.01553104066776425,
                -0.039009507740945866,
                0.13184850384731658,
                -0.059552770815583335,
                -0.0026304708013058357,
                -0.04639910222873069,
                0.09502494054127228,
                -0.05586636345682779,
                0.03748885366666702,
                -0.029485318349194455,
                0.17495894754387598,
                -0.05968738885826259,
                -0.01044374127240842,
                -0.04938479855054465,
                0.07874985558109364,
                -0.057283067684657595,
                0.02600256502285196,
                -0.034534130732531414,
                0.1525720700649781,
                -0.05911319641798415,
                0.006007782249592934,
                -0.04295204546891036,
                0.11269584828174165,
                -0.05409240308987311,
                0.05005964273318742,
                -0.02381923671429438,
                0.19910477467532597,
                -0.05964202212569617,
                -0.01405887983056121,
                -0.05071441388180679,
                0.07110978039817019,
                -0.057863178853298565,
                0.02064418934172492,
                -0.036840885517180046,
                0.1420082239720846,
                -0.05937154091767936,
                0.0015818573629712734,
                -0.044735300551185506,
                0.10368062213418938,
                -0.05502528749281337,
                0.043634200662849516,
                -0.026732302281345648,
                0.186805888527709,
                -0.05965781221510379,
                -0.006636603910980309,
                -0.047947614387120564,
                0.08671816405308133,
                -0.0566181759764074,
                0.03161458118581461,
                -0.03208406769449867,
                0.16355169338283507,
                -0.0587766088517055,
                0.010654907887686344,
                -0.041044970734945806,
                0.12208146079522395,
                -0.053064962892130745,
                0.0567744027978918,
                -0.020740136509996746,
                0.21186806668910582,
                -0.059591342591773365,
                -0.015796580770521353,
                -0.05134000264056152,
                0.06740968727106836,
                -0.05812205523698671,
                0.018057479566274015,
                -0.037942147623133464,
                0.13687856846249527,
                -0.05947173256754717,
                -0.0005505389623815287,
                -0.0455818680798558,
                0.09930850797686544,
                -0.055457137724685655,
                0.04052708380826046,
                -0.028128450336284333,
                0.18082669577947608,
                -0.05968199630209368,
                -0.008564605008319513,
                -0.04867988277768321,
                0.08269234572835334,
                -0.05696134842212113,
                0.028776334297195404,
                -0.03332734413071114,
                0.1580091734624922,
                -0.058954761451958874,
                0.008303211818143596,
                -0.04201426635356585,
                0.11734167072479382,
                -0.053590682079836104,
                0.05338027367898902,
                -0.02230082291767073,
                0.20542758325030522,
                -0.05967404873239685,
                -0.012274880997575155,
                -0.050062825277262475,
                0.07488942059420346,
                -0.057583594974188336,
                0.023292202707070865,
                -0.03570509343290246,
                0.14723890781180846,
                -0.059252073779260235,
                0.003767649707013528,
                -0.043858872833229263,
                0.10814261926827531,
                -0.05457048831310638,
                0.04681133812408069,
                -0.025296145013503073,
                0.19289806440499072,
                -0.05961476510092007,
                -0.004658857038476182,
                -0.04718751715971318,
                0.09082859621996375,
                -0.05625327648975787,
                0.03451838899200948,
                -0.030803622843365266,
                0.16920111785207706,
                -0.05857856594015818,
                0.013063852580828598,
                -0.040043581213213546,
                0.12691660533840962,
                -0.0525148704883061,
                0.060243214573888405,
                -0.019136397730050683,
                0.21842781419849114,
                -0.036628230939625354,
                0.06967111726604572,
                0.003116232027726001,
                0.18293478427854518,
                -0.019381699917630876,
                0.11870266043481152,
                0.03210955148212069,
                0.26692696432219093,
                -0.028616019204116182,
                0.09253940566469404,
                0.0166908413330164,
                0.2221435222333976,
                -0.008847481528973938,
                0.14865310924500194,
                0.04965737208493868,
                0.3179845562722335,
                -0.032772050157647635,
                0.08072213128436967,
                0.009688813561658655,
                0.20188400698333045,
                -0.014283963696878076,
                0.13317169774175522,
                0.04059748626234224,
                0.291625752592745,
                -0.024155270808382492,
                0.10517961219234416,
                0.024153084869785853,
                0.2437959040714073,
                -0.0030544350146008317,
                0.16521651785854488,
                0.05933292960656563,
                0.34609890053198894,
                -0.03473744409153101,
                0.07510425724067443,
                0.006350638634647438,
                0.1922506434645785,
                -0.016874187876556986,
                0.12581485727000444,
                0.03628463105710959,
                0.27907470037869403,
                -0.026424165366806113,
                0.09875297394765475,
                0.02036238655935957,
                0.23279031747537735,
                -0.005996768940919253,
                0.15679508600499617,
                0.05441533286646651,
                0.33181618903050486,
                -0.03073174427122207,
                0.08653151982821869,
                0.013134299457679775,
                0.21184489304805684,
                -0.011609103620757712,
                0.1407815811722357,
                0.045053278637822054,
                0.30459175806868416,
                -0.02180822121655082,
                0.11182691027539175,
                0.028067288358757096,
                0.25517110968028467,
                -1.774654664034989e-05,
                0.17392661357336212,
                0.06441613329078191,
                0.36084513732657014,
                -0.03569215225187139,
                0.07236501136692819,
                0.004720677801991396,
                0.18755364406355893,
                -0.018138170584296343,
                0.12222869545073237,
                0.03418018400734334,
                0.27295113724502806,
                -0.02752966063582351,
                0.09562002252350604,
                0.018511983911839936,
                0.22742273975906438,
                -0.007433414981760002,
                0.15268973338154487,
                0.05201676326273611,
                0.32484475781309247,
                -0.0317612881674163,
                0.08360245456209037,
                0.011397913318243882,
                0.20682287565437688,
                -0.012957241285479464,
                0.1369444762247767,
                0.04280718480280948,
                0.2980561509492165,
                -0.02299159294090273,
                0.10847519648204225,
                0.026094468556307857,
                0.24943661986582438,
                -0.0015480638282785997,
                0.169534899280571,
                0.061853449489320984,
                0.35341329245353387,
                -0.03376408732163997,
                0.07788968346979067,
                0.008006538385429291,
                0.19702701578688167,
                -0.015589530296062911,
                0.1294621768365201,
                0.038423518852540285,
                0.28529908938984966,
                -0.025299413079406925,
                0.10193918970033919,
                0.022242574316003516,
                0.23824758986830677,
                -0.004537220727409172,
                0.1609702992399398,
                0.05685380829794302,
                0.33890038677182194,
                -0.029683348741754434,
                0.08951020625560699,
                0.014898446430047976,
                0.21695134305999383,
                -0.010239278614016724,
                0.14468409411836933,
                0.04733644457884743,
                0.31123406020815864,
                -0.020604984727323493,
                0.11523573392593768,
                0.03007211990790784,
                0.26100075859110566,
                0.0015368900997027584,
                0.1783928434518479,
                0.06702175900310825,
                0.3683960225887994,
                -0.05830152047360491,
                0.003377978733578309,
                -0.04091968632065226,
                0.09458637447153967,
                -0.05224344617014585,
                0.041350608883928504,
                -0.02307418680454343,
                0.16765681855626072,
                -0.05588456845426593,
                0.02070974549866389,
                -0.03292303522513368,
                0.12832416243884834,
                -0.04729885362818614,
                0.06579430499983932,
                -0.011086623007118998,
                0.21328529699294865,
                -0.057243133111321336,
                0.011659059931648369,
                -0.03713700167414624,
                0.1107976959581498,
                -0.04994106354481661,
                0.05306422072979442,
                -0.017367675320025235,
                0.18963824673526755,
                -0.05422077067655701,
                0.030586895775182373,
                -0.028246828890394916,
                0.14724853651153116,
                -0.04429880946570395,
                0.07961067316328976,
                -0.004187120653936369,
                0.2386936830558686,
                -0.057809659441057974,
                0.007425746081914067,
                -0.03908044581837731,
                0.10253268827708627,
                -0.05113373431010037,
                0.047084592494799925,
                -0.020290130815955716,
                0.1784451855179741,
                -0.0550912661704766,
                0.025541332301084504,
                -0.03064477339954721,
                0.13760631188795727,
                -0.04584481273820177,
                0.0725622139021963,
                -0.007717048887171206,
                0.2257632144649773,
                -0.05660161304823815,
                0.016084724283272723,
                -0.03508578766963492,
                0.11939143929738893,
                -0.04866348654705396,
                0.05929791648048737,
                -0.014301635207344126,
                0.2012476628818833,
                -0.05327194409080815,
                0.035854049366990756,
                -0.02572482603381087,
                0.15726168753777,
                -0.04265808703791008,
                0.08694891512023675,
                -0.0004908437524648594,
                0.25208917288490623,
                -0.058064910496961865,
                0.005379086440360485,
                -0.040012876540855544,
                0.0985203143465479,
                -0.05169884630006689,
                0.04418741363733065,
                -0.021699142584071004,
                0.17300113614253695,
                -0.055497503250772885,
                0.023099259751550007,
                -0.03179859907353609,
                0.1329208980636153,
                -0.04658316408745088,
                0.06914375977250409,
                -0.00942151345636325,
                0.2194684583168187,
                -0.05693177572844948,
                0.013847415139951955,
                -0.03612509669781242,
                0.1150528401543396,
                -0.04931301793768924,
                0.05614877583021358,
                -0.015852935314858048,
                0.19539017374555936,
                -0.05375622779250886,
                0.033192290061254084,
                -0.02700161613926512,
                0.15220806011781354,
                -0.04349046834925952,
                0.0832429863789701,
                -0.002360158351156165,
                0.2453325130284221,
                -0.05753574522275302,
                0.009518789186920649,
                -0.03812196734730646,
                0.10662473251460729,
                -0.050547885755720605,
                0.05004317934640342,
                -0.018846522332901343,
                0.18399040529540903,
                -0.05466573394954418,
                0.028036895856641694,
                -0.02946103021656343,
                0.1423817413440183,
                -0.04508347395522092,
                0.07605080245967619,
                -0.005972498951554068,
                0.23217110523095477,
                -0.056252572397201016,
                0.0183718694806385,
                -0.034018597193356384,
                0.1238147802290967,
                -0.0479921943380388,
                0.0625127271610295,
                -0.012713095239840771,
                0.2072122033474225,
                -0.05276774571727549,
                0.038573156992113215,
                -0.024415879997082432,
                0.1624108067938934,
                -0.04180128931609125,
                0.09072964504819564,
                0.0014216040804727753,
                0.25896525300919737,
                -0.018895711374868087,
                0.10704534230680743,
                0.030647427014514693,
                0.23023496565236204,
                0.0032470237570956326,
                0.1610270871292699,
                0.06455430643895685,
                0.3192332748569226,
                -0.008435879643642707,
                0.13238583874508955,
                0.04667712888158731,
                0.2719426700364839,
                0.016231393060528725,
                0.19346191780993824,
                0.08456457197850985,
                0.3728068285229725,
                -0.013815803442225154,
                0.11933177481576863,
                0.03844717064115238,
                0.25043268470160945,
                0.009569601917546968,
                0.17673747917177676,
                0.07427292882886283,
                0.3451889064448101,
                -0.0027509973732237868,
                0.14626428121534366,
                0.05536814659905493,
                0.2948475710348942,
                0.023250290920606948,
                0.2112701012929972,
                0.0954730318798009,
                0.4021826415979866,
                -0.016393076954786395,
                0.11309602485291313,
                0.03449532332919508,
                0.24017483100153603,
                0.0063669030970494546,
                0.16875975699077764,
                0.06934460081257063,
                0.3320091528953764,
                -0.005631993706147263,
                0.1392183394916975,
                0.05096295102587404,
                0.28321546401576175,
                0.019694958816654506,
                0.20222605882941133,
                0.08993883610983991,
                0.38726889717834606,
                -0.011163576553525381,
                0.12575938204336795,
                0.042506521016212474,
                0.26101855438274363,
                0.01285705339333074,
                0.18496866241134288,
                0.0793444614447441,
                0.35878418202646417,
                0.00020823308432846394,
                0.1535312632095601,
                0.05989707711249805,
                0.30684982816958556,
                0.026900131992670398,
                0.22060326338531222,
                0.1011731396908445,
                0.4175605177486826,
                -0.017653712313400127,
                0.1100479666135243,
                0.032558595396567774,
                0.23516576860522984,
                0.004796723910684375,
                0.16486330816153802,
                0.06693251470049377,
                0.3255714494401141,
                -0.00704351314599004,
                0.13577587604736827,
                0.048805382964837656,
                0.2775348223086311,
                0.01795186865413945,
                0.1978095688709581,
                0.0872320784597573,
                0.3799821739733085,
                -0.012499086717362887,
                0.12252116400123404,
                0.04046317803693885,
                0.2556839829129172,
                0.01120260484536503,
                0.18082085470830414,
                0.07679046347230645,
                0.351933868169291,
                -0.0012812395478429236,
                0.14986965931804277,
                0.057616864489041665,
                0.3008017456158228,
                0.025063218517115383,
                0.21589995834428286,
                0.09830196510029234,
                0.4098127768042881,
                -0.01511378498494943,
                0.11619034678459243,
                0.0364580358492449,
                0.24526338732366998,
                0.007957783991653826,
                0.17271746573799332,
                0.07179119217341987,
                0.3385478220664882,
                -0.004201199829344088,
                0.1427141600183898,
                0.05315035928223701,
                0.28898593082095964,
                0.021460987404229623,
                0.2067125209869969,
                0.09268557350768314,
                0.3946685361625543,
                -0.009809202046288813,
                0.12904730929213568,
                0.044577675206168295,
                0.266437684183824,
                0.014533220827253387,
                0.189181984992241,
                0.08193560073475638,
                0.36574133545045534,
                0.0017175926084069563,
                0.15725007442055425,
                0.062209361277311796,
                0.3129932049496132,
                0.02876140579377392,
                0.22538120030812853,
                0.10408733482072972,
                0.425427453045988,
                -0.02912985384369232,
                0.08622592365548619,
                0.015111260817431981,
                0.20417143254332373,
                -0.009639204064953846,
                0.13757944607936765,
                0.046372894685345896,
                0.29056872586850396,
                -0.019996174046333984,
                0.11025092671706697,
                0.0298175941889079,
                0.24457661035026637,
                0.0020197685636691174,
                0.1687046303230186,
                0.06506309282867168,
                0.3428481457373706,
                -0.02471302930291916,
                0.09785428382112168,
                0.022249153656315433,
                0.22371740353398697,
                -0.003979411224353548,
                0.1526346096908803,
                0.05543123727967298,
                0.31587672623029533,
                -0.014974305689285228,
                0.12347263924265105,
                0.03784746705719894,
                0.2668317421488267,
                0.008376268812434974,
                0.18585924600377837,
                0.07531229710300089,
                0.3715786246750625,
                -0.026958760489607353,
                0.09194749110235699,
                0.01862819258941856,
                0.21378530515687952,
                -0.006850736644364843,
                0.14498440290842987,
                0.05083299012297573,
                0.30302064969820725,
                -0.017523804380274188,
                0.11675497361908017,
                0.0337727948151008,
                0.2555243910786042,
                0.005152106310010693,
                0.17714187867970557,
                0.07010766016363781,
                0.35698739878368996,
                -0.022392341027624232,
                0.1039530966321171,
                0.02597770105629326,
                0.23397776027715236,
                -0.0010232896578330063,
                0.1605384801381404,
                0.060172812084691586,
                0.32914860695835974,
                -0.012346549271821945,
                0.13041152785365848,
                0.04204597739891477,
                0.2785095056089835,
                0.011695003663570708,
                0.19486595545220173,
                0.0806829890215566,
                0.3866342843506196,
                -0.028053624846966614,
                0.08906397099146456,
                0.01685693745170552,
                0.20893920976257255,
                -0.008255214375135829,
                0.14125178620194764,
                0.04858598903011436,
                0.2967448890091639,
                -0.018769567702315294,
                0.11347671518975504,
                0.031780525550506644,
                0.25000622414496104,
                0.00357462316212723,
                0.17288880817300675,
                0.06756573397678825,
                0.34986204655885195,
                -0.023562082659589277,
                0.10087925513407764,
                0.024099748845041978,
                0.2288059146674147,
                -0.0025120789983414907,
                0.15655430319470423,
                0.057783777325822246,
                0.3224599549467388,
                -0.013670288144951057,
                0.12691394750336607,
                0.0399309616556311,
                0.2726236367974197,
                0.01002363506513298,
                0.19032584861039428,
                0.07797650419921318,
                0.37904761357638067,
                -0.025845239835993773,
                0.0948773143693265,
                0.020425451888962543,
                0.2187109538301781,
                -0.00542554757563492,
                0.14877832894136325,
                0.05311452598370777,
                0.30939744540094755,
                -0.016258761963897413,
                0.1200866335668987,
                0.03579492882177473,
                0.2611324474358219,
                0.006752542485018169,
                0.18146497576635381,
                0.07268960058968987,
                0.3642257410578931,
                -0.02120373288105689,
                0.10707668928674856,
                0.027883486538807095,
                0.23923422605748182,
                0.00048723068452423033,
                0.16458822385408564,
                0.06259902016640499,
                0.33594417032081786,
                -0.011002916363238283,
                0.13396636244573,
                0.044193091716480705,
                0.2844907354584922,
                0.013390749675793148,
                0.19948075104278737,
                0.08343253136084675,
                0.3943402262341356,
                0.055605627916691214,
                0.23522143878564572,
                0.13200763085917652,
                0.38514638093685044,
                0.09118081669572217,
                0.30258326485884895,
                0.17933017820992267,
                0.4874703837617897,
                0.07278214804916032,
                0.26725478754635795,
                0.1547468033267865,
                0.4335209188878963,
                0.11087944055972071,
                0.3416991135438691,
                0.20604278027063447,
                0.5476942364379844,
                0.0640439587237688,
                0.2508549636594714,
                0.1431624822248139,
                0.40867847673812857,
                0.10086074769272824,
                0.32163497898964083,
                0.19240048818159897,
                0.5167522717057804,
                0.08182506505753327,
                0.2844775841256459,
                0.1667913655870982,
                0.4597562833228325,
                0.1212547155900356,
                0.3628452933295458,
                0.2203007770277024,
                0.5803918050237598,
                0.059787488852366476,
                0.24294582947501908,
                0.137533169562963,
                0.3967536700641065,
                0.09597942425294462,
                0.3119867944459515,
                0.1857964416146418,
                0.5019096621009753,
                0.07726508479431633,
                0.2757596456686276,
                0.1607095046224091,
                0.4464591983478107,
                0.11602126506026327,
                0.35213246975641094,
                0.21309195643038104,
                0.5638174733317249,
                0.06837534263440322,
                0.2589556220068428,
                0.1488991117304024,
                0.42093081940892957,
                0.10582671100966237,
                0.331536218048845,
                0.19914747968754923,
                0.5320098499172917,
                0.08646320338785761,
                0.2934161930307975,
                0.17299673855206968,
                0.473423001708515,
                0.12658252558916744,
                0.3738467932677431,
                0.2276752132848962,
                0.5974296783007191,
                0.05768724343179035,
                0.23906095708044584,
                0.13475764199192428,
                0.39091095405551596,
                0.09356989333393304,
                0.307254964850517,
                0.18254640172330808,
                0.4946403259522571,
                0.07501404773655478,
                0.27148104804299295,
                0.15771352313192308,
                0.4399458767671948,
                0.11343906249160485,
                0.3468814258881016,
                0.20954777809246322,
                0.5557002380544928,
                0.06620025945047121,
                0.25488092061631107,
                0.14601715303704474,
                0.41476307201606527,
                0.10333302121214791,
                0.32655343382762964,
                0.19575578530141077,
                0.5243284544971363,
                0.08413428690024997,
                0.28891882248537776,
                0.16987833314410591,
                0.4665427536911288,
                0.12390664691118196,
                0.36830937528549107,
                0.22396691209268033,
                0.5888520131352168,
                0.06190638334497755,
                0.24687688458146562,
                0.14033463746162048,
                0.40267576229749097,
                0.09840963098069894,
                0.3167797846186348,
                0.18908092413463776,
                0.5092798279042019,
                0.07953537956969668,
                0.28009151021605067,
                0.1637352728682643,
                0.45306221814530606,
                0.11862637097433211,
                0.35745337730296883,
                0.21667604271579644,
                0.5720474791466366,
                0.07056927803246915,
                0.26307994703351373,
                0.151808832784562,
                0.4271830028419383,
                0.10834208920356078,
                0.3365844132171187,
                0.20257624818107403,
                0.5397979442528439,
                0.0888119854579537,
                0.2979706761450454,
                0.17614715747135665,
                0.4803984124809028,
                0.1292827249229762,
                0.37945873002082514,
                0.2314264586261049,
                0.606126387987558,
                -0.020726019772226052,
                -0.050704249218523297,
                -0.04916899886519912,
                -0.005338083221672574,
                -0.03757941508227145,
                -0.03565149388628841,
                -0.05423886852191868,
                0.044807374313683146,
                -0.029764577777368004,
                -0.04483211931947857,
                -0.05262976969345055,
                0.016937549894342846,
                -0.044091250634064626,
                -0.02266865574867206,
                -0.053709796239027045,
                0.07897232526533356,
                -0.025395332410376746,
                -0.048152912501481134,
                -0.051114960698678845,
                0.005142244261376526,
                -0.0410051867569658,
                -0.029668232342530652,
                -0.054261533577721024,
                0.061057126907303465,
                -0.033828702414841164,
                -0.04068501169948145,
                -0.05368247013381829,
                0.030130593907598573,
                -0.046819602126540426,
                -0.0145829550030095,
                -0.052539749661472096,
                0.09864868074681425,
                -0.023097995134914878,
                -0.049521335770673545,
                -0.05019406563041221,
                -0.0002572457103553245,
                -0.039333765583494766,
                -0.03278266590268151,
                -0.05431938364722483,
                0.05272992537401632,
                -0.03183522250430763,
                -0.04286553491340994,
                -0.05321594469103184,
                0.023354055613170353,
                -0.04550139219093544,
                -0.01876606043953865,
                -0.05320493225874591,
                0.08858424992983642,
                -0.027617703458395183,
                -0.04659217570639507,
                -0.05192811814761462,
                0.010870428180241325,
                -0.04259173157138423,
                -0.02629977061020089,
                -0.05406013349993932,
                0.06980063929134667,
                -0.035743879923210445,
                -0.03828293652760049,
                -0.054024970653884334,
                0.03727801570988761,
                -0.048043123964037336,
                -0.01011010739790816,
                -0.05170825418819608,
                0.10917808753961068,
                -0.021921324610451837,
                -0.050135563895473474,
                -0.049694338744516765,
                -0.002836876335387496,
                -0.0384668427141377,
                -0.03424726208406754,
                -0.054296105587823065,
                0.04871878940360127,
                -0.030809482548520402,
                -0.04387510155028758,
                -0.05293754783083688,
                0.020101468960331104,
                -0.044807648490097406,
                -0.020751852762197934,
                -0.05347703733956416,
                0.08372249578774311,
                -0.026515917126321606,
                -0.047397016430950865,
                -0.05153523740045369,
                0.007964613979755765,
                -0.04180919830325464,
                -0.028016289314856932,
                -0.054179109245448324,
                0.06537610756462622,
                -0.034796157973148,
                -0.03951215183490752,
                -0.05386950487442826,
                0.033657258282252626,
                -0.04744337924209679,
                -0.012383333878845498,
                -0.05214517358026405,
                0.10385447487753467,
                -0.02425600929946775,
                -0.04886073335243462,
                -0.05066775275396789,
                0.0024020448678838424,
                -0.040179959282810755,
                -0.03125667148905626,
                -0.05430807356982099,
                0.056842220800772864,
                -0.032841674417890286,
                -0.04180248673646406,
                -0.05346443232442492,
                0.026696647248013093,
                -0.04617215614835394,
                -0.016710143746927114,
                -0.052892750685576265,
                0.09355912744815202,
                -0.028700618770103964,
                -0.04573750824577822,
                -0.05229312558089725,
                0.013860973667639376,
                -0.04335251156347624,
                -0.02451759178514174,
                -0.0539039266205445,
                0.07433221125365612,
                -0.036671694447842726,
                -0.03699638251483237,
                -0.054148288932229005,
                0.04099425417600262,
                -0.04861846011379104,
                -0.007762089936083886,
                -0.05122821058392558,
                0.11462110907992708,
                -0.05862224393509024,
                -0.024331364970740118,
                -0.05490200201414631,
                0.05302538617355297,
                -0.059390485075535245,
                0.006734718755883288,
                -0.043908138230845925,
                0.11910478274161529,
                -0.059617791819709755,
                -0.010448514799272631,
                -0.05032866156691249,
                0.08327385640090335,
                -0.057861948409571415,
                0.027711147105131766,
                -0.03535483865424718,
                0.1612181946647968,
                -0.059269999864041516,
                -0.01777371070867171,
                -0.05283040368100686,
                0.06749354250102255,
                -0.058795792552443736,
                0.016715959254241172,
                -0.03991795867094904,
                0.13933040254972365,
                -0.05966067956372118,
                -0.0022990324894932497,
                -0.047365933176151814,
                0.10044897488358237,
                -0.05657106127987551,
                0.039789978190273766,
                -0.030174984556360133,
                0.18486375722589196,
                -0.05898343510719376,
                -0.021145060474422522,
                -0.05391816964007979,
                0.06010048360301986,
                -0.05913454103188772,
                0.011602825102737104,
                -0.041982055382340025,
                0.12901566951512358,
                -0.059677783958936796,
                -0.0064804824673619825,
                -0.04890697478796328,
                0.09168177315537784,
                -0.05726237990438241,
                0.033610624774947924,
                -0.03284486694284155,
                0.1728151532800346,
                -0.05948162421791476,
                -0.01421052612143459,
                -0.051635152367041505,
                0.07521459020178213,
                -0.05837230675840067,
                0.022082529653531975,
                -0.03771067743570286,
                0.15006062807071777,
                -0.059565355200802646,
                0.0021034341319284165,
                -0.045701175516050484,
                0.10958629836527908,
                -0.055785250211706515,
                0.04625842523978738,
                -0.0273392113882919,
                0.19737646217321436,
                -0.05881215610355827,
                -0.022760926938998817,
                -0.05442286344436253,
                0.056523808508366497,
                -0.05927275070800269,
                0.009138661076683402,
                -0.04296203327788469,
                0.12401046533007296,
                -0.059657362646291574,
                -0.008490708806454006,
                -0.04963247286032304,
                0.08743357355041792,
                -0.05757346943136184,
                0.030626469685151935,
                -0.03411947578101343,
                0.16696098888077457,
                -0.05938520712032399,
                -0.016016530019483825,
                -0.05224644358374496,
                0.07131243313792708,
                -0.05859477052941398,
                0.01936703149047561,
                -0.03883254718986002,
                0.14464284295559823,
                -0.05962287299754523,
                -0.00012590910131782178,
                -0.046549299332842964,
                0.10497068620176744,
                -0.056190146601261946,
                0.042987480987973066,
                -0.028778215981422946,
                0.19106131069020055,
                -0.05913606066891217,
                -0.019482935854384598,
                -0.05338749560144201,
                0.06375664590291025,
                -0.058975633408720536,
                0.014128242918056838,
                -0.040967577182970775,
                0.13412183210355091,
                -0.059678934299868334,
                -0.004416904878677109,
                -0.048151641169284706,
                0.0960197908418737,
                -0.056928356009470334,
                0.03666474563922462,
                -0.03153028359779734,
                0.17878222585005327,
                -0.05955918028938268,
                -0.01235481870155073,
                -0.05099605444069342,
                0.0792012987283303,
                -0.05812812801058769,
                0.02486353641776902,
                -0.036551671456890006,
                0.15558524529221213,
                -0.059487954125369634,
                0.004389978703911322,
                -0.0448209849548785,
                0.11429719759055376,
                -0.055355997701700056,
                0.04960399480076807,
                -0.025857191644686535,
                0.2038108002527558,
                -0.056110914145582176,
                -0.0324052795022484,
                -0.05769266988167659,
                0.03970734269362943,
                -0.05953122506852249,
                -0.003967422884434302,
                -0.049344046224654214,
                0.1031857085316023,
                -0.05843260554492368,
                -0.019837924428816413,
                -0.05444269458113433,
                0.06865327955222605,
                -0.05932807919334363,
                0.01569935477134122,
                -0.04211081323049717,
                0.14400497733090586,
                -0.057421749098385676,
                -0.026505698285728043,
                -0.05628292050339364,
                0.053523747725172495,
                -0.05959931476482446,
                0.005358587213147034,
                -0.04601414589499851,
                0.122763692608712,
                -0.05913850346806785,
                -0.012345173399709076,
                -0.052141109840432465,
                0.0851786249639328,
                -0.05869958720828264,
                0.027124615450621777,
                -0.03759021482801471,
                0.16700520061599572,
                -0.056803644160062484,
                -0.029548090416665274,
                -0.05703980109424376,
                0.04645644580841773,
                -0.05960669135439985,
                0.0005729694846934472,
                -0.047748161989851975,
                0.11277263888351885,
                -0.05882411204885648,
                -0.0161983465698909,
                -0.05335162868110873,
                0.0767361811598105,
                -0.05905973742498882,
                0.021271938516200302,
                -0.03993053831006541,
                0.15527911780735965,
                -0.05796491000048883,
                -0.023271308585039403,
                -0.0554184713668956,
                0.06091928075045847,
                -0.059507157448649824,
                0.010397843716407503,
                -0.044136822306779934,
                0.13317052090482948,
                -0.05937465139695327,
                -0.008270800948331769,
                -0.05080677187133336,
                0.09399145271669945,
                -0.05824488124653626,
                0.03326660843562889,
                -0.03508385770548924,
                0.179195686400004,
                -0.05646659525707968,
                -0.030999418587092802,
                -0.05737902257173965,
                0.04304273851519639,
                -0.059579200359937724,
                -0.0017273619360602143,
                -0.04856305501741905,
                0.10792937858101234,
                -0.058637935561871586,
                -0.01804436756988112,
                -0.05391182826670878,
                0.07265045728621568,
                -0.05920522056390864,
                0.018451203519147724,
                -0.041040315677796806,
                0.14958632566306784,
                -0.05770272539371032,
                -0.02491293569411907,
                -0.05586437220448167,
                0.057179850425347206,
                -0.05956396271800019,
                0.007845976874717211,
                -0.04509372891938367,
                0.1279143988308106,
                -0.05926643629889337,
                -0.010336120237032688,
                -0.051489699038413196,
                0.08953805533248718,
                -0.0584842333063241,
                0.030158863103246693,
                -0.03635817244398142,
                0.17304160644113753,
                -0.057122039955902655,
                -0.02805046464679577,
                -0.05667457982779026,
                0.049949699640234026,
                -0.05961347479189543,
                0.002934604083381927,
                -0.04689873915916884,
                0.1177169268674477,
                -0.058991012926557666,
                -0.014298929903983345,
                -0.05276156902224268,
                0.08091178742064252,
                -0.05889130533587757,
                0.02416269364874679,
                -0.03878075196382592,
                0.16108489237280008,
                -0.05820823142974701,
                -0.021579936023972755,
                -0.05494474177889055,
                0.06474332435779367,
                -0.05942862510641294,
                0.013015271034119417,
                -0.04314274748405696,
                0.13853354684944155,
                -0.05946297609258099,
                -0.006148233418397477,
                -0.05009175094675529,
                0.09854020395454882,
                -0.05798115599786689,
                0.03644903592436285,
                -0.033766490858714894,
                0.1854690296919609,
                -0.04867750683145158,
                0.03929580394399758,
                -0.018096413095605828,
                0.1433972613561845,
                -0.036012763206457556,
                0.08374620013995554,
                0.006315499782481119,
                0.22280843281333015,
                -0.042956216383773276,
                0.05987350641906065,
                -0.006812527091725353,
                0.1803154901566796,
                -0.027769359536346513,
                0.1114061089872493,
                0.021572673348876054,
                0.2715755312654059,
                -0.04596679382747431,
                0.04920152165448099,
                -0.012669198452444502,
                0.16120122803176293,
                -0.03206044053205337,
                0.09706996506641274,
                0.013658106751434078,
                0.24636197382988104,
                -0.03964090770320474,
                0.07136842954955644,
                -0.0004956299589665558,
                0.2008226213000938,
                -0.023121702293524053,
                0.12682425434295477,
                0.030102919757957872,
                0.29854462981773294,
                -0.04735945568547272,
                0.0441562948986001,
                -0.015434691273680683,
                0.15214049213501254,
                -0.0340779595149208,
                0.09028576015555112,
                0.009917914348977465,
                0.2343835450869822,
                -0.041337084098784845,
                0.0655144322557147,
                -0.0037136562886219424,
                0.19038965977713626,
                -0.025491343042053874,
                0.11897545360734678,
                0.025757977589649088,
                0.284834541132489,
                -0.04449921644989118,
                0.05443826458353968,
                -0.009796392042165212,
                0.1705894872005009,
                -0.02995828255920657,
                0.1041072141355225,
                0.01754123847066638,
                0.25875535608717687,
                -0.037866572943926376,
                0.07744308811802819,
                0.0028459039325146917,
                0.21162520232516044,
                -0.02065770414656655,
                0.13496171990259756,
                0.03461347078015976,
                0.3127182438118294,
                -0.048027796451733475,
                0.04170337331464112,
                -0.0167783100524405,
                0.1477298068357459,
                -0.03505558844568169,
                0.08698591658504012,
                0.008099799524043608,
                0.2285462938020806,
                -0.04215621901902549,
                0.06266780186408748,
                -0.005277722033529673,
                0.1853083947993294,
                -0.02664164140420956,
                0.1151564169224006,
                0.023645736006476417,
                0.27814942134760384,
                -0.04524239653384523,
                0.05179552191937777,
                -0.011246438762535125,
                0.16585378316776225,
                -0.0310200695552845,
                0.10055642622250859,
                0.015581474699160654,
                0.2525060605491655,
                -0.03876358766458866,
                0.0743776939061318,
                0.001159418634599603,
                0.20617702474514613,
                -0.02190167662110224,
                0.13085632057074706,
                0.03233711307468328,
                0.30557271034076455,
                -0.046672465403103776,
                0.04665539727098209,
                -0.014065132906989773,
                0.15663055055186295,
                -0.03307965492322402,
                0.09364676178798229,
                0.011770470471004685,
                0.24032162232729895,
                -0.040498691312792996,
                0.06841432734974207,
                -0.0021198048239728907,
                0.19556061956867168,
                -0.02431814177823549,
                0.12286435115927427,
                0.027910125492809187,
                0.2916324274600178,
                -0.0437371838557001,
                0.057130628812420516,
                -0.008318583848651844,
                0.17540962401820268,
                -0.028874807462521915,
                0.10772341033229417,
                0.01953807487001983,
                0.26511134669352493,
                -0.03694969264061326,
                0.08056559253139164,
                0.004564401558154441,
                0.21716853910905345,
                -0.019389411607926677,
                0.13914163504603685,
                0.03693277085914876,
                0.31998281766122977,
                -0.05959380549556675,
                -0.0162485329865368,
                -0.05137785579111063,
                0.06578882026622221,
                -0.05811838134335997,
                0.017138928602804623,
                -0.03811620502253602,
                0.13427265475926778,
                -0.05946810742762352,
                -0.0012092642255762136,
                -0.045673050369054204,
                0.09723339729014668,
                -0.05546533103775474,
                0.039289777821035425,
                -0.028420805487830797,
                0.1776075430547183,
                -0.05968102756467581,
                -0.009113679458186688,
                -0.048741074543011874,
                0.08085355950750141,
                -0.056961751344893306,
                0.027706139279182397,
                -0.033555755284044135,
                0.1551073120410263,
                -0.05894998973203291,
                0.007521572578347535,
                -0.04214282565952304,
                0.11501109573854934,
