{
    "29": {
        "hyperparams": {
            "stocks": [
                "CRM",
                "INTC"
            ],
            "start": "2015-01-01",
            "end": "2025-01-01",
            "risk_aversion": 0.1,
            "n_qubits": 8,
            "budget": 716,
            "log_encoding": true,
            "layers": 8,
            "prices_now": {
                "CRM": 334.3299865722656,
                "INTC": 20.049999237060547
            },
            "assets_to_qubits": {
                "CRM": [
                    0,
                    1
                ],
                "INTC": [
                    2,
                    3,
                    4,
                    5,
                    6,
                    7
                ]
            }
        },
        "continuous_variables_solution": {
            "weights": {
                "CRM": 1.0,
                "INTC": 0.0
            },
            "allocation": {
                "CRM": 2,
                "INTC": 1
            },
            "value": 0.30681489349361096,
            "left_overs": 27.290026780553376
        },
        "exact_solution": {
            "smallest_eigenvalues": [
                -0.25455769091805286
            ],
            "smallest_bitstrings": [
                "10110010"
            ],
            "first_excited_energy": -0.2545379728547077,
            "optimized_portfolio": [
                {
                    "CRM": 1,
                    "INTC": 19
                }
            ],
            "second_optimized_portfolio": [
                {
                    "CRM": 0,
                    "INTC": 36
                }
            ],
            "spectrum": [
                7.632783294297951e-17,
                -0.2518070151598866,
                -0.17700558615801412,
                -0.22440428700561751,
                -0.10127831272352458,
                -0.25088117072726973,
                -0.2271818203034681,
                -0.17237636399492984,
                -0.05383303627289173,
                -0.2545379728547077,
                -0.2052875831418706,
                -0.20158420541140312,
                -0.14233582935189867,
                -0.2408366087775731,
                -0.24268829764280678,
                -0.1367807627561977,
                -0.027714988114228144,
                -0.2539709639850794,
                -0.19194505462772463,
                -0.21379271618629256,
                -0.12260554101549401,
                -0.24665735973020372,
                -0.23573352895091979,
                -0.15537703335334604,
                -0.07835414447599057,
                -0.25350804176877106,
                -0.2170331717004517,
                -0.18777875468094882,
                -0.1604691777327387,
                -0.2334189178693777,
                -0.24804612637912907,
                -0.11658755220348452,
                -0.014057111551559677,
                -0.2530886070669286,
                -0.18467493788731507,
                -0.21929811909040067,
                -0.11214154436395499,
                -0.24896888272318238,
                -0.23165729212163963,
                -0.1640763161685836,
                -0.06629320786888673,
                -0.2542226248061849,
                -0.21135999491560678,
                -0.19488109754062152,
                -0.15160212103676432,
                -0.23732738081792096,
                -0.24556682950541356,
                -0.12688377497428668,
                -0.040973629688005574,
                -0.25445408591433905,
                -0.1988159363792433,
                -0.20788807829329345,
                -0.1326703026781421,
                -0.24394660174833402,
                -0.239410530791309,
                -0.14627851554921753,
                -0.09001584609420318,
                -0.25239422374246595,
                -0.2223071134964055,
                -0.18027717683238484,
                -0.16893699943982202,
                -0.2291112199319432,
                -0.2501261882639535,
                -0.10589209444379125,
                -0.2534467197436837,
                -0.0792015167491095,
                -0.21742619682446748,
                0.16122732048239002,
                -0.24821197792859326,
                0.028237382222122583,
                -0.1610893764313062,
                0.31976829803169293,
                -0.2540232287472679,
                -0.02867594717462286,
                -0.19245166653901621,
                0.23730392934591213,
                -0.23601296728765966,
                0.09153847144112684,
                -0.12333932650133728,
                0.40862042653973274,
                -0.25453344422325813,
                -0.05473720193964855,
                -0.20573740165952417,
                0.19846715493636877,
                -0.24291094258590887,
                0.05908945685384242,
                -0.14301282144410404,
                0.36339589230793046,
                -0.25191607331571286,
                -0.0010177524540325097,
                -0.17756899146294353,
                0.2777376437110202,
                -0.22751805203384592,
                0.1255844259839761,
                -0.1020688916030057,
                0.4554419007270997,
                -0.2541896994779165,
                -0.06716897683882461,
                -0.2117814167364415,
                0.17964762021493377,
                -0.24576107775169645,
                0.04346380204353694,
                -0.1522507164321507,
                0.3413824776753661,
                -0.253169268525936,
                -0.015046467308773286,
                -0.18520994649542546,
                0.2573211690340206,
                -0.23196512715519832,
                0.10836183121810597,
                -0.11290372654661707,
                0.4318315461389706,
                -0.25447795397970857,
                -0.04190619205158129,
                -0.1992941515937158,
                0.21768592464669487,
                -0.2396615724312298,
                0.07511434665303907,
                -0.1333756914671662,
                0.3858085419293859,
                -0.25026364311659866,
                0.013410197389599442,
                -0.1695288014415704,
                0.29855335337691097,
                -0.22267174192360226,
                0.14320625573873752,
                -0.09083482167050319,
                0.4794514903041199,
                -0.18222600680341514,
                -0.2210069128860714,
                -0.2527185384228141,
                -0.08709113019318701,
                -0.2302477922576324,
                -0.16682454118414689,
                -0.24963824529896042,
                0.018193320086808247,
                -0.20943077944165325,
                -0.1971096069462387,
                -0.2543722717720167,
                -0.03764278496431884,
                -0.24467704525135273,
                -0.13015171559979635,
                -0.23851645900364535,
                0.0804171849601942,
                -0.1966268631003166,
                -0.20985672989393736,
                -0.2543438750751978,
                -0.06316542755653531,
                -0.23826088873227494,
                -0.14928659836975403,
                -0.24487582212908524,
                0.048506782545718885,
                -0.2206377558274251,
                -0.1827655440429752,
                -0.25280372851327093,
                -0.010523202416537682,
                -0.24949626181486587,
                -0.10941989287427406,
                -0.23056015592264076,
                0.11392452733023423,
                -0.18962605244631134,
                -0.21563143888445,
                -0.25373082424345156,
                -0.07532789636930673,
                -0.23445395798939908,
                -0.15825518727139604,
                -0.24745665120846846,
                0.03315043382181797,
                -0.2152338851289847,
                -0.19013719298905246,
                -0.2537876176370894,
                -0.024282611184873827,
                -0.24728627102755477,
                -0.1199854217314808,
                -0.23473792495758863,
                0.09697123865076862,
                -0.20322843876543037,
                -0.20368278591453357,
                -0.25455769091805286,
                -0.050603723754872675,
                -0.2416685844862593,
                -0.1399187744792208,
                -0.24189575806081096,
                0.06426236625851095,
                -0.2256423915369742,
                -0.17499466010800666,
                -0.2514206044005613,
                0.003635441340689681,
                -0.2513070176132856,
                -0.09845512902817616,
                -0.22598315189880172,
                0.13127705099859102,
                -0.21366213882080545,
                0.17360917325099914,
                -0.07112856136297398,
                0.5205510650211141,
                -0.15517086973640734,
                0.3343045994915388,
                0.03846478629949491,
                0.7323485698397246,
                -0.18761038418973588,
                0.2507630064601396,
                -0.019525767442868998,
                0.6232559375192899,
                -0.11634359546082007,
                0.42423395234519684,
                0.10284309986411774,
                0.8478289619824181,
                -0.201434731483053,
                0.211387619877787,
                -0.04612563438070383,
                0.5711050312924193,
                -0.13655570257639613,
                0.3784708059405855,
                0.06985547310402396,
                0.7892902959332889,
                -0.1721890969408541,
                0.291735332998057,
                0.008671039450530556,
                0.6770037837017244,
                -0.0945345483896794,
                0.471594038705373,
                0.1374276665797761,
                0.9079645679871117,
                -0.20774805264637478,
                0.19229877906994744,
                -0.058826715366284504,
                0.5456284306623215,
                -0.14606290365084731,
                0.35618808522161666,
                0.053960512207313786,
                0.7606198153920612,
                -0.18009935805974056,
                0.2710495522346526,
                -0.005626981490614823,
                0.6499302431160618,
                -0.10563868941969534,
                0.4477143780308393,
                0.11993576572750128,
                0.8776971474903194,
                -0.19472217533084,
                0.23087569567451768,
                -0.03302531840623202,
                0.5969808669114092,
                -0.12664926651305375,
                0.40115276164844565,
                0.08614966898962509,
                0.8183600114634081,
                -0.1638796008330764,
                0.31282034875035225,
                0.023368295380567054,
                0.7044765592762791,
                -0.08303117237077229,
                0.49587293436879787,
                0.15531880242094195,
                0.9386312234727955
            ],
            "result_with_budget": [
                {
                    "portfolio": {
                        "CRM": 1,
                        "INTC": 19
                    },
                    "budget": 715.279972076416,
                    "difference": 0.7200279235839844,
                    "objective_value": -2.823946679605198
                }
            ],
            "result_with_budget_excited": [
                {
                    "portfolio": {
                        "CRM": 0,
                        "INTC": 36
                    },
                    "budget": 721.7999725341797,
                    "difference": -5.7999725341796875,
                    "objective_value": -9.41282990719056
                }
            ]
        },
        "qaoa_solution": {
            "two_most_probable_states": [
                "00000001",
                "01000000"
            ],
            "final_expectation_value": -0.2367418213142188,
            "params": [
                1.4387357739618274,
                3.6193617817913415,
                0.14542707867829527,
                5.58149407786101,
                3.48396957869375,
                4.551494639691711,
                1.1057384824381915,
                6.259394357512698,
                2.4033797721948527,
                -1.1159487570698852,
                3.8559919599708263,
                1.1533916321338356,
                1.1603815323825688,
                -0.5262671408704862,
                3.414048036417104,
                1.7399320704147818
            ],
            "total_steps": 800,
            "states_probs": [
                0.055400158272237425,
                0.061679438300960926
            ],
            "optimized_portfolios": [
                {
                    "CRM": 0,
                    "INTC": 32
                },
                {
                    "CRM": 2,
                    "INTC": 0
                }
            ],
            "training_history": {
                "xbest": [
                    1.4387357739618274,
                    3.6193617817913415,
                    0.14542707867829527,
                    5.58149407786101,
                    3.48396957869375,
                    4.551494639691711,
                    1.1057384824381915,
                    6.259394357512698,
                    2.4033797721948527,
                    -1.1159487570698852,
                    3.8559919599708263,
                    1.1533916321338356,
                    1.1603815323825688,
                    -0.5262671408704862,
                    3.414048036417104,
                    1.7399320704147818
                ],
                "fbest": -0.2367418213142188,
                "evals_best": 9595,
                "evaluations": 9600,
                "iterations": 800,
                "xfavorite": [
                    1.439182305780636,
                    3.619243457425347,
                    0.14568299393388942,
                    5.580347646284821,
                    3.483527455119229,
                    4.549854253510197,
                    1.1060967528851493,
                    6.258543488980132,
                    2.403378799781054,
                    -1.116034570292331,
                    3.85605808155976,
                    1.1534100427414373,
                    1.160468341619887,
                    -0.5259337359530565,
                    3.4135699356055387,
                    1.7399781269722656
                ],
                "stds": [
                    0.0009807446886670476,
                    0.0012685327765944278,
                    0.000684742902190477,
                    0.0015828775908240285,
                    0.0005710133900537214,
                    0.0010086914380519076,
                    0.0014416373740503063,
                    0.0016075324794229168,
                    0.00021857829033685913,
                    0.000671617291658489,
                    0.0007093251715727356,
                    7.211921652735428e-05,
                    0.00010723337457232836,
                    0.0003520544164507081,
                    0.0003516314474301265,
                    8.48972416349208e-05
                ],
                "stop": {
                    "maxiter": 800
                }
            },
            "objective_values": [
                -7.553035138047713,
                0.3556042855112283
            ],
            "result_with_budget": [
                {
                    "portfolio": {
                        "CRM": 0,
                        "INTC": 32
                    },
                    "budget": 641.5999755859375,
                    "difference": 74.4000244140625
                },
                {
                    "portfolio": {
                        "CRM": 2,
                        "INTC": 0
                    },
                    "budget": 668.6599731445312,
                    "difference": 47.34002685546875
                }
            ]
        }
    }
}