{
    "5": {
        "hyperparams": {
            "stocks": [
                "AXP",
                "TRV"
            ],
            "start": "2015-01-01",
            "end": "2025-01-01",
            "risk_aversion": 0.1,
            "n_qubits": 10,
            "budget": 5354,
            "log_encoding": true,
            "layers": 10,
            "prices_now": {
                "AXP": 295.1141052246094,
                "TRV": 239.9084930419922
            },
            "assets_to_qubits": {
                "AXP": [
                    0,
                    1,
                    2,
                    3,
                    4
                ],
                "TRV": [
                    5,
                    6,
                    7,
                    8,
                    9
                ]
            },
            "optimizer": "CMAES",
            "lambda_budget": 1000
        },
        "continuous_variables_solution": {
            "weights": {
                "AXP": 0.7191363379191347,
                "TRV": 0.2808636620808653
            },
            "allocation": {
                "AXP": 13,
                "TRV": 6
            },
            "value": -6513.480288498546,
            "left_overs": 78.0656535240023
        },
        "continuous_variables_solution_unconstrained": {
            "weights": {
                "AXP": 0.7065856910025512,
                "TRV": 0.2631858548034544
            },
            "allocation": {
                "AXP": 13,
                "TRV": 6
            },
            "value": -6513.480288498546,
            "left_overs": 78.06567472234474
        },
        "exact_solution": {
            "smallest_eigenvalues": [
                -0.2539444002627311
            ],
            "smallest_bitstrings": [
                "0101001010"
            ],
            "first_excited_energy": -0.2539424453664055,
            "optimized_portfolio": [
                {
                    "AXP": 10,
                    "TRV": 10
                }
            ],
            "second_optimized_portfolio": [
                {
                    "AXP": 6,
                    "TRV": 15
                }
            ],
            "spectrum": [
                4.5504229882182517e-17,
                -0.23359878882963714,
                -0.14943212325941171,
                -0.25249998296645765,
                -0.08287424332378215,
                -0.25120757102817853,
                -0.19967363890952136,
                -0.2374760215586801,
                -0.04347666705069613,
                -0.24444272603994982,
                -0.1765924266976134,
                -0.2470275491450595,
                -0.1181927287583787,
                -0.2538933234598904,
                -0.21867575969747963,
                -0.22384539973610992,
                -0.022248219870079956,
                -0.23953064394298768,
                -0.16352216137078138,
                -0.25027365274826624,
                -0.10104337240103224,
                -0.25306033383583654,
                -0.2096845857451832,
                -0.23117059745770516,
                -0.0636853415374439,
                -0.24833503508192525,
                -0.18864291921840623,
                -0.24276167210114166,
                -0.13432231238286832,
                -0.25370653985319175,
                -0.2266471607363598,
                -0.21550042832965013,
                -0.2504041002610207,
                -0.16286782272266495,
                -0.23926869770344764,
                -0.021201453500729304,
                -0.2529945820134554,
                -0.10019282659740486,
                -0.20922644542441415,
                0.07410630066237163,
                -0.2537388867972538,
                -0.13356987154689515,
                -0.22628711770059173,
                0.024412875670208424,
                -0.24817118572259542,
                -0.06273668741360919,
                -0.18808668055110614,
                0.1278788220731219,
                -0.25258137993378765,
                -0.14872873382904428,
                -0.23328779421728277,
                0.0010958241430858045,
                -0.2510927703194337,
                -0.08197464381491745,
                -0.19916644958397514,
                0.10048267427675255,
                -0.2538766208312469,
                -0.1173912358218501,
                -0.2182666681161049,
                0.04874970115210316,
                -0.2442298281942197,
                -0.0424789573305642,
                -0.17598713827998827,
                0.1562947441314928,
                -0.17458102413370052,
                -0.24761228615325975,
                -0.24372938693331067,
                -0.18622970401246577,
                -0.21731338771158717,
                -0.22507918170621485,
                -0.25382902039689564,
                -0.13106384948160946,
                -0.19798675140091235,
                -0.2383852803825467,
                -0.25081874949386535,
                -0.16068632409744746,
                -0.23256093294176997,
                -0.20769398972675562,
                -0.2527601993816692,
                -0.09736227963066617,
                -0.1867937741304622,
                -0.24350866985759712,
                -0.24778395465581857,
                -0.17396790086050198,
                -0.22544704672082314,
                -0.21689647240555657,
                -0.25380449639669617,
                -0.11472295149525473,
                -0.2081599559327629,
                -0.23224211768162614,
                -0.25283377141806523,
                -0.14638497365972256,
                -0.23865504635359056,
                -0.1974717336147817,
                -0.25069612931388113,
                -0.07898183381571573,
                -0.22746921690412428,
                0.020634619592630483,
                -0.13605004076566135,
                0.2425847900255589,
                -0.18991781308838748,
                0.12345151409189785,
                -0.06586589752475454,
                0.37803445199323266,
                -0.21073306093030167,
                0.07000351942906977,
                -0.10299751568205132,
                0.30827007244629695,
                -0.1650234731282749,
                0.1809786041047761,
                -0.024655185906886885,
                0.4518779293268042,
                -0.2196110253864282,
                0.044809182688944606,
                -0.12003366483522265,
                0.2749175441350948,
                -0.1779805296400733,
                0.15170517214551607,
                -0.04577042842390804,
                0.41444630339407557,
                -0.2008353235076862,
                0.0962176298752579,
                -0.08494159326099263,
                0.34264237503851386,
                -0.15104664351638508,
                0.21127181004047804,
                -0.002520169919987619,
                0.49032932987931493,
                -0.09963525516195414,
                -0.2529502817642412,
                -0.20892549859574241,
                -0.23170958890480012,
                -0.16243855876878607,
                -0.25048812116512015,
                -0.239096073493154,
                -0.19661468164518167,
                -0.13307645238737123,
                -0.25375874773507084,
                -0.2260503317538671,
                -0.21620168237990564,
                -0.1877215742137803,
                -0.24313840168841885,
                -0.2480627235844083,
                -0.1729485861978803,
                -0.11686574012572261,
                -0.2538644012957158,
                -0.21799780158917045,
                -0.22446552238849535,
                -0.17558995286544724,
                -0.24732314806432268,
                -0.24408928501044505,
                -0.18529152079336045,
                -0.1482673919385534,
                -0.2526333210397647,
                -0.23308308906438832,
                -0.20691806881939254,
                -0.19883342279688945,
                -0.23793388198632034,
                -0.25101638918105,
                -0.15958587779055441,
                -0.2512814045471357,
                -0.08346135037043131,
                -0.20000411643497584,
                0.09834691748287433,
                -0.23380094408727228,
                -0.0007154059990889129,
                -0.1498909194313604,
                0.2137256244227731,
                -0.24458072010269885,
                -0.04412792532325203,
                -0.17698706425838442,
                0.15399672272750345,
                -0.21894207628228554,
                0.04677620809418074,
                -0.11871568159855611,
                0.2775336231975832,
                -0.2484409487589664,
                -0.06430452460204268,
                -0.18900547690711114,
                0.12566193308682921,
                -0.2268813966734701,
                0.022520514169314148,
                -0.13481318716422563,
                0.24511973663459363,
                -0.2397007185542185,
                -0.02293155247574972,
                -0.16394887844758435,
                0.18335128648030322,
                -0.20998298288105463,
                0.07205167584236899,
                -0.10159840268459076,
                0.31096728419569736,
                -0.22483730622852086,
                -0.21758480047839254,
                -0.2538437871696069,
                -0.11606032635536372,
                -0.24749872925757346,
                -0.17498075092526624,
                -0.24387247831034162,
                -0.04082352292597866,
                -0.2382075633006537,
                -0.19832232236012884,
                -0.2508976787111506,
                -0.08048147225964697,
                -0.2527108039437875,
                -0.14756008574475846,
                -0.23276818567491078,
                0.0029135222114652073,
                -0.23203232114560626,
                -0.20846344805835573,
                -0.2528806194162408,
                -0.09878078617822127,
                -0.25061465302057345,
                -0.16178030508136929,
                -0.2388302185415563,
                -0.019464887369428332,
                -0.2433630326774325,
                -0.18716142333328675,
                -0.24789496502100603,
                -0.06116238453211934,
                -0.25378718200243816,
                -0.13232009285646046,
                -0.2256863796685273,
                0.02631170589277278,
                -0.17896753465057252,
                0.14942009067951512,
                -0.04740646759829902,
                0.4115121680561106,
                -0.12134518612749239,
                0.27230793739644615,
                0.04284862360050295,
                0.5670327875104314,
                -0.15219590649469958,
                0.20882446632701276,
                -0.004318468770438968,
                0.4872329288593224,
                -0.08641537326730561,
                0.3398705044430143,
                0.09409480993294882,
                0.6509117447014122,
                -0.16609160708278567,
                0.17861239160888612,
                -0.026372354852438513,
                0.44886266126864255,
                -0.10439016627795998,
                0.30557933388655284,
                0.06796182999405079,
                0.6084623787438538,
                -0.13728043285431432,
                0.24005631490008864,
                0.018755190696796823,
                0.5266229709114432,
                -0.06742080705498044,
                0.37518144914057333,
                0.12124756347484263,
                0.6943808854749475,
                -0.05290381333131255,
                -0.24636072128972308,
                -0.18226499675299526,
                -0.2451909721880625,
                -0.12574258682262499,
                -0.25393403220772276,
                -0.2224710420989031,
                -0.22013153801879534,
                -0.09136274547948801,
                -0.25218692293655526,
                -0.20440756508434807,
                -0.23470080209424762,
                -0.1560433372840748,
                -0.2516020487530241,
                -0.2364554275832346,
                -0.20148317947472658,
                -0.07264316575257526,
                -0.24978370863954522,
                -0.19384616732126794,
                -0.24045577385975933,
                -0.14140284841968706,
                -0.25327792709432934,
                -0.22997312129702138,
                -0.21131724558710993,
                -0.10906255250567538,
                -0.2535703641401836,
                -0.21394919001876325,
                -0.22792605683386105,
                -0.1696640534008644,
                -0.24890639713468635,
                -0.24191796092552129,
                -0.19062933961543024,
                -0.25392893874711037,
                -0.12625077354781916,
                -0.22272259369522154,
                0.03548654452225695,
                -0.24648394952334904,
                -0.05354030352175459,
                -0.18264486922999204,
                0.14082977480537812,
                -0.2522459898551011,
                -0.09193508554457887,
                -0.20472327769066156,
                0.08611861159873477,
                -0.23664281754905406,
                -0.011066427002991977,
                -0.156487367973635,
                0.19962003475531734,
                -0.2535973507197345,
                -0.1096028162702107,
                -0.21423282223006743,
                0.060292691081210166,
                -0.24207327000553017,
                -0.032813252105473416,
                -0.17007600522383357,
                0.16971501764777944,
                -0.24987485613106677,
                -0.07324758131458557,
                -0.19419396003776293,
                0.11296430614826644,
                -0.23019259212322776,
                0.011700171850576742,
                -0.141878957431606,
                0.23054482620997638,
                -0.202795351103126,
                -0.2356847296881851,
                -0.2518727731525044,
                -0.15423120191987083,
                -0.2354922444845752,
                -0.20311615285836265,
                -0.25193693557878544,
                -0.089029873156155,
                -0.22118334330890396,
                -0.2214399878259442,
                -0.2539444002627311,
                -0.12367008501982195,
                -0.24572205449041465,
                -0.18071322437216222,
                -0.2458503788241689,
                -0.05031056577881541,
                -0.21249923357738135,
                -0.22907224537073828,
                -0.25341847316594296,
                -0.13946053030725586,
                -0.24111703589379266,
                -0.19242457533225601,
                -0.24940354372892812,
                -0.07018010644240838,
                -0.22884768028343447,
                -0.21278795700534964,
                -0.2534505544115088,
                -0.10685986599201779,
                -0.2493073002516338,
                -0.16798209992108085,
                -0.24127744082460226,
                -0.02942125109127634,
                -0.20630456279073398,
                0.08194116725655336,
                -0.09481444158229088,
                0.323962290589823,
                -0.15871768680325257,
                0.1947935375904418,
                -0.01459482459050549,
                0.46944743098046776,
                -0.18455067081396584,
                0.1363278048643003,
                -0.056744179737706506,
                0.3946653120445052,
                -0.12880561049271788,
                0.257338365974408,
                0.031633624261965164,
                0.5483086480739155,
                -0.1959375032913113,
                0.10862459920300617,
                -0.07628919729899561,
                0.3588039141729314,
                -0.14427153520341593,
                0.22555606479014625,
                0.008009513096069608,
                0.508368152213908,
                -0.17214406532866824,
                0.16505078430465875,
                -0.036179388851297505,
                0.4315464842858649,
                -0.11231991263258108,
                0.2901404412159971,
                0.05627750896285585,
                0.5892689186503623,
                -0.14019432545283592,
                -0.2533674701101552,
                -0.22941362869659157,
                -0.21205583292166078,
                -0.19296215909718775,
                -0.24086983773134832,
                -0.2495487329752241,
                -0.16692545221684144,
                -0.1686177877222624,
                -0.2491582002794673,
                -0.24152072660211413,
                -0.1915301897940293,
                -0.21322743946942388,
                -0.22850238208405724,
                -0.2534976475709558,
                -0.13824161967157947,
                -0.15491594294393576,
                -0.2517727217619676,
                -0.23597706407692995,
                -0.202302898132968,
                -0.2036046856667392,
                -0.23519599657029397,
                -0.2520330767619085,
                -0.15309342284896263,
                -0.18129985977749766,
                -0.24552390561814388,
                -0.24604461624472937,
                -0.1797377078432357,
                -0.2218304204863756,
                -0.22078899421957868,
                -0.2539424453664055,
                -0.12237004261453445,
                -0.24246149737267167,
                -0.03449955279812842,
                -0.17111326558231163,
                0.16737966582547018,
                -0.21494556539081147,
                0.05828186638895264,
                -0.1109645956621324,
                0.2927938499848907,
                -0.230743077238628,
                0.009851609522452872,
                -0.1430784770503679,
                0.22804720951385457,
                -0.19506896159488332,
                0.11079121830926326,
                -0.07477162104648917,
                0.36161958788324683,
                -0.23711217375656093,
                -0.01283385842567006,
                -0.1576057579015175,
                0.197203550610787,
                -0.2055171500023432,
                0.08402665543430257,
                -0.09337799503226711,
                0.326696831714026,
                -0.22335420779278617,
                0.03355685110652105,
                -0.1275314229856802,
                0.2599106426120507,
                -0.18360100013379702,
                0.13857555508266364,
                -0.05514547365306607,
                0.3975621185784793,
                -0.24070688934612786,
                -0.19331249825617672,
                -0.24964242876888795,
                -0.07171707699926538,
                -0.25333284184083776,
                -0.14067297561323355,
                -0.22963564834984682,
                0.013555201554585736,
                -0.2490594111994097,
                -0.16903228370440102,
                -0.2416785846104019,
                -0.03112048548425028,
                -0.2535271810991489,
                -0.10823457353785851,
                -0.21351361967918317,
                0.062309984698835315,
                -0.24539303666488202,
                -0.1816822776462473,
                -0.24617039318448666,
                -0.051928668147221684,
                -0.25393989790492294,
                -0.12496366135270862,
                -0.22208452058636632,
                0.037422706075848536,
                -0.2517060129315076,
                -0.15536251637824078,
                -0.23616700301133417,
                -0.009292528940857974,
                -0.2520946913967668,
                -0.09048571210773818,
                -0.2039229455844481,
                0.0882170375015878,
                -0.1454581320705465,
                0.22307139037855797,
                0.006173881651382278,
                0.5052344229934388,
                -0.07780031062202605,
                0.35599471405294,
                0.10646444753932587,
                0.6707905221781266,
                -0.1136687675464156,
                0.287493504347243,
                0.05427961769781272,
                0.5859729234727566,
                -0.037852760999962994,
                0.42857502006661746,
                0.1627283716101122,
                0.7596872198172888,
                -0.13007333634126048,
                0.2547725604301237,
                0.02971686297601348,
                0.5450937859977393,
                -0.05833642241812779,
                0.3917749799842602,
                0.13408652276758734,
                0.7147289835854146,
                -0.09624442565204024,
                0.32123422219808057,
                0.07986214586784843,
                0.6278718355037531,
                -0.016349326325011893,
                0.4663948343767264,
                0.19238999412651783,
                0.8056652309675647,
                -0.027223453102014437,
                -0.24075130155015378,
                -0.16662010645808392,
                -0.24961702412939782,
                -0.10507996151443906,
                -0.2533423481363725,
                -0.2118438869725053,
                -0.22957532638035902,
                -0.06819125270316803,
                -0.24908637099197908,
                -0.19127154235034668,
                -0.2416357221908121,
                -0.13788957946706384,
                -0.25351923264101567,
                -0.22833714011901943,
                -0.21343583621894416,
                -0.048217239248364484,
                -0.24542872278818634,
                -0.17945571080146774,
                -0.24613625986548068,
                -0.1219946568537157,
                -0.25394067699139317,
                -0.2206003999944001,
                -0.22201546812480102,
                -0.08714549346103524,
                -0.25172424612194816,
                -0.20206760108223396,
                -0.2361154110487109,
                -0.1527647293405451,
                -0.252078015037107,
                -0.23505410731532847,
                -0.20383643059755932,
                -0.2529380660730149,
                -0.1453308448622539,
                -0.23176719233577933,
                0.006370998670114209,
                -0.25051081236821554,
                -0.07763811184052656,
                -0.19670720400604733,
                0.10669649082775474,
                -0.2537639849098377,
                -0.11352402529899541,
                -0.21627674435255018,
                0.05449419676180776,
                -0.2431785482532328,
                -0.037673104018377854,
                -0.1730585709645774,
                0.1629778814732014,
                -0.25386091190288523,
                -0.12993732178958217,
                -0.22453185487017913,
                0.029922710755671458,
                -0.24735456677091203,
                -0.058165494755527174,
                -0.18539277409425,
                0.13432729903887702,
                -0.25264728507271267,
                -0.0960909553351402,
                -0.20700186074463736,
                0.08008545676097306,
                -0.23798275678547007,
                -0.016160939565176922,
                -0.15970459457022632,
                0.19264823821172644,
                -0.18945973408989983,
                -0.242420054498298,
                -0.24857262655590326,
                -0.17100199963139492,
                -0.22717436258743848,
                -0.2148692139008061,
                -0.2536545245302419,
                -0.11081840803658595,
                -0.21035659383460917,
                -0.23068418070157068,
                -0.25315312140527507,
                -0.14294975124937867,
                -0.239913040216548,
                -0.19497515369060997,
                -0.2500768356621866,
                -0.07460796945084586,
                -0.20041805032933543,
                -0.23706200420143786,
                -0.2513727604306874,
                -0.15748576226168406,
                -0.2340535878020342,
                -0.20543207049855994,
                -0.252375566613466,
                -0.09322307570055556,
                -0.21927536459244737,
                -0.22328658395122863,
                -0.2539137094492972,
                -0.12739396652991344,
                -0.24475271980915772,
                -0.18349846342093964,
                -0.24675833163748337,
                -0.05497308921434247,
                -0.2176584365761746,
                0.05051634648580975,
                -0.11620378799620454,
                0.2825019932292841,
                -0.17508929671842313,
                0.15835097883545904,
                -0.041001907935251505,
                0.4229693943299793,
                -0.1984134126220872,
                0.10239411517515941,
                -0.08064239455908286,
                0.3506961451284835,
                -0.14768608860719143,
                0.2183869379982539,
                0.0027176722700583108,
                0.49932174150209435,
                -0.2085458110780389,
                0.07594534399100186,
                -0.09893297790264499,
                0.3160891820565304,
                -0.1618975792062133,
                0.18785907144448735,
                -0.019652004556290053,
                0.4606356806266035,
                -0.18726124117927498,
                0.12986266010152073,
                -0.061332037919377476,
                0.38632288252547514,
                -0.1324548248837646,
                0.24993457856854537,
                0.026107122598482888,
                0.5390275770453344,
                -0.12068633675352548,
                -0.25393042246343117,
                -0.21994111012081283,
                -0.2226542575141208,
                -0.17847190539049093,
                -0.24645052600891235,
                -0.24509394973174406,
                -0.18254161357788204,
                -0.1516186665059133,
                -0.2522300205500037,
                -0.23455707566337045,
                -0.20463748271012713,
                -0.20124605330695636,
                -0.23659193846630125,
                -0.2515517320888558,
                -0.15636664960675348,
                -0.13666238798326244,
                -0.25359010806314514,
                -0.22775897931288305,
                -0.2141557568725765,
                -0.19036886572734193,
                -0.2420311188874981,
                -0.24883272739036053,
                -0.16996401848042833,
                -0.16555517231214587,
                -0.24985015988048062,
                -0.24033539914584637,
                -0.19409943496614915,
                -0.2111034681114526,
                -0.23013298469324603,
                -0.25325096379225104,
                -0.14174950688768537,
                -0.2476429976009594,
                -0.05975199840938509,
                -0.1863302377301885,
                0.13209174470243557,
                -0.22514480141745832,
                0.028011683309394877,
                -0.13119930431718763,
                0.2524881901801284,
                -0.23843344532967856,
                -0.017909704754999683,
                -0.16080431739964837,
                0.1902504191336796,
                -0.2077770656378444,
                0.0780121662838062,
                -0.09751519811957476,
                0.3188050584785653,
                -0.2435481079076187,
                -0.039340738353528755,
                -0.17407716413754257,
                0.1606611948796204,
                -0.21697082002656423,
                0.05250203790026243,
                -0.11486713788181266,
                0.2851367371317129,
                -0.23229900984203775,
                0.004541102445497388,
                -0.14651169747430853,
                0.2208594175410056,
                -0.19756353821764802,
                0.10454206852787036,
                -0.07914348497972683,
                0.3534931543056243,
                -0.23354364429975003,
                -0.20622019601178646,
                -0.25251465453617533,
                -0.09466024842246092,
                -0.251187332085999,
                -0.15859840996118998,
                -0.2375256099329254,
                -0.014405707489816498,
                -0.24440503377392,
                -0.1844488496997647,
                -0.24705967824493516,
                -0.056572525645860884,
                -0.2538905390726079,
                -0.12866887635913055,
                -0.22391244929999246,
                0.03184020661938037,
                -0.23948422542322143,
                -0.1958444095081225,
                -0.25029705287572673,
                -0.07612627392207039,
                -0.2530488220065336,
                -0.14414352992173984,
                -0.23122891617667005,
                0.008207362533445386,
                -0.24830606933463076,
                -0.1720335165353036,
                -0.242802530609485,
                -0.035999003525324556,
                -0.25371248325845613,
                -0.11217444921340322,
                -0.21557620926003138,
                0.0564928248450448,
                -0.16298438019257852,
                0.18547419346099395,
                -0.021387839911953855,
                0.45760174830411343,
                -0.10034429525713252,
                0.31337977858322513,
                0.07388498856952921,
                0.6181401075386576,
                -0.13370388387703283,
                0.24738743823309342,
                0.024209027494967564,
                0.5358313789036193,
                -0.06290561404334771,
                0.38345121507447283,
                0.12764004373803764,
                0.704527934909086,
                -0.14885401855609,
                0.21592092893364664,
                0.0009007071083603274,
                0.4962066763918304,
                -0.08213484124390705,
                0.34790560977468027,
                0.10025262936406011,
                0.6608241338368713,
                -0.11753397612242135,
                0.2798737214265133,
                0.04853712129795056,
                0.5764758559237573,
                -0.04265661361392036,
                0.420016594558328,
                0.1560472317500927,
                0.7492515108481295,
                -0.07704108068593,
                -0.2504270480333877,
                -0.19636679413568434,
                -0.23922182712099735,
                -0.14486211924312734,
                -0.2529826232240238,
                -0.2315551042770049,
                -0.20914465644928645,
                -0.11299114537606798,
                -0.25374438185709575,
                -0.2160004948895329,
                -0.22622278883228772,
                -0.17265400220257524,
                -0.24814177177608424,
                -0.2430306220767913,
                -0.18798742947713012,
                -0.09552599937993629,
                -0.2525956014812942,
                -0.20669353092090934,
                -0.23323219470883558,
                -0.15926794709292189,
                -0.2510720841256279,
                -0.23780274964052636,
                -0.1990759298191173,
                -0.12943651866696462,
                -0.2538733891192361,
                -0.22428768601709662,
                -0.2181936094327012,
                -0.18502028455617855,
                -0.24419168612528766,
                -0.24723872155279317,
                -0.17587915535612425,
                -0.25337671825017755,
                -0.10562760873323573,
                -0.2121349017421456,
                0.06614518410832068,
                -0.24091399344247708,
                -0.027899401591715726,
                -0.16703944105337107,
                0.17650615265111147,
                -0.24918490159828963,
                -0.06880305223589678,
                -0.19162671767367304,
                0.11928612023523547,
                -0.2285639935720555,
                0.01708334368354583,
                -0.1383730715337771,
                0.23780528197696402,
                -0.2517906963503918,
                -0.08772521722399242,
                -0.20239069625650738,
                0.09220576517313564,
                -0.2352488799860962,
                -0.005917915814570658,
                -0.15321614292903774,
                0.2066458301601416,
                -0.24555933397074056,
                -0.04886111371162497,
                -0.17984296595341584,
                0.14738624936904146,
                -0.2208593341686775,
                0.04110437696850638,
                -0.12251022681881424,
                0.2699845081845487,
                -0.21458787515583175,
                -0.22740631169237951,
                -0.2536298266990698,
                -0.1359173108408558,
                -0.24226703338220154,
                -0.18981999854509526,
                -0.24867625351523212,
                -0.06569824480003067,
                -0.23046699980462584,
                -0.2106527017235014,
                -0.25319258604056066,
                -0.10284732537011475,
                -0.2499879757409507,
                -0.16490820173599915,
                -0.24008082883869855,
                -0.024470068572664604,
                -0.22303732385624106,
                -0.21953939333414443,
                -0.25392109283673,
                -0.11989220495936768,
                -0.24663739097449097,
                -0.17787398687204206,
                -0.2448884277149758,
                -0.045594043679714875,
                -0.23687690298574018,
                -0.20074623681101053,
                -0.25144430627822173,
                -0.08478267200656048,
                -0.25231878765778787,
                -0.1509226430789788,
                -0.23425345684550922,
                -0.002326319403794775,
                -0.19340759549908756,
                0.11490908196656986,
                -0.07188200146870899,
                0.3669656821753809,
                -0.1408029832909126,
                0.2327791904218027,
                0.013355352567943386,
                0.517468562016151,
                -0.1691448354555993,
                0.17180458855982447,
                -0.03130287116108645,
                0.44017757326419277,
                -0.10838203873126774,
                0.29783288809981817,
                0.062092670128917914,
                0.5988386491153471,
                -0.18178610197671854,
                0.1428469483874783,
                -0.05210232296825062,
                0.4030617405533133,
                -0.12510239757890582,
                0.2647961522482631,
                0.0372141245924433,
                0.5576437182282534,
                -0.1554837959047144,
                0.20178200254881742,
                -0.009483645999104657,
                0.4783131803903245,
                -0.09064190670843555,
                0.33188939805022627,
                0.08799098923402761,
                0.6410533547682881,
                -0.15815922125012902,
                -0.2512614246816635,
                -0.2373430543068241,
                -0.19991431509817378,
                -0.2059093198758705,
                -0.2337460563064313,
                -0.2524604232040904,
                -0.14976619752956474,
                -0.18407381602503833,
                -0.2445432868990891,
                -0.2469412845522206,
                -0.17687980360074243,
                -0.2236657326865539,
                -0.2188697325140656,
                -0.2539004700095851,
                -0.11857349635823926,
                -0.17162640499717477,
                -0.2484122423686211,
                -0.24265205586424612,
                -0.18890694613961215,
                -0.21529741266982103,
                -0.2268177810858994,
                -0.25369033310477324,
                -0.1346797338656563,
                -0.1955014543224172,
                -0.23965455822757092,
                -0.2502107403423483,
                -0.16383288741897056,
                -0.23101427990621812,
                -0.20990191053688495,
                -0.25309083388157766,
                -0.10144748493617074,
                -0.23573690382135046,
                -0.007704013482744641,
                -0.1543531999439249,
                0.2042106809123911,
                -0.20320323596316117,
                0.09009514329674939,
                -0.08918679341552675,
                0.33464260390072215,
                -0.22150961578700087,
                0.03915601756464646,
                -0.12380954316149992,
                0.26738709393006505,
                -0.1808177641076081,
                0.14511336422934082,
                -0.05048495032700653,
                0.4059772114769154,
                -0.2291331462640588,
                0.015216115236262243,
                -0.13959125815080414,
                0.23528900034155412,
                -0.19252038655582351,
                0.1170943668294122,
                -0.0703457585641082,
                0.3698000204460066,
                -0.21286631236310496,
                0.06411569356367433,
                -0.10700805493184284,
                0.3005049617562879,
                -0.16809536858289484,
                0.1741521355663496,
                -0.029604368651503732,
                0.4431741770803616,
                -0.24632704134231417,
                -0.1788617071732301,
                -0.24522710983590654,
                -0.04723081204094765,
                -0.2539352584935019,
                -0.12120444783981507,
                -0.22020259352602053,
                0.043059204255306245,
                -0.2521706955501581,
                -0.15207262433407964,
                -0.23475439777409038,
                -0.004125351728361297,
                -0.2516207299931981,
                -0.08625717723773603,
                -0.20157169677577327,
                0.09432285649953207,
                -0.24975875484443785,
                -0.16597705243358613,
                -0.24050064030987076,
                -0.02618796880803299,
                -0.2532878806863385,
                -0.10424069933188176,
                -0.21139703173475002,
                0.0681811433066714,
                -0.25356286344028817,
                -0.13714842282132894,
                -0.22798838219228099,
                0.018957039268546413,
                -0.24893380638634546,
                -0.06725388149544707,
                -0.1907265886042567,
                0.12148434391291614,
                -0.12638879022796942,
                0.2622116815017083,
                0.035278697154712636,
                0.5544101922000815,
                -0.05371323216241757,
                0.40015274387833927,
                0.1405870005761448,
                0.724984031508083,
                -0.09209055744471704,
                0.32914266474058534,
                0.08589330190272434,
                0.6376575626443561,
                -0.011256814075772144,
                0.4752419194938223,
                0.1993597936170491,
                0.8163895995068917,
                -0.10974956038097854,
                0.2951672861686296,
                0.06007611281433644,
                0.595523990163178,
                -0.032994909740055055,
                0.4371874445888508,
                0.1694635102716959,
                0.7701769280695407,
                -0.07341178138422799,
                0.3641378172867256,
                0.11273026447193012,
                0.6808109097298635,
                0.011501054873936234,
                0.514316168670954,
                0.23027585067280684,
                0.8636220459149371
            ],
            "result_with_budget": [
                {
                    "portfolio": {
                        "AXP": 10,
                        "TRV": 10
                    },
                    "budget": 5350.225982666016,
                    "difference": 3.774017333984375,
                    "objective_value": -7393.087365796997
                }
            ],
            "result_with_budget_excited": [
                {
                    "portfolio": {
                        "AXP": 6,
                        "TRV": 15
                    },
                    "budget": 5369.312026977539,
                    "difference": -15.312026977539062,
                    "objective_value": -11237.746433579556
                }
            ]
        },
        "qaoa_solution": {
            "two_most_probable_states": [
                "1110010110",
                "1010011110"
            ],
            "final_expectation_value": -0.24135060610755688,
            "params": [
                3.1584045968834484,
                0.13816138267927103,
                1.2247688120201006,
                1.8002694356781208,
                4.940312226138605,
                -5.39348912312543,
                2.3965979140705214,
                15.773191573952454,
                12.363932415602953,
                -0.21366284951327746,
                3.621495245926153,
                -1.0368018508363517,
                1.4210243609065158,
                1.1245061750593406,
                1.7632334503617273,
                2.8850873797030356,
                0.9640490363660801,
                3.0501297255687896,
                2.426604238915622,
                0.6478200057959264
            ],
            "total_steps": 800,
            "states_probs": [
                0.005611249453945297,
                0.005616382562077719
            ],
            "optimized_portfolios": [
                {
                    "AXP": 7,
                    "TRV": 13
                },
                {
                    "AXP": 5,
                    "TRV": 15
                }
            ],
            "training_history": {
                "xbest": [
                    3.1584045968834484,
                    0.13816138267927103,
                    1.2247688120201006,
                    1.8002694356781208,
                    4.940312226138605,
                    -5.39348912312543,
                    2.3965979140705214,
                    15.773191573952454,
                    12.363932415602953,
                    -0.21366284951327746,
                    3.621495245926153,
                    -1.0368018508363517,
                    1.4210243609065158,
                    1.1245061750593406,
                    1.7632334503617273,
                    2.8850873797030356,
                    0.9640490363660801,
                    3.0501297255687896,
                    2.426604238915622,
                    0.6478200057959264
                ],
                "fbest": -0.24135060610755688,
                "evals_best": 9594,
                "evaluations": 9600,
                "iterations": 800,
                "xfavorite": [
                    3.1568636020897625,
                    0.14360990131614093,
                    1.213738892978051,
                    1.780789875184395,
                    4.9153550409145845,
                    -5.409300172121491,
                    2.4098441704225615,
                    15.758758344324416,
                    12.34486006788256,
                    -0.20401407655517048,
                    3.618574754407356,
                    -1.0397552652588162,
                    1.427264226501148,
                    1.1227210246688049,
                    1.7613687932522475,
                    2.8885549596684736,
                    0.9628165325848418,
                    3.0508155847312692,
                    2.416586083250063,
                    0.6571365469348789
                ],
                "stds": [
                    0.046369434842757476,
                    0.02681142636460517,
                    0.0324308725096628,
                    0.030174470113097356,
                    0.047483805034847025,
                    0.0410087591941418,
                    0.032716444622073425,
                    0.1334838561694468,
                    0.12218072305600236,
                    0.03294856664833051,
                    0.01765773737406261,
                    0.01593426473780452,
                    0.013124336041847515,
                    0.007612496338732912,
                    0.0047887761751320805,
                    0.00859543263676828,
                    0.008811220696123213,
                    0.0025771570543635996,
                    0.02091002855320165,
                    0.020959347000435224
                ],
                "stop": {
                    "maxiter": 800
                }
            },
            "objective_values": [
                -8406.284909037817,
                -9828.978824641084
            ],
            "result_with_budget": [
                {
                    "portfolio": {
                        "AXP": 7,
                        "TRV": 13
                    },
                    "budget": 5184.609146118164,
                    "difference": 169.39085388183594
                },
                {
                    "portfolio": {
                        "AXP": 5,
                        "TRV": 15
                    },
                    "budget": 5074.19792175293,
                    "difference": 279.8020782470703
                }
            ]
        }
    }
}