{
    "74": {
        "hyperparams": {
            "stocks": [
                "CRM",
                "VZ"
            ],
            "start": "2015-01-01",
            "end": "2025-01-01",
            "risk_aversion": 0.1,
            "n_qubits": 11,
            "budget": 3229,
            "log_encoding": true,
            "layers": 10,
            "prices_now": {
                "CRM": 333.80548095703125,
                "VZ": 38.672569274902344
            },
            "assets_to_qubits": {
                "CRM": [
                    0,
                    1,
                    2,
                    3
                ],
                "VZ": [
                    4,
                    5,
                    6,
                    7,
                    8,
                    9,
                    10
                ]
            },
            "optimizer": "CMAES",
            "lambda_budget": 10
        },
        "continuous_variables_solution": {
            "weights": {
                "CRM": 0.8427331765968925,
                "VZ": 0.15726682340310746
            },
            "allocation": {
                "CRM": 8,
                "VZ": 14
            },
            "value": -335.76806155706845,
            "left_overs": 17.14018210441236
        },
        "continuous_variables_solution_unconstrained": {
            "weights": {
                "CRM": 0.8455987996491799,
                "VZ": 0.18307374888989336
            },
            "allocation": {
                "CRM": 8,
                "VZ": 14
            },
            "value": -335.76806155706845,
            "left_overs": 17.140180804063675
        },
        "exact_solution": {
            "smallest_eigenvalues": [
                -0.258046621424973
            ],
            "smallest_bitstrings": [
                "10010110000"
            ],
            "first_excited_energy": -0.2580466182344526,
            "optimized_portfolio": [
                {
                    "CRM": 9,
                    "VZ": 6
                }
            ],
            "second_optimized_portfolio": [
                {
                    "CRM": 7,
                    "VZ": 23
                }
            ],
            "spectrum": [
                -2.1136479000957546e-16,
                -0.24387511438829873,
                -0.15988592068838797,
                -0.2517309376313445,
                -0.08942145553664878,
                -0.2573406820693731,
                -0.21137868190727568,
                -0.22699152249798812,
                -0.047079819128170934,
                -0.25298930199118924,
                -0.18800507104466424,
                -0.24175622347107587,
                -0.12702399921229118,
                -0.25692338898117356,
                -0.2300033654488133,
                -0.20742849125613602,
                -0.024132149725630755,
                -0.24902721672513267,
                -0.17453850076142596,
                -0.24734183163422088,
                -0.10881519503930066,
                -0.25772851047108103,
                -0.22128487552979678,
                -0.21781034382405925,
                -0.06884295252974977,
                -0.2557606950550318,
                -0.20028526613344833,
                -0.2349731282836879,
                -0.144047657514357,
                -0.2549244876048205,
                -0.23753363139627862,
                -0.195844825072606,
                -0.01221413293567281,
                -0.24659987700718566,
                -0.16736044062317906,
                -0.24968588736223438,
                -0.09926643055769145,
                -0.25768366464434045,
                -0.2164802106770595,
                -0.22255094767750985,
                -0.05810945782128537,
                -0.25452387875643984,
                -0.1942934898384917,
                -0.23851442482138882,
                -0.13568398626835637,
                -0.2560732141658177,
                -0.23391706044808055,
                -0.20178695761126056,
                -0.03575404703975157,
                -0.25115705278031997,
                -0.1814200590571582,
                -0.24469865096963714,
                -0.11806772629342978,
                -0.2574751194298529,
                -0.22579261506159323,
                -0.2127695721020452,
                -0.07928029024447954,
                -0.25669966044618303,
                -0.20598034820460098,
                -0.23113220470134418,
                -0.1521149805832842,
                -0.2534770994994782,
                -0.24085300721055067,
                -0.18960194512561968,
                -0.006144080872438973,
                -0.24527466860726738,
                -0.16366023559699933,
                -0.2507457808063194,
                -0.09438096804111722,
                -0.257549434287422,
                -0.2139665505385758,
                -0.22480873013416738,
                -0.05263165575426238,
                -0.2537938048741196,
                -0.19118635761564967,
                -0.24017275340446595,
                -0.1313910302881645,
                -0.25653561377380274,
                -0.23199734910667272,
                -0.20464529010778224,
                -0.029980113619824375,
                -0.2501293278527061,
                -0.1780163453620005,
                -0.24605763948087553,
                -0.11347849133232411,
                -0.2576391009109687,
                -0.2235758648930771,
                -0.2153274877183681,
                -0.07409864191892025,
                -0.2562674148611068,
                -0.20316989727432927,
                -0.23309012803990678,
                -0.14811836468841377,
                -0.2542381332021325,
                -0.23923047323235483,
                -0.19276098790183505,
                -0.018210156000286,
                -0.2478507297196777,
                -0.1709865307380311,
                -0.24855124259123204,
                -0.10407784047721531,
                -0.25774336085201016,
                -0.21891965487408974,
                -0.22021815800041797,
                -0.06351322392995377,
                -0.25517951255990445,
                -0.1973264614744245,
                -0.23678122180411645,
                -0.13990286333383978,
                -0.2555361766592301,
                -0.2357624908145289,
                -0.19885347542910256,
                -0.04145394919106133,
                -0.25211038103466327,
                -0.18474963621306728,
                -0.2432648507877125,
                -0.12258289670852639,
                -0.25723655313468347,
                -0.22793511798177338,
                -0.21013657924255677,
                -0.08438789550220659,
                -0.2570574201270769,
                -0.20871661208056108,
                -0.22909934174533667,
                -0.15603750077500655,
                -0.2526413723939339,
                -0.24240122406742345,
                -0.18636767780155644,
                -0.2503264862584211,
                -0.16705283633442858,
                -0.24663383331954192,
                -0.011354847128235205,
                -0.2579581068195023,
                -0.09873895080556395,
                -0.2163399516222907,
                0.09515283386208924,
                -0.2565113133215548,
                -0.13527672304925026,
                -0.23385933778757267,
                0.039504824096539964,
                -0.2546660816655794,
                -0.05743377888815332,
                -0.19407241192274818,
                0.15559740069789696,
                -0.2540111291151244,
                -0.15175965246435708,
                -0.2408395171488173,
                0.013476935627243392,
                -0.25690451983934753,
                -0.07868267279818005,
                -0.20579992909301614,
                0.12477500979071308,
                -0.25782699881565213,
                -0.11760338857347848,
                -0.22569294544696222,
                0.06672978752206822,
                -0.2512425973727455,
                -0.03499145469646166,
                -0.18115689545924749,
                0.18762113068944578,
                -0.2523168640265156,
                -0.1595549228851331,
                -0.2438848877835295,
                0.0009115901005898477,
                -0.2575794090581232,
                -0.08885983940335153,
                -0.21121834715935078,
                0.10981396369835623,
                -0.25731722242386196,
                -0.12658889917601254,
                -0.22992444161382897,
                0.052967609349786435,
                -0.253102483979225,
                -0.046361847988542246,
                -0.18776318665575462,
                0.1714590265391749,
                -0.25540928014610015,
                -0.14366694626225726,
                -0.23749768132141003,
                0.02634130697741631,
                -0.25593341842710365,
                -0.06820735282228328,
                -0.2000846379713683,
                0.14003610902277494,
                -0.258040631439815,
                -0.10832010275284433,
                -0.2211647995140154,
                0.08079148581803798,
                -0.24908639143110942,
                -0.0233224911651825,
                -0.17425346920234597,
                0.2040838597112858,
                -0.251358689235791,
                -0.1633410444001219,
                -0.24529641127751944,
                -0.005258984800216667,
                -0.25780578066950427,
                -0.0938366459638632,
                -0.21381624747002087,
                0.10244591770891624,
                -0.2569512838649753,
                -0.13097001651776424,
                -0.23192896168355237,
                0.046198800464053585,
                -0.25392131713100036,
                -0.05193511459150703,
                -0.1909549283042812,
                0.16349066289555186,
                -0.2547472190684715,
                -0.1477504838561088,
                -0.23920565998459653,
                0.019871735634513166,
                -0.2564559970479346,
                -0.07348228821157902,
                -0.2029793964743727,
                0.13236804411453384,
                -0.25797083388427694,
                -0.1129989731904955,
                -0.2234659569065795,
                0.07372318860978001,
                -0.25020153631428266,
                -0.029194301045663527,
                -0.17774232862854722,
                0.1958149078367374,
                -0.2532010106851777,
                -0.15569446216508287,
                -0.24239925805267298,
                0.007156892038045044,
                -0.25727898962020196,
                -0.08380851907990843,
                -0.20854624348564,
                0.1172569887140101,
                -0.2576091278429285,
                -0.12213336018974506,
                -0.22784577158363312,
                0.059811266427469825,
                -0.2522095786352284,
                -0.04071396582526855,
                -0.18449717856265732,
                0.17950250972223772,
                -0.25599731179765756,
                -0.13950902945348737,
                -0.23571557576942498,
                0.032885664724748735,
                -0.25533678100676166,
                -0.06285785398123772,
                -0.19711564577442955,
                0.14777922200397237,
                -0.2580363897220425,
                -0.10356676582133999,
                -0.2187894666695649,
                0.08793469542550782,
                -0.2478971585432613,
                -0.01737601119609286,
                -0.17069030816119904,
                0.2124280050114975,
                -0.169286901780252,
                -0.24958729141432062,
                -0.24738342487170092,
                -0.17566585558649347,
                -0.21781339956639859,
                -0.2221629711962334,
                -0.25798276385406427,
                -0.11004208571472361,
                -0.1959192085267786,
                -0.238256251708314,
                -0.2550557056768607,
                -0.1452485557712399,
                -0.23496862734919857,
                -0.2013016466996311,
                -0.2561612740391331,
                -0.07003816442422851,
                -0.18319529084241443,
                -0.2445167131608288,
                -0.2518125344649184,
                -0.16105535859438522,
                -0.22698346103417535,
                -0.21232870134205534,
                -0.25766581947828177,
                -0.09064034823317292,
                -0.20745860696337856,
                -0.23080523973324313,
                -0.2571125809107745,
                -0.1282444700667415,
                -0.24176869577810914,
                -0.18908098508203527,
                -0.2534686150764759,
                -0.04823440237418113,
                -0.17638915375402298,
                -0.24720069749206952,
                -0.24974620112851034,
                -0.1685100857660118,
                -0.2225465310358842,
                -0.21739488449333005,
                -0.2579727112826729,
                -0.10049120353260345,
                -0.20183697715525997,
                -0.23467960775615698,
                -0.2562324541532071,
                -0.1368962358571424,
                -0.23851681298259106,
                -0.19534056966175067,
                -0.2549634922893402,
                -0.05928655293628738,
                -0.1897053106912917,
                -0.24153525863476716,
                -0.2535823838109436,
                -0.1533015555699342,
                -0.2311241678492136,
                -0.20696432259865408,
                -0.25706202801298456,
                -0.08048938195682905,
                -0.21278408591803735,
                -0.22663305817477952,
                -0.2576960352006229,
                -0.11929313021939565,
                -0.24472424434473336,
                -0.18252278413776893,
                -0.2516765722936728,
                -0.03688156519934512,
                -0.17287504207519752,
                -0.24843116336222526,
                -0.24860186589280328,
                -0.1721253330333121,
                -0.22021698922255797,
                -0.21981618379886442,
                -0.25801483879027,
                -0.10530413274162335,
                -0.19891510953601713,
                -0.23650513974405102,
                -0.25568115455259177,
                -0.14110981863196032,
                -0.23677975615321104,
                -0.19835841491652093,
                -0.2555995158099617,
                -0.06469991693788944,
                -0.18648731566344667,
                -0.24306317475328604,
                -0.25273452229812365,
                -0.15721584906463898,
                -0.22909084379112568,
                -0.20968379271037588,
                -0.25740104007451153,
                -0.08560238767786159,
                -0.2101583661439799,
                -0.22875638133202547,
                -0.2574413953804931,
                -0.12380625500599769,
                -0.24328351389649286,
                -0.18583921855141156,
                -0.2526097438575168,
                -0.042595578929035864,
                -0.179829236749312,
                -0.2458958840574746,
                -0.25081642567192636,
                -0.1648200991987339,
                -0.2248020225192203,
                -0.2148990611135113,
                -0.25785637400463357,
                -0.09560328108206455,
                -0.20468481010722037,
                -0.23277964478838087,
                -0.2567095983619345,
                -0.13260779165105696,
                -0.24017979414031063,
                -0.19224809755932928,
                -0.2542531949407583,
                -0.05379805420395251,
                -0.19284927525359735,
                -0.239932954453959,
                -0.2543561134915442,
                -0.14931246291947775,
                -0.23308343011634633,
                -0.20417027823583486,
                -0.256648775362127,
                -0.07530131345954098,
                -0.21533576440332833,
                -0.22443525870032083,
                -0.257876493649458,
                -0.11470507930627023,
                -0.24609088282086775,
                -0.17913166786018198,
                -0.25066909124349923,
                -0.031092342364704102,
                -0.2431186191146852,
                0.00372817323098469,
                -0.15763711768219563,
                0.2412019041529306,
                -0.2098554959611915,
                0.11293124849718837,
                -0.08645026984729483,
                0.38859299965689803,
                -0.22885602568520488,
                0.055949179873082726,
                -0.12441596551961294,
                0.3125037060492391,
                -0.18611630731919396,
                0.17468005735528702,
                -0.04373683022752374,
                0.4694779410421603,
                -0.23657954347020135,
                0.029243874497626908,
                -0.14161943370966895,
                0.27625485419390255,
                -0.19857830336631116,
                0.143209431308834,
                -0.06568724225560342,
                0.4284354804257831,
                -0.21994803350553746,
                0.08384474106507865,
                -0.10602637113108514,
                0.34994942115345135,
                -0.172469320702288,
                0.20734393320766353,
                -0.02059853691872188,
                0.5117214978039304,
                -0.23999713605646014,
                0.016337362570099122,
                -0.14977647886165224,
                0.25857895002393994,
                -0.20436498991277172,
                0.12792133339701797,
                -0.07621714956556443,
                0.4083643108166846,
                -0.22455009242292814,
                0.0697481362479425,
                -0.1153694569863049,
                0.33107689409324176,
                -0.17944095103914956,
                0.19086278713270205,
                -0.032316201298321884,
                0.4904495111239146,
                -0.23286584095374954,
                0.04244778684742286,
                -0.13316594310823812,
                0.2942297332125215,
                -0.19249541656172656,
                0.15879563942441752,
                -0.05486048944148033,
                0.4488066443918189,
                -0.215049838851913,
                0.0982390818373078,
                -0.09638665915698523,
                0.36912141345853605,
                -0.16520138686956565,
                0.22412360245091253,
                -0.00858376893383082,
                0.5332940466687978,
                -0.24159489134596304,
                0.00999560734708509,
                -0.1537438467129996,
                0.2498530769909015,
                -0.20714726435875283,
                0.1203890453005697,
                -0.08137080452473382,
                0.39844118133033307,
                -0.2267400742254068,
                0.06281145738025788,
                -0.1199297804629083,
                0.32175289048898464,
                -0.18281566169085503,
                0.18273412679170126,
                -0.038063641029062775,
                0.4799261830128952,
                -0.23475970607290556,
                0.03580865066060427,
                -0.13742974662953106,
                0.2852049144682521,
                -0.1955738863258107,
                0.15096526542214783,
                -0.06031097528582877,
                0.4385835545254358,
                -0.21753595387034555,
                0.09100468889273426,
                -0.10124359655322694,
                0.3594979761665717,
                -0.1688723936573712,
                0.21569644565930976,
                -0.01462829523113967,
                0.5224701927695747,
                -0.23832535342275726,
                0.022753448402408026,
                -0.1457350094652534,
                0.2673795375939084,
                -0.20150867038008918,
                0.135528124708654,
                -0.07098929788714574,
                0.4183624048775561,
                -0.2222860792444796,
                0.07675922718838742,
                -0.11073498921703186,
                0.3404757324137419,
                -0.17599217191104902,
                0.19906605151028067,
                -0.026494502742789836,
                0.5010479433466907,
                -0.23089794768437885,
                0.04916129316539892,
                -0.12882801787795545,
                0.30332932537350626,
                -0.18934289122596382,
                0.16670056584270015,
                -0.04933577703498183,
                0.4591047673914697,
                -0.21248968681201416,
                0.1055479312159857,
                -0.09145555246465424,
                0.3788197491860103,
                -0.16145629628090682,
                0.2326254173193993,
                -0.002464949129349244,
                0.5441930780780073,
                -0.09567436079446547,
                -0.2577620404023913,
                -0.21466556161168912,
                -0.22472915252156886,
                -0.16464833070174914,
                -0.2507826271219025,
                -0.24571158982926647,
                -0.17954750787808907,
                -0.13253042130031592,
                -0.25665359679040034,
                -0.23256126719644135,
                -0.20453312040890803,
                -0.19202721021723831,
                -0.24014329698683506,
                -0.2541131729143707,
                -0.14976400270478202,
                -0.11469462920900227,
                -0.2578027939002354,
                -0.22420640168322367,
                -0.21522933870089242,
                -0.17893022831648717,
                -0.24605939596072396,
                -0.250506207799926,
                -0.16525603558317226,
                -0.14918168529448692,
                -0.25431377784540027,
                -0.23972979665063862,
                -0.19263951669134552,
                -0.20393906976669177,
                -0.23303350410935877,
                -0.25653196880850654,
                -0.13307027342525773,
                -0.10533255281860467,
                -0.2579311205378935,
                -0.21958420738579046,
                -0.2201287363728405,
                -0.1719373825708724,
                -0.2485700698995597,
                -0.24825732466120512,
                -0.17255177232729885,
                -0.14100412405775217,
                -0.25563255851135214,
                -0.23629384803704964,
                -0.19873605455030413,
                -0.19813129471304705,
                -0.23673766542906283,
                -0.2554711257990703,
                -0.14156742261610353,
                -0.12376058712352918,
                -0.25737698021559363,
                -0.2285321029460136,
                -0.21003084051605328,
                -0.1856268457385403,
                -0.24325050567364545,
                -0.25245817832952816,
                -0.15766015929811264,
                -0.15706309248942998,
                -0.2526971648397604,
                -0.24286906180027126,
                -0.18624337816339961,
                -0.2094505034991577,
                -0.22903070371701104,
                -0.25729563134781414,
                -0.12427240710568672,
                -0.10054047117764085,
                -0.2578837513941942,
                -0.2171619384304703,
                -0.22246630979527357,
                -0.16832988110876693,
                -0.2497136069678298,
                -0.2470215599941651,
                -0.17608713169965753,
                -0.13680428968107441,
                -0.25618028992171127,
                -0.2344646335373349,
                -0.20167201353238198,
                -0.19511628924749533,
                -0.2384777906907922,
                -0.25482928377347075,
                -0.14570327464107488,
                -0.11926462324790364,
                -0.25762707805042206,
                -0.22640631663584324,
                -0.21266748470395977,
                -0.1823155670499834,
                -0.24469223418222052,
                -0.251519311042632,
                -0.1614956236245051,
                -0.15315940902427158,
                -0.25354270610161106,
                -0.2413365179552788,
                -0.18947890564730702,
                -0.20673183138503162,
                -0.2310694407237062,
                -0.25695095214362673,
                -0.12870893925274413,
                -0.11005060558894157,
                -0.25790413802611073,
                -0.2219323635097513,
                -0.2177164176074106,
                -0.17547083253990878,
                -0.24735200368997512,
                -0.2494188764427487,
                -0.1689414126944147,
                -0.1451299230920626,
                -0.2550103915420763,
                -0.2380489045178177,
                -0.1957252276059464,
                -0.20107222285586537,
                -0.23492290776465885,
                -0.25603869039366245,
                -0.13735642835339887,
                -0.1281825201025277,
                -0.25705248998343444,
                -0.23058375504090076,
                -0.20731939088537824,
                -0.18886406122906677,
                -0.241734197602946,
                -0.25332280166804305,
                -0.15374962493246094,
                -0.16089273374674032,
                -0.25177714243766264,
                -0.24432742140291183,
                -0.18293291777795959,
                -0.21209508174610844,
                -0.22691727904735126,
                -0.25756599721862794,
                -0.11976065810268159,
                -0.25775349617084803,
                -0.09269314964770535,
                -0.21316637141994194,
                0.10389281849732278,
                -0.24493772487426432,
                -0.003934618991925534,
                -0.1624259715245547,
                0.23084227213164865,
                -0.2537146039330446,
                -0.05069456550050279,
                -0.1901685309535684,
                0.1649735868058962,
                -0.2314221051394411,
                0.047592399361627076,
                -0.12993546146356694,
                0.3015070617724488,
                -0.25632627548603165,
                -0.0722886952239558,
                -0.20226036327515748,
                0.1338352005331738,
                -0.23877232890470454,
                0.02123262516409881,
                -0.14677443649979613,
                0.2655746180091461,
                -0.2499184453537753,
                -0.027910104865668025,
                -0.17689052857028206,
                0.19730894265395135,
                -0.22288686255697052,
                0.07514551407572907,
                -0.11190854566758139,
                0.3386407236234098,
                -0.2571879414394172,
                -0.08263959238490139,
                -0.20786157526418192,
                0.11871456780695559,
                -0.24200311993744142,
                0.00849998597325273,
                -0.15474860422917897,
                0.2480585013349495,
                -0.2519645892939148,
                -0.03945116903507591,
                -0.18367782414978134,
                0.180991581687015,
                -0.22730262465153853,
                0.06121973698707666,
                -0.12107052896964944,
                0.31992366891201823,
                -0.255168497420539,
                -0.0616403798430194,
                -0.1963626958468667,
                0.14925483371367482,
                -0.23524533152797703,
                0.034263396260385846,
                -0.1385034093724803,
                0.28339075854985823,
                -0.24757616154351056,
                -0.016071284991468423,
                -0.16980659493010777,
                0.21392579642336224,
                -0.21817478892869838,
                0.08936983798631919,
                -0.1024494429144759,
                0.35765837198120615,
                -0.25750773274676314,
                -0.08770353370297661,
                -0.21055102294036598,
                0.11126633994540093,
                -0.2435074444968586,
                0.002245435222919789,
                -0.1586243843403937,
                0.23941290922964206,
                -0.2528766122100577,
                -0.0451100703252573,
                -0.1869602481628495,
                0.17294517131099868,
                -0.22939939832040415,
                0.05436876985685133,
                -0.12554012237196746,
                0.31067781843089626,
                -0.25578440061745383,
                -0.06700171980062312,
                -0.19934858906081668,
                0.14150763465726182,
                -0.23704585736936604,
                0.027710738024555176,
                -0.14267603414064686,
                0.2744451766769408,
                -0.2487843216874994,
                -0.02202791998623903,
                -0.17338564468261017,
                0.20557992492403532,
                -0.22056786664950892,
                0.08222035087383993,
                -0.1072161386071097,
                0.3481119643723252,
                -0.25679412236439075,
                -0.07750131613009924,
                -0.20509802366749003,
                0.1262375164848481,
                -0.24042474889185447,
                0.014829045242194139,
                -0.15079862404727104,
                0.25677906527017186,
                -0.2509785340903285,
                -0.033717850856707615,
                -0.18032125298059315,
                0.1891128335466774,
                -0.22513178061881498,
                0.06814531394529426,
                -0.1165266729031021,
                0.3292446312482876,
                -0.25447856540593145,
                -0.05620466518282907,
                -0.1933026783044738,
                0.1570768127102094,
                -0.23337074847144498,
                0.0408906124596465,
                -0.13425655444672382,
                0.2924113810554376,
                -0.2462939632225847,
                -0.010040188503170486,
                -0.16615337277406841,
                0.2223465733696,
                -0.21570762527557566,
                0.09659398921109356,
                -0.0976084496312339,
                0.36727996508746136,
                -0.22083761489514522,
                -0.21935088585439844,
                -0.25803951565247174,
                -0.10454107850269333,
                -0.24891666069151328,
                -0.17148173934580868,
                -0.24819221578884818,
                -0.018475294307597853,
                -0.23724617605691148,
                -0.19779728848680753,
                -0.255488394981535,
                -0.06390256454621336,
                -0.2558482524806545,
                -0.14039846648456988,
                -0.23614768394184624,
                0.031748981974252646,
                -0.2296341282194352,
                -0.2091689945930068,
                -0.25735690594634236,
                -0.0848199246470565,
                -0.2529748934090649,
                -0.15653645332430147,
                -0.24276372402782645,
                0.006036678270449399,
                -0.24367371444155864,
                -0.18523510411621813,
                -0.25243362906525224,
                -0.041788025053798354,
                -0.2575365390768753,
                -0.12306696054364134,
                -0.22834358697471605,
                0.05866274481356917,
                -0.225383928507604,
                -0.21440862712791758,
                -0.2578464278632798,
                -0.09482996804621562,
                -0.2510938753415339,
                -0.16415813430698484,
                -0.24562638317653365,
                -0.006369280421021691,
                -0.24060801319105227,
                -0.19166504906062296,
                -0.25410931751046667,
                -0.05299500455793801,
                -0.2568405437773614,
                -0.1318819560567789,
                -0.23239417586552477,
                0.04505560898902413,
                -0.2335882121644983,
                -0.20363190895182892,
                -0.25657090931967136,
                -0.07451083029153067,
                -0.2545596936700402,
                -0.14861659774199684,
                -0.23960417840281553,
                0.018742719138424315,
                -0.24644326826332671,
                -0.17850736467679243,
                -0.25046127938494367,
                -0.03028149834114742,
                -0.2579362074761676,
                -0.1139533716104341,
                -0.2239958476505459,
                0.07257053649845865,
                -0.22314778591684023,
                -0.21691692335561824,
                -0.2579800235819903,
                -0.0997228826109554,
                -0.2500422913573515,
                -0.1678571902479153,
                -0.24694639914801633,
                -0.012459771973717212,
                -0.23896411098238832,
                -0.19476837649696413,
                -0.25483592957097956,
                -0.05848620410528949,
                -0.25638143329173907,
                -0.13617751522994334,
                -0.23430806074883762,
                0.03836474097655615,
                -0.23164818487396763,
                -0.20643763846133767,
                -0.25700096960261887,
                -0.0797027663092159,
                -0.2538043221863972,
                -0.15261380361860777,
                -0.2412210658656246,
                0.012352179752127192,
                -0.24509551059712506,
                -0.18190846436395447,
                -0.2514845401153149,
                -0.03607221317384827,
                -0.2577734161650095,
                -0.11854749711998748,
                -0.22620686556250177,
                0.06557904938828914,
                -0.22754604266101922,
                -0.2118259874859182,
                -0.25763872365044044,
                -0.08986232028361392,
                -0.25207141021790186,
                -0.16038455941789798,
                -0.24423216060876116,
                -0.0002038027049109081,
                -0.24217788146661592,
                -0.1884872952825349,
                -0.25330855274422426,
                -0.047428950169429,
                -0.25722558030149373,
                -0.1275117756500857,
                -0.2304060208163984,
                0.05182160416612693,
                -0.2354542094796749,
                -0.20075179577416885,
                -0.2560667196466655,
                -0.06924410146420625,
                -0.2552410048289015,
                -0.1445448229844139,
                -0.23791305376882502,
                0.02520831397887639,
                -0.24771698561894176,
                -0.1750317935545503,
                -0.24936384021343425,
                -0.024415864216030286,
                -0.25802490876938744,
                -0.10928457009505545,
                -0.22171052415840378,
                0.07963722490348384,
                -0.20642182375368504,
                0.12221113714536284,
                -0.08004605401631797,
                0.40057240143604617,
                -0.15271139536716682,
                0.2518586498823671,
                0.011587164876341791,
                0.5684050014121639,
                -0.18193555055335395,
                0.1846545146036614,
                -0.03660162670728628,
                0.48209517011246067,
                -0.11874866680328879,
                0.32382919000184945,
                0.06452348994066846,
                0.6595100201697908,
                -0.19477090338716677,
                0.15283805988832944,
                -0.05891671201815024,
                0.44073588655110235,
                -0.1363224201668337,
                0.2872477422008333,
                0.037461663450631504,
                0.6133575803591661,
                -0.1679157369020393,
                0.21766114909513287,
                -0.013100460006735221,
                0.5246512096506789,
                -0.09998995206293239,
                0.36160379595258224,
                0.09277313728683544,
                0.7068634332379857,
                -0.2007444173692877,
                0.1373759459956988,
                -0.0696295813138469,
                0.4205047275211085,
                -0.1446649950988897,
                0.269404200260641,
                0.024376027470454302,
                0.5907313762899964,
                -0.17507370461411034,
                0.201009017377306,
                -0.024999326172871348,
                0.5032235340264631,
                -0.1095174425683997,
                0.34256729652946555,
                0.078499803685624,
                0.6830365340097325,
                -0.18850128189315735,
                0.16859755616911704,
                -0.04790740749921461,
                0.46126599458773637,
                -0.12768365129891,
                0.30538937240672787,
                0.05084413080481028,
                0.6362837490393067,
                -0.16046163782401415,
                0.23461099678196576,
                -0.0009049798999027285,
                0.5463783227257738,
                -0.09016616633583573,
                0.38093879465394714,
                0.10734355841120195,
                0.7309908629531475,
                -0.20362013411108734,
                0.12975638317983906,
                -0.07487486491938104,
                0.41050121751979624,
                -0.1487252159560162,
                0.2605941820757299,
                0.017944503029864896,
                0.5795307185713685,
                -0.1785416423002859,
                0.19279456771699133,
                -0.030837544219254148,
                0.49262194586995695,
                -0.1141700862547471,
                0.33316095070812063,
                0.0714745234657742,
                0.6712357378903645,
                -0.19167310616830452,
                0.16068063030156604,
                -0.05344911667048423,
                0.4509635645952112,
                -0.13204006127388207,
                0.2962812901320598,
                0.04411578948720347,
                0.6247831605646169,
                -0.16422570447786225,
                0.22609885290885115,
                -0.007039799809738094,
                0.5354773285535529,
                -0.09511509800604963,
                0.3712339761500411,
                0.10002120758492201,
                0.7188895726215202,
                -0.19779467376586515,
                0.14506983503432364,
                -0.06431019859781495,
                0.43058294572084505,
                -0.14053073061362695,
                0.27828871629822377,
                0.030881745219751296,
                0.6020069912686495,
                -0.17153173652253578,
                0.20929787423585824,
                -0.019086966756366744,
                0.5138999500727158,
                -0.10479073235221646,
                0.35204824053687794,
                0.08559933883172922,
                0.6949124264383717,
                -0.18525543019437007,
                0.17658884753729814,
                -0.042291579297505225,
                0.47164319141447547,
                -0.1232531874548219,
                0.31457200149089387,
                0.057646695030028484,
                0.6478593630887746,
                -0.1566235353632684,
                0.24319759197066412,
                0.0053040061394771625,
                0.5573542082630104,
                -0.08514315305532509,
                0.3907182651402285,
                0.11474019860212221,
                0.7431673227482777,
                -0.05059490759671454,
                -0.2535762881497952,
                -0.190033463909238,
                -0.2409877362616906,
                -0.1297926190440981,
                -0.2568193565110381,
                -0.2313028535706543,
                -0.2060271937519891,
                -0.09256284701282351,
                -0.25757915596210923,
                -0.21304088958773357,
                -0.22590235705097342,
                -0.16228332929320385,
                -0.2512910397707108,
                -0.24481598364639814,
                -0.18135391852459903,
                -0.07217111652544482,
                -0.2561727140346644,
                -0.20213017289461258,
                -0.23404327337476213,
                -0.14663043698866035,
                -0.25465165262605344,
                -0.2386532578075534,
                -0.19429086481675836,
                -0.11177004533295547,
                -0.2577949407526715,
                -0.22276525053592314,
                -0.21656400438408016,
                -0.17675108736844117,
                -0.2467366899021573,
                -0.2497905127711181,
                -0.16721521710587436,
                -0.06153107002071808,
                -0.2550232085255291,
                -0.19623004623500231,
                -0.23766500157853113,
                -0.13835963219688902,
                -0.2558845679495006,
                -0.23512648460644445,
                -0.20030903685572518,
                -0.10231451756400166,
                -0.2578359240855552,
                -0.2180513887580748,
                -0.22138292320439332,
                -0.16966536465865392,
                -0.2491631352281017,
                -0.24745180670511588,
                -0.17443485982899753,
                -0.08251504402476893,
                -0.25702472415937855,
                -0.2077338020860944,
                -0.23012243241671312,
                -0.1546050109753624,
                -0.2531205106649524,
                -0.24188311201408433,
                -0.18797253904349442,
                -0.12092941755459728,
                -0.2574561157666746,
                -0.22718242344034192,
                -0.21144547167740335,
                -0.18354046529955378,
                -0.24401159423816987,
                -0.25183203100554535,
                -0.15969484208467402,
                -0.056100003200264,
                -0.25433692025814425,
                -0.1931688095122874,
                -0.23936373575260403,
                -0.1341131503573887,
                -0.2563892219277948,
                -0.2332517725899119,
                -0.2032056086292419,
                -0.09747569943289343,
                -0.2577447534130957,
                -0.21558321572392866,
                -0.22368006778688157,
                -0.16601138414471925,
                -0.25026439834467545,
                -0.24617103046693847,
                -0.17793195300784986,
                -0.0773800954381861,
                -0.2566359111469587,
                -0.20496905238101418,
                -0.23212024953664787,
                -0.15065475432991898,
                -0.25392336631196566,
                -0.24030530370215605,
                -0.19116922990340934,
                -0.11638675177952941,
                -0.2576627641981312,
                -0.22501092640939094,
                -0.21404219791809784,
                -0.1801828215335413,
                -0.24541148030410959,
                -0.2508484248892283,
                -0.16349263049396495,
                -0.06688810789916107,
                -0.2556351431140722,
                -0.19921716907898748,
                -0.23589151906211417,
                -0.14253206198394247,
                -0.25530538231853683,
                -0.2369269822021153,
                -0.1973374613343419,
                -0.10707930003736184,
                -0.25785265693174014,
                -0.22044540248190644,
                -0.21901090741628002,
                -0.17324526704648083,
                -0.24798723695350308,
                -0.2486583037329225,
                -0.17086262068107358,
                -0.08757596152134241,
                -0.2573391426291099,
                -0.2104244164065224,
                -0.22804980673266342,
                -0.15848120374139832,
                -0.252243072822463,
                -0.24338667472026684,
                -0.18470077453498013,
                -0.12539804068443805,
                -0.25717498380561415,
                -0.22927973481557487,
                -0.20877380916983249,
                -0.18682401427301773,
                -0.24253701763191599,
                -0.25274132188712584,
                -0.15582183296609825,
                -0.25679772535447826,
                -0.13263069743961564,
                -0.23265782544617186,
                0.04351130742834322,
                -0.2542056454005783,
                -0.05409447719667773,
                -0.1921406762814703,
                0.1602398906735175,
                -0.2578706907104586,
                -0.09574334288450702,
                -0.21477165349919908,
                0.09948153492505245,
                -0.24580181995396286,
                -0.007678375276719506,
                -0.16476164650784542,
                0.2257945775874148,
                -0.25792643547117716,
                -0.11478187543234315,
                -0.22430766137361374,
                0.07089839362992827,
                -0.2505961524836973,
                -0.03148271278183283,
                -0.17904489511687086,
                0.1924171558552774,
                -0.256630452962238,
                -0.07551444223245239,
                -0.20404945398605767,
                0.12926169860415407,
                -0.23982245483789658,
                0.017319347745707883,
                -0.1492904277541302,
                0.2603732780237586,
                -0.2575101364029619,
                -0.12385496066815956,
                -0.22863095365765834,
                0.05705540258575782,
                -0.2525489933452389,
                -0.042937617361186065,
                -0.18574118922329602,
                0.17617857231787665,
                -0.25739863735400453,
                -0.0857777311815731,
                -0.2095588509496115,
                0.11422192699861596,
                -0.24296028004240142,
                0.004671260755801735,
                -0.1571745663301782,
                0.2429336963206086,
                -0.258046621424973,
                -0.1054113631663214,
                -0.21968790874404,
                0.0850403978425482,
                -0.24834710232387672,
                -0.019729665534847396,
                -0.17205173475427524,
                0.20895577792533712,
                -0.2555661267220472,
                -0.0649533877923368,
                -0.19824341307957766,
                0.1446009767023221,
                -0.2363883141694125,
                0.03026599329573082,
                -0.1411091618928176,
                0.2781134690154442,
                -0.25719094489989053,
                -0.1282799927960883,
                -0.23068143971775268,
                0.050246000256790865,
                -0.253414341787451,
                -0.04855329684620026,
                -0.1889780300274399,
                0.16817175220452185,
                -0.25767167983034794,
                -0.0907977412680341,
                -0.21220232352511198,
                0.1068143163608571,
                -0.24441808386863126,
                -0.0015408569994823746,
                -0.16100523450789972,
                0.2343265881331575,
                -0.25802354275278233,
                -0.11013380268299457,
                -0.22203484518716443,
                0.07793201166555512,
                -0.2495086549413469,
                -0.025643463206550726,
                -0.17558542701261085,
                0.2006489534392276,
                -0.2561353083435359,
                -0.07027114130859073,
                -0.2011835172157646,
                0.13689389131209742,
                -0.23814242591686305,
                0.023755343881012914,
                -0.14523694013408345,
                0.2692057881191023,
                -0.2577552999487744,
                -0.11935559146194903,
                -0.22650636251148976,
                0.0639395288486055,
                -0.2516095977392849,
                -0.03724742672801515,
                -0.18243014669489738,
                0.18426036786668298,
                -0.257051562156642,
                -0.08068330182137397,
                -0.2068412298084276,
                0.12170438248155967,
                -0.24142840493074372,
                0.010957991212623575,
                -0.15326963359066917,
                0.2516159202127409,
                -0.2579956709678937,
                -0.10061454668350846,
                -0.2172668466849079,
                0.0922235671992042,
                -0.24711149169169075,
                -0.013741307148166765,
                -0.1684438105627896,
                0.2173376467716426,
                -0.25492290636804654,
                -0.05956117027500566,
                -0.1952291350082923,
                0.15238297102299586,
                -0.23456011544608127,
                0.036851309818287624,
                -0.13690708404138785,
                0.28709633938069246,
                -0.19781998755273436,
                -0.237226794781232,
                -0.25546919172527394,
                -0.14286115031068367,
                -0.23612275641362576,
                -0.19958005092306025,
                -0.2558452045720445,
                -0.06701635900018461,
                -0.21934042027808756,
                -0.22078447123340667,
                -0.258029768672476,
                -0.10733323652267358,
                -0.24816616402524508,
                -0.17360774628755526,
                -0.2489121896756096,
                -0.021902252366309855,
                -0.20917243819066114,
                -0.22960055757737402,
                -0.25734244016796,
                -0.12569532149483684,
                -0.24273690247821153,
                -0.1871902700660221,
                -0.25297248453000587,
                -0.045059500105632,
                -0.228323887897022,
                -0.2107778703777703,
                -0.25753082159404406,
                -0.08777392029585242,
                -0.25241034027334236,
                -0.15883165935270765,
                -0.24366380950068964,
                0.0024565141795153027,
                -0.2036442700829739,
                -0.23356236724843255,
                -0.25655403522342857,
                -0.1344277084909913,
                -0.23957792897411426,
                -0.19353420360737328,
                -0.2545572610081472,
                -0.05618790904823407,
                -0.2239802227783287,
                -0.21593002821760798,
                -0.2579286033212657,
                -0.0977032947720795,
                -0.250436401872835,
                -0.16636895099170151,
                -0.24643654367231313,
                -0.009873131079156258,
                -0.21440448976565893,
                -0.2253412862262238,
                -0.25783436573288515,
                -0.11666387106453825,
                -0.24559965545785648,
                -0.18054815139924874,
                -0.25109081495371005,
                -0.03363099455677276,
                -0.23237140384506846,
                -0.20532790849310067,
                -0.2568363729858677,
                -0.07754498515734902,
                -0.25408794807974416,
                -0.15099576279185545,
                -0.24059391729786658,
                0.015086830704272698,
                -0.20076914308331048,
                -0.2354317489052708,
                -0.25604866583645053,
                -0.1386817902513112,
                -0.23788736632868604,
                -0.19659438195671103,
                -0.2552383332374026,
                -0.06163962039158639,
                -0.2216973380586039,
                -0.2183944585967328,
                -0.2580162599818333,
                -0.10255568683656151,
                -0.24933831852775754,
                -0.17002565399087155,
                -0.24771149842309378,
                -0.015925248107783438,
                -0.21182547877115096,
                -0.22750810967769586,
                -0.2576254655190183,
                -0.12121698669458165,
                -0.2442053079698652,
                -0.18390649014906874,
                -0.25206876523514243,
                -0.039382768102480904,
                -0.23038466534871624,
                -0.20809012061186033,
                -0.2572206839011551,
                -0.08269690589994662,
                -0.2532861875420169,
                -0.15495104356820497,
                -0.24216601261412876,
                0.008734079233201662,
                -0.20644536851480746,
                -0.23161864009483757,
                -0.2569852950098089,
                -0.13009889047436396,
                -0.24119444189325331,
                -0.1903995037394283,
                -0.2538019805881387,
                -0.05066120799502712,
                -0.2261890731904749,
                -0.21339116917028084,
                -0.2577667926045033,
                -0.09277604456399786,
                -0.2514604103939505,
                -0.16263762394455467,
                -0.24508731691725907,
                -0.0037458830954580826,
                -0.21690947053233292,
                -0.22310007690214279,
                -0.25796913532822585,
                -0.11203595944441168,
                -0.2469199418805915,
                -0.1771152410760064,
                -0.25003862578463465,
                -0.027804161888472047,
                -0.2342841015343571,
                -0.20249122249080637,
                -0.25637788215697604,
                -0.07231814169789459,
                -0.2548156176150622,
                -0.1469658030732344,
                -0.2389475144409601,
                0.02151478738263386,
                -0.22752796340809092,
                0.060211949528694665,
                -0.12159931344818282,
                0.3181294766389235,
                -0.1840411813961535,
                0.17963725733669744,
                -0.040189270060237474,
                0.47574134196759793,
                -0.20815352720860894,
                0.1175441482457029,
                -0.08326651893668276,
                0.3945417704832111,
                -0.1551902189630812,
                0.24649693943785625,
                0.0076356180030627135,
                0.5617363315425271,
                -0.21843296401939907,
                0.08828326480780667,
                -0.10302579813408654,
                0.35573769843680286,
                -0.17020809564257697,
                0.21247089864883975,
                -0.01687050417571861,
                0.5181388765181866,
                -0.19668962267353737,
                0.14799524959813354,
                -0.06232113582700466,
                0.4345426522606814,
                -0.13898736619209046,
                0.2817161843228872,
                0.03332959136846506,
                0.6065348213865444,
                -0.22312851800995856,
                0.07409895024579922,
                -0.1124607565370755,
                0.33678416471211786,
                -0.1772727273245942,
                0.1959050768345189,
                -0.02867827723632627,
                0.4967901873179558,
                -0.20256963681283277,
                0.1326208795605288,
                -0.0729421131350264,
                0.41439254867556813,
                -0.1472369276742087,
                0.26395735956733396,
                0.02033409084432606,
                0.5839853759531188,
                -0.2134413012782502,
                0.10276497080457479,
                -0.09329439936520585,
                0.3749901941186859,
                -0.1628472668340149,
                0.22933481972744504,
                -0.004765892646480465,
                0.53978754523192,
                -0.19051347495359944,
                0.16366734562733587,
                -0.0514035384596459,
                0.4549922072232228,
                -0.13044150532167803,
                0.29977352033125443,
                0.04662218748637582,
                0.6293848131854001,
                -0.22536525436771412,
                0.06711829041147917,
                -0.11706708284400978,
                0.32741947214366957,
                -0.18069397543644689,
                0.18773392276076034,
                -0.03447086763289425,
                0.4862282925459986,
                -0.2053985969583618,
                0.1250453144225486,
                -0.07814138453411033,
                0.40442975168481515,
                -0.15125060536263157,
                0.25518985549398704,
                0.01394773011324476,
                0.5728233126093595,
                -0.21597414634705456,
                0.09548693893295827,
                -0.09819715631952929,
                0.36532656866946683,
                -0.1665647071933903,
                0.2208655906263499,
                -0.010855306953695382,
                0.5289257048623675,
                -0.19363856622049033,
                0.15579407631496256,
                -0.05689941777982439,
                0.44472999035121114,
                -0.13475147509963298,
                0.2907075316617768,
                0.0399387481392468,
                0.6179222398118608,
                -0.22081775454190458,
                0.08115393850353668,
                -0.10778032989497917,
                0.34622356865563003,
                -0.1737774348479354,
                0.20415073144959306,
                -0.0228114918183927,
                0.5074270430145729,
                -0.19966664576923268,
                0.14027085434139522,
                -0.06766869889715922,
                0.4244301769767013,
                -0.14314918247528327,
                0.27279946475939315,
                0.02679470845831771,
                0.5952225395147783,
                -0.21083442841513114,
                0.11011737049947286,
                -0.08831752203378009,
                0.38472858970075646,
                -0.15905577174685454,
                0.23787859844868367,
                0.0013977464030022007,
                0.5507244149628827,
                -0.18731434726514,
                0.1716150688219406,
                -0.04583349141926364,
                0.46532931900288405,
                -0.12605745283076122,
                0.30891416403775035,
                0.05337991827679841,
                0.6409225600530704,
                -0.13523835913096074,
                -0.2564323739953605,
                -0.23378221498923188,
                -0.20295519091603653,
                -0.19398859087520157,
                -0.23923049757913134,
                -0.2546048927044945,
                -0.1475524702092368,
                -0.16698254194230208,
                -0.2502126277392802,
                -0.24656620547822342,
                -0.17764851846388158,
                -0.21625564276394063,
                -0.22348016472065715,
                -0.2578949356880582,
                -0.11265874954357956,
                -0.1517026875209838,
                -0.25391745937809374,
                -0.2407671885277234,
                -0.19090003232464287,
                -0.20571456959535342,
                -0.2319517443592307,
                -0.2568437277352684,
                -0.1307058616632224,
                -0.18107787257297106,
                -0.24531720980341198,
                -0.25117890629200457,
                -0.16319967033145966,
                -0.2256116056956274,
                -0.2138149345245088,
                -0.2577580021507432,
                -0.09340999998462333,
                -0.1436185809705268,
                -0.2553236159970386,
                -0.23742292537251888,
                -0.19707709635370488,
                -0.19999968214872735,
                -0.23574017427517113,
                -0.25587273296621016,
                -0.1392791595286653,
                -0.17417827735767702,
                -0.24791378540053577,
                -0.24902086938633713,
                -0.17057382388160966,
                -0.22108177731456755,
                -0.21879680896329864,
                -0.25797502026875896,
                -0.10318465182295881,
                -0.1594906761841998,
                -0.2522138241086975,
                -0.243814963140865,
                -0.18442388008317423,
                -0.21113323125902325,
                -0.22786510844355673,
                -0.2575178163397661,
                -0.12183243850930721,
                -0.18768131531109106,
                -0.24242281123912096,
                -0.25304026520228484,
                -0.15552592938879545,
                -0.22984509627210162,
                -0.20853443233757266,
                -0.2572438109831461,
                -0.08333464624601149,
                -0.1394654843940201,
                -0.25591516491643423,
                -0.235639623596783,
                -0.20005350749112827,
                -0.1970311607125945,
                -0.23752259313643562,
                -0.2552759148244614,
                -0.14345330473010648,
                -0.1706174265022022,
                -0.24910041771492752,
                -0.24783061271504817,
                -0.17414859561171156,
                -0.2187057464277822,
                -0.22117579495500841,
                -0.25797211151334004,
                -0.10795926080609448,
                -0.15563369684540138,
                -0.2531028316710868,
                -0.24232813957869684,
                -0.18769934974658473,
                -0.20846093011683245,
                -0.22994570845761575,
                -0.2572178891946028,
                -0.1263066744733198,
                -0.1844166138635177,
                -0.24390724409348358,
                -0.252146673778149,
                -0.15940025640525282,
                -0.22776539528114767,
                -0.2112120188107501,
                -0.25753805768959365,
                -0.0884099201837832,
                -0.14769764876256428,
                -0.2546577174602948,
                -0.23913211537904236,
                -0.19402594288740654,
                -0.20289415266594382,
                -0.23388322879872028,
                -0.2563953397726037,
                -0.13503001756881505,
                -0.17766509320093996,
                -0.24665271980935816,
                -0.250136969344823,
                -0.1669241874473466,
                -0.22338373169676948,
                -0.2163431933390397,
                -0.2579036533873074,
                -0.09833490434820284,
                -0.16327362483452815,
                -0.25125042630910976,
                -0.24522765367189556,
                -0.18107360811311501,
                -0.2137314698993343,
                -0.2257099315154994,
                -0.25774350120868716,
                -0.11728313613014978,
                -0.1908719750029711,
                -0.24086389964864297,
                -0.25385967381221247,
                -0.15157667285092255,
                -0.23185070433602864,
                -0.20578216109355443,
                -0.2568752528594615,
                -0.0781841593204035,
                -0.2531937953359848,
                -0.04724019289871748,
                -0.18815946952509,
                0.16978968448290077,
                -0.23015434269690585,
                0.05174062304078134,
                -0.12719583646367222,
                0.3069599758127875,
                -0.24404305003171264,
                -0.00013039125120321949,
                -0.16004996884886485,
                0.23598097772932228,
                -0.2115269350923069,
                0.10837854384502914,
                -0.08959385631598728,
                0.382734850415358,
                -0.24921064599511664,
                -0.024280111986187073,
                -0.17469762134465822,
                0.20228735453420463,
                -0.22143304676568856,
                0.0794633400647304,
                -0.10898855256089197,
                0.34424739362165074,
                -0.23769097323963637,
                0.025209622965936186,
                -0.144216168104792,
                0.2708715174547382,
                -0.20043581860723186,
                0.13848704290477215,
                -0.06901124893264879,
                0.4224234644437858,
                -0.25135027586782216,
                -0.035908818078865354,
                -0.18157675099082443,
                0.18588908406489363,
                -0.22594178639456056,
                0.06545296972856755,
                -0.1182405913926158,
                0.325453748222393,
                -0.24101507538948,
                0.01239078680602779,
                -0.15228136001600848,
                0.2532765713017504,
                -0.20612951578041425,
                0.12328357941993882,
                -0.07945107420372942,
                0.40242894137227675,
                -0.24677490507171243,
                -0.012353996542830526,
                -0.16752204122458614,
                0.21898461268453398,
                -0.21662810380621103,
                0.09377183148504543,
                -0.0994396612485718,
                0.3633410481621841,
                -0.23407073325706498,
                0.03832620498533582,
                -0.1358543440742487,
                0.2887659426609505,
                -0.1944458138897181,
                0.15398904141426661,
                -0.05827431210385478,
                0.4427185654604719,
                -0.25230904945660754,
                -0.04161166711255003,
                -0.18490515928134077,
                0.1778020326180676,
                -0.22808508630581478,
                0.058559549423842415,
                -0.12275530957275337,
                0.31616938630883923,
                -0.24256607809824884,
                0.006092995904857384,
                -0.15620273434669224,
                0.24459136325298622,
                -0.20886525840835243,
                0.11579376474389376,
                -0.08455959147430171,
                0.39254435089938405,
                -0.24802978954965796,
                -0.018354235407730467,
                -0.1711468901485071,
                0.2105986027551148,
                -0.2190676020470518,
                0.08658031445511159,
                -0.10425121722932283,
                0.35375671114526025,
                -0.23591787121728305,
                0.03173069016387769,
                -0.14007233826401752,
                0.27978128717712886,
                -0.19747785664122797,
                0.14620071849224425,
                -0.06367992383241745,
                0.43253343350004897,
                -0.25031747471570914,
                -0.030131636264782585,
                -0.17817423996014156,
                0.194050853195741,
                -0.22372444068948286,
                0.07242089590757862,
                -0.11365167481012016,
                0.334813078345551,
                -0.23939004084161694,
                0.01876299219505912,
                -0.148285839953543,
                0.2620366174578458,
                -0.2033197037249618,
                0.13084800103565677,
                -0.07426829618125995,
                0.41238863983600876,
                -0.24544599210242676,
                -0.006279385253671386,
                -0.16382306927456203,
                0.22744539929975977,
                -0.21411454916457215,
                0.10103790371208783,
                -0.09455387690056298,
                0.3730004220694593,
                -0.23214955769025888,
                0.0449961787779971,
                -0.13156217902728004,
                0.29782550009336967,
                -0.19133968626423853,
                0.1618520254382651,
                -0.05279440481901443,
                0.4529788789319618,
                -0.238339781890566,
                -0.19595956602846717,
                -0.2550943963921586,
                -0.06070564321295264,
                -0.2561951113110334,
                -0.13786803868701583,
                -0.23502379807123056,
                0.03558110448471512,
                -0.24963647436027733,
                -0.16929470527711013,
                -0.24743158475685015,
                -0.014956543306235807,
                -0.25801489204034594,
                -0.1016738099271602,
                -0.2178677578185442,
                0.09091553430519168,
                -0.24458035921879037,
                -0.18322202580934663,
                -0.2518559317459009,
                -0.03842917130844777,
                -0.25769743294468034,
                -0.12036725354640194,
                -0.22703953874547286,
                0.06264818280977706,
                -0.25350808530098684,
                -0.1541769429641507,
                -0.2418210036841836,
                0.009713211988072647,
                -0.2571472917205975,
                -0.08178689149829245,
                -0.20750794868622963,
                0.12038428502874036,
                -0.2416081272144808,
                -0.18973947862865906,
                -0.2536233788904154,
                -0.04971686758560199,
                -0.2570943691526028,
                -0.12926667891818772,
                -0.23118007845807262,
                0.0489646783672255,
                -0.2517203469939448,
                -0.1618846721972841,
                -0.24477459697710766,
                -0.0027713687825808176,
                -0.25772923812457565,
                -0.09187958759695462,
                -0.21283638995316112,
                0.10549966287250016,
                -0.24725647628135097,
                -0.1764071285166908,
                -0.2497920146206236,
                -0.02684243661180187,
                -0.2580042817071974,
                -0.1111696641598942,
                -0.22260211923751547,
                0.07663175493998166,
                -0.2549996779802995,
                -0.14617142884490866,
                -0.23857075486112247,
                0.022497326454374425,
                -0.25626902216938235,
                -0.0713956135404472,
                -0.20188236464287065,
                0.13556954758048645,
                -0.24001096871061103,
                -0.19288668815965718,
                -0.2543959389200296,
                -0.05524861321441845,
                -0.2566817632712712,
                -0.1336046109467573,
                -0.2331390371406081,
                0.04223540858191977,
                -0.2507154268561416,
                -0.16562689530508135,
                -0.24614016352458848,
                -0.00890137395426362,
                -0.2579090998218187,
                -0.09681400132196517,
                -0.21538920381963722,
                0.09817004597111921,
                -0.24595543231369446,
                -0.17985176275757297,
                -0.2508610345465031,
                -0.03267319121768791,
                -0.25788788561040993,
                -0.11580573560024478,
                -0.22485794279142965,
                0.06960245174892583,
                -0.25429090064495014,
                -0.150211414655615,
                -0.24023296443450123,
                0.016067819449205795,
                -0.25674519934910617,
                -0.07662858210195907,
                -0.2047323039420544,
                0.12793932698524324,
                -0.2431312574262576,
                -0.18651792778059326,
                -0.2527767114879163,
                -0.04411039183214322,
                -0.2574329265593697,
                -0.12485423052668719,
                -0.22914691478848523,
                0.05576893075473304,
                -0.25265123358790104,
                -0.1580680250889683,
                -0.24333487908914062,
                0.00343348791304314,
                -0.2574753033430896,
                -0.08687055546763835,
                -0.21020930777410612,
                0.11290440313330559,
                -0.24848349054090765,
                -0.1728881128268863,
                -0.2486488665479286,
                -0.02093689239149421,
                -0.2580466182344526,
                -0.10645902654579566,
                -0.22027206024365611,
                0.08373610990198034,
                -0.2556344155163138,
                -0.14205697406234896,
                -0.23683436833384539,
                0.029001749312744456,
                -0.2557187559709668,
                -0.06608797192433138,
                -0.1989581217387342,
                0.1432749655433763,
                -0.17980019532529473,
                0.18972573759559647,
                -0.03297733621621114,
                0.48853067840312375,
                -0.1158661338759502,
                0.3295954268209141,
                0.06887903730494159,
                0.6665839770215273,
                -0.15020209130721243,
                0.25728028004762044,
                0.015578713925020499,
                0.5751639043818647,
                -0.07679164725548111,
                0.4066768093200382,
                0.12692678751384603,
                0.7627990055409372,
                -0.16559335695430422,
                0.22290826104682984,
                -0.009292172398442999,
                0.5312494181886522,
                -0.09692127314777314,
                0.3675399624445574,
                0.09730926275897243,
                0.714091590772682,
                -0.1336263719857874,
                0.2928424404497663,
                0.04163565887919441,
                0.6202750925613474,
                -0.05547707493745072,
                0.4470067681625483,
                0.1577321025579693,
                0.8127073317682689,
                -0.17284482941176058,
                0.206168351230918,
                -0.021282950125063357,
                0.509740638206251,
                -0.10654178934086249,
                0.34841870425861715,
                0.08294576679378936,
                0.690187876660253,
                -0.14206229151801897,
                0.2749125506954487,
                0.028458906553117433,
                0.5975698494873236,
                -0.06628249224087239,
                0.42669259818837696,
                0.1421809390506383,
                0.7876029838072588,
                -0.15804577828275776,
                0.23994554414519595,
                0.002995035349666127,
                0.5530571341680395,
                -0.08700456626859011,
                0.38695929783852206,
                0.11196958294443142,
                0.7382952545344524,
                -0.1248943233613881,
                0.3110700360913992,
                0.055109018968229596,
                0.6432797591006111,
                -0.044375366638161724,
                0.46761942538130047,
                0.17358034545874154,
                0.8381121942785708,
                -0.17635952580165348,
                0.19790988711502863,
                -0.027167189820466474,
                0.49909831292636386,
                -0.11124098197092187,
                0.33896982388045177,
                0.07587530975429853,
                0.6783484583856341,
                -0.14616920589069582,
                0.26605921831250373,
                0.021981743186361508,
                0.5863294724375453,
                -0.07157410083460862,
                0.41664741265512956,
                0.13451674090533547,
                0.7751634574211534,
                -0.16185658096919905,
                0.23138972602231841,
                -0.00318562477072171,
                0.5421159018455939,
                -0.09199994482772032,
                0.37721236436727795,
                0.10460231612065009,
                0.7261559204044015,
                -0.12929736448895057,
                0.30191901951634564,
                0.04833525985475994,
                0.6317399899597606,
                -0.04996325905100161,
                0.4572757791381585,
                0.16561908477572299,
                0.8253721895568253,
                -0.16925610642369562,
                0.2145011393541463,
                -0.015324612558600653,
                0.520457668493147,
                -0.10176855383411111,
                0.3579420797860336,
                0.09009041541455538,
                0.70210224851549,
                -0.13788134724739107,
                0.2838402878172073,
                0.035010209806559923,
                0.6088850509914352,
                -0.06091681811274139,
                0.43681237896027475,
                0.14991939015076797,
                0.8001176025792285,
                -0.1541609485581256,
                0.24857572543127918,
                0.009249813139056762,
                0.5640731300112857,
                -0.08193513471378706,
                0.3967807752938443,
                0.11941107082639325,
                0.7505096104378738,
                -0.12041724705637451,
                0.3202955014006143,
                0.06195694260580994,
                0.6548944160490653,
                -0.038713393732464775,
                0.4780377205374015,
                0.18161589341297277,
                0.8509273644184139
            ],
            "result_with_budget": [
                {
                    "portfolio": {
                        "CRM": 9,
                        "VZ": 6
                    },
                    "budget": 3236.2847442626953,
                    "difference": -7.2847442626953125,
                    "objective_value": -194.71151318124885
                }
            ],
            "result_with_budget_excited": [
                {
                    "portfolio": {
                        "CRM": 7,
                        "VZ": 23
                    },
                    "budget": 3226.1074600219727,
                    "difference": 2.8925399780273438,
                    "objective_value": -4838.940255902678
                }
            ]
        },
        "qaoa_solution": {
            "two_most_probable_states": [
                "10010000000",
                "00010001000"
            ],
            "final_expectation_value": -0.2460017723740169,
            "params": [
                2.3111346389926357,
                5.307608137459073,
                0.576263547324452,
                8.909105858880677,
                15.905846197189955,
                -0.6707132590808278,
                7.039448181752579,
                -3.013746221709498,
                1.5580661746428028,
                -1.8203931474787094,
                2.66360240672356,
                1.6101800870925196,
                1.3054391278687332,
                -0.11496142286450395,
                1.7916925507148695,
                2.7763739324524783,
                1.663516175838394,
                2.8116601384729165,
                1.7788931613402525,
                1.510617689226088
            ],
            "total_steps": 800,
            "states_probs": [
                0.0028712592025615102,
                0.0028726506053011773
            ],
            "optimized_portfolios": [
                {
                    "CRM": 9,
                    "VZ": 0
                },
                {
                    "CRM": 8,
                    "VZ": 8
                }
            ],
            "training_history": {
                "xbest": [
                    2.3111346389926357,
                    5.307608137459073,
                    0.576263547324452,
                    8.909105858880677,
                    15.905846197189955,
                    -0.6707132590808278,
                    7.039448181752579,
                    -3.013746221709498,
                    1.5580661746428028,
                    -1.8203931474787094,
                    2.66360240672356,
                    1.6101800870925196,
                    1.3054391278687332,
                    -0.11496142286450395,
                    1.7916925507148695,
                    2.7763739324524783,
                    1.663516175838394,
                    2.8116601384729165,
                    1.7788931613402525,
                    1.510617689226088
                ],
                "fbest": -0.2460017723740169,
                "evals_best": 9566,
                "evaluations": 9600,
                "iterations": 800,
                "xfavorite": [
                    2.2684078708838236,
                    5.216435496659173,
                    0.56306389323924,
                    8.790505025963455,
                    15.794746923967585,
                    -0.6866985436140587,
                    7.0444281333051135,
                    -3.0237815101555725,
                    1.5437015378870573,
                    -1.843373762613528,
                    2.660615490429188,
                    1.593469167955128,
                    1.3180486269509228,
                    -0.11830550022692375,
                    1.783839277985511,
                    2.7833266492977646,
                    1.6636073261822155,
                    2.8074404018441506,
                    1.7867767370643552,
                    1.506199446858949
                ],
                "stds": [
                    0.022255040966995928,
                    0.04176154743407284,
                    0.022743641220187173,
                    0.060136321193739024,
                    0.10184956681545816,
                    0.019025083043437505,
                    0.03865306605323935,
                    0.06032388274591101,
                    0.022819234628064688,
                    0.0369417172192214,
                    0.003063631321923,
                    0.009100150040167738,
                    0.008085024415238352,
                    0.0019067176578506197,
                    0.012836156653128598,
                    0.0127856280774285,
                    0.007723582051276775,
                    0.009535498065389485,
                    0.008696615587533816,
                    0.005168188578678331
                ],
                "stop": {
                    "maxiter": 800
                }
            },
            "objective_values": [
                -396.38540190415375,
                -64.01598770033794
            ],
            "result_with_budget": [
                {
                    "portfolio": {
                        "CRM": 9,
                        "VZ": 0
                    },
                    "budget": 3004.2493286132812,
                    "difference": 224.75067138671875
                },
                {
                    "portfolio": {
                        "CRM": 8,
                        "VZ": 8
                    },
                    "budget": 2979.8244018554688,
                    "difference": 249.17559814453125
                }
            ]
        }
    }
}