{
    "5": {
        "hyperparams": {
            "stocks": [
                "AXP",
                "TRV"
            ],
            "start": "2015-01-01",
            "end": "2025-01-01",
            "risk_aversion": 0.1,
            "n_qubits": 10,
            "budget": 5354,
            "log_encoding": true,
            "layers": 10,
            "prices_now": {
                "AXP": 295.1141357421875,
                "TRV": 239.9084930419922
            },
            "assets_to_qubits": {
                "AXP": [
                    0,
                    1,
                    2,
                    3,
                    4
                ],
                "TRV": [
                    5,
                    6,
                    7,
                    8,
                    9
                ]
            },
            "optimizer": "CMAES",
            "lambda_budget": 0.1
        },
        "continuous_variables_solution": {
            "weights": {
                "AXP": 0.7191369217619842,
                "TRV": 0.2808630782380159
            },
            "allocation": {
                "AXP": 13,
                "TRV": 6
            },
            "value": -6513.478126785082,
            "left_overs": 78.06525677989157
        },
        "continuous_variables_solution_unconstrained": {
            "weights": {
                "AXP": 0.706586246772844,
                "TRV": 0.2631852870600708
            },
            "allocation": {
                "AXP": 13,
                "TRV": 6
            },
            "value": -6513.478126785082,
            "left_overs": 78.06527799283504
        },
        "exact_solution": {
            "smallest_eigenvalues": [
                -0.25278166440348104
            ],
            "smallest_bitstrings": [
                "0111010100"
            ],
            "first_excited_energy": -0.2527762644717685,
            "optimized_portfolio": [
                {
                    "AXP": 14,
                    "TRV": 5
                }
            ],
            "second_optimized_portfolio": [
                {
                    "AXP": 10,
                    "TRV": 10
                }
            ],
            "spectrum": [
                3.8706716359913993e-16,
                -0.23252209794683662,
                -0.14878109996817068,
                -0.25108614591831435,
                -0.08251541436691968,
                -0.2499631983198307,
                -0.19878812192614606,
                -0.23586021619907138,
                -0.04328857763902097,
                -0.24328070973589963,
                -0.1758177151221215,
                -0.2455189237970628,
                -0.11767990401928226,
                -0.2525662338260154,
                -0.2176903523617307,
                -0.22210533139762456,
                -0.022151981847481458,
                -0.2384107244243279,
                -0.1628075738870863,
                -0.24881369060871789,
                -0.10060550376217535,
                -0.2517748691240358,
                -0.2087478954905069,
                -0.22949510248105615,
                -0.06340974352252267,
                -0.24713166956593133,
                -0.18781130958941775,
                -0.24120129093596548,
                -0.13373848617026338,
                -0.2523368229942658,
                -0.22561519334007737,
                -0.21369026328551227,
                -0.2492745120258144,
                -0.16171877047091435,
                -0.23809004377841866,
                -0.019943455884416903,
                -0.25182045590620117,
                -0.0990236002364717,
                -0.20806429223970982,
                0.07556243565361632,
                -0.25258105479406007,
                -0.1324169715913249,
                -0.2251154846878052,
                0.02575351037987625,
                -0.2469908531321815,
                -0.0615340704680969,
                -0.1869332423499734,
                0.12948926772916186,
                -0.2514360730269282,
                -0.14757904426874285,
                -0.23211215519689396,
                0.0023913908092147917,
                -0.24991440969369663,
                -0.080791155074472,
                -0.19800896427966272,
                0.1020107283047846,
                -0.2527092564669087,
                -0.11623201111483349,
                -0.21709966115908888,
                0.05014361438315692,
                -0.2430495002454734,
                -0.04125171997763794,
                -0.1748366702426958,
                0.15799885059821908,
                -0.17382338375989773,
                -0.24637002538417688,
                -0.24264608058690615,
                -0.18481817603342623,
                -0.21636441567997797,
                -0.22376804474494869,
                -0.25265441934050087,
                -0.1294846704438188,
                -0.19712566094002376,
                -0.2371104995629407,
                -0.24968550096883504,
                -0.15920182493844845,
                -0.23153841378252554,
                -0.20633870302476423,
                -0.2515502396505685,
                -0.09566139279000067,
                -0.18598239881701145,
                -0.2422503945284201,
                -0.24667445457530116,
                -0.17252228172527914,
                -0.22445959974761126,
                -0.21556449541607672,
                -0.25261164230579913,
                -0.11308664279613574,
                -0.20725304777273557,
                -0.23094987766801503,
                -0.25167892717954493,
                -0.1448561726214472,
                -0.23760065031264072,
                -0.19609011963540604,
                -0.24946983367096512,
                -0.07720820225804546,
                -0.22623910304041966,
                0.02161218715879167,
                -0.1349655884811233,
                0.24375165419881004,
                -0.18875269363613237,
                0.12446721522356859,
                -0.06485377991006026,
                0.37951130141545847,
                -0.20953219761773634,
                0.07098867437085264,
                -0.10195198539138477,
                0.30956900165407125,
                -0.16389810083272935,
                0.18205302368801943,
                -0.0236671199201694,
                0.453585129308152,
                -0.21839458280686952,
                0.04578798663357636,
                -0.11896913477724756,
                0.27614510657789254,
                -0.1768349522779424,
                0.1527463718317779,
                -0.04477176078535309,
                0.4160313500569617,
                -0.19965166810861573,
                0.09721487019855009,
                -0.08391369072736808,
                0.3440241294870394,
                -0.1499417748202088,
                0.21238787573610277,
                -0.0015393226024606726,
                0.4921735143446023,
                -0.09920418443190722,
                -0.2517502801615109,
                -0.20801010811463608,
                -0.23026775550454837,
                -0.16173396079625627,
                -0.24917506862300973,
                -0.23802117937815362,
                -0.19499510413162285,
                -0.1325002735964749,
                -0.25250232258730176,
                -0.22504970648101133,
                -0.21467938718175325,
                -0.1869043258504263,
                -0.2417648743796085,
                -0.24692224477113653,
                -0.17120990061103095,
                -0.11635998504784446,
                -0.2526359989794595,
                -0.21703829365365193,
                -0.22298526112447886,
                -0.1748271294022005,
                -0.24598058007861853,
                -0.24298066893920403,
                -0.18361544358843632,
                -0.14762496697365138,
                -0.25134882741736714,
                -0.2320440932608058,
                -0.20534953987693652,
                -0.19796538192090432,
                -0.23652744284242658,
                -0.24984556842215935,
                -0.15777779628408986,
                -0.2500778705244078,
                -0.08240264024352582,
                -0.1988611842322651,
                0.09953509471099449,
                -0.2326133308963384,
                0.00036309039843597534,
                -0.14879993499814326,
                0.21515665789380342,
                -0.2433804209086991,
                -0.04306806659609438,
                -0.1758707536970406,
                0.15528676332893615,
                -0.21777442424085824,
                0.04789573069473406,
                -0.11764519003500258,
                0.27915104021436693,
                -0.24723772805008715,
                -0.06324713339038716,
                -0.18787580965318332,
                0.12689652884029123,
                -0.22570300396374865,
                0.023616405587340867,
                -0.13373328773024484,
                0.2466378834222188,
                -0.23850570898789075,
                -0.02186485928476945,
                -0.16284560601972323,
                0.18470654898456965,
                -0.2088272664994316,
                0.07320173141237542,
                -0.10053514645241853,
                0.31269696419376947,
                -0.22385076050441055,
                -0.21636621630920969,
                -0.25267803999238825,
                -0.1147181502862913,
                -0.246397871582009,
                -0.17372493942350611,
                -0.24267479446407883,
                -0.039307587960486653,
                -0.23715686721184842,
                -0.1970890883789325,
                -0.24971308621473956,
                -0.07906594487023337,
                -0.2515722254012456,
                -0.1462694975210832,
                -0.2315602546726597,
                0.004562554218896813,
                -0.23101186818629266,
                -0.20723827627645605,
                -0.2517045617703127,
                -0.09740497770333316,
                -0.24949348987320202,
                -0.16050891038514123,
                -0.23762725075205463,
                -0.01788685543985261,
                -0.24228559597282695,
                -0.18591815054486435,
                -0.24670328148565593,
                -0.05970037948345397,
                -0.2526338314420075,
                -0.13100611364367548,
                -0.2244733892699993,
                0.028041398435181095,
                -0.17773151145400803,
                0.15036068968194352,
                -0.04637241849211974,
                0.41274534043796807,
                -0.12020977604922568,
                0.27332582214134743,
                0.04380708101392923,
                0.5686675540340347,
                -0.15100865182307185,
                0.20978926423367955,
                -0.0033273067597050787,
                0.48864037819247796,
                -0.0853320798531799,
                0.34097589139243834,
                0.09503491096217383,
                0.652833757804228,
                -0.1648794216883042,
                0.17956181123818185,
                -0.025360775047084394,
                0.4501767593700853,
                -0.10328096907078992,
                0.3066363090503906,
                0.06890904203353178,
                0.6102328335135958,
                -0.13611888324185403,
                0.241043707748418,
                0.019728475218236684,
                0.5281370262168894,
                -0.06636270466405932,
                0.3763453133633534,
                0.12218526176395429,
                0.6964712413335579,
                -0.052674981963035786,
                -0.2452114927981385,
                -0.18146924136520634,
                -0.24375483971900025,
                -0.12519783626160014,
                -0.25264561499175675,
                -0.22147900633060327,
                -0.21850718637100863,
                -0.09096741611743771,
                -0.2509673800798942,
                -0.20350767858883764,
                -0.23317783438216572,
                -0.15536547922290397,
                -0.2502427106529072,
                -0.2353810995637852,
                -0.19973804695060804,
                -0.07232891639258458,
                -0.24859893835455807,
                -0.19299672914744123,
                -0.23897775263829718,
                -0.14078956588775468,
                -0.25195453645807864,
                -0.22893885337429362,
                -0.2096352444322528,
                -0.10859041765947365,
                -0.25231641403249916,
                -0.21300185597950952,
                -0.2263545107771961,
                -0.16892542767304572,
                -0.24750964851871396,
                -0.24080542607331215,
                -0.18881493463678417,
                -0.2527549823420088,
                -0.12514605033403234,
                -0.22155722260547592,
                0.03670581921635665,
                -0.24529697837935577,
                -0.052417812650459784,
                -0.18151547555196948,
                0.14226687440042704,
                -0.25106014716001396,
                -0.0908289417339793,
                -0.2035755757451543,
                0.08742882928315616,
                -0.23546345676177222,
                -0.009907920137010837,
                -0.155373540933558,
                0.20122605936873358,
                -0.25241599354780936,
                -0.10849896545964148,
                -0.21307600782300654,
                0.06155331311912635,
                -0.24088915117692783,
                -0.031675521555986984,
                -0.16895496216354614,
                0.171230929553809,
                -0.24868722269229515,
                -0.0721354182071929,
                -0.19305553565382846,
                0.11433309889006134,
                -0.22901958953168144,
                0.012885637672202323,
                -0.14077073602803392,
                0.23225308014269644,
                -0.20191167124912657,
                -0.23444720391706395,
                -0.25073844196159756,
                -0.15285086647209165,
                -0.2344565191700244,
                -0.20182727042009865,
                -0.25074222441802063,
                -0.08748098720160737,
                -0.22021622269008062,
                -0.22017969596020034,
                -0.2527762644717685,
                -0.12221763684632687,
                -0.24463116948351898,
                -0.17938581238311815,
                -0.24463356874080736,
                -0.04863544077019,
                -0.21157190518874597,
                -0.2278238207537905,
                -0.2522661772703098,
                -0.13804685016295107,
                -0.24005215034727428,
                -0.19111794094517695,
                -0.24819740889792422,
                -0.06857218168157626,
                -0.22784448177090488,
                -0.21151434709054304,
                -0.2522683913519925,
                -0.10536257384470653,
                -0.24819334948065191,
                -0.1666303171722898,
                -0.2400503066167998,
                -0.027670026674055197,
                -0.20507077284407216,
                0.08289234895707896,
                -0.09375832159497392,
                0.32514871765672243,
                -0.15756851183985418,
                0.19579969897541075,
                -0.013614938378455673,
                0.4709864583976002,
                -0.1833567673035633,
                0.13729354343095582,
                -0.05573007088105895,
                0.3960033441427258,
                -0.12770335918186093,
                0.25841618656972914,
                0.03259108503802016,
                0.550104793254732,
                -0.19472289915913132,
                0.10958014844704399,
                -0.07525481919063477,
                0.36006037743134567,
                -0.14314572641394255,
                0.2265938022807753,
                0.008976448095867662,
                0.5100282891494401,
                -0.17097207828693764,
                0.16603317336276938,
                -0.03518360744405341,
                0.4329784274765815,
                -0.11124102603729887,
                0.2912675764121094,
                0.0572295267860759,
                0.591216865515072,
                -0.13958721820542544,
                -0.25213703585750735,
                -0.22840279352614348,
                -0.21062295160638375,
                -0.19212314002513445,
                -0.23954987628957883,
                -0.24841347563391472,
                -0.16532176906777465,
                -0.16788663150266184,
                -0.24788398370639528,
                -0.24044276273604562,
                -0.19002151115496826,
                -0.21229566658381285,
                -0.2271309127098267,
                -0.25231249317662013,
                -0.13651856259347053,
                -0.15424473392593144,
                -0.2505204174334432,
                -0.23493129602925936,
                -0.20083420971254642,
                -0.20271748167361872,
                -0.2338512523755034,
                -0.2508721120642153,
                -0.15143343485032593,
                -0.18051280820544438,
                -0.24422729148266367,
                -0.2449369206845662,
                -0.17818424250818807,
                -0.22085750690966266,
                -0.21938832898297053,
                -0.2527342608933137,
                -0.12057645375586624,
                -0.2412403047917877,
                -0.03348463343991324,
                -0.16999853938843304,
                0.16854879484810734,
                -0.21376638293136177,
                0.05932327441426191,
                -0.10991402256331388,
                0.29423646912692086,
                -0.22953887488660996,
                0.010869689954093532,
                -0.14199749990083074,
                0.229331866138109,
                -0.19392049567136885,
                0.11188117690346673,
                -0.07374441226710764,
                0.36326902263151895,
                -0.23589834006639704,
                -0.011819576615356854,
                -0.15650810673092924,
                0.19842552690746137,
                -0.20435277284223188,
                0.0850888565456988,
                -0.09234022827870171,
                0.3282363375893288,
                -0.2221616495140481,
                0.034583766470341795,
                -0.12646628892799644,
                0.26126858297371663,
                -0.18246920656451263,
                0.13970092080535093,
                -0.05412605944250904,
                0.3993353798030373,
                -0.23963902103454326,
                -0.19212439709114895,
                -0.24846272669894134,
                -0.07041684451743203,
                -0.2521865836801589,
                -0.1394581275411412,
                -0.2284497227537766,
                0.015038968982700695,
                -0.247945834641839,
                -0.16783588197739066,
                -0.24049368884512543,
                -0.029743436679292076,
                -0.2523595629276515,
                -0.10698670485234764,
                -0.21232776134894374,
                0.06393616325269945,
                -0.24430059263230391,
                -0.1804910309408099,
                -0.2449873954088342,
                -0.050593416701690624,
                -0.25278166440348104,
                -0.12373441483579707,
                -0.22089869645714907,
                0.038972842318333305,
                -0.2505745658288737,
                -0.15415842850309208,
                -0.2349812555417756,
                -0.007866212520673016,
                -0.2509200129025144,
                -0.08921439077711,
                -0.2027364808472402,
                0.08992970883124422,
                -0.1442172057989861,
                0.22402235738288462,
                0.007196751387810003,
                0.5065471880811754,
                -0.07667211444844092,
                0.3570509915154434,
                0.10741716757202983,
                0.6725605126079537,
                -0.11248360873273845,
                0.2884811142008057,
                0.0552610669053291,
                0.5874858987142386,
                -0.03677976165859827,
                0.4297376743224922,
                0.16366937652950805,
                0.761778076612118,
                -0.1288599726370063,
                0.25573818774263063,
                0.03071769289991515,
                0.546499982618881,
                -0.05723624374653766,
                0.3928793636208292,
                0.1350309750187156,
                0.7166509721187608,
                -0.09508777584370033,
                0.3222518154634175,
                0.08082738187829598,
                0.6295057853050159,
                -0.015302244826260126,
                0.46762668744232166,
                0.19333296569453276,
                0.8079427601416762,
                -0.027105701215186937,
                -0.23963554441923626,
                -0.16589353545146693,
                -0.24818985583823616,
                -0.10462488410962649,
                -0.25207343397509996,
                -0.2109020923302807,
                -0.22795345743260653,
                -0.0678962242142828,
                -0.24789292591246,
                -0.19043113617035703,
                -0.24011793149472288,
                -0.1372909962327016,
                -0.25217366023043974,
                -0.22730435740862107,
                -0.21169166342107026,
                -0.048008666110278236,
                -0.24427364462048276,
                -0.17867055177247607,
                -0.24466517754123535,
                -0.12146581473383634,
                -0.25263380865158325,
                -0.21961195246166867,
                -0.22033503685929867,
                -0.08676832186209195,
                -0.25049299416653403,
                -0.20117506474823935,
                -0.2345475533383023,
                -0.15210028982523197,
                -0.25069250946715227,
                -0.2339789981583845,
                -0.20202268764164388,
                -0.25178427758628213,
                -0.14420351459618155,
                -0.23059383563455657,
                0.007608946010302175,
                -0.24932855485141114,
                -0.07649234765429629,
                -0.1955605085001411,
                0.10814176749880176,
                -0.2525902778540737,
                -0.11239432218645688,
                -0.21511593656147046,
                0.05581861541803678,
                -0.24199716784413366,
                -0.036492926557338594,
                -0.1719242488623066,
                0.16458442854905797,
                -0.2526956351324568,
                -0.12881023792833274,
                -0.22336438410913442,
                0.031199958724213106,
                -0.24617170394359028,
                -0.05700512275342096,
                -0.18425270233940913,
                0.1358477694598585,
                -0.25146799507782064,
                -0.09495521623371476,
                -0.2058481120864886,
                0.08146563746037543,
                -0.236804650763844,
                -0.01495512281332792,
                -0.15857468204787326,
                0.19435255125088546,
                -0.18863608750002797,
                -0.24117823094834465,
                -0.2474612345654417,
                -0.16960501026787803,
                -0.22617920535449665,
                -0.21356768152508795,
                -0.2524675879598597,
                -0.10925384033810205,
                -0.2094395835990931,
                -0.22941491070325018,
                -0.2519999952277322,
                -0.14148047397917754,
                -0.23885364006490034,
                -0.1936325070043182,
                -0.24886133820638498,
                -0.07291971108101268,
                -0.19954575109804118,
                -0.23580682046619142,
                -0.25023935702749917,
                -0.15605518020045364,
                -0.23302466643351372,
                -0.20411135300748198,
                -0.25117387385289375,
                -0.09160056335239293,
                -0.21831745283397225,
                -0.22200202902678487,
                -0.25274284676516784,
                -0.1258802487395502,
                -0.24366590896356433,
                -0.18213058576698013,
                -0.24552959350347706,
                -0.053210555543580076,
                -0.21642605939648085,
                0.05147905532323402,
                -0.11513400727708643,
                0.2836755829865407,
                -0.17393216087077226,
                0.15935957797538383,
                -0.04000696291726984,
                0.42447349572046883,
                -0.19721581507569214,
                0.10336757014996502,
                -0.07961334896378251,
                0.35201118651322055,
                -0.146572528014739,
                0.21946037127467338,
                0.0036890814835330993,
                0.501069164937572,
                -0.20732996622302302,
                0.07691069359210596,
                -0.0978841617226242,
                0.3173279491360333,
                -0.16076201562143752,
                0.18889603236173927,
                -0.01867040697432878,
                0.46225423113285175,
                -0.18608331677707116,
                0.1308503146377534,
                -0.06032110959138098,
                0.38772609499080735,
                -0.13136332375737828,
                0.251053309471009,
                0.027072046981376875,
                0.5409191821232131,
                -0.12016400885263258,
                -0.2527127631011199,
                -0.21897504227774764,
                -0.2212152019921892,
                -0.17769697119250003,
                -0.24513192050660307,
                -0.2439861470666607,
                -0.18092874285055047,
                -0.15096180952898972,
                -0.25096242253934375,
                -0.23351493293905598,
                -0.2031205193336841,
                -0.20036849515823693,
                -0.23521753460976927,
                -0.2503863241215326,
                -0.1546347882955604,
                -0.1360706899489655,
                -0.2523473936538887,
                -0.2267534379407826,
                -0.21267969292491964,
                -0.18954076360475444,
                -0.24068545899012503,
                -0.2476952760612338,
                -0.16829486889684572,
                -0.16483727467554463,
                -0.24855741637680093,
                -0.23925926412364681,
                -0.19253707760603353,
                -0.2101799878199053,
                -0.2287276288689695,
                -0.25205894298275244,
                -0.1399478123183647,
                -0.24642933600577488,
                -0.05871571772529834,
                -0.18520091157054666,
                0.13326860306173033,
                -0.22396047725392965,
                0.029070499819507028,
                -0.1301285153887594,
                0.2539225052338482,
                -0.2372300750630686,
                -0.016871562877746334,
                -0.15970541280458503,
                0.19153562191481946,
                -0.20661828782778788,
                0.07911544882523379,
                -0.09646660271839529,
                0.32043559333168947,
                -0.2423383700201715,
                -0.038305580928418174,
                -0.17296312428036428,
                0.16188751240023055,
                -0.21579861071425097,
                0.05357978908078155,
                -0.11380842529754272,
                0.2866628641165059,
                -0.23110420120910014,
                0.005586926815608284,
                -0.1454273569860839,
                0.22221369222615064,
                -0.1964191735532919,
                0.10567815455763575,
                -0.07810254237830701,
                0.35524153861593155,
                -0.23251385838779387,
                -0.20501558936526929,
                -0.25133989363193787,
                -0.09333878215662895,
                -0.25006143786952184,
                -0.1573622884783945,
                -0.23633212637075166,
                -0.012906181430071467,
                -0.24332043267675674,
                -0.18323299683027797,
                -0.24587306937551648,
                -0.05517626194427122,
                -0.2527352472483405,
                -0.12739911388366984,
                -0.22271407604579416,
                0.03347717166602083,
                -0.23842525329879716,
                -0.19463504897261977,
                -0.24911557286088634,
                -0.07477062337003364,
                -0.25190685700489,
                -0.14289254466236612,
                -0.23003293970839409,
                0.009770965728378551,
                -0.24719922510040931,
                -0.17080892105345571,
                -0.24161204152280383,
                -0.03455501576279088,
                -0.25254635206272796,
                -0.11088139914163779,
                -0.214375108614045,
                0.058213203615287645,
                -0.16174650834854234,
                0.18641702378533812,
                -0.020361043431285315,
                0.45887024493368944,
                -0.0992135963355636,
                0.31441317600577323,
                0.07483829819373385,
                0.6198371680641368,
                -0.1325185235038285,
                0.24836033111085803,
                0.025193369262088292,
                0.5372867033404516,
                -0.06182884406035512,
                0.38458116496167705,
                0.12857798800114442,
                0.7065286074504342,
                -0.14764196684202355,
                0.21687532235829216,
                0.0019051003761044096,
                0.49756214556970524,
                -0.08103139180964573,
                0.3489824137710209,
                0.10119601939876875,
                0.662664817103497,
                -0.11637584990448797,
                0.2808727189360305,
                0.04950426188789764,
                0.5780447573706868,
                -0.04160553954234164,
                0.4212101835866179,
                0.15698478777797317,
                0.7514294633455898,
                -0.07670782268613284,
                -0.249249794153848,
                -0.19550813346583304,
                -0.2377808839447692,
                -0.14423421892235724,
                -0.2516795600970343,
                -0.23051874734048802,
                -0.2075211570553686,
                -0.11250211761953723,
                -0.2525039071369711,
                -0.21504724196247108,
                -0.22469840267201896,
                -0.1719032849178714,
                -0.2467731876491164,
                -0.24192044606906285,
                -0.1862442198557946,
                -0.09511270505121937,
                -0.25138644861109094,
                -0.20578601368265967,
                -0.23175119419829926,
                -0.15857669723767906,
                -0.24973686318498758,
                -0.23672847355598872,
                -0.1973954711552428,
                -0.1288759870999512,
                -0.25260175597682855,
                -0.22329157478236963,
                -0.21662192537950628,
                -0.18421382355591817,
                -0.24278803461888085,
                -0.24609433624093227,
                -0.1740667340547218,
                -0.25218629641307583,
                -0.10454591843226611,
                -0.21097981012511716,
                0.06734768767208792,
                -0.2397253642670465,
                -0.026799503629691548,
                -0.1659287664860654,
                0.1779383126399053,
                -0.24799031666042548,
                -0.06772035481015563,
                -0.1904939915012613,
                0.12058469208511156,
                -0.22738934149057421,
                0.018221456559692515,
                -0.1372806754830642,
                0.23941473264113491,
                -0.25059681030730047,
                -0.08664475952470106,
                -0.2012466236866842,
                0.09345198601806377,
                -0.23406638108495126,
                -0.004801851801131363,
                -0.1521153087571761,
                0.2081607729538171,
                -0.24436658517311105,
                -0.04777213352576433,
                -0.17872151303774622,
                0.1487465468678591,
                -0.21969393006869326,
                0.04227107733152663,
                -0.1214243810167455,
                0.2717010178123672,
                -0.2136499602885285,
                -0.22617664019938746,
                -0.252477463370568,
                -0.13455537586897812,
                -0.2411961500648267,
                -0.1885464749959637,
                -0.2474780569671047,
                -0.06416570991417424,
                -0.22945538732278503,
                -0.20940453507130782,
                -0.2520140531246051,
                -0.10141292859127278,
                -0.2488707788051106,
                -0.16359826655561013,
                -0.2388666433344219,
                -0.02280816456583744,
                -0.22206067828469345,
                -0.21830108321450312,
                -0.2527546678131581,
                -0.11849691474991568,
                -0.24554183634139115,
                -0.17658391470937854,
                -0.24368196760724517,
                -0.044001088577757363,
                -0.23583393560756521,
                -0.1994865035110389,
                -0.2502552972779115,
                -0.08330275490252408,
                -0.2511827405448658,
                -0.14958895316001486,
                -0.23303167700575297,
                -0.000586190272007879,
                -0.19217275834202363,
                0.11585268247377915,
                -0.07083798170747439,
                0.36817173730894837,
                -0.13966122915913795,
                0.23378822498017193,
                0.014322875776764506,
                0.5190509008895141,
                -0.1679545530886439,
                0.17276722479881226,
                -0.030301585244367445,
                0.4415461698137165,
                -0.10729006077831889,
                0.298921132501246,
                0.06303948898520902,
                0.6006927418738321,
                -0.18057288848825673,
                0.14379697369761016,
                -0.051080549368200036,
                0.4043430786491906,
                -0.12398555918544822,
                0.2658403364311769,
                0.03816939458138585,
                0.5593542436351584,
                -0.15431744333974193,
                0.20276408504435334,
                -0.008500610300771205,
                0.4797818303012581,
                -0.0895743400184258,
                0.33303134757323033,
                0.08893372313932117,
                0.6430673002201457,
                -0.15747371535224605,
                -0.25002287192035305,
                -0.2362932000356421,
                -0.19849071315066982,
                -0.2050123378130496,
                -0.23242867711854362,
                -0.2513029709126636,
                -0.1481738592437609,
                -0.18327462620791743,
                -0.243266763406599,
                -0.2458330178762624,
                -0.17538205527760828,
                -0.22268569447451042,
                -0.21750473365485326,
                -0.2527005415976136,
                -0.11686088379369265,
                -0.17088201175493442,
                -0.2471548357220362,
                -0.2415716980091339,
                -0.1874485122051288,
                -0.214357146041916,
                -0.22547769329559278,
                -0.2525109746951289,
                -0.13303080982357532,
                -0.19465144616800772,
                -0.2383582019673284,
                -0.24907687686207877,
                -0.16229071912963325,
                -0.22999778545176502,
                -0.20850926007373324,
                -0.2518713037292884,
                -0.09966337279975752,
                -0.23451036942190323,
                -0.006708850554544334,
                -0.15325359553923928,
                0.2053762715890924,
                -0.20203060812501963,
                0.09112198335859785,
                -0.08815595203205163,
                0.33609918343505946,
                -0.2203063967472449,
                0.04015624490378704,
                -0.12274652666755666,
                0.2686761136893064,
                -0.17968059179645177,
                0.14619350027686553,
                -0.0494780980198482,
                0.4076519781474298,
                -0.22791722264245262,
                0.016211424467391034,
                -0.13851027677242736,
                0.23651118196671786,
                -0.19136504245830835,
                0.11814418524375707,
                -0.06932818409819859,
                0.37135894578849293,
                -0.2116776221848879,
                0.0651262207695603,
                -0.1059619054414727,
                0.3018718470035369,
                -0.16697690147217628,
                0.1752706235887215,
                -0.02860516889796536,
                0.4449791458744284,
                -0.2452259961453664,
                -0.17769225781527406,
                -0.24404622220796476,
                -0.04595189101098528,
                -0.2527730243715586,
                -0.12001204259710045,
                -0.21902723428464907,
                0.04452834197861593,
                -0.2510328046362681,
                -0.15089734597716167,
                -0.2335746114665964,
                -0.002767006546045294,
                -0.2504448716252843,
                -0.08503184024093523,
                -0.20040094508206838,
                0.09594002385125398,
                -0.24863762580175297,
                -0.16480583242368338,
                -0.23931970434295594,
                -0.02487290325482096,
                -0.25211761934084564,
                -0.10303409880502191,
                -0.21022416358404786,
                0.06971926111656548,
                -0.2524113416016234,
                -0.1359662669648958,
                -0.22681058229983472,
                0.02036650085791804,
                -0.2477545050617041,
                -0.06600465027814474,
                -0.18955713238377822,
                0.12319141704113969,
                -0.1251430411835435,
                0.2631773824686623,
                0.03630159327310356,
                0.5557769265606456,
                -0.052584735422990914,
                0.401239993007505,
                0.14154434879982544,
                0.7268383766887783,
                -0.09090332871647024,
                0.33015232166913655,
                0.0868764296494899,
                0.6392387371655905,
                -0.010184221511507392,
                0.47644615998356593,
                0.20030975236980827,
                0.8185829704841059,
                -0.10853286836568903,
                0.2961511074710439,
                0.06107763791805286,
                0.5969910352836005,
                -0.03189492183083095,
                0.4383278910227303,
                0.17041457663014845,
                0.7721920956684496,
                -0.07225407418039227,
                0.3651817135819603,
                0.1136984867546718,
                0.682520890957399,
                0.012547798706355497,
                0.5155955735249143,
                0.23123047942194352,
                0.8660119450024129
            ],
            "result_with_budget": [
                {
                    "portfolio": {
                        "AXP": 14,
                        "TRV": 5
                    },
                    "budget": 5331.140365600586,
                    "difference": 22.859634399414062,
                    "objective_value": -6976.931610400913
                }
            ],
            "result_with_budget_excited": [
                {
                    "portfolio": {
                        "AXP": 10,
                        "TRV": 10
                    },
                    "budget": 5350.226287841797,
                    "difference": 3.773712158203125,
                    "objective_value": -7393.093429207312
                }
            ]
        },
        "qaoa_solution": {
            "two_most_probable_states": [
                "0000110000",
                "0000100000"
            ],
            "final_expectation_value": -0.24332408838276953,
            "params": [
                0.9587243360913451,
                2.6997703391025287,
                4.652137352591217,
                -3.6521391865198187,
                4.829064254801267,
                -2.635801915022563,
                4.703540639507905,
                4.330081295099588,
                4.187988540200797,
                3.855420721353933,
                2.438276152190806,
                0.9572580398446056,
                1.2610593485089345,
                0.6937935694451288,
                2.301330133575761,
                2.811678408615292,
                1.367627085105153,
                3.2676295010075567,
                1.5200564962924608,
                1.4745988964531964
            ],
            "total_steps": 800,
            "states_probs": [
                0.050174408765196576,
                0.0693885693160082
            ],
            "optimized_portfolios": [
                {
                    "AXP": 16,
                    "TRV": 1
                },
                {
                    "AXP": 16,
                    "TRV": 0
                }
            ],
            "training_history": {
                "xbest": [
                    0.9587243360913451,
                    2.6997703391025287,
                    4.652137352591217,
                    -3.6521391865198187,
                    4.829064254801267,
                    -2.635801915022563,
                    4.703540639507905,
                    4.330081295099588,
                    4.187988540200797,
                    3.855420721353933,
                    2.438276152190806,
                    0.9572580398446056,
                    1.2610593485089345,
                    0.6937935694451288,
                    2.301330133575761,
                    2.811678408615292,
                    1.367627085105153,
                    3.2676295010075567,
                    1.5200564962924608,
                    1.4745988964531964
                ],
                "fbest": -0.24332408838276953,
                "evals_best": 9589,
                "evaluations": 9600,
                "iterations": 800,
                "xfavorite": [
                    0.9657041934332191,
                    2.7002280998386285,
                    4.643153728674071,
                    -3.667995483442229,
                    4.8490494381961335,
                    -2.6185409448165777,
                    4.6935322333939125,
                    4.3596060615113235,
                    4.1612191631174245,
                    3.8707102531766235,
                    2.439213620087897,
                    0.9575431626852501,
                    1.2644656523646733,
                    0.6928085611480261,
                    2.3011346014767846,
                    2.8114050296767594,
                    1.3708356113828832,
                    3.264395840046792,
                    1.517547023821805,
                    1.4767538259035156
                ],
                "stds": [
                    0.019636096242360086,
                    0.017646251732668695,
                    0.02245236846407039,
                    0.0235841802632653,
                    0.024894821038336894,
                    0.01597595940265918,
                    0.02255812826939156,
                    0.03452406289976737,
                    0.04556118698761133,
                    0.028504587071439057,
                    0.0029122214001338054,
                    0.0019619652290238858,
                    0.003778910468623466,
                    0.00469188359051221,
                    0.005819449188290889,
                    0.004096743246666674,
                    0.005041030723696298,
                    0.006938279683713987,
                    0.004618745315261558,
                    0.0019738589243604265
                ],
                "stop": {
                    "maxiter": 800
                }
            },
            "objective_values": [
                -6613.745175470063,
                -5929.488905246462
            ],
            "result_with_budget": [
                {
                    "portfolio": {
                        "AXP": 16,
                        "TRV": 1
                    },
                    "budget": 4961.734664916992,
                    "difference": 392.2653350830078
                },
                {
                    "portfolio": {
                        "AXP": 16,
                        "TRV": 0
                    },
                    "budget": 4721.826171875,
                    "difference": 632.173828125
                }
            ]
        }
    }
}