{
    "14": {
        "hyperparams": {
            "stocks": [
                "DOW",
                "MSFT",
                "TRV"
            ],
            "start": "2015-01-01",
            "end": "2025-01-01",
            "risk_aversion": 0.1,
            "n_qubits": 13,
            "budget": 2213,
            "log_encoding": true,
            "layers": 10,
            "prices_now": {
                "DOW": 39.3990364074707,
                "MSFT": 420.6565246582031,
                "TRV": 239.9084930419922
            },
            "assets_to_qubits": {
                "DOW": [
                    0,
                    1,
                    2,
                    3,
                    4,
                    5
                ],
                "MSFT": [
                    6,
                    7,
                    8
                ],
                "TRV": [
                    9,
                    10,
                    11,
                    12
                ]
            }
        },
        "continuous_variables_solution": {
            "weights": {
                "DOW": 8.96222742e-08,
                "MSFT": 1.0000006800807704,
                "TRV": -7.689762898e-07
            },
            "allocation": {
                "DOW": 2,
                "MSFT": 5,
                "TRV": 0
            },
            "value": 1.1579140922317248,
            "left_overs": 30.919302796160846
        },
        "exact_solution": {
            "smallest_eigenvalues": [
                -0.11797772997833632
            ],
            "smallest_bitstrings": [
                "0011001100100"
            ],
            "first_excited_energy": -0.11797772579380612,
            "optimized_portfolio": [
                {
                    "DOW": 12,
                    "MSFT": 3,
                    "TRV": 2
                }
            ],
            "second_optimized_portfolio": [
                {
                    "DOW": 9,
                    "MSFT": 1,
                    "TRV": 6
                }
            ],
            "spectrum": [
                -2.983724378680108e-16,
                -0.11589935751663437,
                -0.08013412980165208,
                -0.10729568314494732,
                -0.045613177661659884,
                -0.11714363309162455,
                -0.10356285641997685,
                -0.08635550767660276,
                -0.024193117021038484,
                -0.11790802349433781,
                -0.09323502130102297,
                -0.09821212360098346,
                -0.06426018192186435,
                -0.11360618630849433,
                -0.11111763515851399,
                -0.07172583537180523,
                -0.11120137144377144,
                -0.0715075116490071,
                -0.11353889258972398,
                0.01489277137837911,
                -0.11791624477758138,
                -0.033853482896147646,
                -0.0980693148801992,
                0.07473125117457327,
                -0.11594533630088487,
                -0.054067025462785794,
                -0.10719063192517002,
                0.04342548308626775,
                -0.11711409687386105,
                -0.01086688394909267,
                -0.08617494145481154,
                0.10881007564329563,
                -0.07265179703097192,
                -0.11075454589190668,
                -0.1138876225047739,
                -0.06325256719237003,
                -0.09881582252870653,
                -0.09254966930297205,
                -0.11786719695917393,
                -0.022863239560100675,
                -0.0871203379700476,
                -0.10303863578764773,
                -0.1172639379221823,
                -0.0444444315664438,
                -0.10773825070694869,
                -0.07928764643787944,
                -0.11569739961574872,
                0.00149100882665925,
                -0.11564872323839902,
                0.0018417452120645036,
                -0.07908794005650191,
                0.1271403325673004,
                -0.10291444440828414,
                0.05894492612884879,
                -0.04416921018305235,
                0.2064279645274194,
                -0.11066811201355002,
                0.02900680748024822,
                -0.06301510330998558,
                0.16539762035715144,
                -0.09238772042260142,
                0.0916561011578662,
                -0.02255026067570233,
                0.25023136507810406,
                -0.04058867634275755,
                -0.11758972953154197,
                -0.1012736539804844,
                -0.08953690299593016,
                -0.07647727792245464,
                -0.10910942902456973,
                -0.11497780451684687,
                -0.05887215144562323,
                -0.059919505322814606,
                -0.11473610746826422,
                -0.10951225743887404,
                -0.07559105541098511,
                -0.09026199414167797,
                -0.10070969420045837,
                -0.11767029521440285,
                -0.03938019109984448,
                -0.11768782516835673,
                -0.039095661045742795,
                -0.10057619415038448,
                0.06675377414556824,
                -0.1146781224202043,
                0.008282943789079046,
                -0.07538204035889731,
                0.13631683002372486,
                -0.11756950198448894,
                -0.016792886818540298,
                -0.0893656454448493,
                0.10014877389443812,
                -0.10901368647550273,
                0.03613183077711523,
                -0.05862537889252847,
                0.1752579425334284,
                -0.09618936206464311,
                -0.09539380659772838,
                -0.11797603537452035,
                -0.028442675734266933,
                -0.11262881148041536,
                -0.06746435392683131,
                -0.11223103374695807,
                0.02167122797996481,
                -0.10579561496273775,
                -0.08281560845248828,
                -0.11649006275094763,
                -0.00477225206735947,
                -0.11668895161767624,
                -0.049340043020757555,
                -0.10519894836255163,
                0.05088776440770594,
                -0.10508406565389837,
                0.05130470712441483,
                -0.04907413030807644,
                0.19605244664357552,
                -0.08262521074182101,
                0.11813246412316152,
                -0.004430824352664453,
                0.28506465468565684,
                -0.09524116638806808,
                0.08333205743357973,
                -0.028139005520578866,
                0.23917202247440783,
                -0.06723619871515714,
                0.15570592719316018,
                0.02205041319566673,
                0.33373034327732276,
                -0.09613416134451962,
                -0.09544957771771852,
                -0.11797632057445372,
                -0.02855393277431386,
                -0.11260135372032042,
                -0.06754786800684984,
                -0.11225906190691985,
                0.021532227979889493,
                -0.1057542857226285,
                -0.08288525105249261,
                -0.11650421943089516,
                -0.004897380587420605,
                -0.1166753653375955,
                -0.04943742858079026,
                -0.1052408480025276,
                0.05073489292761642,
                -0.10512617167360082,
                0.051151629264598694,
                -0.04917172224783579,
                0.19584388286370263,
                -0.08269505972155196,
                0.11795164330331702,
                -0.004556159252452202,
                0.2848283479457556,
                -0.09529714388778486,
                0.08316510809374937,
                -0.02825046894035242,
                0.2389495872145207,
                -0.06731991917490228,
                0.15551123489330138,
                0.021911206815864816,
                0.3334801650574073,
                -0.11768127781814629,
                -0.03920008553564588,
                -0.1006251327202307,
                0.06659386373560838,
                -0.11469931803002219,
                0.008150776339147583,
                -0.07545872188877195,
                0.13612917665373658,
                -0.11757682611429264,
                -0.016911182788457553,
                -0.08942845549470972,
                0.09997499200446401,
                -0.10904875356533482,
                0.03598579184716957,
                -0.058715931902417334,
                0.1750564176834259,
                -0.05846884291088346,
                0.17560556668301536,
                0.03638391084273123,
                0.3591961246099686,
                -0.016588578794909783,
                0.26185473288565836,
                0.10044862600203956,
                0.46762974185594647,
                -0.03891523904310503,
                0.2173436215941285,
                0.06702974023217702,
                0.4120264050427492,
                0.008511137833702281,
                0.30913890055760507,
                0.13664056815231912,
                0.5260061350495606,
                -0.1111704974086045,
                -0.0715876094539537,
                -0.1135635044746137,
                0.014757187653375711,
                -0.11791311370244277,
                -0.03396132366112263,
                -0.09812166972511739,
                0.07456792448954153,
                -0.11592833374573201,
                -0.0541609947477466,
                -0.10722911529007402,
                0.0432760278812502,
                -0.11712483727873664,
                -0.010988596194081861,
                -0.08624116777974393,
                0.10863287747824969,
                -0.0860602851195137,
                0.10911582014653541,
                -0.010656683529823793,
                0.27325722590956425,
                -0.053904597085502395,
                0.18564041026721612,
                0.04368345554752219,
                0.37196626707357966,
                -0.0713689692927164,
                0.14599158701666742,
                0.015126857818640788,
                0.3212252183013636,
                -0.0336671684978715,
                0.22806228989818172,
                0.07501310965682038,
                0.42548037222621266,
                -0.11566650257314502,
                0.0017129940372049013,
                -0.07916120531130477,
                0.126956095472384,
                -0.10295996670305847,
                0.05878843199396079,
                -0.04427021839788356,
                0.20621598447247458,
                -0.11069976282831022,
                0.028864184825374457,
                -0.06310224004480258,
                0.1651995117822208,
                -0.09244711419739003,
                0.09148573554296398,
                -0.02266514037054773,
                0.2500055135431451,
                -0.02235184504771024,
                0.250620868874038,
                0.09195006086982925,
                0.4536605789649164,
                0.029252995150225808,
                0.34659461115864376,
                0.16573935211110002,
                0.5718187722928566,
                0.0020640468610493325,
                0.2972212118261325,
                0.12745817830025635,
                0.5113531474386781,
                0.05921499981981911,
                0.39874106687157174,
                0.20679358230236072,
                0.6350574535274522,
                -0.05764013164765182,
                -0.11524751859256825,
                -0.10862827616344466,
                -0.07749785893502235,
                -0.08868031666638194,
                -0.10191880152462897,
                -0.11748401013884009,
                -0.041984690823748436,
                -0.07454675234722531,
                -0.10996968824880697,
                -0.11444267134135082,
                -0.061127803069593825,
                -0.10004082460512172,
                -0.0910948584200341,
                -0.11775229255591259,
                -0.02006852219748615,
                -0.11773682253407801,
                -0.019750992167596,
                -0.0909283583941717,
                0.09579527614564896,
                -0.1098787032249585,
                0.03247602922819285,
                -0.060885788041717515,
                0.17020674858477258,
                -0.11519429106972671,
                0.004975990340089977,
                -0.07729360140815303,
                0.13161448417500232,
                -0.10179005899977346,
                0.06274912449671256,
                -0.041704918294865174,
                0.2115720693749596,
                -0.10473958839995078,
                -0.08455036668916804,
                -0.11682942858789418,
                -0.00790240270377265,
                -0.11633062125475611,
                -0.05177249745730401,
                -0.10623601039936482,
                0.047059917571426114,
                -0.1119216330175619,
                -0.06954796026344451,
                -0.1129192476838378,
                0.0181922292436183,
                -0.11796655311153349,
                -0.031223978270746758,
                -0.09677971673447487,
                0.07870066227965075,
                -0.09663183405003305,
                0.07915060497214806,
                -0.030925065582277166,
                0.23359517761324272,
                -0.06932456257698873,
                0.15082677853186183,
                0.01856665693410179,
                0.32745580221629117,
                -0.08436472650371928,
                0.11360216356179646,
                -0.007565732514296089,
                0.2791389617245586,
                -0.05151134226984137,
                0.19082444988234398,
                0.04747210276291654,
                0.3785456990884407,
                -0.08545263785107284,
                -0.10416172046813967,
                -0.11699163020294083,
                -0.046962908646669035,
                -0.10676824678784048,
                -0.081108427318238,
                -0.11612278809637393,
                -0.0017251644534327162,
                -0.0974969705096652,
                -0.09402160208339723,
                -0.11794373733986581,
                -0.02573056474025929,
                -0.11326646668559899,
                -0.06542219617266193,
                -0.11152878247246524,
                0.025053292213810766,
                -0.111447106119327,
                0.02543702857500451,
                -0.06518948981549594,
                0.16043244905217435,
                -0.09386441072824513,
                0.08738862605275581,
                -0.025422343381079356,
                0.24456849757326038,
                -0.10404228661399449,
                0.05502629912367178,
                -0.046692444788496094,
                0.2011139451225089,
                -0.08091347846207893,
                0.12252400936225681,
                -0.001379185593245874,
                0.29079610640442854,
                -0.11550098329428586,
                -0.05641345725565355,
                -0.10814167131830442,
                0.03968365889366668,
                -0.11736744006712872,
                -0.013911011941827072,
                -0.08782367704781262,
                0.10437055525082796,
                -0.11782073987091572,
                -0.036548762788948745,
                -0.09936920237326692,
                0.07064057888203892,
                -0.11414108388292483,
                0.011499795285711385,
                -0.0735050953419415,
                0.1408735880000338,
                -0.0732910063261961,
                0.14138973702383456,
                0.011864914305484538,
                0.3152834618288541,
                -0.03625915877118945,
                0.22279048666551077,
                0.0710812129038259,
                0.41886866251386506,
                -0.05616161073890118,
                0.18070358365446426,
                0.04008653541444684,
                0.3656895339811513,
                -0.013583650423060825,
                0.267650446056974,
                0.10484894677362193,
                0.47482084742699576,
                -0.11548208909060391,
                -0.05650553489208514,
                -0.10817826303467927,
                0.039536095337178334,
                -0.11737628882347521,
                -0.014030832538287071,
                -0.08788801172421586,
                0.10419524873431109,
                -0.11781571714724796,
                -0.03665471190539456,
                -0.09941966556965591,
                0.07047914384553633,
                -0.11416380411928563,
                0.011366103209237179,
                -0.07358330149835896,
                0.14068441000350274,
                -0.07336941886234012,
                0.14120035264757702,
                0.011731015849283717,
                0.31503859153253944,
                -0.03636531426736187,
                0.22257335932922473,
                0.07091957148759671,
                0.4185960492575219,
                -0.056253894755059416,
                0.18050032779819247,
                0.03993876547823182,
                0.36543079220482233,
                -0.013703677399247521,
                0.2674194472406736,
                0.10467343387737842,
                0.4745343626906384,
                -0.11147686528555799,
                0.025296297568659983,
                -0.0652747349017837,
                0.16023623212577298,
                -0.09392191285450448,
                0.08722015208638285,
                -0.025535331427395523,
                0.24434453768683057,
                -0.10408591726023968,
                0.05487169663731302,
                -0.046791561354798075,
                0.20090385671609334,
                -0.0809848520683525,
                0.12234166391586969,
                -0.0015060451195762076,
                0.2905582750379846,
                -0.0011597498209502191,
                0.2912066303446659,
                0.12283898921852325,
                0.5039431735574782,
                0.05529350693795287,
                0.39202878919023854,
                0.20147669702076104,
                0.6269497834463854,
                0.025680350368292935,
                0.34023118157724375,
                0.1607713149294338,
                0.5640599503117233,
                0.08767971988802971,
                0.44659945318365,
                0.24495513549250536,
                0.6926126729614646,
                -0.11774225501535245,
                -0.0198673964889841,
                -0.09098927679550296,
                0.09562338590420423,
                -0.10991187866626136,
                0.03233188194677641,
                -0.060974449403077224,
                0.17000711538329943,
                -0.11521359503101523,
                0.0048457145386877135,
                -0.07736839128949854,
                0.13142872245354337,
                -0.10183710592109059,
                0.06259110573528194,
                -0.04180745113623909,
                0.2113585646934723,
                -0.041527362168916684,
                0.2119407136688501,
                0.06302222470663195,
                0.40522810471773746,
                0.005201318508023939,
                0.3030382964324602,
                0.1319353564269074,
                0.5185101385246823,
                -0.01954955002065476,
                0.2561029768604466,
                0.09609226237656136,
                0.46048259343100156,
                0.0327252434171196,
                0.3527466723848905,
                0.17055150685767045,
                0.5793107399987801,
                -0.0966859199012206,
                0.07898554728084696,
                -0.031034637353521494,
                0.23337463400188496,
                -0.06940639138820466,
                0.1506339778805324,
                0.01842934220282908,
                0.3272075156449051,
                -0.08443268383492104,
                0.11342323439048128,
                -0.007689175765554614,
                0.2789045466331867,
                -0.05160704256107147,
                0.19061777775100036,
                0.047320916551629635,
                0.37828354103704037,
                0.04773341818155914,
                0.3789981026750251,
                0.1911813093849576,
                0.6111837980517623,
                0.11391125102242468,
                0.4895448376025599,
                0.2795435932691578,
                0.7439149840226323,
                0.07943580641178358,
                0.4328849419485842,
                0.23397592313684923,
                0.6761628628469887,
                0.1511597520134828,
                0.548977789636953,
                0.32788431978188326,
                0.8144401615786924,
                -0.03121332856767397,
                -0.11796670079844927,
                -0.09677446572639627,
                -0.09479003378383276,
                -0.06954000990786875,
                -0.11192448005197468,
                -0.11291669602325637,
                -0.06656336199402353,
                -0.051763197427979926,
                -0.11633211861542035,
                -0.10623210906503476,
                -0.08206322607913656,
                -0.08454376600734094,
                -0.10474378510811212,
                -0.11682822660106122,
                -0.04829044152849364,
                -0.11686235973277269,
                -0.0480225146521495,
                -0.10462688823579581,
                0.052950761018166086,
                -0.1162907367451179,
                -0.003081989577825364,
                -0.0818708142048063,
                0.12007573713582496,
                -0.11796307642915375,
                -0.026938780305195836,
                -0.0946353794105095,
                0.08512672088678709,
                -0.11184534068066525,
                0.023547857529962003,
                -0.06633319261868631,
                0.15779780976527968,
                -0.09108895545930927,
                -0.10004571903438529,
                -0.11775178829018189,
                -0.03797074769191929,
                -0.10996648463557919,
                -0.07455434612398598,
                -0.11444486642311734,
                0.00970507626181475,
                -0.10191424823765276,
                -0.08868656076939412,
                -0.11748485554685799,
                -0.015519363905260729,
                -0.11524566465308896,
                -0.057649075098161064,
                -0.10863182091895975,
                0.03770257280930708,
                -0.10853354138806402,
                0.03810291234825831,
                -0.05739976556323751,
                0.17797449234642365,
                -0.08851276623648434,
                0.10249258958650735,
                -0.015194539368323233,
                0.2645486206280074,
                -0.09990968200248261,
                0.06891122277717447,
                -0.03768368065598879,
                0.2198750282970071,
                -0.07434279409006932,
                0.13884701277625705,
                0.01006765829975912,
                0.31199526933942456,
                -0.06541391984076324,
                -0.11326898774368875,
                -0.1115259048355605,
                -0.07064316856514753,
                -0.0940160250989956,
                -0.09750219091525185,
                -0.11794355905045835,
                -0.03269192069337592,
                -0.08110150066008799,
                -0.10677211751967862,
                -0.11612126013321784,
                -0.05305407281947015,
                -0.10415749315748647,
                -0.08545920793040813,
                -0.11699280158728202,
                -0.009556712186864776,
                -0.11696072838768988,
                -0.00922257897921712,
                -0.08527610472678816,
                0.1111998488550233,
                -0.10666452931807259,
                0.0454425221770695,
                -0.05279545461383627,
                0.18804940105464463,
                -0.11319915704308973,
                0.016723443408717807,
                -0.07042230786052062,
                0.14823809676462552,
                -0.09735684521263872,
                0.07693465732583805,
                -0.032395544986735095,
                0.2306337617250805,
                -0.10823843542331245,
                -0.07829689467053891,
                -0.11545211609026028,
                0.0032272288358519176,
                -0.11739138851761997,
                -0.04308094567817715,
                -0.10242061814123328,
                0.06062762887154846,
                -0.11420144016067461,
                -0.062075448364566466,
                -0.1103228953059552,
                0.03054090066349177,
                -0.1178082804941485,
                -0.021313386611371048,
                -0.0917452845960945,
                0.093487413460022,
                -0.09158079873389517,
                0.0939539593302768,
                -0.02099787074514388,
                0.2532746914923668,
                -0.06183544750035315,
                0.16806821265048816,
                0.03093193153173277,
                0.34957339585591296,
                -0.07809465130733258,
                0.12962455780017407,
                0.0035805022030860473,
                0.30003751548393154,
                -0.042803187312956945,
                0.20928492388121916,
                0.0610564172407964,
                0.40188233260831135,
                -0.1082013879614097,
                -0.07837081904874979,
                -0.11547055454841447,
                0.0030978185375842605,
                -0.11738208401574589,
                -0.043182613016416425,
                -0.10246679955941572,
                0.060470475613252334,
                -0.11417826417878628,
                -0.062163244222791514,
                -0.11035520524412347,
                0.03039761888520992,
                -0.11781284747228861,
                -0.021428925429624476,
                -0.09180533749429119,
                0.09331638872171151,
                -0.09164105801181847,
                0.0937827282122397,
                -0.021113615943123963,
                0.2530479744542732,
                -0.061923449738304895,
                0.1678692385724227,
                0.030788443373724307,
                0.3493189358577911,
                -0.07816878206527007,
                0.12943945520212286,
                0.0034508855250917486,
                0.2997969269658238,
                -0.042905061030922856,
                0.2090720783231395,
                0.06089905760277366,
                0.40161400113017515,
                -0.11697233429570018,
                -0.009345156727340924,
                -0.08534319655485519,
                0.11102178518684265,
                -0.10670387818611123,
                0.045292201468917284,
                -0.05289028940193168,
                0.18784359442643556,
                -0.11322463443111418,
                0.016586994180579774,
                -0.07050327116860183,
                0.1480461616164307,
                -0.09741006556069161,
                0.07677046513767156,
                -0.032504251254844733,
                0.23041408361685728,
                -0.03220755910976481,
                0.2310128357699927,
                0.07721818728677927,
                0.42917638633987576,
                0.016959201327673538,
                0.3245484982941008,
                0.14856939876755232,
                0.5448964999073183,
                -0.009010707081254031,
                0.2763941388418383,
                0.11150726483695746,
                0.4856499149333886,
                0.045702166117018016,
                0.37547591412677983,
                0.18840458907856417,
                0.6069161412616648,
                -0.1168496389558265,
                -0.04812076571531684,
                -0.10466965337890623,
                0.05279702403494204,
                -0.1163057589282001,
                -0.0032079836010210985,
                -0.08194132230794526,
                0.11989425719257248,
                -0.11796422713222164,
                -0.027050902848377398,
                -0.09469201603363421,
                0.08495911242354874,
                -0.1118742343437616,
                0.02340799202675211,
                -0.06641757220183947,
                0.15760245834201297,
                -0.06618708638806307,
                0.15813500416384468,
                0.023789507844556156,
                0.3368494025698031,
                -0.026744902032587163,
                0.2419460906059901,
                0.08541614324336681,
                0.4428449400552833,
                -0.04785252240053352,
                0.198654019194709,
                0.053216297353753036,
                0.38846064312233475,
                -0.002864225284223875,
                0.2880112183976884,
                0.1203890455133975,
                0.5000022933686485,
                -0.10856947398103077,
                0.03795600791517805,
                -0.05749118407626109,
                0.1777721019932864,
                -0.0885764417894795,
                0.10231794219339853,
                -0.015313700841375212,
                0.26431848731484187,
                -0.09995948607546355,
                0.0687504468640799,
                -0.03778897064902656,
                0.21965876646385563,
                -0.07442034112307873,
                0.13865849390313417,
                0.009934625346693031,
                0.31175126454624486,
                0.010297523823076533,
                0.3124162230306839,
                0.1391724223835455,
                0.5300289257644916,
                0.06918886034247729,
                0.41567646163675426,
                0.22024820994628086,
                0.6554736154138967,
                0.03835666389256854,
                0.3626598141435105,
                0.17832378797470488,
                0.5913647423989855,
                0.10279411317280297,
                0.4714661655104145,
                0.26494568829827403,
                0.7223555448092244,
                -0.0792804092399338,
                -0.10774181089899133,
                -0.11569556111279715,
                -0.05541915859851608,
                -0.10303409793719921,
                -0.08712659750958739,
                -0.11726479876672789,
                -0.012619494165777408,
                -0.09254378177877505,
                -0.09882073239449772,
                -0.11786670812997095,
                -0.0354058545723552,
                -0.11075135771520646,
                -0.0726594062442601,
                -0.113889833023068,
                0.01293992262121716,
                -0.1138247598476874,
                0.013307055804653349,
                -0.07244330306485167,
                0.14342631676082773,
                -0.09868014421710321,
                0.07282057352190698,
                -0.035114236390932814,
                0.225124285521416,
                -0.10763898022260375,
                0.04167728647307177,
                -0.055165297918100674,
                0.18288877295091344,
                -0.08694825183118583,
                0.10673691695115896,
                -0.012290118483348121,
                0.2701328544723355,
                -0.11360369585289647,
                -0.06426848885625493,
                -0.11112054339791037,
                0.026952467772069832,
                -0.11790823238623703,
                -0.024204123302926175,
                -0.09324062888791641,
                0.08920128436873341,
                -0.11714249230977518,
                -0.045622834269798976,
                -0.10356711433312178,
                0.05669034788019319,
                -0.115900916082282,
                -1.2355955636537269e-05,
                -0.08014108706229403,
                0.12448527723769044,
                -0.07994360122430617,
                0.1249848230837337,
                0.00033615988637905256,
                0.294002388367758,
                -0.04534983342979722,
                0.20394749296491216,
                0.05711437872422272,
                0.3951495092922711,
                -0.0640332455172601,
                0.1630796298341145,
                0.027338741115092456,
                0.34318942063980606,
                -0.02389336496191747,
                0.24758841247612656,
                0.08966307271376982,
                0.44988265432515284,
                -0.10070483037368687,
                -0.0902679277048946,
                -0.11767083008262517,
                -0.018496123240494593,
                -0.11473394298898952,
                -0.05992813823352828,
                -0.10951549165459366,
                0.03402811727420647,
                -0.10910591487154651,
                -0.07648456115941987,
                -0.1149796890588178,
                0.006379468826647517,
                -0.1175889147260157,
                -0.04059865892721985,
                -0.10127823786995256,
                0.06444982210218232,
                -0.1011469583632683,
                0.06488316161692208,
                -0.04031634941650781,
                0.21445157473702126,
                -0.07627776665072174,
                0.13412125541613795,
                0.0067372933393734305,
                0.30587411957957206,
                -0.09009889069720338,
                0.09811568032632152,
                -0.018176056228775616,
                0.25877631896808806,
                -0.05968358622382321,
                0.17289988688637126,
                0.034423699287939306,
                0.3557449765714725,
                -0.11797700567756335,
                -0.02974349435307226,
                -0.09604470105865258,
                0.0809266144391774,
                -0.11255696612894149,
                0.02004544728221888,
                -0.06844021046669607,
                0.15290000711780338,
                -0.11665351409346085,
                -0.006235551725635113,
                -0.08362898395288271,
                0.11552678258828193,
                -0.10568736178400544,
                0.04909950267048975,
                -0.05047838060009258,
                0.1930462880277416,
                -0.05021468843080114,
                0.19361204020508838,
                0.04951422484380884,
                0.38207875765303745,
                -0.005896344554329788,
                0.28229928616822925,
                0.11601701976361505,
                0.49295045465951304,
                -0.029442044682773887,
                0.23656913499645033,
                0.08137909411350357,
                0.4361280779660668,
                0.02042241195453113,
                0.3308024937204248,
                0.1534280017941435,
                0.552545887733376,
                -0.11797626473210214,
                -0.029853725247724568,
                -0.09609944603324806,
                0.08076089762446823,
                -0.11258396814350878,
                0.019907473427538236,
                -0.06852269840132003,
                0.1527065473430657,
                -0.11666664462801389,
                -0.006359654100301607,
                -0.08369760040749244,
                0.11534719429355857,
                -0.10572823527858678,
                0.04894765733579483,
                -0.05057474001473072,
                0.19283895677298968,
                -0.05031125422516587,
                0.19340450257060998,
                0.04936217312938741,
                0.3818157340985021,
                -0.006020653308722937,
                0.2820640055737226,
                0.11583722508916498,
                0.4926596881449493,
                -0.0295524819571528,
                0.23634772588195774,
                0.08121317091906781,
                0.43585118293151726,
                0.020284231720123842,
                0.3305533416459039,
                0.1532343356396792,
                0.552241249738798,
                -0.10119487078772003,
                0.06472427735235674,
                -0.040419747761016304,
                0.2142372045523992,
                -0.07635342203520175,
                0.1339346281915444,
                0.006606152034836561,
                0.3056320064349216,
                -0.09016067460166928,
                0.0979429245817421,
                -0.018293326053298305,
                0.2585480773034518,
                -0.05977311308831747,
                0.1726993881817635,
                0.03427868650338823,
                0.35548899194680794,
                0.03467458495556021,
                0.35618695040703535,
                0.17324631663796314,
                0.5834964862627771,
                0.09841433803592799,
                0.46429560557407273,
                0.25917052076166575,
                0.7137895924731492,
                0.06515793330553571,
                0.4088547498003455,
                0.21482189050960582,
                0.6472565111777546,
                0.13444379914673726,
                0.5225095177282166,
                0.30629220739414226,
                0.7830957301489607,
                -0.11384834558718264,
                0.013172498225044606,
                -0.07252237472440373,
                0.14323627326116228,
                -0.09873147291662678,
                0.07265827298226978,
                -0.035221051010513225,
                0.22490649906172205,
                -0.10767643744211307,
                0.04152885741344882,
                -0.05525824105766689,
                0.1826848579712338,
                -0.08701345201072365,
                0.10656074493150765,
                -0.012410804582942705,
                0.2699011965326272,
                -0.012081112462074363,
                0.2705329486615512,
                0.10704146705640379,
                0.4783933323533681,
                0.041934064536331084,
                0.36891702774662616,
                0.18324109509814385,
                0.5989618624817777,
                0.013539947846919968,
                0.3183384600138801,
                0.14375475288706552,
                0.5372910692273642,
                0.07310123760615905,
                0.4222686518597887,
                0.2255004936896392,
                0.6634057121166078,
                -0.08001584033371441,
                0.12480161213421191,
                0.00020843485691402971,
                0.2937636914981794,
                -0.045449815499233895,
                0.203736539055362,
                0.056958910734729376,
                0.39488306946266416,
                -0.06411935610668255,
                0.16288254740457853,
                0.027197144605613267,
                0.3429368522902133,
                -0.02400721851136834,
                0.2473635870865622,
                0.08949373324426231,
                0.4496023430155317,
                0.08995583802773784,
                0.45036650780706267,
                0.2479767218740655,
                0.6971251958267297,
                0.16342016719006802,
                0.5681997390560622,
                0.34362550207973064,
                0.8371428781190641,
                0.1253014744186945,
                0.5078965952413542,
                0.2944145837866896,
                0.7657475087826882,
                0.2043119163418584,
                0.6312759392511873,
                0.39560947675318836,
                0.9113113038358563,
                -0.016204979969798937,
                -0.11753134484350385,
                -0.08905261344998604,
                -0.10164117415035202,
                -0.05817490947072622,
                -0.11513237225776164,
                -0.10883809190757858,
                -0.07705775052127513,
                -0.038576472910471026,
                -0.1177183867408411,
                -0.1003318808689908,
                -0.09073599052602203,
                -0.07500028965056456,
                -0.10977330139426521,
                -0.11457124656574964,
                -0.060606454136111446,
                -0.11463018127423401,
                -0.0603633288365403,
                -0.10968120609872188,
                0.03332345051231055,
                -0.11770180644731158,
                -0.019066051922948492,
                -0.09056838022846474,
                0.09680517846923721,
                -0.11755252205098131,
                -0.04110121856995283,
                -0.10151132135380177,
                0.06367778630056545,
                -0.11507803446322519,
                0.005742171104472629,
                -0.07685238272271092,
                0.13270562701832572,
                -0.08246869193110253,
                -0.10599844814910798,
                -0.11641802108343989,
                -0.0512099731281067,
                -0.10498946926810478,
                -0.08415032339944098,
                -0.11675434737710762,
                -0.007177397335104925,
                -0.09511560878981214,
                -0.09646091396448288,
                -0.11797271242048217,
                -0.030580213421814266,
                -0.11209027336598083,
                -0.06906667645398226,
                -0.1127629259533162,
                0.018998475132021173,
                -0.11268944799919349,
                0.019374013094199442,
                -0.06884216849583175,
                0.15195909677090014,
                -0.09631192100834628,
                0.08012044217171609,
                -0.030280190461649807,
                0.23488997689175134,
                -0.10588721269397837,
                0.0483606994427493,
                -0.05094770766894919,
                0.1920380086411173,
                -0.08396357294229735,
                0.1146532412810997,
                -0.006839616873933578,
                0.2805150015228023,
                -0.053599613777722224,
                -0.11602767432357748,
                -0.10699809509398452,
                -0.08068835146650087,
                -0.08584496719668701,
                -0.10390412565587283,
                -0.11705899746961469,
                -0.04638035175546158,
                -0.0711088186774131,
                -0.11135242817993345,
                -0.11341507447200806,
                -0.06492087980118964,
                -0.09780805933554422,
                -0.09368276675139524,
                -0.11792986408680449,
                -0.025066767329316626,
                -0.11792259246398533,
                -0.02475743569844193,
                -0.09352446512454828,
                0.08837849581433375,
                -0.11126964155510045,
                0.026264417297112257,
                -0.06468706317232878,
                0.16158479985322277,
                -0.11598264519975142,
                -0.0006330373908732742,
                -0.08049229233864696,
                0.12359511964356983,
                -0.10378358153003274,
                0.0559349283655146,
                -0.046108777625593775,
                0.20234753644329245,
                -0.1028122144299398,
                -0.08744366632009563,
                -0.11731239141835241,
                -0.013206039135169503,
                -0.11560841568497975,
                -0.05587096548846623,
                -0.10792414163005763,
                0.04055111273979468,
                -0.11059684324766826,
                -0.07304384409448939,
                -0.11400479471441342,
                0.01228600861210415,
                -0.11784693174187451,
                -0.03592503050202626,
                -0.09907043216528506,
                0.07158927324790196,
                -0.09893074787985871,
                0.07203101754138376,
                -0.03563431621257217,
                0.22406525338200922,
                -0.07282864480704908,
                0.14250202270086282,
                0.012652237903572151,
                0.3167207095848229,
                -0.08726622453366233,
                0.10587999193091484,
                -0.012877567344708418,
                0.26900645329320766,
                -0.055618008700019025,
                0.1818971098512276,
                0.04095509953226954,
                0.36720802225685506,
                -0.10276609033892663,
                -0.08750851406919617,
                -0.11732175324739606,
                -0.013326372804326761,
                -0.11559003455399507,
                -0.055963556197595125,
                -0.10796124641912978,
                0.04040303611060892,
                -0.11056459063666933,
                -0.07312256332360403,
                -0.11402802802347138,
                0.012151803462932587,
                -0.11784242209090402,
                -0.036031492691169356,
                -0.09912140843437141,
                0.07142732513870206,
                -0.0989819305286717,
                0.07186886305245731,
                -0.03574098478144186,
                0.22384761297302608,
                -0.07290757041589042,
                0.142312125251908,
                0.012517826374674003,
                0.31647532621581126,
                -0.08733127866248945,
                0.10570396596197416,
                -0.012998107393592345,
                0.2687749414042103,
                -0.055710805788874565,
                0.18169334092225858,
                0.04080681652335723,
                0.36694876740782917,
                -0.11792512174288515,
                -0.02487093681745539,
                -0.0935824803235049,
                0.08820950877526355,
                -0.11129991379402866,
                0.026123173218070443,
                -0.06477282133131382,
                0.16138806985412418,
                -0.11599904595866538,
                -0.0007604099899009217,
                -0.08056417901761778,
                0.1234122611244854,
                -0.10382772524897523,
                0.05577981280645859,
                -0.04620840726459302,
                0.20213693496417967,
                -0.04593651669628611,
                0.20271088554054223,
                0.05620273337879332,
                0.3935879397889602,
                -0.00041300441958010137,
                0.2926032999039175,
                0.12391069669883407,
                0.5056648051956703,
                -0.024561288748141487,
                0.2462705645320214,
                0.08867018684860535,
                0.4482398443021069,
                0.026508336289398166,
                0.34170909165623037,
                0.16192426292947976,
                0.5658628224696507,
                -0.1146083838681775,
                -0.06045250327059727,
                -0.10971489461272198,
                0.03317879015819682,
                -0.11770775200128346,
                -0.019182969317033834,
                -0.0906298117024933,
                0.09663277515509501,
                -0.11754459612493888,
                -0.041204264484023985,
                -0.10155888134781614,
                0.0635192544664375,
                -0.1150978514972112,
                0.00561138223037308,
                -0.0769276856767537,
                0.13251935222416933,
                -0.07672200143975037,
                0.13302709646922817,
                0.005968096471404186,
                0.3044549985537218,
                -0.04092306524500676,
                0.21319493475064116,
                0.06395148370948252,
                0.4068072878784694,
                -0.06020906153258694,
                0.17172448741972623,
                0.03357326190023487,
                0.3542446150258872,
                -0.018864012577009683,
                0.2574384384619728,
                0.097102761899147,
                0.46214301711146855,
                -0.11271630396304992,
                0.019236185290229475,
                -0.0689245103797449,
                0.15176578304687327,
                -0.09636651993223096,
                0.07995487140771769,
                -0.030390275305591387,
                0.2346689202076962,
                -0.10592794013784888,
                0.04820900015876518,
                -0.05104392103287656,
                0.19183082343707625,
                -0.08403204334619634,
                0.11447379903708708,
                -0.0069635731978893445,
                0.280280073358733,
                -0.006625476298278872,
                0.28092023026639895,
                0.11496292594072542,
                0.49124643667874196,
                0.0486226120603895,
                0.38053722071173685,
                0.19239546534272844,
                0.6130478781674145,
                0.01961203969084688,
                0.32934219729885944,
                0.1522926674515186,
                0.5507606292328697,
                0.08040624081034906,
                0.43450530050503094,
                0.23527131961435538,
                0.6781081834823761,
                -0.06905858612975453,
                -0.11209298043174178,
                -0.11276023432408298,
                -0.06705682445273121,
                -0.09645552298775241,
                -0.09512101520307016,
                -0.11797272013874606,
                -0.02790040818072493,
                -0.0841435827489619,
                -0.10499352600761434,
                -0.11675300542162302,
                -0.048865144506936506,
                -0.105994406846126,
                -0.08247544801810908,
                -0.1164193784754524,
                -0.0041626154740965,
                -0.1163791068768447,
                -0.0038202838674333134,
                -0.08228414641547366,
                0.11901248076727637,
                -0.10487773940699281,
                0.05204998568908785,
                -0.048598327902287144,
                0.1970672013671324,
                -0.11201495133212717,
                0.0227283227206189,
                -0.06682776534908882,
                0.1566533128769958,
                -0.09496747110144162,
                0.08414470503797368,
                -0.02759583407506864,
                0.2402541462376856,
                -0.10976995781238573,
                -0.07500774345867348,
                -0.1145733016788643,
                0.008926716848186652,
                -0.1177177425064586,
                -0.03858662606607709,
                -0.10033663532960253,
                0.06753228528411775,
                -0.11513037834963068,
                -0.05818371295258371,
                -0.10884149669444172,
                0.03684297287594382,
                -0.11753205028286985,
                -0.01621648279915362,
                -0.08905871758434643,
                0.10099465407270854,
                -0.08888603332313165,
                0.10146939834197886,
                -0.015892768533911052,
                0.2632004673045384,
                -0.057935513689355,
                0.17678882006242502,
                0.037242202143200294,
                0.36070434006831925,
                -0.0747973016964517,
                0.1377425810119935,
                0.009288188614436185,
                0.3105658754962206,
                -0.03830066930184144,
                0.2186081154932733,
                0.0679692720523812,
                0.4136158610208348,
                -0.09367704979834156,
                -0.09781313977247912,
                -0.11792954582874508,
                -0.0333278316295438,
                -0.11134941057437704,
                -0.07111659846184512,
                -0.11341745556144585,
                0.015553160724424912,
                -0.10389975837656766,
                -0.08585139730737056,
                -0.117060028885304,
                -0.010273863642767847,
                -0.11602600639176948,
                -0.05360874323590289,
                -0.10700182585717084,
                0.044153241472034574,
                -0.10689534792725967,
                0.04456177941000129,
                -0.053351235301963874,
                0.18684369620863583,
                -0.08566940437544539,
                0.11015662504848496,
                -0.009940840706814936,
                0.27462299289045433,
                -0.09766890434156088,
                0.07597267403903464,
                -0.03303256619459782,
                0.22934681635933651,
                -0.07089684802891306,
                0.14711363243835196,
                0.01592394116138477,
                0.3226722258019888,
                -0.11733731017188669,
                -0.043676791490324884,
                -0.10269150187444041,
                0.05970682098046006,
                -0.11556051878399719,
                0.002468901984233947,
                -0.0787302594432163,
                0.12803696549835364,
                -0.11783544266815042,
                -0.02199047294325389,
                -0.09209740884903676,
                0.09248536504919828,
                -0.11051253851942718,
                0.02970133329213861,
                -0.06259005365697903,
                0.16636162232792562,
                -0.06235116306446058,
                0.16690257292849953,
                0.030091253888684798,
                0.34808279405498405,
                -0.021676067348721566,
                0.25194657073090815,
                0.09295080064775847,
                0.45531124290072716,
                -0.04340014339679947,
                0.2080380436394953,
                0.060134499078013284,
                0.40031049028764726,
                0.002821065079773203,
                0.29862815420273764,
                0.12854015859792062,
                0.5130850518942239,
                -0.117327492597315,
                -0.04377794575586684,
                -0.10273717021992564,
                0.05955018079486132,
                -0.115578444169454,
                0.0023400047586635622,
                -0.0788036707487299,
                0.1278525823527264,
                -0.11783949657359298,
                -0.022105498688810066,
                -0.09215694867453618,
                0.09231485338358543,
                -0.11054433538489823,
                0.02955856458655403,
                -0.06267733644250678,
                0.16616336770228424,
                -0.062438652229714994,
                0.16670411192313161,
                0.029948278803373606,
                0.34782884712955897,
                -0.0217912994740044,
                0.2517203667655117,
                0.09278008260241892,
                0.4550295530152737,
                -0.04350150404206811,
                0.20782571115411325,
                0.05997765251268776,
                0.400042671882208,
                0.002691961474476149,
                0.29838807875732687,
                0.12835556907256684,
                0.5127894905287563,
                -0.10693418372260104,
                0.04441197177454635,
                -0.05344555701736201,
                0.18663840265312415,
                -0.08573598313081517,
                0.10997907445300166,
                -0.01006290538224151,
                0.274389956374914,
                -0.09772161161691649,
                0.07580899492356553,
                -0.03314075939001018,
                0.22912765132381063,
                -0.07097729826429698,
                0.14692221036285458,
                0.01578800500594405,
                0.32242531780643424,
                0.016159101881342987,
                0.32309847468988867,
                0.14744433724228123,
                0.5431215142241657,
                0.07625560680097848,
                0.4275638816961936,
                0.22972529320525137,
                0.6697713722738052,
                0.04482082615095232,
                0.37394465000283267,
                0.187198287033558,
                0.6050599150587771,
                0.11046344383142144,
                0.4839561697699713,
                0.2750253557573617,
                0.7372558858692505,
                -0.11639361598722962,
                -0.003945764817931741,
                -0.08235414144591535,
                0.11883151389672121,
                -0.10491999147740606,
                0.051896761778561076,
                -0.048696065892757226,
                0.19685849153654877,
                -0.11204333192252629,
                0.022588970290106182,
                -0.06691163185954474,
                0.15645847452642653,
                -0.09502359465186912,
                0.08397760964743266,
                -0.027707443545552893,
                0.24003156492708771,
                -0.02740255300145753,
                0.24063851547923854,
                0.08443353019555581,
                0.44121240284959096,
                0.02296937583621549,
                0.33537934640358125,
                0.1569899100765636,
                0.558137684817268,
                -0.0036031167728294497,
                0.28662240275120154,
                0.11932519194585138,
                0.4982885156432212,
                0.052314924825677254,
                0.38690934643637764,
                0.19742768458769272,
                0.620759910371732,
                -0.08894919580342951,
                0.10129526402156745,
                -0.016011416934265704,
                0.2629708470640702,
                -0.058026419129681275,
                0.17658694278198517,
                0.03709581078281723,
                0.36044697686782257,
                -0.07487433565676378,
                0.13755457521156783,
                0.009155668734067368,
                0.31032238377573806,
                -0.03840544622218193,
                0.2183923667328192,
                0.06780900921198392,
                0.413344626340324,
                0.06824631241868641,
                0.4140839895550819,
                0.21898069994354952,
                0.6535561812532839,
                0.13806739342028435,
                0.5282739726433491,
                0.31098623198848213,
                0.789930615384886,
                0.10177032472927701,
                0.4697924529090071,
                0.26359693777580745,
                0.7203568701288763,
                0.1771375184917085,
                0.5895285487581081,
                0.36114858258157373,
                0.8622774170213121,
                -0.04502504579362478,
                -0.11720542538147082,
                -0.10329968663088242,
                -0.08674226204538955,
                -0.07970847897308737,
                -0.10751995647426384,
                -0.11579866876701021,
                -0.054872342094847995,
                -0.06375329057356462,
                -0.11374921911807571,
                -0.11093570588915487,
                -0.0721938302603272,
                -0.09289061099219327,
                -0.09851763745003513,
                -0.11788857526444892,
                -0.034777797548951946,
                -0.11789790681938732,
                -0.03448506909583474,
                -0.09837593900094578,
                0.07377470289594554,
                -0.11368303567100012,
                0.014098704139221707,
                -0.0719766168092239,
                0.14454292717433687,
                -0.11717699943540226,
                -0.011579710668514914,
                -0.08656280609529325,
                0.10777228684493274,
                -0.10741601552618137,
                0.04255017532737525,
                -0.05461737114273774,
                0.1840866238841577,
                -0.09851258761559205,
                -0.09289635854773869,
                -0.11788892412499995,
                -0.02353489088380801,
                -0.11374686863112964,
                -0.06376173747660699,
                -0.11093875409720301,
                0.027784181230658435,
                -0.10751625631356936,
                -0.07971557620238129,
                -0.11580036730130987,
                0.000738116983216755,
                -0.11720442456827325,
                -0.04503484237041588,
                -0.10330408451267926,
                0.057603301858516934,
                -0.10318100340501056,
                0.05802844297424119,
                -0.04476073125871931,
                0.20518651929387133,
                -0.07951698009269857,
                0.12606136837322263,
                0.001087743096927253,
                0.29540389573618747,
                -0.09273551993906294,
                0.09065837748352355,
                -0.02322302227110445,
                0.24890867932482086,
                -0.06352538386591737,
                0.1642374156433386,
                0.028171564845375814,
                0.34467216852797067,
                -0.07603159453188003,
                -0.10931366979187619,
                -0.11485708320521269,
                -0.05940135429187031,
                -0.1009904516293801,
                -0.0899036248027069,
                -0.11763148925937815,
                -0.017806858259366252,
                -0.08989755127083861,
                -0.10099517548749988,
                -0.11763081442250391,
                -0.03999063446582673,
                -0.10931029560750484,
                -0.076039017737497,
                -0.11485910771583564,
                0.007149974327511011,
                -0.11480223293947044,
                0.007508909111931729,
                -0.07583111295710404,
                0.13521783326763687,
                -0.10086278570912081,
                0.06581725842895063,
                -0.03970721468341982,
                0.2157106336279906,
                -0.10921903751450411,
                0.03527655558023277,
                -0.05915569201047036,
                0.1740777052576052,
                -0.08973347752332077,
                0.09913101765808534,
                -0.017485680975952447,
                0.2601166183787927,
                -0.11246802504476115,
                -0.06795349164905823,
                -0.11239520939024435,
                0.02085712817879732,
                -0.11797772997833632,
                -0.029094294495964124,
                -0.0957204632804849,
                0.08190077637522619,
                -0.11660940570175725,
                -0.0499104212627196,
                -0.10544436452557303,
                0.04999242408680337,
                -0.11657299787449872,
                -0.005505111348791787,
                -0.08322350565498002,
                0.11658218504406588,
                -0.08303421821600766,
                0.11707353249109369,
                -0.005164793905791658,
                0.28368076097464845,
                -0.04964561882173334,
                0.1948310339720375,
                0.050408256531817366,
                0.38362271349892707,
                -0.06772644670907886,
                0.1545657550413571,
                0.021235203122804434,
                0.33226520904657925,
                -0.028791734553970945,
                0.23786936928313457,
                0.0823543663212472,
                0.4377532743316915,
                -0.11244005421196877,
                -0.06803649265637948,
                -0.11242272447750877,
                0.02071864125141929,
                -0.11797750210557255,
                -0.029205038463313723,
                -0.0957757213277778,
                0.08173454648781966,
                -0.11659530634897906,
                -0.050007293750055005,
                -0.10548575109285173,
                0.04984006567941104,
                -0.11658664148174915,
                -0.005629726796155608,
                -0.08329263518228702,
                0.11640208367664513,
                -0.08310355412304123,
                0.11689322474394646,
                -0.005289615732882107,
                0.2834449673074448,
                -0.04974269768879534,
                0.19462298326486177,
                0.05025569174469853,
                0.3833591768716948,
                -0.06780965409612673,
                0.1543715758141957,
                0.021096509815699736,
                0.33201554389936133,
                -0.02890268490104713,
                0.2376474470959447,
                0.08218793005411411,
                0.43747586622444495,
                -0.11482291547659106,
                0.0073772547346975595,
                -0.07590728141428141,
                0.13503069297034598,
                -0.1009112112062698,
                0.06565786109168807,
                -0.03981112610062559,
                0.2154957503706712,
                -0.10925359153163898,
                0.03513102972298438,
                -0.059245731947661924,
                0.1738766934803001,
                -0.089795774500484,
                0.09895774884080862,
                -0.01760346387317245,
                0.259887863641459,
                -0.017281970151319513,
                0.2605114173713677,
                0.09943027256668942,
                0.46596146426271523,
                0.035528038446851234,
                0.3576903280562078,
                0.17442473220819482,
                0.58532482599089,
                0.007736505957557392,
                0.30771434452357915,
                0.13554097419723377,
                0.524256616936594,
                0.06609262731656182,
                0.41043936796925296,
                0.2160815465995728,
                0.6491660914256029,
                -0.11789426267155155,
                -0.03459239678811247,
                -0.09842778077316656,
                0.07361188928361104,
                -0.11370713448319279,
                0.01396363348691567,
                -0.07205620154147321,
                0.14435237060197392,
                -0.11718722676758057,
                -0.011700909840806784,
                -0.08662851934752834,
                0.107595601752584,
                -0.10745398581838807,
                0.042401233195055024,
                -0.05471082735500124,
                0.18388219583178056,
                -0.05445553996445189,
                0.18443954323038536,
                0.042807550589631996,
                0.3704404379578085,
                -0.011370107448243572,
                0.2718938778332635,
                0.10807743414917513,
                0.48007922360402094,
                -0.03429935189655615,
                0.22678018234161584,
                0.07405596417919517,
                0.42387330259070627,
                0.014332193380485836,
                0.31978062970532745,
                0.14487196049957196,
                0.5390582009977524,
                -0.10322601262708762,
                0.05787246191205049,
                -0.044861226400853264,
                0.20497505231162372,
                -0.07958973227480408,
                0.12587764435100346,
                0.000959504994764937,
                0.2951646857939115,
                -0.09279440064115425,
                0.0904885249413185,
                -0.023337388893252566,
                0.24868334086255928,
                -0.0636120075280371,
                0.16403982014110519,
                0.02802945526319938,
                0.3444190871056804,
                0.02841715531635583,
                0.3451088471668926,
                0.1645785501982896,
                0.570008046222165,
                0.09095173999648899,
                0.4520123339336952,
                0.24929758592175733,
                0.6990959840323022,
                0.05829791946621393,
                0.39717406236008534,
                0.205551539869815,
                0.6331654869370251,
                0.12637861690718089,
                0.5096236618877217,
                0.29581668835411645,
                0.7677995375079961,
                -0.08830560097818861,
                -0.10219400999431692,
                -0.11743425652958743,
                -0.04258486137237692,
                -0.10841604151472163,
                -0.07793554844418055,
                -0.11536024602278581,
                0.0038580512210940367,
                -0.09974734943666379,
                -0.09145130740945716,
                -0.11778377946639511,
                -0.02074993326584986,
                -0.11431167721236297,
                -0.06164673309848718,
                -0.11016365619875983,
                0.031239092088454795,
                -0.11007378144660611,
                0.031631026848664,
                -0.0614058283423057,
                0.16903678412630319,
                -0.09128591765528958,
                0.09478779272664999,
                -0.02043351350765448,
                0.25437800104762387,
                -0.10206637774115628,
                0.06182288159744857,
                -0.042306199115188535,
                0.21032086439675501,
                -0.07773240118900605,
                0.13052576023626822,
                0.00421222848029635,
                0.3012081940789096,
                -0.11624080252148326,
                -0.05233260288191238,
                -0.1064711537450325,
                0.0461748500678771,
                -0.11690209089409152,
                -0.008624989167851252,
                -0.08494799107430616,
                0.1120669148252731,
                -0.11795797489799591,
                -0.031865324215090245,
                -0.09709610059987774,
                0.0777343542563666,
                -0.11307315050977042,
                0.017388402259804564,
                -0.07002682516831768,
                0.14917253177459622,
                -0.06980453775355676,
                0.1496968791974126,
                0.017761719678593135,
                0.32600094080290165,
                -0.03156752179831545,
                0.2323027972393234,
                0.07818318667716918,
                0.43079130988814707,
                -0.05207255796614453,
                0.1896133100281595,
                0.04658592498767282,
                0.3770095971553159,
                -0.008289429250069574,
                0.27776534083090404,
                0.11255350474708258,
                0.4873460790013949,
                -0.10653597957710763,
                -0.08152608426538613,
                -0.11621548296458144,
                -0.0024677834795214203,
                -0.11692184403167809,
                -0.04754304663328742,
                -0.10441689637581748,
                0.05369970519591205,
                -0.11311543999460132,
                -0.06592109363954524,
                -0.11170271786040799,
                0.024229432667986873,
                -0.11795519168833819,
                -0.026391943246612835,
                -0.09435801851081017,
                0.08594303410425398,
                -0.09420193742735293,
                0.08640117519576669,
                -0.026084832159127783,
                0.24325608463733084,
                -0.06568949755407404,
                0.15928251715571506,
                0.024612058757485795,
                0.33832187764061394,
                -0.08133224568092189,
                0.12145531798553237,
                -0.0021229148910293857,
                0.28940245294876416,
                -0.047273693046809326,
                0.1998827727063145,
                0.0541200887864179,
                0.39001435871288065,
                -0.11742006981131618,
                -0.014613565843895636,
                -0.08820126887094058,
                0.1033430392698187,
                -0.10835678210196194,
                0.038818623952127866,
                -0.05695353011825179,
                0.17895968010917707,
                -0.11427495414684756,
                0.010716000863907706,
                -0.07396392768480459,
                0.13976483149928937,
                -0.09966555367665968,
                0.06969430342076498,
                -0.03717007617128213,
                0.2209275850994814,
                -0.03688158242521767,
                0.22151813885360122,
                0.0701338271708571,
                0.4172713526230152,
                0.011080009611986009,
                0.31384863297747456,
                0.14027987025139566,
                0.5317862977902229,
                -0.014287314596824231,
                0.26629685772532935,
                0.10382032052091796,
                0.47314229701641064,
                0.03922039020121318,
                0.3641734646100362,
                0.17951247636229017,
                0.5932033549444521,
                -0.11742840549496529,
                -0.014732873367658349,
                -0.08826509047464658,
                0.10316824582599916,
                -0.1083928607456396,
                0.038671573468336766,
                -0.05704509468198609,
                0.17875714370532908,
                -0.11429716131051092,
                0.010582821860130771,
                -0.07404162076852475,
                0.13957616657545563,
                -0.0997155038003515,
                0.06953338145695954,
                -0.03727551221503066,
                0.22071117721561911,
                -0.03698722484869276,
                0.22130152459001262,
                0.06997269882732522,
                0.4169992524393695,
                0.010946624228482516,
                0.3136042757538575,
                0.14009099894783522,
                0.5314864546465488,
                -0.01440682850031353,
                0.26606637198172656,
                0.10364532069737183,
                0.4728563253527508,
                0.03907313333769541,
                0.36391523590640495,
                0.17930973357871555,
                0.5928896403207637,
                -0.09425892648091509,
                0.08623321430209106,
                -0.026197307132746664,
                0.24303263782359824,
                -0.0657742295676645,
                0.15908681330201113,
                0.02447184082383854,
                0.33807068786685296,
                -0.08140310621449821,
                0.12127348561184263,
                -0.0022492613446624815,
                0.2891651346550172,
                -0.04737229654041401,
                0.19967319737259637,
                0.053965999372756465,
                0.3897492974591054,
                0.054386699401701474,
                0.3904720574961061,
                0.20024492740556915,
                0.6250680896733127,
                0.12176970064280164,
                0.5022239608238755,
                0.289812379690004,
                0.7590044440444169,
                0.0866916718320432,
                0.44496148096978233,
                0.24364212535757807,
                0.6906497386686564,
                0.15962078583397682,
                0.5622594970583857,
                0.33875569040284664,
                0.8301322058005945,
                -0.11010644381521177,
                0.03148739263994487,
                -0.06149397663096818,
                0.16883766399752725,
                -0.0913463229839236,
                0.09461641555790236,
                -0.02054940475634527,
                0.2541511379588194,
                -0.10211291158977608,
                0.06166537590871517,
                -0.042408218883865124,
                0.2101078727879649,
                -0.07780667799765424,
                0.13034051158750648,
                0.004082465751591373,
                0.3009674595100908,
                0.004436959449232811,
                0.3016240132157879,
                0.1308460352891757,
                0.5167708932290694,
                0.062095384608370545,
                0.4036513404615951,
                0.21068891149164815,
                0.6409826715182115,
                0.03187964383859319,
                0.35125114864848295,
                0.16938094520020347,
                0.5774902541834318,
                0.09508418175856466,
                0.45882458865512377,
                0.25476993416350946,
                0.7072481452334075,
                -0.06988585349207545,
                0.14950459161878032,
                0.01762491802001774,
                0.3257531673042125,
                -0.03167658049686254,
                0.2320827667006627,
                0.07801864205856542,
                0.4305157934294295,
                -0.052167745184677414,
                0.189407150969513,
                0.046435251849083134,
                0.37674795217661255,
                -0.008412359428630774,
                0.2775314388122289,
                0.1123750886484645,
                0.4870566910626632,
                0.11286199500871309,
                0.48784565743096747,
                0.2781693751765055,
                0.741890841772099,
                0.18996957233177558,
                0.6093221368406992,
                0.37746140354290286,
                0.8855517722251656,
                0.15002925548003582,
                0.5471973689456249,
                0.3264288611694957,
                0.8123347788084236,
                0.23268294556393215,
                0.6742199611161905,
                0.4312670022967267,
                0.961541822022324,
                -0.00825206890639004,
                -0.11686493010155953,
                -0.08474295054730947,
                -0.10461800756914018,
                -0.0520436224876835,
                -0.11628758159618356,
                -0.10635005308526825,
                -0.08185620802042944,
                -0.031534373887245136,
                -0.11796278403907991,
                -0.09693303000649735,
                -0.09462363598499322,
                -0.06977981470770496,
                -0.11183932277287022,
                -0.1129940197836223,
                -0.06631572367544884,
                -0.11306535528049315,
                -0.06608499916426419,
                -0.11175962826571338,
                0.02395853202385443,
                -0.11795860453393696,
                -0.026609346331038574,
                -0.09446842647582242,
                0.08561863590041476,
                -0.11689850809742351,
                -0.04773370093785981,
                -0.10450055556097639,
                0.05340205577192616,
                -0.11624564459003357,
                -0.002711935343800473,
                -0.08166324101025174,
                0.12060827240932016,
                -0.07770982340252768,
                -0.10852607594199783,
                -0.11530240071559737,
                -0.057380849081728844,
                -0.10205222481989619,
                -0.08849957527269699,
                -0.11746035108963128,
                -0.01516989736909325,
                -0.09126755230142032,
                -0.09989935379755578,
                -0.11776790409282271,
                -0.037661901415619516,
                -0.11006384095795528,
                -0.07432674036742135,
                -0.11437974170602296,
                0.010095163057849722,
                -0.11431866454028665,
                0.010458300231641508,
                -0.07411463319765732,
                0.1394001357476098,
                -0.09976276162980562,
                0.06938310522879197,
                -0.03737427924384156,
                0.22050939178809487,
                -0.10842724127525459,
                0.03853417454000831,
                -0.057130984410957854,
                0.1785682355776439,
                -0.08832522560393986,
                0.10300509229799244,
                -0.014844517696308422,
                0.2652236043789626,
                -0.04724372398173028,
                -0.11695828084905012,
                -0.10428545345872488,
                -0.08526220615270598,
                -0.0813107014810613,
                -0.10665635626171178,
                -0.11616797991472123,
                -0.05277583052203287,
                -0.06566374092160422,
                -0.11319384674558934,
                -0.11161324487693146,
                -0.07040554652757784,
                -0.09418460566010158,
                -0.09734580939741729,
                -0.11794965857209412,
                -0.03237305813607103,
                -0.11795478773766142,
                -0.032076127293582855,
                -0.09719990855895684,
                0.0774165560584606,
                -0.11312346090914287,
                0.0171241016216052,
                -0.07018413068710352,
                0.14880123601698336,
                -0.11692565251361058,
                -0.008862541026197285,
                -0.08507854781323863,
                0.11172236784751359,
                -0.10654821292425824,
                0.04588380064982449,
                -0.052516657180551596,
                0.18865316056686998,
                -0.09965036716878194,
                -0.09156831538040246,
                -0.11779379231792682,
                -0.02097393635620868,
                -0.11426819250418806,
                -0.06181723862913926,
                -0.11022716660999836,
                0.03096159143838923,
                -0.10834580802669345,
                -0.0780793051949793,
                -0.11539700765417103,
                0.003607299350881804,
                -0.11741752060126588,
                -0.04278211568288239,
                -0.10228426918540885,
                0.06108893990631341,
                -0.10215698568836899,
                0.06151828341140879,
                -0.04250380218181477,
                0.20990927109130192,
                -0.07787650669592554,
                0.13016766449052175,
                0.003961127853963388,
                0.30074310321374925,
                -0.09140327438235567,
                0.09445644576075683,
                -0.02065786535413412,
                0.2539396589623171,
                -0.0615766826290786,
                0.16865193960070346,
                0.03135317744247767,
                0.3503196038455983,
                -0.09959970476321343,
                -0.09162862481494778,
                -0.11779861583241534,
                -0.021089731710810806,
                -0.11424527305864828,
                -0.061905291023712956,
                -0.11025973308451527,
                0.030818053123758772,
                -0.10830901710113926,
                -0.07815348610953884,
                -0.11541570264867372,
                0.0034776325162655247,
                -0.1174084726357403,
                -0.0428840395574703,
                -0.10233070713993998,
                0.060931530111668755,
                -0.10220363002262665,
                0.06136066723703758,
                -0.042605932436129305,
                0.20969616899687388,
                -0.0779508939902117,
                0.12998230535612199,
                0.003831254639620453,
                0.30050225815929293,
                -0.0914637901966276,
                0.09428495810637132,
                -0.020773867088462874,
                0.2537126853878751,
                -0.0616649414033789,
                0.16845270898628945,
                0.031209432748120568,
                0.35006488731112767,
                -0.11795277870200625,
                -0.032185090098041116,
                -0.09725338544335825,
                0.07725210733394552,
                -0.11314919483351597,
                0.016987395857118587,
                -0.07026535053153335,
                0.14860904433243977,
                -0.11693751495796954,
                -0.008985375310669747,
                -0.08514589617765426,
                0.11154404764298424,
                -0.10658781832864554,
                0.04573322340532361,
                -0.05261174850499566,
                0.1884470974023122,
                -0.052352258725075276,
                0.18900864719028826,
                0.04614374318927185,
                0.37624245327797384,
                -0.008650370528735435,
                0.2770794374732975,
                0.11203008242894623,
                0.48649769460431785,
                -0.031887842817113744,
                0.23165751414158448,
                0.07770038461890065,
                0.4299835457509375,
                0.017360158140059735,
                0.3252744171854274,
                0.14913283661940885,
                0.5457848998381152,
                -0.11303901955988142,
                -0.06616963528376596,
                -0.11178877846515826,
                0.023818409984295824,
                -0.11796001177335362,
                -0.026721725410568716,
                -0.09452531963529583,
                0.0854507709008278,
                -0.11688604385682592,
                -0.04783220853737578,
                -0.10454357724043557,
                0.053248062252353366,
                -0.11626092330946443,
                -0.002838185903344871,
                -0.08173400564973932,
                0.12042653592971898,
                -0.08154072220112253,
                0.12092187938639136,
                -0.00249387245070027,
                0.28870653331015245,
                -0.04756341008674504,
                0.19926809358743813,
                0.0536678907070119,
                0.38923719855453404,
                -0.06593859433414216,
                0.15870845829670638,
                0.024200480937947348,
                0.3375853377421349,
                -0.026415169458931083,
                0.24260078525858675,
                0.08590835685649313,
                0.4436621157473501,
                -0.11434098218958798,
                0.010325010742226727,
                -0.07419243676701531,
                0.13921136033813813,
                -0.0998128222391352,
                0.06922207277934876,
                -0.037479825773227955,
                0.22029287341859477,
                -0.10846343040457006,
                0.03838701357057934,
                -0.05722265946033004,
                0.178365588688158,
                -0.08838915769328372,
                0.10283018836853498,
                -0.014963935705709024,
                0.26499321452944863,
                -0.014638239594485049,
                0.26562097064872814,
                0.10330691448378683,
                0.4723039289003387,
                0.038788224683817235,
                0.3634163370136999,
                0.1789178298054237,
                0.592283746308645,
                0.010688464354457673,
                0.31313212564100557,
                0.13972584395439697,
                0.5309073094142833,
                0.06966104139359355,
                0.41647360476681095,
                0.22088287203686752,
                0.6564332395834237,
                -0.06349893781019368,
                -0.11381982843364542,
                -0.11084383416525416,
                -0.07242692061536728,
                -0.09271749874855768,
                -0.09866948728534007,
                -0.11787794406028347,
                -0.03509212842372717,
                -0.07949474646958411,
                -0.10763118604970116,
                -0.11574741730297726,
                -0.05514605270975563,
                -0.10316719464711445,
                -0.08693473214056206,
                -0.1172354144371729,
                -0.012265147757281804,
                -0.11720754362695172,
                -0.01193521693900515,
                -0.08675583132631316,
                0.10725429953497233,
                -0.10752780023746615,
                0.0421134285371499,
                -0.05489163689349281,
                0.18348739605446202,
                -0.11375420012241731,
                0.013702577608863932,
                -0.07221026230011143,
                0.14398431960450875,
                -0.09852834397209805,
                0.0732973358458527,
                -0.0347999551064574,
                0.2257635288848322,
                -0.10740435202765868,
                -0.07992863399541122,
                -0.11585094405486966,
                0.00036257815071652835,
                -0.11717376080209783,
                -0.04532914068318103,
                -0.10343590178597419,
                0.05714652250628144,
                -0.11367558460508669,
                -0.06401541552950459,
                -0.11102995111063034,
                0.027368022138290538,
                -0.11789888061869215,
                -0.023869809456440655,
                -0.09306879608090114,
                0.08969807925468921,
                -0.0929085126080728,
                0.09016042273557308,
                -0.02355849597958455,
                0.24824824353739994,
                -0.06377961705466233,
                0.16365822037565297,
                0.027754850617160577,
                0.3439304922208145,
                -0.07973059302157597,
                0.12552279336540462,
                0.0007116491285795376,
                0.2947028396888989,
                -0.04505558470733188,
                0.2045667037663182,
                0.05757110848615839,
                0.39593120113314706,
                -0.08971442274619772,
                -0.10113700904179988,
                -0.11761016693733332,
                -0.0402949490595969,
                -0.1092084076025991,
                -0.07626209181153204,
                -0.11491970075040027,
                0.006764419214005602,
                -0.10084794336460699,
                -0.09008607861687438,
                -0.11765146203407524,
                -0.018151793113004064,
                -0.11479581546017466,
                -0.0596650486257729,
                -0.1094148830863086,
                0.03445368792143212,
                -0.10932080594478387,
                0.034849825071012426,
                -0.059419941480220374,
                0.17348849370891473,
                -0.08991648647333574,
                0.09862304662912998,
                -0.01783117096543762,
                0.2594461663103667,
                -0.10100517439926819,
                0.06534990765986275,
                -0.04001208441303744,
                0.21508080181943234,
                -0.07605474216698647,
                0.13466924197881397,
                0.007122798862579001,
                0.306584587181718,
                -0.1165687256545767,
                -0.0501947032944797,
                -0.10556616551786292,
                0.04954566101557289,
                -0.11661355834705338,
                -0.005870633900287046,
                -0.08342654716700493,
                0.11605418145310033,
                -0.1179776701910235,
                -0.029419196787591792,
                -0.09588288453264239,
                0.0814133930441282,
                -0.11247639012266648,
                0.020450985367434442,
                -0.06819715342095073,
                0.15346802624248923,
                -0.06797066361681882,
                0.15399657605467665,
                0.02082850517559417,
                0.33153354902042836,
                -0.029117191981446,
                0.23721894977671892,
                0.0818664278543018,
                0.43694037378580536,
                -0.04993045598934083,
                0.19422123472548936,
                0.04996093832473951,
                0.3828504332129085,
                -0.005530871593134295,
                0.28298972120836513,
                0.11654497376428084,
                0.4938033707391191,
                -0.11655436976544979,
                -0.05029131924546649,
                -0.1056072955487929,
                0.04939355914452936,
                -0.11662694541795508,
                -0.005994992811302231,
                -0.08349542015796338,
                0.11587433662202841,
                -0.11797718578191084,
                -0.029529684218592783,
                -0.09593788604358648,
                0.08124741969307048,
                -0.11250364867358244,
                0.020312754976405133,
                -0.06827989789192337,
                0.153274309931403,
                -0.06805361446751802,
                0.15380265336386395,
                0.020690068404838245,
                0.3312841404095586,
                -0.02922788579217358,
                0.23699728412587784,
                0.08170024812351738,
                0.4366632222149072,
                -0.0500272783200542,
                0.19401344055466246,
                0.04980863007396939,
                0.38258715312202457,
                -0.005655436883876135,
                0.2827541840775098,
                0.11636492255348223,
                0.4935123476882068,
                -0.10935510342556996,
                0.03470455575011271,
                -0.059509724881063354,
                0.17328773846795809,
                -0.08997852691415027,
                0.0984500343482017,
                -0.017948697326308986,
                0.25921766810938185,
                -0.10105334336006859,
                0.0651907668589488,
                -0.04011573929389461,
                0.2148661750984615,
                -0.07613065408781523,
                0.13448235821787163,
                0.006991401021693454,
                0.30634221750071894,
                0.007350097108705978,
                0.30700297359578677,
                0.1349920843089118,
                0.5233827649693312,
                0.0656249779479752,
                0.40964675652172555,
                0.2154514161915157,
                0.6482109989386047,
                0.03510100933813221,
                0.3569383368685477,
                0.1738352220600054,
                0.5844103537637596,
                0.09892200293823507,
                0.4651282325553201,
                0.2598406667034429,
                0.7147847004938671,
                -0.11721751442278143,
                -0.012056159574948412,
                -0.08682128804219962,
                0.10707787097897233,
                -0.10756551399332427,
                0.04196474294117826,
                -0.05498483656940769,
                0.1832832245384336,
                -0.11377804239826121,
                0.013567763492906455,
                -0.07228959049601213,
                0.14379401956849452,
                -0.09857992920797039,
                0.0731347787698668,
                -0.03490702626238648,
                0.22554548588878948,
                -0.03461453650667757,
                0.22614003565255408,
                0.0735782985296035,
                0.4230706748621736,
                0.013935768250629272,
                0.3190592424965302,
                0.14431305433024505,
                0.5381743327494846,
                -0.011725912318232591,
                0.2712131108843336,
                0.10755914823971598,
                0.47923597561562076,
                0.04237050519990795,
                0.36967843048914356,
                0.1838400168011911,
                0.5998857462637655,
                -0.09296713677381556,
                0.08999082672971671,
                -0.02367260606538408,
                0.24802316161148713,
                -0.0638659841804335,
                0.16346088140976822,
                0.027612997571332627,
                0.34367766733487326,
                -0.07980308866733292,
                0.12533932587953406,
                0.00058366756276583,
                0.2944638862829718,
                -0.0451558233131172,
                0.20435549332041925,
                0.057415383960316244,
                0.3956645047671916,
                0.057840286378632325,
                0.396391467193563,
                0.20493142574276302,
                0.6322204107310324,
                0.12583974329986397,
                0.5087598262014641,
                0.29511533370732934,
                0.7667732207822684,
                0.09045348664903986,
                0.45118911850730514,
                0.24863685153483772,
                0.698110287566442,
                0.16399905633110518,
                0.5691035902760401,
                0.3443668722602379,
                0.8382092103785119,
                -0.03826876610213966,
                -0.1177356420114505,
                -0.10018665510012965,
                -0.09091572683610162,
                -0.07477382336196838,
                -0.1098717971846097,
                -0.1145072613166238,
                -0.06086743096592624,
                -0.057907822922262556,
                -0.11519024778823851,
                -0.10873348639858525,
                -0.07727810709122236,
                -0.0888667674212575,
                -0.10178029020056405,
                -0.11750797985424559,
                -0.04168369846021326,
                -0.11752971219757045,
                -0.04140337079548261,
                -0.10165099253986122,
                0.06321315303556543,
                -0.11513646512954955,
                0.005358778359207769,
                -0.0770732944285056,
                0.13215975323359042,
                -0.11771961685376846,
                -0.019408824408345883,
                -0.09074867167439186,
                0.09629992494436947,
                -0.10978025702491377,
                0.032899437507178185,
                -0.06062486080220253,
                0.17079263790322818,
                -0.09495035045894094,
                -0.09662061771255244,
                -0.11796993512908142,
                -0.030902398209354108,
                -0.11200625555484496,
                -0.06930762072178695,
                -0.1128413891816507,
                0.018595049824746166,
                -0.10486483119710142,
                -0.08435064740737819,
                -0.11679219034557446,
                -0.007540202382512448,
                -0.11637462353217166,
                -0.05149153765577897,
                -0.10611753163730998,
                0.04750335841242152,
                -0.10600685131802766,
                0.04791609873975937,
                -0.051229827332468884,
                0.19143092689865704,
                -0.08416445208608196,
                0.11412740005837439,
                -0.007202977057188451,
