{
    "92": {
        "hyperparams": {
            "stocks": [
                "AXP",
                "DIS",
                "HD",
                "UNH"
            ],
            "start": "2015-01-01",
            "end": "2025-01-01",
            "risk_aversion": 0.1,
            "n_qubits": 6,
            "budget": 509,
            "log_encoding": true,
            "layers": 6,
            "prices_now": {
                "AXP": 295.1141052246094,
                "DIS": 111.3499984741211,
                "HD": 386.5369873046875,
                "UNH": 503.7073059082031
            },
            "assets_to_qubits": {
                "AXP": [
                    0
                ],
                "DIS": [
                    1,
                    2,
                    3
                ],
                "HD": [
                    4
                ],
                "UNH": [
                    5
                ]
            },
            "optimizer": "CMAES",
            "lambda_budget": 0.01
        },
        "continuous_variables_solution": {
            "weights": {
                "AXP": 0.12925641005163896,
                "DIS": 0.0,
                "HD": 8.283304597789254e-17,
                "UNH": 0.8707435899483612
            },
            "allocation": {
                "UNH": 1,
                "AXP": 0,
                "DIS": 0,
                "HD": 0
            },
            "value": 0.1400091334922988,
            "left_overs": 5.29269412216388
        },
        "continuous_variables_solution_unconstrained": {
            "weights": {
                "AXP": 0.1355286974777868,
                "DIS": 0.0,
                "HD": 0.0,
                "UNH": 0.8707942711593604
            },
            "allocation": {
                "UNH": 1,
                "AXP": 0,
                "DIS": 0,
                "HD": 0
            },
            "value": 0.1400091334922988,
            "left_overs": 5.292693914803863
        },
        "exact_solution": {
            "smallest_eigenvalues": [
                -0.13910603408914324
            ],
            "smallest_bitstrings": [
                "000001"
            ],
            "first_excited_energy": -0.13907364407844233,
            "optimized_portfolio": [
                {
                    "AXP": 0,
                    "DIS": 0,
                    "HD": 0,
                    "UNH": 1
                }
            ],
            "second_optimized_portfolio": [
                {
                    "AXP": 1,
                    "DIS": 2,
                    "HD": 0,
                    "UNH": 0
                }
            ],
            "spectrum": [
                1.5009624995671175e-16,
                -0.13910603408914324,
                -0.13106631254058734,
                -0.061079658705500466,
                -0.13689563575657454,
                -0.035048257377927806,
                -0.0830415830023467,
                0.22792406426490897,
                -0.09509964393498196,
                -0.11373617851772869,
                -0.13371578173806253,
                0.05675044707312983,
                -0.12525640489334938,
                0.09709715397549673,
                0.021100769476032684,
                0.4525935327531189,
                -0.054208350703493925,
                -0.13308094584170052,
                -0.13905127065042555,
                -0.008826818882667451,
                -0.137767441703822,
                0.02432975259921063,
                -0.037666751726625536,
                0.3335585004717112,
                -0.12266654229113991,
                -0.08106341295467749,
                -0.1150508939954192,
                0.13566207272919725,
                -0.09933089747355317,
                0.1832865563617604,
                0.09329422286198699,
                0.5850633851247162,
                -0.11455539624687847,
                -0.09402514972652756,
                -0.12311697013734663,
                0.1065134577256862,
                -0.11026196271423452,
                0.15124376551481555,
                0.06612481220819033,
                0.5367651061776915,
                -0.13907364407844233,
                0.0019337787123160847,
                -0.05517464134083801,
                0.2949474399790063,
                -0.027964015432319092,
                0.35406900147671644,
                0.24095064246971915,
                0.8321435623555316,
                -0.1334747856495543,
                -0.052708101260372224,
                -0.09580866346820217,
                0.19406476210374374,
                -0.0758123387406548,
                0.24595292004356317,
                0.14683255661984987,
                0.6777443710095618,
                -0.13134153836140441,
                0.06991190512290116,
                -0.0012028561783611197,
                0.4091745206875928,
                0.033317730831189905,
                0.4756277151939186,
                0.3485154077829704,
                0.9999999999999996
            ],
            "result_with_budget": [
                {
                    "portfolio": {
                        "AXP": 0,
                        "DIS": 0,
                        "HD": 0,
                        "UNH": 1
                    },
                    "budget": 503.7073059082031,
                    "difference": 5.292694091796875,
                    "objective_value": 0.1400091334922988
                }
            ],
            "result_with_budget_excited": [
                {
                    "portfolio": {
                        "AXP": 1,
                        "DIS": 2,
                        "HD": 0,
                        "UNH": 0
                    },
                    "budget": 517.8141021728516,
                    "difference": -8.814102172851562,
                    "objective_value": -2.453940178503334
                }
            ]
        },
        "qaoa_solution": {
            "two_most_probable_states": [
                "000100",
                "000001"
            ],
            "final_expectation_value": -0.12796846817649773,
            "params": [
                2.048912330084865,
                4.537381820316883,
                8.209634357789824,
                0.6479385326400341,
                12.516866318375806,
                19.553073452598976,
                2.6507943503178293,
                2.895438526511095,
                1.7112647233659168,
                1.2930659763466017,
                3.0442067182512202,
                -0.053550207131152355
            ],
            "total_steps": 532,
            "states_probs": [
                0.08576354793105381,
                0.09446601722703754
            ],
            "optimized_portfolios": [
                {
                    "AXP": 0,
                    "DIS": 4,
                    "HD": 0,
                    "UNH": 0
                },
                {
                    "AXP": 0,
                    "DIS": 0,
                    "HD": 0,
                    "UNH": 1
                }
            ],
            "training_history": {
                "xbest": [
                    2.048912330084865,
                    4.537381820316883,
                    8.209634357789824,
                    0.6479385326400341,
                    12.516866318375806,
                    19.553073452598976,
                    2.6507943503178293,
                    2.895438526511095,
                    1.7112647233659168,
                    1.2930659763466017,
                    3.0442067182512202,
                    -0.053550207131152355
                ],
                "fbest": -0.12796846817649773,
                "evals_best": 5844,
                "evaluations": 5852,
                "iterations": 532,
                "xfavorite": [
                    2.0489122917153946,
                    4.537381671482667,
                    8.20963302581318,
                    0.6479386587539815,
                    12.516867445140672,
                    19.55307507764278,
                    2.6507943772418843,
                    2.895438570091501,
                    1.7112644942897663,
                    1.2930662016337322,
                    3.044206722609965,
                    -0.05355024697423142
                ],
                "stds": [
                    7.428614361046325e-07,
                    1.4039502320081727e-06,
                    3.9444049333003976e-06,
                    6.397975756337211e-07,
                    5.183614276151602e-06,
                    8.811615524472396e-06,
                    8.822934936505702e-08,
                    9.765837585699767e-08,
                    3.375857070216287e-07,
                    3.0112012449420144e-07,
                    4.849270581878807e-08,
                    5.099816086466182e-08
                ],
                "stop": {
                    "tolfun": 1e-11
                }
            },
            "objective_values": [
                -11.670294243585102,
                0.1400091334922988
            ],
            "result_with_budget": [
                {
                    "portfolio": {
                        "AXP": 0,
                        "DIS": 4,
                        "HD": 0,
                        "UNH": 0
                    },
                    "budget": 445.3999938964844,
                    "difference": 63.600006103515625
                },
                {
                    "portfolio": {
                        "AXP": 0,
                        "DIS": 0,
                        "HD": 0,
                        "UNH": 1
                    },
                    "budget": 503.7073059082031,
                    "difference": 5.292694091796875
                }
            ]
        }
    }
}