{
    "21": {
        "hyperparams": {
            "stocks": [
                "CAT",
                "PG"
            ],
            "start": "2015-01-01",
            "end": "2025-01-01",
            "risk_aversion": 0.1,
            "n_qubits": 8,
            "budget": 2733,
            "log_encoding": true,
            "layers": 8,
            "prices_now": {
                "CAT": 361.4349670410156,
                "PG": 166.6339111328125
            },
            "assets_to_qubits": {
                "CAT": [
                    0,
                    1,
                    2
                ],
                "PG": [
                    3,
                    4,
                    5,
                    6,
                    7
                ]
            },
            "optimizer": "Powell"
        },
        "continuous_variables_solution": {
            "weights": {
                "CAT": 0.9861378150269038,
                "PG": 0.01386218497309621
            },
            "allocation": {
                "CAT": 7,
                "PG": 1
            },
            "value": -41.82519143622209,
            "left_overs": 36.32131908618794
        },
        "continuous_variables_solution_unconstrained": {
            "weights": {
                "CAT": 0.99778133476697,
                "PG": 0.04829744574899631
            },
            "allocation": {
                "CAT": 7,
                "PG": 1
            },
            "value": -41.82519143622209,
            "left_overs": 36.321312686360216
        },
        "exact_solution": {
            "smallest_eigenvalues": [
                -0.3177064771182441
            ],
            "smallest_bitstrings": [
                "01000110"
            ],
            "first_excited_energy": -0.31770020619078976,
            "optimized_portfolio": [
                {
                    "CAT": 2,
                    "PG": 12
                }
            ],
            "second_optimized_portfolio": [
                {
                    "CAT": 3,
                    "PG": 10
                }
            ],
            "spectrum": [
                1.9557540765848566e-16,
                -0.3175121301414396,
                -0.23435252431117046,
                -0.24944686525556595,
                -0.1360742244192729,
                -0.3023854480210003,
                -0.29483293237015334,
                -0.15868900994262014,
                -0.07276153259822943,
                -0.31467486869720435,
                -0.2693176405556397,
                -0.20879586019070653,
                -0.18993795622017937,
                -0.2806430732952541,
                -0.31089794272444965,
                -0.09912518190642353,
                -0.0375618672422827,
                -0.3172749729459238,
                -0.2530162852214624,
                -0.23030327588193847,
                -0.16418722107363196,
                -0.29269593288912255,
                -0.3040467545929246,
                -0.13008929223454516,
                -0.10559898907936138,
                -0.30971172595997437,
                -0.2832565411018099,
                -0.18492448452314955,
                -0.21332640175872972,
                -0.266226756692382,
                -0.31538642644112996,
                -0.06579652418782808,
                -0.24723168717685953,
                -0.2368243295158295,
                -0.3176255018997828,
                -0.004794379814854356,
                -0.3013267005068239,
                -0.13971590818638102,
                -0.29612589430333297,
                0.16794785724812994,
                -0.27900363579745974,
                -0.19299633490754636,
                -0.3116006893202766,
                0.07684862224785198,
                -0.314200733343644,
                -0.07698222581640313,
                -0.2712006311003334,
                0.26850448650922054,
                -0.2642987660271863,
                -0.2160918380535066,
                -0.31579431635412514,
                0.0348451613833008,
                -0.30894485845558756,
                -0.10953077872719368,
                -0.28484460488308333,
                0.21704392171466672,
                -0.29134628590940553,
                -0.1675377250528471,
                -0.3050445679965509,
                0.12121614002731441,
                -0.3170942934810111,
                -0.04207013331720167,
                -0.25519389904168915,
                0.3223297099920132,
                -0.14584281923627562,
                -0.29939536206947365,
                -0.2982160279683659,
                -0.14934795031690543,
                -0.24092744794805285,
                -0.2432778983445947,
                -0.3177064771182441,
                -0.01759803121045864,
                -0.19810956232167912,
                -0.27606277560065623,
                -0.3126862018175622,
                -0.08820100785129081,
                -0.274296342513268,
                -0.20103992112453747,
                -0.3132763824809706,
                0.06246212656965356,
                -0.1731572929099271,
                -0.28891055790862735,
                -0.30663232604839286,
                -0.11995641496945067,
                -0.2587930307621424,
                -0.22334060110231688,
                -0.31667275880239626,
                0.021249825053229306,
                -0.22069961868815527,
                -0.2608519219153553,
                -0.3163776042690852,
                -0.05408159350880832,
                -0.2874373533063455,
                -0.17637574406934628,
                -0.307517276035471,
                0.1060390299041387,
                -0.3041665551854971,
                -0.1297990084786752,
                -0.2925809097863776,
                0.18421385793520864,
                -0.3172719396179379,
                0.008300540296866775,
                -0.23009115376498265,
                0.39794866095916087,
                -0.3154437074686203,
                -0.065475525695346,
                -0.2660610698240414,
                0.28635303871204015,
                -0.3096510893129622,
                0.09153002739307262,
                -0.1846706615014026,
                0.5190019003589903,
                -0.310986239497458,
                -0.0988187909183808,
                -0.28050222135926656,
                0.23410146332128537,
                -0.3146426632159713,
                0.048733550539821986,
                -0.20856226421419935,
                0.4572930017361316,
                -0.31753894672581245,
                -0.0297691159895719,
                -0.2492574005841174,
                0.3409687231508857,
                -0.3022971844240325,
                0.1366900887883242,
                -0.1584162699183006,
                0.5830755169828572,
                -0.0784781516161909,
                -0.31401052879140917,
                -0.27184102871140775,
                -0.20495424012722815,
                -0.1940575810259185,
                -0.27838847825367924,
                -0.31182646993040414,
                -0.09370038507282424,
                -0.14099229026946075,
                -0.30092561541669977,
                -0.2965586794548761,
                -0.15405528182898945,
                -0.2376738974630234,
                -0.24639831530518522,
                -0.3176439359281416,
                -0.023888410074259087,
                -0.11091632232722312,
                -0.30864955325147464,
                -0.2853810609022223,
                -0.18068668534752444,
                -0.21704687223450306,
                -0.2635750784261431,
                -0.3159165258008167,
                -0.05997660688907545,
                -0.16870604755697755,
                -0.290838622954329,
                -0.30537383426002557,
                -0.12505989501545503,
                -0.2559386277138453,
                -0.22685807544634298,
                -0.3170086290913305,
                0.014564361039500826,
                -0.28125587533829494,
                -0.188868457683663,
                -0.3106599674944807,
                0.08415290379802941,
                -0.31485607552404843,
                -0.07126449347644563,
                -0.26866529676047274,
                0.27739139322585665,
                -0.3027804258317846,
                -0.13479272879984824,
                -0.2943876461503689,
                0.17604398052062567,
                -0.3174826692741894,
                0.0017170790020643052,
                -0.23349242639658296,
                0.3881963104165533,
                -0.29319925678759123,
                -0.16301210792568815,
                -0.30370503281883937,
                0.12891646989422104,
                -0.3173505173868946,
                -0.03595542960000317,
                -0.25226021080699496,
                0.3316115874303905,
                -0.30999937099515334,
                -0.1042102243835927,
                -0.2827077537899341,
                0.2255355738232072,
                -0.3152524985985031,
                0.04175314936401408,
                -0.2123618687183957,
                0.4471457214420153,
                -0.20209399948278037,
                -0.27366662967746097,
                -0.31347752024422215,
                -0.08262799706607804,
                -0.2766838225780282,
                -0.19705370876540107,
                -0.3124729528656766,
                0.0696180496331708,
                -0.2441133457623231,
                -0.24008634933581516,
                -0.31770020619078976,
                -0.011233039884003189,
                -0.2998052891481772,
                -0.14456789160987854,
                -0.2977952816998532,
                0.1599264256290957,
                -0.2242847758053784,
                -0.2580579868116672,
                -0.3167700790146061,
                -0.04811246618165398,
                -0.28942569424135883,
                -0.17199250158175391,
                -0.3063154527221223,
                0.11359000138860698,
                -0.2615796996727903,
                -0.21975162312225274,
                -0.31626784986853546,
                0.028010418177940654,
                -0.30782257650595085,
                -0.11477976361041513,
                -0.2869123667829235,
                0.20862747981741078,
                -0.3159637161355043,
                -0.05961597439720679,
                -0.26338831973216364,
                0.29538848856069116,
                -0.3085742829753558,
                0.09897919986738934,
                -0.18040345704337868,
                0.5296196656422242,
                -0.3169934705099187,
                0.014955281524706038,
                -0.22662095168289706,
                0.407775802401191,
                -0.2907059840317395,
                0.1924566257055421,
                -0.12473532852622042,
                0.6609212611458013,
                -0.3176597037662832,
                -0.023511879720382153,
                -0.24618587312455428,
                0.35040014743604603,
                -0.30082128632213806,
                0.1445361682336592,
                -0.15375075702367041,
                0.5940881696336152,
                -0.3139650030957914,
                0.055785607055505206,
                -0.20469349991315855,
                0.46751559339698817,
                -0.2782283417218318,
                0.24274069111219262,
                -0.09335709494528821,
                0.7301191012313514
            ],
            "result_with_budget": [
                {
                    "portfolio": {
                        "CAT": 2,
                        "PG": 12
                    },
                    "budget": 2722.4768676757812,
                    "difference": 10.52313232421875,
                    "objective_value": -1205.4961753227312
                }
            ],
            "result_with_budget_excited": [
                {
                    "portfolio": {
                        "CAT": 3,
                        "PG": 10
                    },
                    "budget": 2750.644012451172,
                    "difference": -17.644012451171875,
                    "objective_value": -648.6840009419808
                }
            ]
        },
        "qaoa_solution": {
            "two_most_probable_states": [
                "10011110",
                "11011100"
            ],
            "final_expectation_value": -0.2983873949487771,
            "params": [
                3.0077875468499897,
                -4.332335495492738,
                -3.8677429920348363,
                7.621842770028931,
                5.625333085006704,
                -2.6287306630915723,
                4.24805038507507,
                2.4339716497160677,
                2.1891653288444446,
                0.22028684012110059,
                3.1559066627297154,
                1.4429553086151707,
                0.5256254557002519,
                0.7132559711953,
                3.2055727281734407,
                1.3362138014369178
            ],
            "total_steps": 23,
            "states_probs": [
                0.019049233090699932,
                0.022350567706063435
            ],
            "optimized_portfolios": [
                {
                    "CAT": 1,
                    "PG": 15
                },
                {
                    "CAT": 3,
                    "PG": 7
                }
            ],
            "training_history": {
                "iterations": 23,
                "evaluations": 3827,
                "final_value": -0.2983873949487771,
                "success": true,
                "status": 0,
                "message": "Optimization terminated successfully.",
                "execution_time": 2752.880752325058,
                "optimizer": "Powell"
            },
            "objective_values": [
                -2729.7471480905288,
                -173.6671895588809
            ],
            "result_with_budget": [
                {
                    "portfolio": {
                        "CAT": 1,
                        "PG": 15
                    },
                    "budget": 2860.943634033203,
                    "difference": -127.94363403320312
                },
                {
                    "portfolio": {
                        "CAT": 3,
                        "PG": 7
                    },
                    "budget": 2250.7422790527344,
                    "difference": 482.2577209472656
                }
            ]
        }
    }
}